2 
62 784 
62 62 
62 
62 
0.30048309892059755 0.4597330422186682 0.29291013650022646 0.5411882638598222 0.43250888320223635 -0.29797340907661707 0.4197032937276531 0.484626997278041 -0.006076725057268067 0.2534585319011654 -0.3004361487451451 -0.06204793825756986 -0.2155910630463066 0.05271765741051628 0.41853839202903825 0.038848076969643604 0.26508494323042325 -0.000176051719148717 -0.36126838625576607 0.15071582796637345 -0.2527474716604867 -0.03539165385256843 -0.025350476633291246 0.3100585724056173 0.37356909083723494 -0.15446660301545484 0.3094519913932522 -0.06524899744287554 0.1332167815518227 0.041426001464822476 0.35796611075698076 -0.1728411634909684 0.41478221433350115 0.29751707061923427 -0.3659295214463705 0.2481831209869875 -0.34105278094906466 -0.15110136597050597 0.2738128459174855 -0.23204482313144004 -0.3371924591120279 0.3306305422443345 -0.32790721956693164 -0.251017924691792 0.05075967643472853 0.03079342208140706 0.16447468840586435 -0.013199247728800394 -0.3712692850787591 -0.12294482118586984 0.3563978864657249 0.18171847197813218 -0.3018639328192506 0.2541187944056169 0.42408334286189076 0.5388163651602029 0.2626100414530702 0.049184110106364205 -0.03404095629816725 -0.15685814320586197 0.008610655555821146 -0.16742872753005747 0.3930175244550261 0.3915189927786301 0.0732052556239953 -0.12396140226867006 0.47242771930094996 -0.22920655728488853 0.1373912783462852 0.3837548277438207 -0.1977623691184065 0.11822022530496291 -0.08315204833316364 0.05663256645568409 0.23129689666660266 -0.1714449825889459 -0.08639155427296791 0.26223379279203995 0.11260855302439168 -0.012665185123095684 0.481413809855475 0.045073920518822926 0.3003158276927518 -0.0021864850314256 0.00917465173383225 0.398923614810052 -0.36671698155648885 -0.04596133943215499 0.029401400858813067 0.2106449069256045 -0.18713998796072523 0.21193274269500265 0.38515969945758666 0.22051459930379255 -0.4292709413442328 0.4023897838038579 -0.3454694158964944 -0.22452802819517678 0.03787772059546044 0.40825763329731757 -0.2231423076051922 -0.3498435987496344 0.04870221967095211 0.4680163406903723 0.02855469084776546 -0.4304063210174581 -0.3857430109489383 0.024789756261826255 0.5423288676293474 0.33026506909104697 -0.30291717102088306 0.3237980978752599 0.3296043243129796 0.37103334008449995 -0.3288544960211335 0.03632148021384848 -0.3538011437517788 0.5587356995247658 0.2485565954027491 -0.21944607009450187 -0.019516704742689236 -0.414348757418747 0.43358946684461563 0.0045284239276961995 -0.1032323557709348 0.37123827516811453 0.22939333701022593 0.3504930183179374 -0.15745145619603232 0.16507685313083623 0.3391820169769618 -0.23129966122039178 0.14951800214041683 0.3096372303924905 0.364664242473695 -0.03800147723058236 -0.3955148101921359 -0.10497819784040482 0.22187140401571107 0.5239370774678123 0.05173812266431299 0.35035244229087464 0.03953211390552316 0.4753132028423364 -0.294714126475105 -0.12209668334067186 0.2764669025258597 -0.2263276350397829 0.004225992310077267 -0.3854477769028547 0.020263880339448023 0.08760902433962249 -0.2863121030118881 -0.5545317796917422 -0.3695534259408209 0.2391941795097817 -0.3465050190398548 -0.03891680271861451 0.0674600965099523 0.4486430974195728 0.04936095129998177 0.41084592280053217 -0.025580802203281978 0.05721320033988724 0.42651165816442355 -0.2710571371272568 -0.23785340350588768 0.37436346073955595 0.06809926650082909 0.31767894543829805 -0.1795500475727389 -0.10038668566715929 0.5065877099933888 -0.34503129794811893 -0.35562691596545787 0.028726753657852884 0.20226623708473435 0.34023163922477395 -0.07587953439806161 -0.13683256926199108 -0.4385816476916202 -0.5429405606649301 0.054809324950863894 0.07399521213752842 -0.3755090455426605 0.07744982219213896 0.02750375773905363 -0.10180762906643558 -0.4223043913529446 0.1366166246074594 -0.37516759667411376 -0.34478726922442077 -0.30042627750891343 0.13706727888538545 0.39628270804490273 0.08923938003012603 -0.12973247679572475 0.05766449420583588 0.2501799094689823 0.0212807357634112 0.5216098610089694 0.3989934666604144 0.1855240467679305 -0.09423317791711408 0.07132904550657095 0.3638043896042408 0.02672897421212226 0.1406496283368022 -0.3400811490984903 0.1694885188489561 -0.034064565619829276 0.39565839636699407 0.3211674786890761 -0.2300910566583008 0.26182044314620107 -0.09789772244833525 -0.32640937378039536 -0.3528803851384684 0.02755250549298462 -0.044761379960002276 -0.2117553066030235 -0.39610456032521185 0.30665613176860285 0.22686126313458718 -0.03375934052631829 0.11464210376420338 0.045398167388024054 0.07538058868055952 0.12121405097746507 0.5336111627180742 -0.19152987095207372 0.24620388928850545 0.26600448716007913 0.18779360014950466 0.38729727474137315 0.118895392249948 -0.5277474730252788 0.020935788477909712 -0.23198380134145347 -0.26700879921348486 0.11026002242737615 0.36070624629481074 -0.05098768602312649 -0.36328685174500774 0.17443992686561477 -0.047773354446356435 -0.02568392156584996 0.0076540203063375925 -0.06169666247107196 0.4469118046062707 0.24239318257438197 -0.204414400332653 -0.2599761938152364 -0.21913359316175635 -0.26693004987038954 0.532275124292007 0.5019323960026396 0.02973090416653931 0.2328871117078849 -0.3114071358026387 -0.3303394347400118 -0.4599543117328524 -0.2128293354883409 -0.4480215807678117 -0.03842043294145296 0.29995876835393337 0.21759287743226943 -0.5067478901416409 -0.018348832914093335 0.38032949947382677 0.26872691202424903 0.25511958137586366 -0.11367103168351131 0.18968317371554436 -0.26887706318711785 -0.11226500759841868 0.11855287472069861 0.38634577489929184 0.07096391206543534 0.16476971932726153 0.2852327815279345 -0.3746068590361839 -0.31629370200723506 0.38070701519422784 0.10891579224553287 -0.014414839052193732 0.4306493989887967 -0.4024829336467316 -0.2676817023567407 -0.3277014390107069 -0.3472400935372743 0.3283982443861593 -0.0033241928100978526 -0.4561695610107106 -0.028308875742273 -0.24466819454024769 0.07254041418190614 -0.30074888761926794 -0.31987882464064965 0.23720241567101846 -0.2197105809598089 0.27256603169342214 0.37987146778441705 -0.08383849385271863 -0.07478960602433386 0.37054265013531246 -0.12815762467509614 -0.38947152478140906 0.10495383028427571 0.394815316367549 0.42174273434722614 -0.38494649712039924 -0.36150836515462986 0.21643324021887578 0.394673451366115 -0.08354017643365977 0.32469483602649823 0.4219130103002747 0.1712511675727866 -0.5523155543036267 -0.3658226447638695 -0.3587860510063447 -0.46135957844600733 0.028995091978356036 -0.04942027469181166 -0.324315602520396 0.47686011689902374 0.4782041736037472 -0.28722959376694374 0.1871472731828126 0.4124324822526221 -0.15022794000601583 0.000424181979626367 -0.3927370804846847 -0.029547566927246773 -0.01668266651066802 -0.08677444614736776 -0.08815377112534449 0.009230921454230835 0.023606787507976172 -0.295095141341197 0.542971603941046 0.41901983857480746 -0.47190317534873133 0.004660862896685746 0.002268822390515362 -0.15916306329324154 -0.0699433972535941 0.07479823345775609 -0.45883106528430734 -0.3862544783852529 0.47688394908564125 0.24971962594061642 0.29238189859454367 -0.02884735944866634 -0.06642657245993429 -0.23289273002763408 -0.44871109547590327 -0.03768524165834538 0.29722918741520826 -0.34132999216416193 -0.16368049963377024 -0.1901652345053819 0.49130993238045884 0.13617032352532402 -0.12790006902116285 0.3221621908581264 -0.00994574581875982 -0.39383557401219327 -0.010847924496850216 -0.16235084295494573 0.38593892651842143 -0.10103496201977112 -0.3570225094181423 -0.08864551478338986 -0.2838624092042855 -0.13035835257659997 -0.3283316436868172 -0.08637333615172996 -0.3265557951208668 -0.1908112772743144 0.36962100801899117 -0.019880028329434033 0.21460167007262404 -0.019583065376686228 -0.15913503266860474 0.3996801882922863 -0.5200140939272166 0.4288571071016211 0.4987445932220958 0.2813305426254998 0.24098746729192272 0.3853868845753229 0.08213135050911427 -0.15531984647875138 0.05271671450729952 0.25856765596129166 -0.21313713963916212 -0.4189625046355092 0.17862703131504973 -0.10402546700286953 0.17951695284949637 -0.1951448777912187 -0.08739153830710399 -0.03158015687198201 -0.5448324193119227 -0.2048453369575544 -0.3855357798291667 0.2326547215441625 -0.07283234336310251 0.09416410238511962 0.3372055639217162 -0.1484151120143558 0.4569695645188376 -0.10561188135555784 -0.021317737107426696 -0.28853784841690583 0.549546578251026 0.433936236272335 0.3293538560150853 -0.23859080811244116 -0.19375510388403572 -0.052571330936428615 0.014586640833163512 0.39266759171346405 0.09058633531479969 0.29285913957430343 -0.15391542082318438 -0.39303694478752965 -0.33371677777477715 -0.23180569945563317 0.054212268780281854 -0.15406641927575687 -0.3610645892975883 -0.07654564840008143 0.38621111097363203 -0.237048170978379 -0.18122893788555328 0.36662661724992895 0.5669020658185203 0.08129313027226333 0.3277407831326029 -0.27192638667929814 -0.5344493856357627 0.1968552782522628 0.22328245098140048 0.5016737963356418 -0.034697041442466346 -0.1553425566077417 -0.18032150146832884 0.27947929940191574 -0.41463162734239084 -0.054979757442531973 0.16013326771745598 -0.37372390963840374 -0.40533842371271056 0.10568248186715738 0.01681365240277744 0.35051241738055766 0.30563890330157073 -0.38160754012619524 -0.3825921965416281 -0.06346638743919286 0.14416569443415908 0.19556297654086244 -0.08649774257492737 -0.18584914649470577 -0.07507185808019638 0.0440110688180103 0.4689491915138913 0.41148993371329634 0.21085010966222348 -0.3555557978434312 -0.019491559765962133 0.027201391977132172 0.48257435797204856 -0.18235098883841136 0.034553928767037084 0.028818427977586936 0.4003508952675136 -0.08249328942398766 -0.21250993921968864 0.1380802846336746 0.2669348537136512 -0.47289668148631314 0.3079930916995027 -0.48966060907290404 0.136511412704427 0.07849974120856172 0.24834884889075207 0.11187608120325307 -0.2820967100833399 0.16791891837007109 0.4862471713280241 0.5051584447507219 -0.013921843853336762 0.3413905618607847 -0.23861609363105485 -0.14164241450145423 -0.2149519760201302 -0.36290928606710987 -0.2681375123706635 0.0056687076253729264 -0.20010661190837364 0.2154484598216543 -0.21127067379916611 -0.12708221200547873 -0.2710153766260678 0.46841781859072873 0.203739017502425 0.21354359290398864 0.22422666122666696 0.04049914321910223 -0.38988257650050073 0.006463282449973353 0.21869989157087488 -0.44096850717710573 0.038918758572752246 -0.25739726872661695 0.43054330864494894 0.1676535568512922 0.550234025056127 -0.41061422805722 0.21620307752376133 0.143309324768514 -0.29182914867124427 -0.4513068949763652 -0.39430637808698316 0.4706068229515886 0.38503899628641713 -0.16070310934120244 -0.22268187908641396 0.2694077789258543 -0.12237134036674042 -0.24046819327106206 0.35059554909773377 -0.039842135051285595 0.2571286006073338 -0.04871009415907087 0.33665559051774535 0.22013359720106662 -0.2261378717053665 0.4723570864715963 -0.06793054535467911 0.3116205030059242 -0.2007690644356406 0.13331094756398276 0.4868119458149816 -0.3025747576741126 0.08375973271381566 -0.02873197431221947 0.24411965364514168 0.15147309534359926 -0.019584911209536177 0.13573660269274385 0.22114425004052649 0.016985534763658522 -0.07371332767305187 0.27006639498072754 -0.38920388378677817 0.2112951052809104 0.4957965333763094 -0.025314393043740106 -0.41751667400220355 0.28416895411923865 -0.08124400015164375 0.2630195658638716 -0.29103772474232104 -0.365284397668808 -0.19373486346287516 0.4404053010487379 -0.21337066317558848 0.5070974457676073 0.45040108687567737 0.015927934706818917 -0.3537121536427673 0.28602597433884486 0.2916698047516415 0.11077777239376867 0.23100126788582695 -0.3178310942535932 -0.007186089546493566 0.11943363993190634 0.2215669164052891 0.2958595387630402 0.5140275199493742 0.38782326099655307 0.5740143142166714 0.17063626861726922 0.15760874696361327 0.3082834008745187 0.5564978003490627 0.5010864743494636 -0.4124513634390359 -0.24210444022403121 0.48361457483431686 -0.3059423459381188 0.13874927907138235 -0.01584162869675583 0.026573403202486027 0.4316486793281493 0.49657437628274614 -0.31645803628858105 0.06589320169552937 -0.3678052830430566 0.0962143870209341 0.1477488887913719 0.005675750982115712 -0.382359108919773 0.3573833164984143 -0.1862407358008858 0.2541349266949907 -0.31855850147988185 0.24007465553159155 0.3638497664861368 0.23379681148328968 -0.29029016184389766 0.49306489755064165 -0.11496452009398579 -0.07546237230088482 -0.4068889023810865 0.2948226811859931 -0.26363891955764307 0.16853462064959274 0.01515438268346244 0.3013967451194667 -0.354230746633363 -0.3495519183640531 0.1489161726418992 -0.3714962594341849 -0.3539087537977779 0.3946543217268039 -0.49315542998952305 -0.09021516689298362 -0.025742341497801368 0.2552088683604815 -0.36630637945976435 -0.2752082903026742 0.1936583383409292 -0.2331323460769837 0.3267009205591795 0.2890308897368541 0.25022518013797396 0.400084446941394 0.5187844123962275 0.043907167010529255 0.1286532647889698 0.029962684484287398 0.16460159407256156 0.34145079580968 0.15806631894632533 0.034189303471789105 0.31607680461834076 -0.11768672686769814 0.511177383003688 -0.2655727862084773 -0.39091987568136816 -0.34301532751029845 0.34919124893472153 -0.18159493103128446 0.24224094783936156 0.23357910435636395 0.13216486475599704 -0.32140999857760344 -0.21729068588880157 0.036253825962213604 0.38577118012911776 -0.4151673056768606 -0.10835846778223981 -0.021472486085243915 0.40202505222871826 -0.18248972060434776 -0.16730014464807394 0.407506124951301 0.41083158067996234 0.08087345562292766 -0.1918338938649409 0.04967489781288981 -0.4563720418379585 0.047201078964671815 0.0329216601266255 0.4663722647992636 0.5446696628814323 0.014236489295508204 0.5265144675580605 0.2622329242642924 -0.12062487218053541 -0.14499326332608536 0.2607810733362511 0.5008335196295131 -0.17190368700684414 -0.14529969660002778 -0.32155619103055266 0.47503064846105914 0.49303610113113294 0.4028023830533334 0.1476213207700638 -0.16419803149147205 0.23327310425104422 -0.2796825726191785 0.5319686038240645 0.3891883075411395 0.2666962296769076 -0.022778113475019904 0.4809356691143417 -0.19857040519818134 0.27552937684848317 -0.3003334717617047 0.5136969695529177 0.00628955330785589 0.49644815936479186 0.5413738376889381 0.46452555663999967 0.042106654529214194 0.08974544144113529 0.048470371162040844 -0.36890475977063025 0.44397846312594835 -0.18287143521978164 -0.2527308650556646 -0.23293807746688416 -0.2098568149664363 0.4314716825674738 -0.13229930526277894 -0.2560949039192038 0.43472335415262725 0.29577333177609905 -0.099387851298684 -0.20919115610334466 0.20095056888992813 -0.029152457159994493 0.27610632426380405 0.08045007485993895 0.40296658828901716 0.3353154695573268 0.16454055373424462 -0.19692955575035287 0.3248826414343479 0.148455602982906 0.025740576604011772 -0.19360544348629377 0.5767354229888092 0.09319198888685756 0.17348518786498798 0.29826092539957577 0.178723620656717 -0.013053844235431726 0.02121420691861648 -0.2785021796818443 -0.13238340074150762 -0.1295692685814895 0.0884422023708472 -0.011395824511027011 0.43093678406983815 0.266116434972136 -0.0765502902794643 -0.172960276153042 0.07705212878584343 -0.09896050822379197 -0.2150859235037611 0.39235340709661454 0.5040564687886272 -0.1499546761412384 -0.20820591036108482 0.09768684412385994 0.18007606813365168 0.02179802749602254 0.2147306775411629 0.14455626974168695 0.13343676059271545 0.03810577725287365 0.20832909064137373 0.16226041402632527 0.27547373423510785 0.4344512313131688 -0.06911935927168907 0.030248348731568567 0.35111755536440264 0.32870319447621205 0.4401443307759072 -0.013564980161394402 0.28520694866896923 0.1779963289579023 -0.2434416768286244 
-0.02797533098201016 -0.13916169026585912 0.506662063230118 -0.380740683063937 0.4503895161943805 0.47837017909903295 0.3944166988162309 0.04671492389158097 0.29094690798942524 -0.17568972062162785 -0.2813387043388706 -0.07786156850449168 0.26385632196409053 -0.004681703964829798 -0.2672984052009161 0.020336878399059982 0.5900649120910502 0.15150520557269934 0.12279673693498529 0.47198406802503423 0.1510304296015092 0.035443524745761235 0.2537226260848966 -0.39253180581861313 -0.3014993283603093 -0.00033575695521527514 -0.09560771868686423 0.4229999959308539 0.0005297418442641311 0.2549640322487955 -0.2726123336682184 -0.2972831494897799 -0.11671261947781682 -0.23501747647285284 0.40939421558716493 -0.3107431843116768 0.4761585219410063 0.12236186004231973 -0.08733197713608547 -0.38735286593464757 0.3091571045896098 -0.23164498746911602 0.5550651130375206 0.27582571149819207 0.2452432107702676 -0.2134404694365192 -0.2838863241738303 0.06496232568564422 0.36998092685009165 0.0019652580647304967 -0.27421602753985486 -0.07232951335556054 0.2631607640576079 0.4314676944763016 -0.2949260888777867 0.32072007042386375 0.11639080413585534 0.13684109184631205 0.42287457696464115 0.15806559745463314 0.32560370419843315 0.25334530297953145 0.535698378544316 -0.3817119974626008 -0.21352549701378132 0.3181215917109082 0.49262317800641964 0.1847882464161495 -0.4088389676904443 0.004472495988531107 0.21432729520289867 -0.08333989449448118 0.48190282615348357 0.13999684963730735 -0.09830319717584472 -0.10788624073534972 0.10546181728810491 0.5712867161095071 0.434754834195835 -0.3389336256586679 -0.11922130001577894 0.4170605407853264 0.22733575728018326 0.1319215326486618 -0.37434002324584875 -0.34955554975545083 -0.22372121112776006 -0.13756003025025668 -0.33209517019100293 0.14964535297290504 0.5516364792097808 -0.02104748528585912 0.4185287233559736 -0.08888123604431489 0.0670026046454358 0.3069400672077203 0.28367948730203096 -0.19536908384194712 0.03609104907472797 0.07726140394716495 0.4473454079325738 0.3356617425224696 -0.12145227767824138 -0.35697454219421376 0.4812901200095797 -0.3079717696554385 0.443449887400097 0.3738917412109948 -0.17926700016212935 -0.19800796068469678 -0.02991028677710141 0.533752171570383 0.45031028004710694 0.5949851295388648 0.3539502973534408 -0.20730136641554606 0.36236017990292424 -0.17559555565197096 -0.2925652219169573 0.05105942460029442 0.39289894595597163 -0.4562259399520271 -0.3144241068360305 0.5128488357130291 0.4208417116930057 -0.37466532658539525 0.059380645153254655 -0.3601190834327211 -0.4461995237655138 0.40402773023816957 -0.16597288983324357 0.09430341732031636 0.4176909024365941 -0.23207065654060643 0.10620091888509858 0.11290557923813371 0.28902395080437526 -0.06208713504191973 0.24801590595808626 0.5718973075369104 -0.34166277253364447 0.2399935510536037 0.17214902583851124 0.14220692533462798 -0.27101007944912836 0.029237980483639774 0.14394012171859363 -0.14381446884331273 -0.3478300938257072 0.42910243001422527 0.5037488839569654 -0.4309797186734439 -0.49290674909111953 -0.06266559120086262 -0.031768118889768986 -0.0025656551453413262 -0.14678743004870728 -0.4278857840302912 0.3060491401793663 0.2801927404593937 -0.4812711943040285 0.10163354933243908 0.1829297633420932 0.4250181147293728 0.10902631115483993 0.3687899155351698 -0.39589426494946783 -0.3554097746439856 -0.24827247754499104 -0.059052944221856404 0.03339558704156385 0.2738075458103379 -0.36285002928155163 0.42363911882469907 0.06999167533091083 -0.08653924735247331 -0.33262923620112933 -0.24347799570861361 0.30134345627281944 0.05242825658833843 -0.26403760749095745 -0.2368476230514607 0.10473431808821967 -0.4898929543591357 -0.04285915254006599 0.3139015794190206 0.2833916465205993 0.059103453497784904 -0.3724054461851791 -0.45137250459128264 0.3697074370694774 0.06836850234537863 -0.290569311431099 0.3489989149449999 0.516627797701379 0.026170694175653444 0.03968820257579608 -0.04431070652392365 0.05532144666726565 0.3283499042602933 0.1673447705478435 -0.08174015786865217 0.06167988864821396 0.237965298985806 0.071558006984886 -0.10284267920408365 -0.1176655745135759 0.28583508511996225 0.41200581650893287 -0.003521092875952734 -0.5144383900597066 0.08398418643239364 0.10221142330423345 0.3302342744937783 0.10491953882013648 -0.3674071866194492 -0.1590585657189443 -0.2563629197944303 -0.3934038722649085 -0.17725359833829096 0.2502788323781717 -0.2687690428621298 0.5508211055291471 0.09293711401146802 -0.1529687311538908 0.14607851930572852 -0.14909422102589612 0.47809747144620607 -0.3009805375812941 0.27597731040029494 0.27358535993264277 -0.3228848440731718 -0.26400206145020944 -0.4407168903840013 -0.5109453878797638 -0.0126868444132621 0.03852384941488353 -0.496375727640913 0.3077304129614789 0.3550908312487556 -0.3505808725303428 -0.5161713388522973 0.3691123523732177 0.1595503295811068 -0.09606684191014925 0.2618843362621363 -0.35894679909367955 -0.07953049410665519 -0.30789110696949296 0.21101797862603117 0.1967629505224427 0.4140389492325528 0.5197517474839315 0.2768108825993649 -0.33952005767438415 0.10856998695214527 -0.32814381764335193 -0.2559074006817237 0.4325570491819497 0.277573831313571 -0.4761134780149827 0.03598256468076969 0.10909335333138936 -0.3325163161836205 -0.03620125990532365 0.13551985388937826 0.08376131510514133 0.31935174673115657 -0.17110080222648136 0.35763074008527784 0.027018588402070963 -0.3187836448723915 -0.31383976121807283 -0.3578787508667057 -0.3512975270674019 -0.12157525714592587 0.4403993927526992 0.12383245464362001 0.25531030371434843 0.23933053775715651 0.031017633758589014 -0.37480607169526425 0.5341504286175274 -0.14773099877606571 -0.4074239593061745 0.39786966851843164 -0.3036881993092691 -0.3175691054735123 0.17960571009193196 0.2319415156553841 0.11251435248622459 0.20915533020037227 0.36291319187680554 -0.2825392998737585 0.24872129941269175 0.04134209518120504 -0.3536255374217552 0.009045742482292965 0.40711066047838684 0.1567501737038778 0.15068818101626844 -0.22232519233086737 -0.34046981059062437 -0.28689278806705354 -0.40505324123012343 0.5247698123204542 -0.39696181703395506 0.05288005912845806 0.26332947228426634 0.11793270755984231 -0.39531371038478463 0.10897434949673919 0.42005703843936515 0.3864476910702262 -0.3813192001886766 0.27577877069381546 -0.4127203694762352 -0.02170074030991772 -0.3129409473847114 -0.055448607155728954 0.23018913705289526 -0.10106743901693117 0.051827944119691736 0.20933223750628002 0.17578122637034937 0.03438069712803138 -0.12075143353799903 -0.2927358538098065 -0.057557900571127744 0.11902524213774972 -0.3334181426893558 -0.5961775780503034 -0.03309348969792826 0.5277037550521632 0.47018368605037825 0.19349582064364024 -0.05060689737319305 0.5487312808967925 0.33725657136226217 -0.02856332290080822 0.08978086468988175 -0.058898667715177384 0.061664621176404345 -0.4241212638598945 0.00327224002548711 -0.033427277623652975 -0.42247019105744177 0.010426279879485325 0.28791895877225077 0.295908195315199 -0.02812934526012313 0.06473574137765616 0.23440313955609623 0.4768617353590897 -0.10255607393657336 -0.019416072123775177 -0.3384864899428959 -0.3669435531555215 0.18922272878384555 0.2261280976547521 -0.25031548048851127 -0.387995800183061 0.16988653482082583 0.09812839192201953 -0.0029981949162326688 -0.17572542022503979 -0.0323163302388117 0.05886924834953666 -0.03797321548219002 -0.5260198137690927 0.24800236572137374 0.3676733622923068 0.07127465164989642 -0.10201058932736902 -0.4512562110087768 -0.5234043798059778 0.24557749028810258 -0.5714330191177376 -0.437429627228739 -0.10531913910525241 -0.1500130313351568 -0.39108147806449645 -0.051894182860729 0.27106527379301726 -0.2527095909614318 0.08861648095605823 -0.1322823051107125 -0.23431150684203192 0.38423105776355715 0.4618528881453435 0.10691217552713674 0.3978584252890401 -0.2231137941777078 0.27933717806899944 0.333405282576862 -0.5275089104953927 -0.3265848573443893 -0.42297271801309533 0.27686053232543223 0.1331644477256996 -0.337380114644515 0.12248658062786966 -0.6008933728652212 0.23062379610803854 0.17778777303686377 -0.0565814000673241 -0.36993449198466904 0.42175065263984285 -0.31391140308109694 -0.07127295248097858 -0.37919505596513253 -0.4516282304852555 0.08613630674940038 -0.23930285143304292 0.3823838224340552 -0.3886473744224226 -0.30626455626332816 0.46714646487678085 0.3415532257595052 0.018117687240014866 0.049957946281152125 0.12283737461481452 0.5108536552872102 0.05942093946306438 -0.21182343814744617 -0.19389452957889408 -0.38579226546393514 0.022380344846960623 0.17022257790905662 0.1949315971501626 0.09767033081689488 0.03974255406539507 0.04198447470068897 0.03354576343916218 -0.3296773265876665 -0.09729681769345631 0.1388273266426482 -0.3209781312147699 -0.03219303520702237 -0.004534916051540358 0.2624238982298886 0.2847757254989128 -0.0761781157422752 0.1812590753956333 -0.05942619994921761 0.14833682730403228 0.1535661622599709 0.2837538333902407 -0.056731800198911934 -0.047524862440441656 -0.36023804958574873 -0.13383485942338008 0.20255379876030521 0.32713417666249023 0.04384448685288605 -0.3337046098910365 0.2142671955051177 -0.27012259959132456 0.37391808029981394 -0.2780958062582484 -0.139522751117727 0.23844292463094205 0.22187721272584282 -0.3625489345465538 0.24078520234338155 0.08589857305635636 0.07388422967303185 -0.4071200016269008 -0.3747502593599549 -0.40641796577937833 -0.2128642667824887 -0.21169182763591032 -0.04842944551585562 -0.04318147759741238 -0.0390189243101328 0.44552029343921684 -0.05092135621880027 0.31588301972831817 -0.21974423297220905 0.3665517267175551 -0.33465614128170934 0.14940441776094074 0.07402148125523995 0.17259602460145906 -0.0859685379704165 0.3115178342474275 0.23093418879617128 -0.5262473828614919 0.20964831448616225 -0.32062550689451835 -0.3430276147911545 -0.47076344805888864 0.2159343097992526 -0.10096171768364451 0.006998906276277306 -0.41248160246753285 0.1044411550276322 -0.07871444755141813 -0.08234090445354374 -0.5113193738412857 0.5000291373631037 0.30111421027223295 0.05855907072508541 -0.27283812497727183 -0.3274282770182571 -0.23880176687484256 0.055491643407887196 -0.024776082293383656 -0.15701525924134035 -0.38735555884834416 -0.5283113074051634 -0.1434898041247891 -0.08443872721605439 -0.5668470448633652 0.01904160645908249 -0.4326547221471972 -0.32481194240604755 0.2545392503429953 -0.08912649671315359 -0.2799592429392578 0.17996253966891806 0.37731843274859367 0.2682506956091182 -0.45777652736857255 -0.2963710670610887 -0.39145507315147443 -0.3829005418994057 0.21543574300869847 -0.30054221047170765 0.49530005044093456 0.2895207043675179 0.1791238717130195 -0.16953679825195697 0.12437070181522658 0.5213185946350741 -0.1388377564640916 0.22496941424050745 -0.22620569067088855 0.0637655272129162 -0.4517426701658973 0.3247457796451425 0.2613284381884667 0.339759292741495 -0.3755127983366072 0.34816641508995133 0.29248819519159563 -0.12473703546588998 0.4056484800427789 -0.20982559818290267 0.42814958433224437 -0.1802498925325844 -0.4981974571173216 0.12929597514787222 -0.2090218828609181 0.07332403175501001 -0.37519456612036134 -0.15409389239985322 0.2811324107789938 -0.1790398090046426 0.5398952184624015 0.05799185142334861 -0.06465011368554656 0.1891754828687379 -0.27916111368782676 -0.1979459313263294 -0.06125307869040104 0.44052220703900113 -0.3814160129046942 -0.2032032141938371 -0.205259166378446 -0.4206445476198727 -0.24610522321984438 -0.17468432574915269 -0.15190821791354062 0.10251103789557016 -0.1297466515811538 0.2056397603460214 -0.3228883906029706 -0.24993889989029527 0.22627045241901514 -0.4068608434994531 0.187591968978488 -0.0047074901367022606 -0.15334428493965316 0.014770186240937568 -0.05757282080223757 0.4296153892603454 0.2730935189560325 -0.09170067980616024 0.44634984987594073 0.3145893853693251 -0.1626029955939334 0.05158502800839884 -0.44273870056193154 -0.3618945873114931 0.00875827242008367 0.33127801638574744 -0.4266194922648209 0.10117418161684047 0.2656812885650553 0.07959542166076934 0.15420486245484613 -0.11555937103742067 -0.20749160764442937 0.3005247526081495 0.3753369680154694 -0.3399985559261923 -0.1233315089607053 0.13439467125841598 0.289012969029383 -0.41462936186832533 0.007064012952113543 0.5294526324983124 -0.16184474733435927 0.3938715618632007 0.4615892193845703 0.09172745867051058 -0.12780982635039054 -0.03523820557322429 0.377396809253201 0.2456740445031539 -0.3526104539325622 0.11896244813455943 0.22069598010642083 -0.03220647968124686 -0.25953045030267025 -0.11779678486399739 -0.42918906017863967 -0.38058203974807875 0.21956326930151632 -0.36477096133755604 0.18410643508935456 0.030638889646056138 0.42514839412826955 -0.1456650900685876 0.1446298962358775 0.40260197105896434 0.34047160026682144 0.3729686545812148 -0.42792009150188803 -0.2024733050247069 0.4710580814775059 0.2340743323655859 0.4707376476360464 -0.32031151642645433 0.3638792882012484 0.376728375145023 0.05205790568453218 -0.368643981453466 0.08370299038928561 -0.2574935341094829 0.3212707986505602 0.0013233057630900808 0.15167748207944773 -0.32196616146095663 -0.25863858219967334 -0.29797143878848775 0.24796737436064406 0.4408983254659591 0.36755664649751024 0.3260231508361672 0.38344422034959236 0.1840329768280486 -0.14205737065184096 -0.4707698322526889 0.3940482652131077 -0.40018602579816065 0.5125774509919971 -0.30002212578312953 0.07705957983467412 0.197114244266533 -0.10205165107239328 0.5138847923152337 0.3961256586934987 0.5510521069447242 0.39987496177261894 0.2985664582520507 -0.35646942565129297 0.1104548074650922 0.19854434560990972 -0.1481531732733061 -0.26354222811354 0.4005399985549917 0.01067425398372777 -0.33187130467152026 -0.24580503952042843 0.45885261037826974 -0.2708586836079571 -0.07811135032216972 -0.20572969466862304 -0.0865221782284913 0.24457051962905924 0.013215835070554832 -0.3369843405809018 0.5652949156631166 0.37230060627035844 -0.3946976927018969 0.07580450983555999 0.1888951233304071 -0.10000206236585607 0.17486955783535374 0.24528508594748616 0.3127800379024477 -0.22871136372495973 0.5411806570580552 -0.20404568416124397 -0.06157017867100135 0.08993946440797092 0.5783064944973887 0.22306378257321388 -0.23478199136956393 0.10168605101395 0.37629736478770404 -0.4048137649619401 0.39976946654556683 -0.026549000817389732 -0.06464251759487102 0.0515325307521034 0.33374626036060473 0.17747368734782407 0.05241514404542391 0.32585352646219795 0.1193674160966627 0.5066007945529879 -0.14456214069675422 0.5683770643521687 -0.3016871017414977 0.2084766820257541 0.1228433317139278 0.1236959166382212 -0.38258517161764516 0.28919267942958315 -0.3810325739633542 0.1577838009356137 -0.10370432968927723 -0.03259066671813096 -0.1514233155499525 0.11873355135422596 -0.3769208972194708 -0.02630967195469704 -0.07068742091630786 0.5620931640067893 -0.07776528523546064 0.2870208215618328 -0.1777434205299121 0.5153252168159814 0.03881319315184422 0.23820616038853884 0.15158494371633327 -0.2246981706093988 0.28441102250006656 -0.16256631873557345 0.534722605413872 0.2859222502386079 -0.006985447499017167 0.08930121674541014 -0.21033209597839525 0.2873676135714854 -0.27029313601211746 0.36840626917992286 -0.05130853080537121 0.4375912616511105 -0.31733247663948516 0.38352925599567395 0.5344617067361126 0.29111563017192177 -0.34577524425917555 -0.11486370647556698 -0.253781295369648 0.44577022907336655 -0.048703771654029754 0.05286997230997432 0.43193426621395314 0.12169569580127652 0.2013216796486739 0.47243230798409286 0.16038857268192336 0.03538002226193382 0.08988149288055075 0.15716934748473077 0.3941801032799084 0.4425270632459718 -0.12422543090010796 0.3029534366579414 
0.373725323481262 0.5488692945383729 -0.31767496824451275 0.2485075107682841 0.027303777755514385 0.5995159245190863 -0.36871801097251816 0.4930615150726584 -0.03697318149506277 0.0771205399419088 -0.3842298096965672 -0.25571089963893884 0.456529530611373 -0.07447246611118068 0.08895057288071187 0.47834718052441505 0.09866529024762254 0.37771316848943093 0.39166400025523285 0.45430384518283773 -0.13707794308645815 0.3483266377626826 0.25916552578267477 0.39036986838052096 0.21957303198639966 -0.004932443690220279 -0.24687343051305605 0.009941836302377549 0.07947311250057743 -0.2998328031161927 0.1598356765451839 0.33653865636610386 0.11489935469541492 0.22008849502205605 -0.27483894424455707 0.40623790212114574 -0.2519433604514907 0.06564788323369004 0.44323036572558333 0.4460591674982859 0.21426116187736508 -0.018546140521264194 0.11428005509525374 0.5796549197804965 0.4652285887692969 0.06605717300411729 0.5590775860435642 -0.1884644377763883 0.5518558762379573 0.5633730298771734 0.4934832287502201 0.05606912084423208 0.46251771277354936 -0.1371330843533308 0.49245584396093134 0.12238832835812852 -0.0682271164743925 -0.23974139388770532 -0.05298376801347626 0.26909946850114475 -0.14375791215486786 0.2739977141851504 0.30882650322261646 0.28893684243213447 0.38961638013315514 0.20303512714343586 -0.24157851683485904 -0.3073109452879215 -0.18802667453339703 0.08168495882537288 -0.10642805533322726 -0.10143143041917095 0.5098608447525238 0.16842682938218914 0.2913707878475353 -0.18041628383098496 -0.06465169840398333 -0.39039030674607544 -0.2195323536758527 -0.2053984145438696 -0.17670065831918974 0.1582317341878595 0.156341079325986 -0.14648905494420827 -0.299012479241917 0.17727807449406127 -0.06750758784942737 0.2904736510411323 0.4117716783345293 -0.1498985702656053 -0.2045499065640515 0.3506167430615498 -0.3296336689122169 0.058378459653744386 0.47747233640797154 0.055870479423274236 0.4667832514073143 0.5082628231765026 -0.3703029496416011 -0.21507715183023368 0.35514014638326563 -0.46718497378615653 0.32831378537283407 -0.1395407738396763 0.009219974367323363 0.3786022438207721 0.07779246628122816 0.47073683705123504 0.034580315428767765 0.5679174079488342 -0.022194669678025643 0.04493835783188038 0.027727472551031807 -0.18097869843316206 0.39674549064282505 -0.06940704524107592 0.5865143117270581 -0.27595791375793377 -0.1720809320536274 0.17890258888263902 -0.1731253687171732 -0.274175761196657 -0.4112773853635044 0.4264075265574325 -0.17524037950863808 0.1495725999689321 -0.5016049497024705 0.32547248634600934 0.4080735278528406 0.2252248367795612 0.30354494871238 -0.13834266065132297 -0.36976535680512823 0.22437649582736877 -0.06344117439182631 -0.3658979422791019 -0.20959698354750853 -0.3418723382678362 0.1433317610909348 0.48957349886570345 0.5108771192234769 -0.010154012094130922 0.02889647544347533 -0.0935691692077083 0.4056232635798505 -0.12232044008621465 -0.3111511629053953 -0.37326883064329885 -0.2857357864719939 -0.13445959180056566 -0.41915938808513153 0.4841651348741092 0.19255496014143764 -0.19154935261636535 0.32565159090477336 -0.18425500443871856 0.220070868235828 0.2804801652917872 0.1653909781730642 -0.23844496422231384 0.26066956796229906 0.36835066769434044 0.15129123775059505 -0.15575746126581805 0.18311152421606308 0.10217306297044515 0.028443885960597607 0.40690091162266645 0.28524106456019216 0.47409730476353845 -0.1611798455532411 0.20196683315170266 0.11343551406221745 0.09790306762178258 0.3525363167915869 -0.23374251551239283 0.2450063813311908 0.05271049407176534 -0.049017281043630276 -0.02390581521582532 -0.02995350249058938 -0.39948236259718617 0.1373302164273751 -0.02219779204896695 -0.29448111156296963 -0.1322102916726676 0.40618308458617686 0.13735557714190022 -0.17917897423550833 -0.380201664802512 0.4075659693057185 -0.38285447645443726 0.08223250510148043 -0.3293998749153568 0.2185454153345961 0.0431472363337193 -0.3051212932391993 -0.261104418196987 0.424066176117891 -0.07348868365266649 0.1722350205965416 0.00213321647079213 -0.3754474669677078 0.005478438481734892 -0.48733857718162027 -0.4635672396162073 0.012530350206137658 -0.3080783453346627 0.39497262543166695 -0.012654525877768871 -0.393468540384364 -0.5016543506652503 0.2864226170207266 -0.29351660615116537 -0.09479962034000643 -0.09395356679371966 -0.3309613782461257 0.33153605836253114 -0.38783987586355784 0.31967940073161977 -0.26674728816174625 0.5709429673045677 0.03360707792817741 -0.02607034560201663 -0.16366894303819274 0.5565148166246403 -0.04255622889450458 0.08621552321204744 0.3389536815267827 0.04486874934953239 0.454366018868935 0.24253155680384159 0.3180296471133473 -0.25760236143007276 0.1580214462891104 -0.3411497574889312 -0.3163074617123345 -0.41154632045959166 -0.10954185428647983 0.09074286969502993 0.3456564400751504 0.07339818855961665 -0.005799356205778322 0.29499378243708974 0.1590497767978245 -0.3871982031177031 -0.5708835580340881 -0.17212505268070144 -0.37527574751245685 0.0689976659124035 -0.3930706098575663 0.5684942988526093 0.5840371917223368 0.5038052851897065 -0.24269661921386498 -0.2514981988288145 0.49871282394635963 -0.11288988439039725 0.06140608480567818 0.38365727777209013 -0.3426846273608426 -0.5153377711483126 0.3828466945448631 -0.369579582427085 -0.2494068317410767 0.0888329319904382 0.18404911635524296 -0.40811650066049493 -0.09702223538705894 0.34660831078896015 -0.3893989480408774 -0.17072426272682864 -0.21839989399133128 -0.32165950730203197 0.06108855908519807 0.07089932831391957 -0.37975383781318794 -0.1698601926588634 0.4476289802599821 0.1147278235657258 -0.18613764648633663 -0.02703283111280994 0.22633526593467837 -0.14829204242203567 -0.188122796636505 0.3075135407204323 0.26582379898000724 -0.3912489235747155 0.3566371543966127 -0.4726488153604064 0.3611527035096663 -0.19473281361613412 0.22195183274624458 -0.5116449775347766 -0.21306936169252697 -0.30931088880743296 -0.32391325838826074 0.17330473207009534 0.1468322105935897 0.4705784370053775 -0.05479306612815939 0.425829567240528 -0.25120498527085533 -0.28364875184119764 -0.02695105924116613 -0.2346978791034727 0.23099980235121634 0.47322340312206224 -0.07914757267834956 0.2615808770080773 -0.0803349034694871 -0.18674700006857087 0.2415208657594211 0.20648506482032705 -0.1618135477318934 -0.4192817953245505 -0.2116159122263393 0.32811273632856996 0.07054433419024068 -0.04016402545135663 0.0716017930933972 0.30583719446559815 0.09584591264190036 0.13487786811814606 0.3609692941303503 -0.16260578708846443 -0.32888923325529007 -0.1775646375205122 -0.2748677458534273 -0.3997563075666393 -0.205155324463883 0.33208527982028113 0.08368876976084427 0.02964538027928345 0.4209863501297052 0.363918026084056 0.254631486480835 0.40833458406506673 0.43579700218995915 0.2880610740219042 -0.42010298363118825 -0.2810997854664688 0.016320411627474683 0.1860886600652692 -0.08334365775810046 0.17205264252393127 0.14619920907238315 0.3333122455724583 0.2804196949431608 0.35436383829007195 -0.4297621044910446 0.3798504623798205 -0.1379587709578344 0.26696568400481624 0.09535300103559814 0.03405903251863535 0.2504410398435888 0.23982436576001098 0.09801113760738704 -0.5342060483139709 0.4667790740279542 -0.27234505113123625 0.581672826491383 -0.15318305486895664 -0.23278986050698078 0.371382082887597 -0.14881098184027725 0.3324013042711373 -0.5130958825917776 -0.14503418643802946 -0.15920735809139971 0.38480473035234125 0.14908494558738342 0.24375165572891966 0.013309532979445784 -0.537623812263555 -0.026501204494003977 -0.06937534097575467 -0.1584886700601505 -0.5052040971666047 -0.403387460324505 -0.4657999340346186 -0.49766149410427246 -0.40512234612548575 0.3205731758759974 -0.3477192881374942 -0.2289882862307929 -0.241313018169969 0.24388219549861812 0.2844231385336948 0.46123433487209203 -0.19212820182710938 0.4077458546796026 -0.3277787564231757 -0.1960096807117743 0.3017940151350461 -0.3468964581938917 -0.17402581352104052 0.10946553676241692 0.05277832378574436 -0.4247706923038247 -0.31712788324686336 0.08485031777737986 -0.1560689054709649 -0.03876271311487901 -0.16442526911647953 0.2543083638842997 -0.06429611642213384 0.43083277497794725 0.37235894209471626 0.11460624848481216 0.21353838728637842 -0.09222511384669865 0.0693348458891702 0.18858771854722922 0.4025714981004682 0.09087695642486125 0.36211308975498935 0.1886693968896699 0.5506837018504678 -0.20177439855155196 0.3676491492945212 -0.13282649892961562 0.45320844503072455 0.15678924931783636 -0.36730509342418255 -0.3961256796411633 -0.4289925444075659 -0.3095238280721818 -0.2058042582623887 0.0837611313065705 0.1355205441544589 -0.40562317853372265 -0.03175156235362769 0.3793677501419325 0.09313570671170643 -0.42723570070173567 -0.2235006021821775 -0.2596797833705387 0.38413741717339006 0.34884967468936506 -0.31041196582701935 0.200469058817717 -0.4533396568652201 -0.19670184159219734 -0.36903569131585107 0.4373619760960238 0.4365072042319625 -0.39636737828011964 0.46225340371466656 0.46428257170563003 -0.47221899200704476 0.33076608987014544 -0.35507640144200314 0.18880852418159025 -0.1514582078259642 0.31950654849390114 -0.016553363308657917 -0.3493661997374049 -0.5167230163503397 -0.5290481171338091 -0.34238237764869117 0.2769782120734443 -0.23714104265151148 -0.3825613509632437 0.3704168787766838 0.11874128699894164 -0.5445273065675568 -0.030059976294062003 -0.04822291870558713 -0.29445176083036145 -0.30397263573874184 0.3317163436709916 0.3736239671197358 -0.04797318994573886 0.3410662944086691 -0.02757858806808094 -0.23341650060018893 0.046270459124770846 -0.35501087924894686 0.025113532821105067 -0.14097665103167023 -0.15171873956815124 0.2547425766102403 0.31653327064389 0.2965846880297924 -0.28197339271760213 0.272356560044239 -0.1543157155076593 0.304936429891545 0.06821374560784085 -0.3440182536294797 0.4017332398777125 0.008090570049740956 0.3551317745373754 0.31672229784859923 -0.2442146988313481 -0.405581480604766 0.2621434581892271 0.46605612931674073 0.08425043590439729 0.25249177205241286 0.5897254960445801 0.3559614691150281 0.18703674596689196 -0.34022611661670327 -0.002195165380247889 0.0010372048456453147 0.2051999051540926 0.36675464202181196 0.38524582783630873 -0.33619322545695085 0.1170363085085438 -0.27127546614286424 0.16933910553085785 -0.31912289057293053 -0.09968212769986184 -0.1177228439375445 -0.21259443769978884 -0.4653980366116495 -0.5132417334171469 0.3157693123922478 -0.09159191421125272 0.08444804095262919 0.07954656162915243 -0.28113810948808393 -0.21639967156704787 -0.16287585290176368 0.32549123689281667 -0.22387767836980732 -0.2900122658805823 0.2261818130217812 0.5017033650349325 0.4745293870539861 0.3459842095170758 0.41396217964860865 -0.352773028048223 -0.16509281266530537 0.010500073749890796 -0.38140197190707603 -0.15441649199699928 0.41302708591574117 0.40027608578744156 -0.31896026031691194 -0.1900566527228767 0.05839240102982167 0.14934591920022247 -0.36284148454472054 0.2503260114197863 0.2691479909470484 0.06000478007875552 -0.22078663503238016 -0.30225909750509905 0.21815290752342437 -0.35837841623524286 0.184329636820628 -0.142840276187065 0.5792484674722046 -0.3825091302599352 0.4412680371851654 0.5943715575807944 0.33777366053689706 0.28500327256556157 -0.4511398412372508 -0.012716753538453949 0.39708260766388864 -0.5022988999452096 -0.20101274431507946 -0.31308588959564043 -0.4560688246857159 -0.4426924153390008 -0.17532059552868984 0.17091031119931838 0.31226644585946717 0.3598474476506898 -0.5010200732011336 -0.19475680370650927 -0.334749762255226 0.18744896043795356 0.48038706058735486 0.1859730237400906 -0.06519225610623494 -0.28044215337087647 -0.008502657095613776 0.24040716651514574 0.09067626277836455 -0.025999364372959577 0.5989805977517224 0.06043722516365321 -0.2812026078631553 -0.36577360081238053 0.2516585430372752 -0.21777133121961048 -0.16459593045552598 0.43577452706762754 0.3975420480180453 0.057176186078763604 -0.39619176919628507 -0.21631950191575958 -0.007708555659358042 -0.3293829932177114 0.4307213883195124 -0.5173349967424715 0.19430601914004894 -0.04354898651306213 0.16349643634002528 -0.3561382945045138 0.3600297049530927 -0.17834629188174428 -0.12268992277275854 0.2607872176901066 -0.16478163153720599 0.5850194738913485 0.5900774757486756 0.37910631004015316 -0.273400600845594 -0.01079467676899992 0.006399924231170468 0.4503903897246213 -0.2100207432742927 0.13876443889896328 -0.09634846681430886 0.3373906601318303 -0.20179889209763352 0.2983600854775918 -0.1432804108040609 -0.2801772934238188 -0.19561392985194756 0.361545129553736 0.006560122785814429 -0.09460410252551185 0.009418777235395706 -0.08802949578506251 -0.06982518679588044 -0.32710125251684014 0.2512489866332859 -0.158124843099122 0.006358558492487539 -0.30303326934956026 0.09254969718663518 -0.15882716377414582 -0.22436841303512023 0.10889947156426497 -0.23439722927500495 0.34081614580360103 -0.23280601507361975 -0.08047224176491696 0.44396276924727246 0.5227845420552919 0.21035595077248695 -0.1718491746726077 -0.24362612468269682 0.269123180841184 0.2624471551200084 0.5072601854680159 0.2643023422751802 -0.026374175205282475 0.4737142066097626 0.306366001182333 0.12687208596448254 -0.27344255640322196 -0.40011960407246744 -0.15079267876255253 0.5101037745214334 -0.2306815346400676 0.48945845103706465 -0.3937062276406226 0.40474005630332993 -0.3581869192318541 0.36777246242396044 -0.3504517108261498 -0.012917122902707745 0.3872549064694298 -0.09130610381364601 0.5247378776973862 0.16708942352590447 0.19390968338330059 -0.24259262500749734 -0.2344768345569678 -0.3951225870864413 -0.3491714158824137 0.45106421169636784 0.24132899793403675 0.10434769081428663 -0.21545109892818348 0.23849958992798836 -0.3098127348975621 0.15753915956903053 -0.003077288845911939 -0.1209823565744832 0.4027399628800093 0.18882348709743074 -0.18584900913287747 -0.3388444647777802 -0.2878139311179271 0.495891169498839 -0.02099436281836813 -0.051704018852528455 -0.11977604951889816 -0.2936327304017669 0.3110937334481193 0.24997922368389666 0.33901243227168776 0.37326804538603775 0.12030925585610049 -0.055235274328614616 -0.26822775619005673 0.23180116019897146 0.43941383453110083 -0.16752406052501442 0.5681644689461135 0.08906069099651392 0.4645383945322002 0.37969461586177955 0.1626303423406614 0.5462773957163596 0.523733047243969 -0.27785957446630094 0.07840196513521396 0.4906156436729575 0.12950355688046494 0.18160278031892962 -0.21058011758419787 -0.246373615864964 -0.013065472042373386 0.24477004559105697 -8.42896023824423e-05 -0.3597877917494624 0.40220663107306187 -0.20654627148661392 0.18856487259073676 -0.3530842017770147 0.36758202820105795 0.026035584237560416 0.09889765646457467 0.5543479274432659 0.09479448560285555 0.29843941710328425 -0.15282202817339827 -0.16194789242408994 0.4298290024140499 -0.1316893680461364 0.17964712135075406 0.10761191288707196 -0.2193589243062145 0.08984257238357479 0.24219100834436322 0.21233356244148174 0.3606693685155459 -0.039150531433089206 0.5713132087093297 -0.34409061868265967 -0.3643010184391063 0.29633596996875844 -0.16044982749916886 0.34431898474654776 0.5713460148357394 0.5113791797894777 -0.20653002471105905 0.5743284327302365 0.5113776072444918 -0.36807155648048423 0.050613825525022166 0.4502109263302579 0.5294482417544576 0.5871165716835355 -0.13638577744730848 0.3089975553884765 0.3384478604972853 -0.37240262564139487 0.31152718523902073 0.4532890231032597 0.049207449842356636 -0.20701043182200207 -0.02777990696874547 -0.22373062449693318 0.19415385820612777 -0.39200514692441457 0.3978089351614433 0.06579795924466214 0.16982430447243912 0.4914366107142436 0.36244216758902914 -0.29594115539270816 
0.32157755947739053 0.32315730096658446 0.18267409873642182 0.15345775795913313 -0.34882223644772486 0.48665592271090224 0.45400227030431445 -0.2737958068177831 -0.235389623773368 0.48864971620173026 -0.3333908595178947 0.11823667655828868 0.4743199794872375 0.2084665280003093 -0.1101893517366404 0.48525213478154844 0.22164068324721203 0.5667903888281567 -0.35289154377446685 0.42452990241449123 0.2510198760871789 0.3656430131153292 -0.3896835615277814 -0.2947967092988457 0.5640480789365324 -0.13098070856150099 0.27787046972444546 0.5121095834300502 0.10769370187395144 0.5302967857268844 -0.20957429139598183 -0.38219416427575587 0.5499020675527279 0.25666861093445287 0.47211802971979366 0.047923675011323365 0.592445753473795 0.019352123178883116 0.055047254919567405 -0.15487306135394957 -0.39986919160318335 0.3084427409458773 0.16972677694806454 0.03730979175936689 0.1952837090712888 0.33830246574121803 -0.40053514840135096 0.03815853457024071 0.32117281983486007 0.09700692886092484 0.3539156316110163 -0.09767162369972832 -0.38451958597256924 -0.14773299988008276 0.19226583913078146 0.41433837186000366 0.31547864437991957 -0.3000381043979754 0.16510593921223668 -0.25693222107876895 -0.34787456841920683 0.20150872356675556 -0.10262262462842903 0.16852179461258598 0.45540531156827496 -0.3943201062411094 0.4749724029445912 0.49216885353263673 0.5535871841110316 0.42237487420577197 -0.22073874515646716 0.4120896210890147 0.4603287668118893 0.049707738341291226 0.48432415668944523 -0.061076101752614534 0.07806791107665338 0.01017201089487247 0.48115911611657447 0.08987570354755739 -0.10720252275624113 0.030521198523031805 -0.3302800028687055 -0.31219694223317335 -0.004376377958445421 -0.3510479301349793 0.3722810487687926 0.14053644317356248 0.13754133207894528 0.3856169365649546 -0.3209650295702507 0.07848918697652225 0.49433878148354593 -0.24578756918055633 0.17605152209169037 0.41254199278177234 0.027198078938620623 0.2299816864308863 0.08171728199893448 -0.3867689786792328 -0.21133079917532105 0.1839491277895891 0.40183360554337083 0.38028356898050053 -0.21999047899972504 -0.03910251782911367 0.16826416605949285 0.4193841656918518 -0.36884521356372796 0.23045155111362176 -0.33738073831769827 -0.14985065500309147 0.30191142608842214 0.40185236600170254 0.17650731344541484 -0.14291421476848049 0.14135664921546087 0.44582661773441834 -0.26341082335265614 -0.11662692018706974 0.4977747379554566 0.011569437285443858 -0.32552328504631867 -0.03884752599889717 0.45378071696834654 0.41873436372902556 0.4070862823885075 0.3322277071241835 -0.23114089956956713 0.3665602860759571 -0.13996974256297257 0.12128740016748396 0.27024858931018947 -0.1520047971821707 -0.35619215614493416 0.4765662719009568 0.5711049326796418 0.15469228110817634 0.19556828377916294 -0.3295853474021334 0.1644207541054986 -0.2924197039425857 0.004673944805193175 -0.2398347262585242 0.5173485976808201 -0.15952774966958727 0.3368342637640331 -0.46942550609756045 0.19067874123160652 0.058532941381882454 -0.43570979713496377 0.3646426905067811 0.00885535278962119 -0.0438520269970035 -0.17938952894230145 -0.2779941846589271 -0.03490267960631652 -0.1827590472301516 -0.23857312465717026 -0.004679758613039255 -0.05576573425628696 0.31837302617617336 0.49496313418656945 -0.22866858704811727 -0.08668687058875062 0.5401611655014202 0.5944691650049153 -0.2520063620886989 0.4822251704725329 -0.2504592470259201 -0.069195784988406 -0.11614232885231926 0.3494229591285823 0.4255846909060003 -0.11062366585420953 0.4295154450414252 0.21131320333436887 -0.19503029406424466 -0.3880732174386975 -0.48257781304336045 -0.3845917062605236 -0.3123487551475728 0.07917831455041417 0.48639000865784243 0.43112104137320384 -0.22521882594782772 0.43428038398646346 0.1673034811225035 -0.27053818572139765 -0.3590615252839566 0.2018745793485301 -0.2718370699683791 -0.24699288173061482 0.10966915211931956 0.2888400468949787 0.15557538609637378 0.24796640149891613 0.360721755647068 0.22210733047316547 0.18973721359424428 -0.22520951437559794 0.0882862730505229 0.08363271832738475 -0.327150592137964 -0.055710934610700105 -0.4948874574857326 0.3337671903277476 0.36798213901612314 -0.3333026267259691 -0.12453546778540824 0.10079299119841631 0.49335542619341377 0.44370720097914734 -0.14784713934021929 0.00033228501637964496 0.16048102742248344 -0.13196675449653833 -0.2979635089658078 0.4018349558210572 -0.515145474709565 0.26161825902046687 -0.05984652663977867 0.05385827971089621 0.06613652511169911 0.1676159528698291 -0.29656671874794366 -0.18932036590043133 0.41238133448661995 -0.23119039427171967 0.19218283263362612 -0.48095605460013985 -0.04383558134056641 0.44656764751990286 -0.0408597481107606 -0.0921513112846004 -0.18984439086027421 -0.2687492327447679 -0.06296918058771812 -0.2844903098451747 0.4314108883390279 0.4551175601125715 -0.13085089331628172 -0.3636172790145908 0.10734030063270986 -0.48626191343725694 0.0011496920330503699 0.30506839524671925 -0.5411479452713163 -0.08666650452831728 -0.2913517005408029 -0.12289685917159225 -0.24993106929232797 0.48620661814056076 0.5324452387322669 -0.3337493494494183 -0.2284751883826581 -0.03489025557039249 -0.4935056196410582 -0.2859274112851164 0.01464704835880172 -0.10788799543115873 0.34431341713636443 -0.1748238621107593 0.19162617728833217 -0.22592822804250098 0.2085289929640683 -0.14514922449717435 0.3044098390777187 -0.4749414219466964 -0.26792957673509943 -0.39981656620943323 -0.42097886552228186 0.03914350001401279 -0.46940170721164776 0.01913765817623403 0.03982886860303497 0.4080217700640805 -0.19187396841911009 0.09900597916243524 -0.06342132206317833 0.35096071807059737 -0.12565630505632316 0.0803543338045953 -0.059147765652237394 0.4016788213967712 -0.203706417113908 0.17085961068613315 0.3389361217505899 -0.40534595179142463 -0.007975963061326878 0.04968668673631287 0.39745678578698346 -0.05953744003026255 -0.1323516233090804 0.4234096971087231 -0.041549095772243284 0.32179752904311093 0.13401840741181634 -0.26693715168596727 0.13792908955111333 -0.39259210535977634 -0.3424344910101702 0.23417833069097402 0.18939239041851877 0.36631728296115634 0.46042647144268234 0.3492565002425811 0.04493278414709271 0.28856382177434153 -0.08117262054694721 0.161087219744305 -0.2433299928761874 0.0763313406009503 0.03809440259597919 -0.32129704501483886 -0.3618450643429678 -0.2631416344681603 -0.43818071026204447 -0.4498823025964542 -0.18973842119866177 0.1935464040325931 -0.15860987638212584 -0.3498307393724948 0.3750937542003587 0.2627022697535396 0.4638798469125181 0.31226701372069987 0.43127885509239994 -0.4601766539754825 -0.3508016615175234 -0.5652500787366325 -0.5894026017437131 -0.19679677944459573 0.47576677019799046 -0.31997140251869793 0.5006401023599802 -0.2255549258029744 0.5557555504510049 -0.07533957001779618 0.042259245114746574 -0.4832762484455692 -0.40798327601377987 -0.47709748997262375 0.4633530636025969 -0.3602676269460652 0.07045281391716811 0.057538614765089285 -0.028610581723485493 0.20560025915348687 -0.2461681111910448 -0.21316837989461593 0.4441204108407511 -0.4710525938839965 0.22581840153198707 -0.04331507645802771 0.16889095893724526 0.44073893602518416 -0.20885666549940568 0.29687083891447197 -0.061484104456311535 -0.06952012630003769 -0.36312705757749003 -0.05981944968134984 -0.08915953109457966 -0.012779867957396171 0.5622334937660445 0.19038767633880327 0.2253113133573883 -0.15566423199005155 -0.32469508388670343 -0.4806618612152973 -0.16424161628060618 -0.09772250411408236 0.47604651591797287 0.138553449267308 -0.22214009079772618 0.18579529222932872 0.18263118485348775 0.06425795577398255 -0.06537409395150792 0.23939810919029808 -0.02036780209290532 -0.39608322402330387 0.14383107752482996 -0.4939763778383622 0.20138808976986058 0.1377032011983537 -0.1661769227518653 -0.17757439448757242 0.11895899978607735 -0.005429885758024267 -0.09267864439816462 0.5386500537898148 0.13704127148133446 -0.3269492047243118 0.3581805852420669 -0.17554904828226991 0.36026168292179145 -0.48606094418010737 -0.3054343397530146 0.4017991717309175 0.19440186395626186 -0.4372289647263218 0.1632236336312006 0.14525628491034395 -0.2684522551052 -0.22384087110436554 0.3382077548440239 -0.10054983179386044 0.26513862197071597 0.13176864193439947 0.4461362178508121 0.46311083749402526 -0.4945253332802055 -0.013669623939680579 0.1860773096660029 0.20487172840316192 0.19216804137663232 0.186748527584275 0.14131879921950474 -0.1610884045731793 0.37990069611341676 -0.18310056617999235 0.36586614007308643 -0.5570043478722614 0.07214396043946233 0.31650215549818744 -0.4938995363858978 -0.4560979967669034 0.14548121047038676 -0.28884536438858227 0.33765877073335865 0.2955536151796705 0.1471952275136762 -0.18945369656250985 0.2324711807081368 0.4747859859116274 0.1471818685658527 0.07365939050034229 -0.29670757814089566 0.2048222796119847 0.3179258343921953 -0.15685440814840243 -0.012695710482796963 -0.290985923048372 -0.27172965650289166 0.4542281608555751 0.11575465153538615 0.24674461061596678 0.3353237071902419 -0.4313644901864178 -0.3000970392179234 -0.4095321267595976 -0.36127052560442996 -0.5194475112928929 -0.08313237886442819 -0.2882742119948619 -0.19269855634561364 -0.4573643479315949 -0.16441752752111158 0.02671893672136437 0.2837283173286535 -0.31533087509880936 0.3564592439809584 -0.2655978025518831 -0.023703630466537205 0.22933682021427348 0.255676170892936 -0.46506087694936415 0.02153880440518578 0.20894315548348344 0.28323497999083025 0.44401243205097124 0.2007950531275275 0.07537332608769602 0.288546138661903 -0.21667211028462288 -0.3393484908779417 0.19918717828632126 -0.252904806208045 0.3679001366037323 0.050940467877398546 -0.5037856408040364 -0.43998484280486816 -0.3411234162023532 -0.32458209293671175 -0.010677038679691594 0.32486814304137956 0.0940412443392935 0.10920248785147203 -0.21366857214132945 0.21771253743217975 0.43764919186368795 -0.32029491695980483 -0.035193937786086774 -0.3134684898326184 0.1361476769757366 0.0014890195336178524 0.36860450367325703 0.10954449606734942 -0.4468137107509116 0.2860980984302148 -0.2150076851320507 -0.05293475156863219 0.08354432930583355 0.37708379855450136 -0.3929281813722173 0.3657819945517762 -0.26223233986440736 -0.37725512354647084 -0.08745247663414521 -0.08985483366068577 0.4073831580695699 -0.1459929373210582 -0.09386967510973325 -0.361333903133969 0.14414037584001815 0.07130562471941229 -0.20448896670624023 0.35576034929170286 -0.3530580596058195 0.14242264167384827 -0.17555119856551754 -0.34400848795927963 0.255373594961503 0.3140182227206544 0.16116071541949437 -0.33785287744528125 -0.40444948300467287 0.4094288353601739 0.23409637070498937 0.037527112180855596 -0.13626255511490026 -0.3774673080014549 0.5122280232212706 -0.14633781063940282 0.15414534917510833 -0.18466734959811223 0.15771942754052265 -0.2605453159418101 0.016502270543855713 -0.007507892275248545 -0.28352384819944076 -0.39397846853895807 -0.19310271955076672 -0.3400455622234917 -0.0928722461929668 -0.15850188348261476 0.026922752209008756 -0.018076703930606328 0.46142260233239546 0.01367910101042612 -0.29249047473972145 -0.4577487820856176 -0.1527623899680114 0.15696738227399967 0.2095389429846985 -0.12982444278798977 0.20993471956276302 0.15269004826561428 -0.08827789407016941 0.039580324499675225 0.316777022930864 0.4501065124166782 0.24836956441568336 -0.2026897609299248 -0.325761204668748 -0.5180282110699523 -0.1890921999374809 0.4294592320512923 0.09115314813761202 0.16764642295478593 -0.33251444972904454 0.02140477424711968 -0.22662445520277932 0.25751836079369506 -0.09266858495288129 -0.09582466308608541 -0.2952045478784851 -0.138787692353835 -0.08608027517154652 0.07834198400771646 -0.10327656103831603 -0.059798698916588705 0.03095733433258428 -0.12763146699838146 0.21879264730815207 -0.12631640073107242 0.33234880297373814 0.18045939785145326 -0.03825286349817539 0.11156883405080133 -0.13700619651963308 0.3044244750829262 -0.5127278747684814 0.366389641639075 -0.3554100439519869 0.33941137483411427 -0.02510833026688959 -0.33680809324836963 0.315580019928906 0.04783006673297979 -0.1673245030128642 0.2608740213694234 -0.04922218427909738 0.2968568662777474 0.1755969712516816 0.047555916125991124 0.2961144868254034 0.2511880412260222 -0.08348251161477642 0.1402786766205362 -0.0006977423379420508 0.5903817530539252 -0.028821994490651592 0.004391798804406877 0.24353927286297256 -0.18957241037012562 -0.021332475553273323 0.4975357858517793 0.21426264754163302 -0.16819888102423683 -0.21774286977175958 -0.19244099362777106 0.34596799790648053 -0.30686764480773154 0.00833068123272842 -0.1650161406832404 0.22251122592459 -0.3434381496122658 0.07240788103494497 0.25428111620930627 0.37440233871712525 0.039283670061488724 0.24327573196354244 0.13708246709612673 0.3580586714461038 -0.06355068101333773 -0.25873981999105783 0.3207878402885995 0.5097032732590324 0.07856971925848741 -0.35545938185409487 0.21268685546945731 -0.004949378425040556 0.3897630809015225 0.2482972464377057 -0.29315702824507206 0.2054102408167213 0.2883725886167408 0.332070838087604 -0.056692887190787654 0.4151891232290069 0.18942186255267354 -0.21018022520731092 0.4695870092410069 -0.09985298909331905 0.4157143003995962 0.23565872710949837 -0.14447133209768173 0.3618250604458357 0.36845883174206073 0.4212377930914283 0.15587736579641218 0.17389623163233484 0.027263453616142217 -0.03750517293235519 0.17332435175870883 0.594491795629839 0.20354859106255213 0.2375563693323895 0.12336297943578267 -0.043693576807655315 0.3294586026767754 0.07298169939736127 0.28568437968590493 0.42904143530358385 -0.175712394701588 0.5385591135401546 0.05061989107358496 0.41160068049600346 -0.3616597996834838 0.5166366053403535 0.4748601761292077 -0.00410811794715769 0.4374679927415253 0.13377477110227248 -0.39558050322614846 -0.2023967553784055 0.28379606582555383 0.38880252626058315 -0.19262521267697016 -0.27174156750168005 0.42963183829439355 -0.004535131252212928 0.5484029970262035 -0.31196406912717733 -0.2722252891035064 0.21634196784214854 0.27403458192708874 -0.03865204067983197 0.2558731317288382 0.2010699608975132 0.09183525653367036 0.44565257762828353 -0.037078038284556365 0.4204831043033966 0.3491991929944764 0.500642373264571 0.24788642959346904 0.5945062776630511 -0.06816837216961136 -0.3976889626642442 0.06699256947129284 -0.3893179738209136 -0.3274871876692995 -0.3946275473466386 0.23133818392035752 -0.3026472507926768 -0.25961070868240127 -0.34856778473202243 -0.29475688751401435 -0.06623307538333839 -0.29361488423649446 0.18434645172750513 -0.23799041078148656 0.13694494458841353 0.04672981333939652 -0.3927438940740251 -0.08817791517720082 0.5863408700964978 -0.32235827980392995 -0.38016521967710254 -0.26691304405699956 0.13322547160038575 0.34201898775416506 0.49505153528643386 -0.022409857092448592 0.023709433841359102 0.10219325879134165 0.14505712787821376 0.36504925416009343 0.0729505730651979 0.08050135184766673 0.47740906640190606 0.21422586304551403 0.5476063931879922 -0.3480750145783487 0.4757179136811211 0.3679932686128707 -0.14835858399818222 -0.31445528227232616 -0.08171178058209269 -0.2444605581850699 -0.2907040047384488 -0.20156581306332616 -0.19155941865721066 0.20892513189638984 -0.01913677390200722 -0.18291062154578375 0.4495450454322522 0.1621769719928462 -0.12040509914541515 0.02799830783303512 0.1862583187707766 0.17134017182491365 0.11000837262754815 -0.11810504397618299 0.14127320735567975 -0.2498707685649411 0.5798675888556466 0.001805793955552464 -0.0684395175027668 0.22646270209041391 -0.3604654763589676 0.51695399901043 0.03268465431742744 -0.1858580518231851 -0.03454727232364636 0.3514349542075239 0.2100111419424313 -0.08267788652373015 0.035062176073706874 0.2904129200059402 
0.509008815280676 -0.22267592028300942 -0.36982762807903624 -0.008047995862465403 0.5783038872577398 0.003101928765715291 0.04391414585842488 0.34472918225088806 0.2565557112491328 -0.3957817372807319 0.3235009079375254 -0.13163817869631214 0.5192226342406362 0.4952948189593427 -0.22109760090685504 0.059473398334266674 0.015846770385994104 -0.134107905001465 -0.028400310845362424 0.02737134049968743 0.04868893868487622 0.48201279863916996 0.40320818949551634 -0.24509086703414568 0.1532437235733096 0.36910054785362795 0.46502070652200916 0.018397648034280345 -0.3536429488064027 0.0733890720834024 0.4367534446537503 0.15654245667499522 -0.1416914520687928 0.4471360476976957 0.15827062234533185 -0.14573120992484054 0.2728607481821575 -0.3518426374731056 0.04790912009278398 0.23433538640926535 0.22041564845428363 -0.3141437005237038 0.4531949025076655 0.4294284148965175 -0.2708718437204133 0.39427964303223223 -0.280017091836506 0.4947461418610181 0.1860762383063529 0.010197872145480513 0.17144996466996504 -0.3782141343454663 0.1330883362437173 -0.21461569143492498 0.05137964016335514 -0.09062995773199728 0.1884544511147257 0.4645769363596669 0.476746341605537 -0.2971170830162272 0.21501106418793028 -0.1648595396480151 0.12389303407781405 0.5172684313120492 -0.21429512606710618 -0.0007460727210964671 0.0926857129415593 0.27428807449798975 0.5876704382364722 0.18366640574619836 0.25347370734806934 -0.2435868751637894 -0.25927687189449106 0.4629117519661566 -0.31569697162826144 -0.180869241923092 0.48932139956681114 0.00781839986463725 0.3144311779244395 0.20943268012502872 0.13514336833098725 -0.131911575347395 0.5158998101245639 0.27570742194984343 -0.18720052365290962 0.150794665598133 0.08883858611641238 -0.030842335820223377 -0.0665853587197437 -0.09174424138072501 -0.17527014153627699 -0.10899217962321658 -0.21480300492610208 0.17290887520453188 0.5268387152767814 -0.41517525086338136 0.4651684619981528 0.4921982104049713 -0.21560522759235148 0.31875596395708217 0.055170038563614875 0.2646826415877025 0.3954083588651965 0.18837696800924092 -0.20479251853418667 -0.4039492903816892 -0.13359514113937035 0.4578696592970347 -0.2425272374164687 -0.20420673763699013 -0.13567757320232288 0.5193443016965527 0.10667648851356604 0.31015635717705925 0.5397388469820823 -0.11251469205137353 0.20896690143021243 -0.12103148913204081 0.3509768156718359 0.2578082200859029 -0.24373675030772207 0.19634970121157946 0.42807918647292353 -0.2638005342714377 0.4677318555970247 0.05574270222674716 0.29105239988788667 -0.06425620318096759 0.14413132374071727 0.47794664434408207 -0.2618839267890071 0.29479041087037333 0.0816178962521508 0.10710039990173523 -0.3234907253232811 -0.41229846497394623 0.4700555759811117 -0.3123386739183773 -0.393885394094255 -0.05748555469098969 0.37492581774737377 0.5013732628256151 -0.051157886010975775 0.1065146011747963 -0.16685796162200872 0.4458050191727089 0.3863064777948393 0.21004612245206034 0.2050633823569282 -0.3348753532431973 0.47386989685480435 0.03019318631431441 0.3580653386766914 -0.2887013621990877 0.2849998845088987 0.46583193658455185 -0.28846788985409355 -0.47873017121445893 0.3378483564396337 -0.29899804027754284 -0.40358601695699664 -0.14151210360931235 -0.0580133969335106 0.01110358551073494 -0.27090813905050487 0.4643121832509847 -0.3639248577414402 -0.06237771418760801 0.17669808209220683 0.3029851024700765 0.4302393579146244 0.5464241014644309 -0.13066131219264265 -0.27156123419019124 0.3277612135184326 -0.12320407433876607 -0.22291398804328266 -0.3866972736337266 -0.3214810691985853 0.2505030463457144 -0.3140360531117814 -0.3210621295287762 0.17863256177461734 -0.19001427492725495 -0.06953730462552944 0.39459871964706306 0.27975572525709025 0.21280540957830138 -0.35029795719288476 -0.05889140814447048 0.29167317674648124 0.061597883605784325 0.1217241181092345 0.47239622577146084 -0.2707590608700747 0.08955310258376939 -0.389901059318138 -0.08769816807334462 -0.024153461593214517 0.4604362595876914 0.3682067434131648 0.34597168759405394 0.2885043731425883 -0.22567720577027 -0.44763101897326374 0.04494185850685231 -0.328429830276365 0.3596475167022648 0.10808128761446009 -0.142965360319772 0.10735506196348846 -0.0325977418881681 0.09131473572854418 -0.26355691222479777 0.3441001777687935 -0.16899022379335146 0.060657762145016385 -0.32483545744419107 0.15812214141244185 -0.05935479123216719 -0.36057541567304774 -0.06756044286450844 0.025395209497397615 -0.2789746714217974 0.4568717004244842 0.17981176609536303 -0.2955618321444435 0.46552467799789693 0.1669737896863579 -0.25124486485341313 -0.4538446293284634 -0.3789306691902296 0.1493634842198471 -0.3144845849318363 0.4283219855839236 0.21234877344605435 -0.1455674837442771 0.08021862571006055 -0.4758602203075143 0.3240443768098419 0.10888181407793103 0.4627837782372496 0.16709819683482133 -0.26491618079604395 0.02271914962112294 0.09627507473197502 -0.3443165321446761 0.377687489009991 0.09634484996979081 -0.14933356067366862 0.24892468812543106 0.5666075557252133 0.5967646607723791 0.3740106287726003 0.043938647658609775 -0.034296142086647934 -0.44216305651451215 0.2830883151328975 0.2023298787402146 -0.16286888120606002 0.45159195681443787 0.039026349070223086 0.207675968164464 -0.2057255966393346 0.06610633787784005 -0.4038627272548803 -0.1793392622495749 -0.028422005252003377 0.2734516506168012 -0.30711490410408737 0.004734217990688123 -0.07123009331888765 0.2998642663153465 0.0018966241200132424 -0.4563680892691497 -0.07315564676510135 0.0791025074201291 0.009503688273540199 0.184007850939013 -0.004092633512698882 0.4260398420683439 -0.21552284948456654 0.1404638022862034 0.2634305372172093 -0.3845859099046402 -0.36648619294587437 -0.43379836250106524 -0.24946076703631792 -0.01163568765688846 -0.3524748264388579 -0.15969973355228942 0.2775419971506446 -0.4062156794410295 0.07961449486432999 -0.07716878229673663 -0.28109365740898834 0.36778929394301146 -0.3462676103966785 0.4092167192481333 -0.1988999905251121 0.2877935651903767 0.4167525609223947 0.3288461571763962 -0.461372202225368 0.2971288246327339 0.3141674659647111 -0.002293219028797031 -0.2819950752583809 -0.08889428498904185 -0.25651545702242023 0.0984067295530165 -0.15701368042785205 0.2815577606717109 0.3140071296164109 -0.21215128683884504 -0.3736892329061372 -0.06369607559324161 -0.24494476681928304 -0.52379416675735 -0.3949475877863172 -0.08325306653010849 0.17311808570431314 0.2405489791150382 -0.3173178274077931 -0.3345914329745188 -0.18589487755995673 0.31233340040264757 0.043761877364397544 -0.23112612407967612 -0.5044005556851643 0.16557088228392347 -0.09851211158124924 0.3809931235819691 -0.022983927157204397 0.3749149948119362 -0.3875674375933986 0.05828351947200736 0.5209410416591606 0.41180063314605647 0.34591658710025414 -0.4912246517908171 0.2547349902855361 -0.20741656116025348 -0.24780685798228472 -0.11953426255578208 -0.33753695891437324 0.3187563205115582 -0.3977646881681847 -0.00018189176782790076 0.35482840939629073 -0.44629035465454675 0.034157256923012906 -0.49043703416930834 -0.19344481819615347 -0.5075941666137412 0.37844248216430126 -0.1946723597460328 -0.19894280387753355 -0.5366612120369646 -0.2099015151102943 0.05934725104868291 -0.24681243659300472 -0.2845077365371098 0.37073888264609706 -0.16303713754947505 -0.11744042825979945 0.4117767870577194 -0.16474620813233284 -0.41777213907535304 0.31475066770318955 -0.30642042517598816 -0.08665678497269329 -0.5020586452134748 -0.06400082215299041 -0.5265928016408493 0.03628914575841056 0.008494624620197157 0.1587856049427108 -0.1335292164805603 -0.04942978678526652 -0.3935085523822836 -0.01930233177814926 0.31920659527863504 -0.2748092446473686 0.110044361600028 -0.5235709571934285 -0.3539658178899378 -0.04483773849960299 0.4018910288736157 0.22182434526876446 0.32431994634119365 -0.0034154801018094314 0.046917623650163595 -0.33025547986575804 0.15414033795205942 0.429342409192052 0.25084558800578877 0.2750584484351234 0.374688781796401 0.009445385770399823 -0.09817879391990463 -0.3280024575951104 0.20267862229504077 -0.2839654318209356 -0.14804768285267264 0.06234819338603638 0.17799783604274438 -0.20047735860600005 0.4514091293954312 -0.3970989998906647 0.3297878291401465 0.20083818043440482 -0.3288886045876789 0.19227277728839787 0.12313188629562724 -0.07878453597059817 -0.1360648414597676 0.01027579605039359 -0.26020254988800356 0.43085235421856877 0.5578568635999902 0.4947181414801942 -0.30671084791863035 0.17395289721517818 0.0048395619826600515 0.017818343897110175 -0.031175766874855702 0.3081898581467972 0.16150297884076845 -0.38559133324556244 -0.45814330462696656 -0.3706977792199232 0.11448056771918325 -0.5140468762289104 -0.10165134293434928 -0.14562714104633293 0.039773402061962976 0.45877658436987 0.3912325307046618 -0.22081511015191974 -0.27563627198637564 -0.3042007177142427 0.019828071957122148 -0.44525634915812196 0.36886700592968574 0.2410421757323744 -0.1330010785038568 0.389136699556503 -0.27261101439996854 -0.09023419071682251 -0.30615954422117414 -0.37348794899179616 0.3255758217573767 -0.4549611282000799 0.2553875821715104 -0.434087530437862 -0.21347634857682107 -0.2595476859549971 0.4014831284172999 0.2010601895342035 -0.21987490689193837 0.11875081270472207 -0.13524307578024233 -0.4554772370935007 -0.30964610007006765 0.22065888581845974 0.2831620488387528 -0.4917187136260314 -0.45337344191727424 0.03697247697328208 -0.47490094284255935 0.11574981015559926 -0.3989885596602806 0.13011377862967588 0.34013625293906924 -0.10830141275514514 -0.29176835913801147 0.3187279325691421 0.06461875088210713 0.09906921460271045 -0.47077557509028345 0.4135810165893062 -0.4937325180531159 -0.3645472954052078 0.4462336106575047 -0.3530422911039813 -0.5102954114457366 -0.5844174083454016 -0.3574322164487133 -0.09409802706540393 -0.1962474944223881 0.16916936684927494 -0.2892036448439199 -0.511930320265968 -0.04009316263017025 -0.40534672038457165 0.09755829896281201 -0.47387165347386 -0.06393122315272644 -0.4205486606205475 -0.1618553055880612 -0.4225454070609955 -0.01527273047928032 0.4052925224729734 0.2362037247231104 -0.22926504406870762 -0.36451123231334603 -0.16870917319023745 0.36169104207799 -0.45580869993175566 -0.04905478204302633 0.17434483116282376 -0.019457788039881033 0.41261407871053984 -0.4951620229985003 0.060434976570747034 0.31568406240210267 -0.033689505742583975 -0.5788041397432311 0.3209414927703907 0.25258847387556266 0.11999710438321722 0.27267658996354327 -0.2665866470999865 -0.13823855364275806 -0.2981494353644718 0.2173728892834073 0.07956282311158892 -0.21330197796839032 -0.04324952682501117 0.21591104248502513 0.48754320077833907 0.5043346915630903 -0.009015868847661484 0.34478966117252685 0.017060856431282835 0.3140000837946621 -0.39303673921691495 0.26738411166047216 -0.4310154963935021 0.10667982853102484 -0.3696657970494917 0.4209594607708584 -0.46885570014342415 0.318442613964271 -0.11170622225828183 -0.0542736306407774 0.17859071498860893 0.12288094141879927 0.42957922468647786 -0.15470172787973 0.4342912783154963 0.23282521487964294 0.3913380840403172 0.05434731129487285 -0.0240742023840594 0.18070311290395996 0.31277744494962223 0.4928055701805619 0.5737245771573376 0.10237369123963319 -0.3941940212809205 -0.1655777123660586 0.24716457034118797 0.2335524440017317 -0.19265012381974944 -0.2878224873054088 -0.2299926128122037 0.35165672518239455 -0.49407606817191807 0.450467370528181 -0.3398240964035636 -0.19082226605881178 -0.41509898154616803 0.1695738297547585 0.0780682807413384 -0.08584101395734431 -0.29313051484778735 -0.25364538689287836 -0.1845091375952035 0.20013737384261074 -0.4342044126558944 0.4314023539898576 -0.3061093626674393 0.41702377336735336 0.3475866161974344 -0.2665789482142701 0.3181641176537138 0.5773258883983641 0.1245874802554538 -0.0454361143747904 0.413498893182167 -0.4303931119269153 -0.44190734567294565 -0.14146535553357764 -0.33281183429461403 0.46986931046324926 0.4049921376287634 -0.26694280151764005 0.486539925775091 0.1830331333007299 0.15943803846394514 0.2904375244108654 -0.013006016917103066 0.08565045841719798 -0.4947654405728719 0.3889478489685969 0.10686783095609399 0.13529844956632012 -0.07842558899381807 0.29706639290351927 -0.39562782706895566 0.15107393171385702 0.3805955717048226 0.523141568764627 -0.26705772539942796 0.3328409853581517 -0.30606647795946545 -0.041601769073877186 -0.4345322245541565 0.2676764508271501 0.3721769165646862 0.3555127522890062 -0.17371463101979215 -0.040468790620593366 0.41670072783362566 0.45296817785732085 0.4752676293627414 0.25562356768201766 0.39618177484388245 0.3957862608945659 0.43264165304636387 0.26233786747207427 -0.0511421353886576 0.34463393576232937 0.1207258921309182 0.44538228443573524 -0.43027302331454964 -0.15926360701580872 0.3559585681275374 -0.0946711696794024 0.36166929289468414 0.3600520661760745 -0.197688016765945 0.16643406982678602 -0.057478117449574345 -0.2737478633617266 0.26425636706912653 0.5313697053269433 -0.45695993700127524 -0.33798774362787776 -0.04173131606223266 0.33867230191065834 -0.26211708592047517 -0.3638388590632528 0.4087245728280706 0.4384594012411436 -0.16658998797283792 0.31604910247772194 0.3625705854334659 -0.25865766976869176 -0.3393765967957759 0.1841018786461603 0.28961808307579573 -0.3223776469385067 -0.18787363603439675 -0.0928304856791599 0.34452129885248073 -0.2674517787386361 -0.362948062059989 0.5219301477095583 0.20905448915492753 0.5004835026508134 -0.299066677216941 0.3138691025388064 -0.3938576301666156 0.22977371335227229 0.2069222827420299 0.5353495210189493 0.5054734865260605 -0.4102089503607449 0.4277706626336916 -0.22920801383778902 0.31486559375566925 0.2114562268682378 0.19732341060915232 -0.20644269590087738 -0.15302123165827722 -0.15539550867884042 0.219447541391544 -0.4400768370987849 0.16412958907985167 -0.41495410315336756 0.4017042726130886 -0.20589935238375573 0.5152975241483208 -0.25829043233865945 0.0006410165913742176 -0.17377450218269463 -0.04252221189044059 0.1260306375221557 0.38052755558817886 0.05991389884843949 -0.3423783804517533 0.38744393414319395 0.5796151163495967 0.268777529563697 0.20897510792916693 -0.09649280705884537 -0.3657923251213968 0.5932949997489165 -0.09115409150691835 0.15773532329534906 0.13617066316560603 -0.008417670143090038 0.015514930145843823 0.3345194794416 -0.08505357327987777 0.3274681493743236 0.0815328597904137 0.3076325774490299 -0.07052697676068338 0.49448085963054267 -0.05564768247419574 0.38618111894769686 -0.2969212133053464 0.49393484727730164 0.1633469954714738 0.5313546728713441 -0.3658705215227047 -0.2791147515085646 0.14591617577215987 0.5698230336151513 -0.24241529585757 0.13454582944151852 0.5153298982489927 0.2661580773459599 0.18555048281191774 0.17867305531643754 0.09107621205625485 -0.24123272905066404 0.27601481543144923 0.06647821525380147 0.03928487946946851 0.004754343250216933 0.5896913360694923 -0.36833817311006556 -0.28270831605187086 0.42201117606458693 0.24556311688133664 0.01086659060208794 0.36489515189301724 0.053439154852467204 -0.041694441826459705 0.3929472641228659 0.13564901766843418 0.04868572692112649 -0.2136883526047686 0.3780556775724919 -0.35570958897278426 -0.13550058937654608 -0.1717312710570041 0.4302585200590266 -0.2081278771365146 -0.1792038373043492 0.35744600654583353 0.24441889431662528 0.32356704802585023 0.5576278835553056 -0.33248985645983653 0.3873245315742268 0.41570180126076267 -0.27677895088472376 0.555612074988522 0.2629626904652017 -0.20402895088335626 0.14517833541527997 0.39938160705694387 0.3876784547388152 0.13742767458884853 0.3697727896094095 0.07605379948088609 -0.07468292231284818 -0.3050292196663945 
-0.11765519046031603 0.49349355569561537 0.46282512097723494 -0.011953159977263476 0.24079804290425022 0.3301904429295687 -0.030959551587458993 0.45477678365403024 -0.252620685402087 -0.20193392079970124 -0.18400514058907833 0.04532931905254074 -0.31143327879859745 -0.23259336174092968 0.010431502436487118 0.10692858194505399 0.4914890740653919 0.18597785032625677 -0.0910054742798818 -0.16051826282652615 -0.3344589057870841 0.42870108608006935 0.01952161582248333 0.43857385897686485 0.547269590805032 -0.16278439686614216 0.4619000124047456 -0.3577808246032071 0.427683578612583 0.4597090323340565 -0.28949318844052785 -0.2607832075326401 -0.06270154229627478 -0.18462728201478196 0.3279448618946225 0.4783832061663252 0.02078735146393906 -0.11840712711733964 -0.3908378381379832 0.023928105856013973 0.15500063920898424 0.14903039675782126 0.005677918574032523 -0.13498694010610907 0.4758610222186925 0.454912914089505 -0.2757436871441103 0.1329931539991826 -0.2520909770551739 0.4134177653004035 0.3869020003259711 -0.08802113160000914 0.48293862944469684 -0.3788858217137428 0.5041101013872598 0.263010855406537 -0.20894765135420668 -0.18069335364301098 0.34085776935525414 -0.3561060718456674 0.21889829560992252 0.33012252615664583 -0.39052888051878754 0.18023086607866734 0.008499513161259213 0.5688136692540976 0.07240668026165176 0.39916573154998486 -0.09041518087792108 -0.2681686338648735 0.26951058283237583 0.011728616978100495 -0.20535292486033596 0.08579874092230683 -0.3384679452260883 -0.0029716798349582944 0.0813410535920623 0.10857034559642638 -0.40193655043390375 -0.008900456365984261 0.26866753166444474 -0.25874328254863227 0.25408019749153604 0.44925204971300625 0.5575819640191875 0.07720908907306105 0.4378117039600145 -0.3616496422447793 0.17935748970291607 0.37224260528407105 0.4856091655763046 0.5254139865557956 0.03827983901261694 0.49310631134346006 -0.1513191871219303 0.19496317607347166 -0.11241852483875117 -0.07083277192698031 -0.3900495831721605 -0.10710189691315765 -0.02688514629789882 0.333892155054269 0.05185509729942927 0.48708848276631767 -0.07635796579693291 -0.4678599625025715 -0.200531419591436 -0.2536533355013706 0.32956536255656294 -0.10069216795515284 0.0768657094578512 -0.20037692494871023 -0.1936672215052178 0.02842107741263657 -0.4002932576704764 -0.35064729609221346 0.33124156326078064 -0.393145775836119 0.03904235078104589 -0.24117160263802176 0.22091693506458793 0.07635054025026253 0.4676001043264293 -0.19015115402464686 -0.4699749119220972 0.47801367631096076 -0.3531887510862283 0.2761538098420515 0.2528557081238397 -0.048936893697914145 0.10734087505920278 -0.5137792072386033 -0.32537173488842247 -0.2484895010954381 0.30027894557514656 0.4652746793538599 0.4792471124715154 0.298958814180252 0.39263708119909146 0.18477929602014503 0.0775205976850738 0.5642806888616058 0.3911135307877108 0.23103960330952503 0.5003433862441812 -0.3914651477826801 -0.4240551809655827 -0.2881307674099834 0.21439263450246318 -0.31175305921548235 0.3798763851128948 -0.30347381977422483 0.20899512772520984 -0.20898283028809725 -0.2807143427415551 0.13030477693207224 0.27398276368074 0.13177386129996407 -0.061957321236529445 -0.12902200771528363 0.21267912493366467 -0.1495826870220941 0.20508159534906734 -0.1731950188427805 0.4851438942975679 -0.3011482398960501 -0.3689337370299516 0.43267736031138 -0.10973393504308565 0.19076090180999286 0.40896215479440334 -0.10614143012897065 0.015675536119459633 0.43970326237084567 -0.2999384125845651 -0.2014194333674275 -0.09013239076162823 -0.5127763956684919 0.35798058960629736 0.2029840668450224 0.24159548977806897 -0.2488398315264315 -0.0003610307637536615 0.45659831264215367 -0.32858768824045287 -0.23648678639814588 -0.34193142815249294 -0.33521520318853015 -0.47542665887429403 -0.003908649799946404 -0.2243982605196966 -0.12466221841036718 0.27350557555746957 -0.15495093233922336 -0.31733528668954913 0.26778546664235664 -0.04572481337363532 0.04550616582193037 0.337483676836531 -0.28064809623388604 0.39179573554429 -0.48178632485507794 0.2961672955455182 -0.26314933215140407 -0.4456715460170261 0.3999958004241134 -0.26984492349752015 -0.2659500767818862 0.41000923734563727 -0.07012477889237162 0.11246815453920568 -0.12402266074335695 -0.12843361150526042 0.2443520856662739 -0.06560096767272623 0.1866371403620216 -0.2901598116206765 -0.4471282692594482 -0.28488519042665006 -0.151899575978965 -0.19615665791374715 -0.2782785630906809 0.5708121328799053 -0.14121247335235168 0.03712685071032629 0.583459916349122 0.35969553626422546 -0.22017256349019232 -0.2589683957122815 -0.3083374818392925 0.3093639253620467 -0.13056145486136114 -0.027549122321869634 -0.462491182904537 -0.12898916558900236 -0.515308093712013 -0.11686746855562305 -0.5089609699898991 -0.405681536134511 0.359066849329598 -0.08816768582664465 0.002709557289442553 0.11875901413789171 0.011060437226453277 -0.3369846173771321 0.14937779092622902 -0.06991241195963466 -0.5255152281849402 0.1190227823694691 -0.06978426328547753 0.31784171792619176 0.025273500787544426 -0.009846589951994111 0.26979764500400094 0.4399291265555599 0.07209205473940729 -0.3077008772032197 -0.4991861873834324 0.0639024475895278 -0.4782119865113594 0.1803293076754942 -0.006561885619919191 -0.5528080111761846 -0.5611292188020027 -0.23424657882444086 -0.08943539884586861 0.21127221861518056 0.0880204087805774 -0.46963754239481037 -0.1088252119226697 0.31496068345798334 0.2110081749582354 -0.12331485974575564 0.07650969910146395 0.30183789700151187 0.24145386112945819 -0.43395069623581145 -0.3382801180984269 -0.12496033557921916 0.25662116041272504 -0.005226304513360591 0.2357255540327043 0.2883333088274115 0.04392021535043793 0.039190132268259854 -0.09398464787814315 0.2966071570576248 -0.290104872588458 -0.012373360900433639 0.1691778455715824 -0.3567810137406669 0.07761321334583733 -0.5983806921214848 -0.4736587362448028 0.24914781426566074 -0.3416491844856204 -0.030759883507024285 -0.15272331999254804 -0.08703975300357172 -0.35464523309633433 -0.5475101284778394 -0.48626275806668146 -0.5256371321632848 0.024446312600678862 0.20906361336124307 -0.3952936967117734 -0.09994134467987195 -0.34110108627850483 -0.14322683317950818 0.5832790849468842 -0.11727192062401613 0.42333577043315523 0.05867702039515939 -0.4581127242288749 -0.271788411730507 -0.1398621667692985 -0.4684738509868433 -0.026083619264124582 -0.049011339392109145 -0.27524867227592004 0.31746757399062436 0.2777161940470751 0.20657932979696092 0.011834806211962444 0.3221344713820577 -0.45211737073964353 0.057796566302836486 -0.01485422569573323 0.16982849329577349 0.3273406076956968 -0.3049240024028378 0.3053550043965742 -0.4607392917297566 0.30975594677005464 0.20001151871953782 -0.03790615987033946 0.41828080723498273 -0.07794183708074644 0.5152078754099411 0.39410910129187404 0.4182446178636252 0.1701414630498501 -0.37684817490877376 0.38411308704964486 0.17219546572808947 0.3466072786986235 -0.19851017555677983 0.39288329481547096 0.37699144016883473 0.11916104535237279 0.166864895307481 0.1624825186754311 -0.15350066805049498 0.16279369252442635 0.08515597201074897 0.3915174512353195 0.20076605465027061 -0.26878344688521943 0.03873975764452294 -0.5318788679226616 0.38694037197220704 -0.26437158122599286 -0.1436072527437156 -0.17092681233990817 0.49208226311479814 0.3766410652197815 0.4087151745208647 0.341406686937223 0.2467495891300683 -0.3883019685519419 0.2995003901132616 0.17105941746341455 0.08973268325106346 0.23672946662099398 0.14924066296690233 -0.34130211383300657 -0.0419180902037339 -0.09883225862549135 0.3620146142750469 0.06716519872992081 0.22993176078743155 0.10131669334668109 -0.013827062530956395 0.009791533984547825 -0.4645045640267512 0.33833394091331925 -0.12598533580224205 0.18477922965824994 0.21118048617975052 0.3317171814985378 0.1617688661440636 0.15897960425644764 0.3386472539961513 0.06067577049561331 -0.1284702904416833 -0.006447158974702161 0.2156186552281037 -0.45219457653548495 -0.29646802027464053 0.10266508222462589 0.35971777854071685 0.3279289783874314 -0.012768210195151291 -0.2218072330276598 -0.26370289201870806 0.12360328780119532 0.2670136491080422 -0.5068973009513502 0.09956882539231224 -0.18304644205584122 -0.028301741671752742 -0.03452017197311305 0.42494899129671787 0.006062399740238474 -0.3034949608992005 -0.04683473689771357 -0.47569422779212933 0.0323422832784236 -0.08099222034666938 -0.31408888108116706 -0.37069939461860807 0.5003312867417982 0.30299718761597083 -0.4940325695872284 -0.29591516891362146 -0.1582927964011795 -0.1578129717514305 0.11166719017067643 0.08216760792781498 -0.058893506948236765 0.31670615167687755 -0.2521720611429461 -0.20817385585395198 0.2119489348779284 0.17564834654534267 0.035551116713557596 0.07524864248610744 0.19747122516754154 0.335965131518297 0.3852233972437942 0.07192808514450598 0.30473452690434333 -0.4700487530854843 -0.2822441833286989 0.4071009966302632 0.28180997051785167 0.18734923741594245 0.3101032237736169 0.5963980249949619 0.4853391152192511 0.21411847930855588 -0.3156434983593652 -0.5169059530581994 0.35623737484846973 -0.39089747409811915 0.2718531361754209 0.3177857788149594 -0.5779703801487794 -0.13995851906388104 0.14022553260177104 0.20121185902444821 -0.5413716284136887 -0.41180302980328926 -0.39914800261034455 0.22250561419433015 -0.24723841562304297 0.2715470759516068 -0.20958747518615292 -0.011573358557127145 -0.3574894024043174 0.12670596155924307 0.1333543142464162 -0.43630447148687457 0.28122454425306054 0.16405073891405542 -0.19985205547879206 0.050659156372602106 0.05463336628327069 0.13623167583250703 -0.440814456063313 -0.43359798278626577 -0.35153144820631216 -0.5468553056661275 0.284840782861357 0.2595261896361839 -0.309919469893627 -0.5059184303702485 -0.5383934481660241 0.28599952173905274 -0.25676593420652805 0.16458605862169798 -0.11688133129811115 0.3942467641036355 -0.033258659653323995 -0.11450161718279213 0.002115844248658799 0.06618649372035007 -0.3610045004520564 -0.32987053628659546 0.2232039990685489 0.3026405635886938 0.2392230808976731 0.41275620742673197 0.29130577182224743 -0.13682405430620298 -0.1881654696553532 -0.3303133463510627 0.3787894369712813 -0.25024545930863135 0.10821443311841585 0.042028071087368904 -0.21335312810464482 0.19566677467050317 -0.1287430801711906 -0.4843562129931756 0.06019216114528379 0.3759539906283656 0.22656527201657237 -0.42451825659220294 -0.18001577657620857 0.30689389821289176 -0.41247284074578067 -0.2525390400861471 -0.3412490305614936 -0.42781224297283726 -0.11483065053456891 0.29277265942264724 -0.45284877477975854 0.1296233415059677 -0.3814020722667887 -0.32107715427198963 -0.284691298410628 0.009818462214544164 0.21177896601586294 0.30494976655342126 -0.2167049521829198 0.08929986284189105 0.27661625153457736 0.3067900927456437 -0.5872398558284325 -0.20065042833849614 -0.34337294570846194 -0.00997352389727993 -0.1058329255599191 0.07555767278757636 -0.43829956761910766 -0.17421767549671732 0.12998549994935607 -0.46416059223211614 -0.3173775897686456 -0.42114080573424 -0.07238226121439299 -0.2281875312945798 0.3526119229598117 0.3550215757711841 0.4312386220013518 0.0226951148848791 -0.31364195918270943 0.37190197542872067 0.21197265859197856 0.13886448699042317 -0.19534178828725013 0.18001714921187026 0.12735294269796085 0.13612428637847399 0.296189336593152 -0.5863552307679586 0.1810568505907556 0.3438166573363901 0.14598766138750338 -0.36145474312490355 0.09497494361164265 0.19220725291878868 -0.5359102728541517 -0.1973002513985433 -0.5400671394931801 -0.2894271871261763 0.31133752437169154 0.37872922630344164 0.30133514204978695 -0.14660425023607107 0.2343651195567561 0.06132634143554844 0.018112734033896166 0.29583600843115654 0.10038515321951856 -0.10096051564531461 -0.06952120737578316 0.16858658289249104 -0.17694126234927154 -0.07468161580741099 0.398163422640974 0.1410723858257987 0.2645915111728673 -0.3781489535646533 0.30591930491241276 0.021937771609224166 0.20194425385688733 -0.12282963462844944 -0.5399306328203686 0.3401922025977275 0.3366177214374407 -0.15305643862078724 -0.10549964766643559 0.3321751498692176 -0.1266807568587198 0.26217823756381636 -0.12511901869490774 -0.1282689020793656 0.44405668480942545 -0.2194338673014077 -0.18992494519185396 -0.04432891037926139 0.0009010671369428546 0.2749573914619575 -0.1755351538980871 -0.20906997700434365 0.2047215902496653 0.42053429227819866 -0.17414386796993894 0.17657104774537688 -0.3106183066033965 0.3043608841406894 0.2276239923602324 -0.0012469691204599713 -0.3971531614697432 0.34706470281142016 -0.34245453706925716 0.3866028232204507 -0.11203162390449216 0.46168695560301154 -0.3338634237270208 -0.11918906872195466 -0.4016996409089059 0.1819460256847283 0.43965035299466243 -0.24991165473830582 0.1704758241228074 -0.4430394687376233 0.2588805959851589 0.12364300113414127 -0.12649594931210284 -0.1609816752539714 0.20824905050604303 0.1748523832859105 0.14688252648547107 0.5023783200739186 -0.13384207491434044 0.12420065144401592 0.18350942727029598 0.27406532052688337 0.03032702295182574 0.023742806032816092 -0.1653312286183572 0.1372565609873802 -0.3523979990803441 0.4561253022189897 0.04384460394247474 0.15116025244380762 -0.36978541965363015 0.118145400483925 0.40234928825048455 0.0091248583266912 -0.3885504570806343 -0.1936739713714926 -0.2766063511841129 -0.1494087339482866 -0.0763266405071027 0.22437466509048273 -0.2629297146778311 -0.08541775828824466 -0.12793185963437342 0.5770707894492735 0.08003638925694587 -0.3283227841629697 -0.06497816018103632 0.24973173383033873 -0.05055666729988086 0.1294852659762386 -0.4197875952737605 0.4555028123678964 -0.30327852363135294 -0.034704788433831624 -0.1982840519736663 0.002525170630790372 -0.4383007327156824 0.13477492458399365 0.3809668262383471 0.246862163669389 0.5128902312240123 0.3691923606042051 0.11835029393310408 0.4357907264557547 0.09058353495203861 -0.2856545300264789 0.4958076467400316 -0.06103753255213724 -0.17462532703156192 -0.39421670564651234 -0.30006069225231674 0.4883563452851266 -0.019940052319886905 -0.3700874936262984 0.391237330360739 -0.36981440639838187 -0.2159661079959798 -0.10964412828282825 -0.06703596961288322 -0.3862377775589789 0.2662757106200632 0.5732765937523137 -0.37450525469351725 0.055531323653065214 0.5016440888875071 0.2277363022615827 -0.39238950941274675 0.5243425087309626 0.10247673689051201 0.4937137996580595 0.09472557737106267 0.25107119898256264 0.5530277647347968 0.21242719663237242 -0.3615412880031593 -0.2904402281020246 0.31215163003411667 -0.2736234315209286 0.13977482356591953 -0.1890915720037621 -0.17276092659387332 -0.32253580032730206 -0.16489643049740427 0.5305912001602995 0.4024110513569868 0.3690546292050878 0.3764080611252563 0.4147309447753095 0.02372306750315909 -0.2550416599591339 -0.25814515439770813 0.36381013668759227 -0.3255961894115946 -0.3286432606348196 0.5546477219564818 0.0678104855391402 0.38581862436593556 0.5982629303480171 0.02823017722404359 -0.32323714327603514 0.12837760535472356 0.3403355958149905 0.03314599046600529 0.5269848280300207 -0.06113959220719023 -0.2995070193640201 0.1360669652740344 -0.34371258597919574 0.12360672488268074 -0.22877626586422928 0.09451102298930143 -0.06407719598709738 0.5540739345208332 0.5508424524786565 0.09604518214665489 -0.02212393549554321 -0.31433578604655177 0.016682275305163644 0.0316005547451235 0.19349374973158956 -0.3104958295555293 -0.3533987516268021 0.19794646577869743 0.3319524046631746 0.3388848049113453 -0.22866655891288054 -0.05418942583500308 -0.17487182838548665 0.11284378277112292 0.04524513653578436 0.2165787528579508 0.1940374211936391 0.2908288508313831 -0.014319384356566378 -0.3982644319355072 
