2 
10 784 
10 10 
10 
10 
0.40654594068371197 0.33547535982739396 0.5555873854045241 -0.3335123668012765 -0.03739639836190236 0.07280888438163675 -0.09629210846356538 -0.08929583593235747 0.10175389105491418 0.4330892237865689 0.4281117892784219 0.4760214895705564 0.08008163083229813 0.13621661171209087 0.07469544060836752 -0.19519973358166248 -0.3265036003438099 -0.2965532167783245 0.21258649184859482 0.5288105902939281 0.134053984011407 0.31473558930113876 -0.3706299931665009 -0.39070560744248406 -0.10018131138961472 -0.2554484594904518 0.4730644472888905 -0.15410485068496277 0.12095945535626462 -0.3869602370498766 -0.2818393603032496 0.07705635435609778 0.3872164527010969 0.4488903115153819 0.12151585728613248 -0.3908993583904552 0.3820448417458047 0.07066253880514532 -0.07198838151581648 0.2034415509615138 0.41027714978490915 0.1417178187223497 -0.28365234917922927 -0.2116849802196074 -0.003087626746511663 0.3160889731436289 0.17550542851489126 0.5621938407185354 0.5980994909914954 0.20058677745751352 0.1246511457547631 0.5468452977832896 0.2138141863544299 -0.2563956268899558 0.2693689860139138 -0.07915726107121451 -0.11645357321025224 -0.3354843709514307 0.40579923384122624 0.04895371174387311 0.03703233349624174 0.3175291049232566 -0.3045358846500892 0.1763279195611368 0.23804186454668078 -0.04285817061975097 0.4001578728913197 0.21011245673086903 0.32377079129038067 -0.020808424261591105 0.5765568699090587 -0.197461987498493 -0.08010882274615964 -0.01666422138282267 0.3041494258364126 -0.09537264184562498 -0.15146756749744497 0.09314798614554312 -0.3954666984340743 0.4463602033493616 0.3122541848947788 0.13515283797552213 -0.2017979272066867 -0.05970322742122669 0.4360848552482516 0.31359810142031896 0.10608395337746569 -0.3465845935325399 -0.08048995259773578 -0.08729088756768713 -0.11662758033600025 -0.011075848708440802 0.02206896807080374 0.19698158341141414 -0.17380399688495066 0.06997552164444172 0.43792111159445807 -0.2767951970702726 -0.09691110508645755 0.2936265813249381 0.2290986574684153 0.08511868465780673 0.4745217556521066 0.4146762587497156 0.47800554444969584 0.22282743190472265 0.032894097744022535 0.012095175893453781 -0.24455658492357404 -0.29851286444566805 -0.2992121779650477 -0.10735171325747467 -0.3032346738801646 -0.1611958009606595 -0.2403658427656822 0.13248564769786417 -0.3043957078955668 -0.21414911602180273 -0.21541068696091037 0.06893354386602586 -0.2150421286459081 0.14402408571634312 0.3585124109431625 0.11395012097831776 -0.010720867754013944 -0.3893595988043703 0.488143581774117 0.1096662819750039 -0.24138254334944506 0.4953478851597483 -0.2412526918171336 -0.33468340597514845 0.03694047344351614 -0.37370420520901365 0.2749347814849765 -0.16421519631940584 0.23628917574777747 -0.3699739570467016 0.4758251641035056 -0.19991118508301536 0.5933263581685928 -0.22077228715452243 -0.1304134691073212 0.3770033781563159 -0.0034739709390549283 0.2921111063910951 -0.041563267023641055 -0.40189719742452207 -0.08516164772488968 -0.21971562632373057 0.026955146641903082 -0.07585772513982415 -0.06893642060858154 -0.5100107419324952 0.3177665029372752 0.3613140494613232 0.0989510041117015 0.21779595332134546 0.004743703614806089 -0.369776780428677 0.5254853815767808 0.3068887979790424 0.183139240166268 0.2971389207972287 -0.1760145366274642 -0.19313380487864718 0.48164802105146964 -0.012853487487971882 0.06234221024637421 0.30038411660623693 -0.3106001553579716 0.04524089233871889 -0.012985695986365864 0.3906273406616869 -0.21461580901169597 -0.4127961057369163 -0.2613786081477288 -0.04495041169010978 0.3526906284321732 -0.19470619089526497 -0.494491749734869 0.44935839104039454 0.21398737860419312 0.01842229551839579 -0.037939289650506317 0.11347399948096178 -0.15731853398833506 0.2487341721317026 -0.4102142407579172 0.014776736838822073 0.09624204208003469 0.3649488387922455 -0.35339319550346043 0.2535260017183767 0.5841271875457579 0.4645289632440731 0.23590977039048455 0.2072474586202041 0.16300700492160308 0.10478781744161195 -0.1904765651911105 0.3992757279510963 0.3350386930244821 -0.12570294246250768 0.40746851072757523 -0.013718861526315691 0.08776565106181963 -0.25273553532177945 0.3250370822908523 -0.2173189028242909 0.22794960093655806 0.3863349164966397 -0.4041057170855623 -0.049429313144728676 0.07172720260792376 0.43086858403241385 0.04900835569608883 0.22210167880241616 0.3135948545159127 -0.36919507776891064 -0.1082253510662439 -0.33803053270330136 0.4466490312854749 0.4620157909298115 0.010150412905054251 -0.13199126004830705 0.35645355681207064 -0.01464203573419934 0.24724773378601655 0.31413528366278337 -0.3302805462854198 -0.19875497732555872 0.4005985194928787 0.07215152904736215 -0.05398011659974916 -0.33365241704855647 0.20019632238373786 -0.4125745613894808 0.3481620777337501 0.14436716576532013 -0.23245457989441715 -0.419100881846591 0.26216656228326296 -0.12223897318339962 -0.22183742104062393 0.2612697613503992 -0.13770455493446773 0.41789372937257463 0.5169509515662344 0.12357826877599933 -0.05883090210150029 -0.21087164070066594 0.2701012164527603 0.500400699399512 0.38403865452340025 -0.32342683067290506 0.4175805155068063 0.3747878452093331 -0.006499120879469606 0.32383723877668774 -0.032413962201178044 -0.17833894595908828 0.34958614394437937 0.3134356846411471 -0.1872176840870151 -0.04421922392993021 -0.044286009573422984 0.07830515157931241 0.3659287286696083 0.30818396393596137 -0.39081930640314816 0.16218510267830216 0.3210338579350099 -0.4390984486759913 0.400410351192822 -0.06276597465355281 0.5237572712317525 -0.34357193277739584 0.06402063186948635 -0.3207056946154974 -0.2992519369936092 0.2784966217896298 -0.0724710383734719 -0.2654612058793681 -0.36258720648328246 -0.382671304997977 -0.14321508197014352 0.33206497681358504 0.40529833067395443 0.32734811566207783 0.21732650129231468 0.11006049495215472 -0.26732360452259896 0.16054946690835623 0.020016130664487628 -0.12180402634455313 0.33012115620243054 -0.1679874653608072 0.4139084059871904 -0.2456897485778839 -0.22922605524619108 0.029087724409721984 0.23340909821527642 0.5240213420923024 -0.30881505534338066 -0.13395045005486766 0.5349642425608384 -0.2250537765387685 0.261318179161682 0.4866196076947502 0.37256241386537586 -0.11339868554292627 0.4442748716651221 0.49070836752657965 0.10952672789592148 -0.1793037180445098 -0.2698048879794215 -0.11790816748595817 0.13046065831208672 0.14911847707817535 0.27893228659142993 0.18177534259201203 0.40887841427842014 0.3343286252140007 0.3675626987314621 0.31270321367529225 0.0779312346547752 0.4065780143451379 -0.2829549188324098 0.006462460193571195 -0.2635038653066121 0.09315318914063775 0.13879359387526896 0.5947747378558792 0.3092984386371146 -0.200107251460864 -0.28873752485698756 0.5602523934424549 -0.3632995416759628 -0.11579027900200178 0.08498665727110942 0.4866538345701507 0.38930854709105855 0.33384817875167133 0.2245483813181324 0.3727678873508048 0.4722182740814661 -0.041989949354217605 0.05649867014157111 0.2986159441833571 0.12026840629848683 0.22348647715414216 -0.2105575541410215 0.24074194689571218 -0.46690294098045254 0.14845261885877467 0.21035912365194792 0.47596443151367274 0.3653600692635138 0.05730792561076824 -0.07328227282848221 -0.17858940536254364 0.33460287044521714 -0.34443070396629016 0.04009453603051749 0.12259589591481067 0.34557050592140176 0.15324050855819302 -0.23250307852424099 -0.10337131623810873 -0.09680162398972328 -0.16309713197074482 -0.3925146548315759 0.34939836349497916 -0.10957788884981133 -0.1785960523974647 0.6402668687608017 0.011520385492618274 0.2786087022798409 -0.41127861359217793 -0.02088827591042927 -0.11084358872758318 -0.2956499539133801 -0.31985804542436513 -0.30621936787852666 -0.3924409108088914 -0.2651456396543373 -0.007648813457703281 0.334465597165998 0.3326007829015281 0.13245601283167638 0.2365221460915633 0.4650260231286343 0.013230158750325719 -0.2861476991936346 0.10143047727655455 0.17132958672374146 0.3411081771161913 -0.4453248419538062 0.24002908928831335 -0.413838778566775 0.5732279757487477 -0.2996364019677457 0.5677735108898162 0.42952209280279363 -0.14706304596109285 -0.18413812223024145 -0.4923446241581425 -0.46328256873312246 0.03175361528507925 0.3898200535669169 0.09588115417758415 -0.5021201881555324 0.4785243977994421 0.46086246948411197 -0.09842761226405233 0.4436757344175294 -0.2822690051471074 -0.14227306712393878 0.027140902499948494 0.07804301054161211 -0.2324584373978814 -0.18196442285185635 0.5985923571139634 -0.3092967754756222 0.3717519278445247 0.3471445285627436 -0.08772618527684467 0.4141406626834023 -0.29601069314255024 0.21446865950326277 -0.29250694536716704 0.5363374328512953 -0.2352760115266311 0.35725637740451893 -0.15803752645745484 -0.1249903700429916 0.25593405866970853 0.23966700351351583 0.14733968462443273 0.18723847435098231 -0.37488291295130305 0.4994301841125225 -0.09831192133398041 0.08423154693400127 0.04599906558703412 0.29804943565343395 -0.21657945351722258 0.2517631752310421 0.020353330904570435 0.18823737149499725 0.148185846511895 0.27913546585523513 0.3477598329795116 0.10988037861358242 -0.002565720409249996 -0.4821780237944271 0.0578814829577204 -0.3441900908050814 0.19478500151230224 0.3729638107616329 -0.15432236823165546 -0.05952062765719102 -0.17303344163448 -0.09775821868594887 -0.5036785000853745 -0.44919232935267306 -0.09536662748981371 -0.34440929742774845 0.37480349730053614 0.27138897023217373 0.022414834183264395 0.5370488865955365 0.02873831980692934 0.5763283448279283 -0.013782513625447301 0.3670437126667826 0.26787434004570027 0.3008114092921182 0.13388629838984278 0.5636094135434334 -0.06051341645234482 0.38196316697063215 0.27034525209849436 0.4230532996656964 -0.005555863409546298 -0.2635250063752204 0.04848883138831309 0.08357078151098245 -0.425573617681402 0.04481355702511097 -0.4460075051913084 -0.13777385346824125 -0.1403665689415304 -0.26019433620772653 -0.13863047386478575 0.029086588633068247 0.15650319069215948 0.4422025448869897 -0.06315000971201411 0.21188961794752662 -0.1568585798193856 0.2761152644275248 0.32513341847789845 0.5638068667545704 0.22225755504027253 0.1702079332082988 -0.29320032599645157 -0.395925715243885 0.2601303089578949 0.06373813608939188 0.19788766407561253 -0.06399881354859442 0.28436501339841797 0.08728278061385651 0.02120201110159467 -0.12326262250090653 -0.08245837255535272 -0.21925187741076216 -0.0946649600383066 -0.4890267174806543 0.14108421176265803 0.11573167100610735 -0.17905694470794775 -0.4129504601125235 -0.2806491218617474 0.14576553017257482 -0.3531276379496554 0.17268207009813907 -0.07568102670225058 -0.2995594960923539 -0.16961798125247907 -0.24421231025216283 0.19979220427421698 0.02168962225772726 0.21606445010245703 0.09427942244670771 -0.3197963007331301 0.38274000921911727 -0.27483428615454264 0.40173769722019087 0.09069534650868397 -0.0314503197784008 0.21217840605206026 -0.022419173325465783 0.20797431056654966 -0.3711983225014711 -0.11328583855747411 -0.3073942352011155 0.25925238591783073 0.4607791861785948 -0.3148440083636834 -0.4380844575080299 0.273426443570449 0.2906388452463434 -0.1431552704900548 0.1369733529937219 0.1880732455016153 -0.2635663147373333 -0.09421039178928758 0.10093523665793946 -0.10292964526864391 -0.046210519446562036 -0.21422244454989564 -0.17016015511920848 -0.32058318816566406 0.43315654399504216 0.41947609412148185 -0.21985582712141216 -0.13420116533666343 0.4733569052271812 0.27648186379307443 0.08022066679849703 -0.21725759601306432 -0.12010859143037364 0.41373957344735895 0.3126943577917927 -0.25277902645031997 -0.1194733766040613 -0.17472025199921298 -0.42705905702004776 0.41989306819712013 0.14353616083817994 0.17422784863642082 -0.1694382156829423 0.31367644686152507 0.5390813392209691 0.20173350015016978 -0.18796229981114632 0.587259137867951 -0.20710160537097888 -0.00567904370648177 -0.1829374017662921 0.46794838953744694 -0.3632935630557061 -0.061369824720270555 -0.22678681193658912 0.03637046207085611 0.2784654396654978 0.31602379389277474 0.004145861067067268 -0.11323401119710343 -0.2845352194988041 -0.35124206715241624 -0.03464262300256563 -0.020870294718479628 -0.35756202041222007 0.48403247655299225 -0.0195931135033252 -0.2333323104134727 0.24549216848253333 0.0061934344638224954 -0.2609481130897552 0.11886225780261554 -0.26021867350689243 -0.1362783619000264 0.03367625658034368 -0.34304904563322897 0.0909405504668204 -0.05497118061207595 -0.23324889925825595 -0.15013837766267313 0.17548773737845796 -0.28647688638068153 -0.16791510171274202 -0.37566127862408427 0.4000433567188661 -0.23113781487436866 -0.10919887122692948 0.1134518792728236 0.17997392898675563 -0.3889596292548502 0.29275006125544023 0.13298493358057145 -0.2872544949745704 -0.13869723208423723 0.20422920367382683 -0.42496031138432805 -0.22940575896977908 -0.43322943291973876 -0.18679425328977375 -0.28616389599170483 0.5449977340823977 0.4967938765023433 0.4145152852714542 -0.31840258165942864 0.047069189555504126 0.05489796676180664 0.4951294642259843 0.29077105318444807 -0.05587451076934918 0.08361518127456392 0.561967563478227 -0.20571412464449082 0.14099380214360654 -0.300162641899865 0.5232229654230792 -0.06292881997961686 0.29078009288677426 0.2190160868204285 -0.047390694651077744 0.16284260579214058 0.11339112436917663 0.46872376784417263 -0.13831894807926445 -0.1085660097000606 -0.12414817400046056 0.5482722728096374 -0.11997491862991497 -0.3793527201589941 0.5129535651039455 -0.30951984065766636 -0.2848272452054061 0.3768789810848419 0.3128012281806694 0.40636012615884193 -0.25828117476062495 0.4602676945924818 -0.32916454974102566 0.39715371358281654 0.09344777883665245 0.4751334326352948 0.4075974557577249 -0.04204499948830367 0.0919911159265227 -0.34976463633150395 -0.13361558729758227 -0.2678321895301267 0.3156844758252521 0.13874215469563908 0.3196274340250145 0.14606455239720437 0.5462700501117989 0.07472667763158129 0.14576010268818906 -0.13588402184136714 0.09650783545447121 0.10268931903707933 -0.21186925489966674 0.2844388837953453 0.3220331681060131 -0.3962104649047873 0.46752135121784594 0.4979088168083701 0.07802294108611492 0.18023763975222384 0.08009311279598284 -0.007324383690210216 0.531711157917044 -0.36699952403335934 0.27085724040575254 -0.2771704057252056 -0.22542507508178067 -0.13099919192147577 0.07954336586409584 -0.07385338656395171 0.3691091445630851 0.148306949433015 -0.14817652166960107 -0.15592337622508112 0.48247743085754735 0.32307601749936143 0.45418637744966817 -0.1282886449674195 0.4177924266289374 0.4578193994673182 -0.021543089243987828 0.41508984056286313 0.09993537566210997 0.41027812569053485 -0.29694898720251134 0.2503343519136611 -0.17446992701610745 -0.17215492803346555 -0.028888489078448595 0.4589972438071894 0.16698915706877304 -0.14235747151018055 -0.3525014786585952 -0.018003411542223728 0.15556027384837803 0.5781943365695753 0.4678001144279623 -0.1471908816819761 0.05133820265007228 0.4779955147212223 0.5784264398282599 0.4023630631084597 0.0376218117128001 -0.051526752087853345 0.5810250225899505 -0.29490885751149876 0.5809949623603636 0.27584435533308826 0.0086316923754229 0.34487727100093224 0.21635602161415746 0.24242700189123745 -0.0722347386903735 -0.1588255773162635 0.06356014966153745 0.2873983928832904 -0.11687473293241289 0.08170394842049701 0.4761818391555419 0.5881959154698574 0.22312707061207815 -0.017932828313745763 0.32898355010520564 0.5593041659842914 -0.02705144399802456 0.2831350649736507 0.5423514420609894 -0.15375917553193136 0.43767640424263965 -0.11376798787114269 -0.0913655761645626 0.038414198617672146 -0.02424261811357864 -0.16092001067813866 0.05452081046624946 -0.04163216757217025 0.4254218910026424 0.40796027080122843 
-0.29100318303970996 -0.17395659367499589 -0.12151587013758319 -0.2994086689889754 -0.16590911720336213 -0.18626453295404544 -0.12939569505889847 0.06079804453522301 -0.036030091722583556 -0.21198611481291763 -0.24665589391548187 0.3974007495859239 0.31351719963803126 -0.39424901424366227 -0.2607891358596967 0.2025668124830384 -0.288386390311221 -0.041379882134848806 -0.14514104966855795 0.19557619071480195 -0.1586492681663365 -0.3599748203275764 -0.34780084073636575 0.49023060621786974 0.05421282177036857 0.2915070914683645 0.480934273626483 -0.051037407199360896 0.26717549140313046 0.191229133888705 -0.17169833450563213 0.3692684873494616 0.5642326656359307 -0.3580431838492803 0.5902637495163405 -0.33246639260463995 0.4689988689305669 -0.05368976736455104 -0.13295539761362202 0.1404334328004714 0.2581894982795118 0.44476615974266326 0.3073813784761443 0.38606391827898784 0.12212440111124927 -0.02730989601574786 0.23212299298186553 -0.2369914267717027 0.2240711636459301 -0.23924646375134262 -0.1297948153986435 -0.14962848641204174 0.484915757121501 -0.04841387618471981 -0.06566107601128945 -0.04597971347283619 0.5859873949921162 -0.22711642778803096 -0.1554222478375409 0.5704669073406365 0.5202763829320473 0.017342250490407135 0.10269581075598119 0.32539477528146604 0.1316965955740088 0.06796407043258902 0.30726806211037494 0.3982904882597901 -0.3245483404414233 -0.3325517246479197 -0.15862301016332803 0.38962809418388356 0.37811153051186014 0.16897392792876864 -0.2894409788531272 -0.19577737125721897 -0.012762071736758798 -0.23295354829334355 -0.016853427963958625 0.5434523034323552 0.010981532976285154 -0.32279159978679156 0.03963512058390317 0.5425257915119122 0.4396090701259222 0.34880596257763063 -0.34597972789769904 0.19343219697820185 0.3786394514446361 0.10948962190342162 0.11761171113180226 0.2549203642495124 -0.045465179129141456 -0.29110036782719306 0.18783865074717682 0.11388094506973478 -0.33516487273025863 0.2935871708159362 -0.0658055594225193 0.5594486874281297 0.42637124107302893 0.4047952490392222 0.026163619013631168 -0.024770574084351134 -0.471969885639565 -0.07341592290972433 0.009166222794946093 -0.42389895477499145 -0.06037186907972112 0.5041449196718942 0.10931928025924763 0.3362669300538258 -0.17920057207369827 0.36139728997930604 0.4381949682866966 -0.02861341652294863 0.3209370136926127 -0.3885089114435553 0.11203260118851961 0.21236157227856062 0.15009807018260568 -0.15274719206888807 -0.38867934957211436 -0.3908690718612116 0.6196920080777216 -0.2416145017186682 0.11828337188844097 -0.3220309479361159 0.3703765031429841 0.17289917170605068 -0.23870617179262552 -0.3915480147888738 0.3629124177500924 0.23291582850532824 -0.1183329966428211 0.252866819443118 -0.16819877963965027 0.29934531399525227 0.40457578056285337 0.08561820881444648 0.29615957017905115 0.5112277417558176 -0.32704701522811797 0.3294513816196296 0.10350055117943703 0.48535759708469256 0.09107543668838457 0.10696160781469678 0.2587517581602653 0.32379426314066245 0.33200311353177614 0.47449950210925085 0.4315056063204771 -0.03916395124627876 -0.0683308331408248 0.41264380727076455 0.3586979462652171 -0.4044499014934753 0.05706717264503182 -0.22917863737252073 -0.28302669679248693 -0.02741548495432767 0.01132825103203403 0.39179361471601726 -0.27823570978065976 0.3697224669761987 0.07114467912982546 0.3342429865027654 0.05812665415132545 0.2276500893403903 0.22681286638845005 0.0612603014991098 -0.2222974500185205 0.5080428729915666 -0.08656252293934054 0.03394917468581832 -0.02543898971357957 0.5210114588539883 -0.1644908960971143 -0.22146114540608855 0.2766761566630547 -0.23667480862376528 0.6104508946920126 -0.031073009927264424 -0.019699439242819243 -0.2399562738846513 0.24715085429304023 0.13210412227392773 0.22015013070344353 -0.052597972526057406 -0.35213252138079126 -0.061673266511656034 0.24608182904465806 0.21351486529806496 0.5382268618161151 0.508518259619049 0.33946643111177155 0.1083510516867076 0.584893408485947 -0.07981470680863628 -0.20436740763577246 -0.3294831580762428 0.07409004896731185 0.24449150547588347 0.09067749500835828 0.10990696798748494 0.14615322316988608 0.29405595927405187 0.5867019766970819 0.5355268372400709 0.5747259447507623 0.14404709194740095 -0.21754195200115548 0.44792301346354435 0.2834160448603922 -0.23135438882191248 -0.34356220328236564 0.15321690317257994 -0.37973340078607737 -0.09554636454866547 -0.23910096609392859 -0.338374919295464 0.32660090392201807 0.13071678200949 0.38911217351566996 -0.1589280908980739 0.2930813447212933 0.19125504547369537 0.09048944215301964 -0.40219277778356327 -0.28984480867204554 -0.15464152228566838 0.09952814022686488 0.28185401112347863 0.13797273751445627 -0.20870981937483649 -0.0022059231061911403 0.16923202190371067 -0.1010750696785806 -0.2072680041936106 0.24251379137666737 -0.42363870695160155 -0.06984611742857129 -0.12027788545454529 -0.47867131233310356 0.2636126089260619 0.05475893507103585 -0.0918022402323734 -0.2183446796218128 -0.10917080138758632 0.104303413353149 0.5134264608303252 0.38343623485664635 0.4873134972595852 -0.20036784793124815 0.5544448623356151 0.4041576452449362 -0.18426258292576866 0.011959106687314704 0.48137795328590366 -0.15286057864255728 -0.3855456279283906 0.23447592323610914 0.19510161015553454 0.37508449165639846 0.18290598101953842 0.13515668756583377 0.48813351846722747 -0.39685988793963367 0.05910874441685863 -0.19737618136791596 -0.21952641608334048 -0.12754766176329543 -0.31561314396159584 0.0485900379229655 0.253903048311255 0.3241018747862404 -0.16915222673924613 -0.10980646975404619 -0.23887255611168057 0.15796827162175386 0.18474784163840688 0.14716132108888313 0.237736729549057 -0.3740003122260008 0.44209590566967955 0.06584971358926399 0.25045196090241517 0.001565737972794082 0.5203611220893161 0.36126188358675304 0.07623528482386387 -0.071097391858308 -0.1982709615821418 -0.062480878486507 -0.020829314088822458 -0.2522358303274225 0.36087567576440804 -0.2148035815489327 0.34576403527709926 0.006281754032475799 0.13627853660062147 -0.4325155516668382 -0.0010439800870706945 0.5091991284155734 -0.18364047556186988 0.15838934972956636 0.2528420207825194 0.2878612340698805 0.4427587005518556 -0.2885598252001306 0.5134462143835767 0.008348278187105112 -0.1929182735515325 -0.2931630028219861 0.09450446365985507 -0.09955681077632632 0.39918422760330563 -0.11138931668711155 0.3927198158999697 0.09555510182584136 0.07279319894077733 -0.1358904277290834 -0.045767652401601244 0.2786724874892996 0.20085004051149596 -0.26749491952782084 0.29342628225969486 -0.1191996268875874 -0.2957559356670123 -0.3378190384292903 0.05013746224601792 0.05531882561217089 0.23041409524580744 0.007611680092142118 0.5666908068689127 -0.3278607628677134 -0.22555578374433288 0.27318678158115944 0.17170900765734168 -0.33377655083826846 0.13873529744319127 0.31221556769458086 -0.3255413485630606 0.24415638536676437 0.4694675157013256 -0.29861737058683596 0.12484891347641511 -0.17484570461063925 0.2911429737357629 -0.03432877278404989 0.22592830294997376 -0.38582399712927135 -0.5147068458063211 0.09091479631712282 -0.22445767609550907 -0.1260349884932986 -0.1311692422801608 -0.3133869311557995 -0.43022892096747983 0.0758774892317888 0.20666238127807568 0.29239125350735085 0.5135667734107652 0.25981647506049443 0.04711215605804375 -0.01103372565415549 0.44089339137963257 -0.32816360318117754 0.22577499452977867 0.3276147142778975 -0.06697974321962791 -0.26651480977593645 -0.40375944512369566 0.22077381537685756 -0.21352041599396923 0.37432001393199316 -0.07956117631690453 -0.37961435857552894 -0.0735669609233835 -0.23798214364140363 -0.14208438782111002 -0.527227441738694 -0.032366452470043015 -0.44916190568500824 0.16420880616466801 0.004625631620028069 -0.01940522928123297 0.15969582704991359 -0.35700952349158954 0.49214309675123563 0.31247216271148803 0.014262977356311657 0.34436303429689064 -0.190636805721965 0.11031624863009923 0.1312477727932562 -0.048522191141402014 0.22799269145518336 0.37311490017787574 0.05065828298177129 0.455742864807958 0.21892598782975287 -0.35750019922023624 0.32787305016228835 -0.22605886545229256 0.2963055082251012 0.1627664002099665 -0.5327823163677002 0.018803656785059315 0.15502033170998225 0.11050425531918667 -0.13635539765875893 0.25328199226243225 0.12900024255142953 0.11574852748008935 -0.22163939035523975 0.38936694634213687 -0.22832410846674897 0.5994289838744258 0.5892110487234283 -0.019559074609664866 0.031521331079326774 0.1992985117660122 0.08597145226668532 0.40092703528300583 -0.17361348250576028 0.3052423898658202 0.2671076072676053 0.046223038597854864 -0.3521626740011537 -0.24136950853520736 0.4515852705059307 0.2958348280634354 0.24726121535365247 -0.4157455778081017 -0.05511021455149582 0.05810785882864992 -0.5046886463438254 0.11507980274526897 -0.214500775679881 -0.3293794967657883 0.30911905487703106 0.4687764190561221 -0.21038406478819197 -0.38921848553215366 0.550850135621485 -0.023441141736632587 -0.23985395532033743 0.04226477665113141 0.23235411738080233 0.34146739930885067 0.02594922601289467 -0.061385670629823454 -0.21295167564323145 0.09253463187327528 0.47760387486697775 0.43013170893356323 0.323355734009219 -0.3304687058522937 0.4150013177711059 -0.1416076857908721 0.4033978442463629 0.0555774009799294 -0.4770717184845094 -0.5347047316945086 0.3268359876728478 -0.06864081199868112 0.3661223487773666 -0.15381898335536956 -0.4617562351844959 0.2750973426540604 -0.0498852892399455 -0.004920493226273844 -0.34637463153142134 0.08067205393394994 -0.20164132052350686 0.27137222428990393 -0.2215407464139712 0.4618311218590335 0.029263863056310884 0.057479230984029434 0.4277703675587072 -0.08613505816383506 0.1339661838643727 -0.21199995843925537 0.3442926304142041 -0.11199756190271092 0.4982044379031313 0.3366963653182601 -0.42938588798930416 -0.25661511720880453 0.23964335866053896 0.14172657583198542 0.18895661208839032 0.3181508618880876 -0.21558331798300304 -0.14033475663096254 -0.30349960761908973 -0.22362594357883153 0.25374060748837085 -0.1877452928830904 -0.09123515677254013 -0.34670483122920476 -0.35542146238206085 -0.12037054426712641 -0.3359834637808889 0.11561140384111301 0.420239027441107 -0.261676661248728 -0.26073982710307864 -0.2967572994933857 0.10972395710966748 -0.3363453460946544 0.036335218181201265 -0.16375210993938757 0.5158471482905825 0.23953203156326108 0.12776449587647673 0.5373821012706935 -0.18059390166835085 -0.20853158654597687 0.45916368572061 -0.37895516780236865 -0.21369081011611046 0.11073177388576369 0.04565092879916638 -0.12287028488225785 0.12040120686765893 0.39899538793325817 0.3104384905346328 0.22793824718223932 -0.147525065970375 0.38212216780904745 -0.2234531595147197 0.3963704538825485 -0.26869971579669316 -0.08616879032650325 -0.3365598266989491 0.518696672871462 0.5477917732907477 -0.2472772136520968 0.48072830552845264 0.4113317948057939 0.3544221666115529 0.41773319136759124 0.037828616326541324 0.3866293916723286 -0.08800009782658792 0.14412967018244435 0.5066748835971996 0.027330618732612316 0.04627059912193078 0.027381086833082408 -0.3353726348792111 -0.12274269348936473 -0.21239129591536635 0.3451978994093454 0.27463321661885054 0.2754937325269311 0.05779032422033559 0.17291955735792428 0.3628456684194366 0.05923590975797431 0.43461315816172086 0.14375078786069417 -0.09348646818900233 -0.22713782064488758 -0.3111359560488364 0.5335048730792845 0.47396113878241813 0.5012568820946324 0.4397660131233104 0.44943727105407566 -0.2615780041714949 0.010711884343866463 -0.32768377842935387 -0.33247053639492213 -0.043250182404544195 0.14712917428385847 0.4022945416524053 -0.050330681846942796 0.0014469365515543766 0.14876042959218894 0.3204360498091172 0.4002989897357634 0.3973824548865441 0.40741258898043053 0.31774120410724005 0.19412350682928906 -0.3749798960997126 -0.29495865094736856 0.3480336378106051 0.4331622298510042 0.36642690906399694 -0.14960358100038773 0.04836516974800091 -0.4134446689737959 0.22201831394410143 0.007117080704601103 0.3152159740237764 -0.13290340818396926 0.4728204060903063 0.49067060785980343 0.2980476518383173 0.3984538789006005 0.09820402950832191 0.14583568667750796 0.2582815350070611 -0.500041595492226 -0.4507723611107164 -0.3666604346751532 -0.023572179501748128 -0.23565729388240653 0.456958253106634 -0.246313325881157 0.13537723390469858 -0.09912906323121917 -0.04382628047106162 -0.2266080208621063 0.23530552665801188 0.4609667933097083 0.46253530542122395 0.0831617787555583 0.19169267456583114 -0.2841531994800236 0.4461375271978032 0.33449227115338864 -0.20361881897203438 -0.05718169718162866 -0.1976093238599155 0.49100767480860036 0.10479707190490001 0.3633990187725133 0.43538616570760846 -0.12029977468533094 0.1876576636432772 0.21288704581064666 -0.29973668039763696 0.29812175430984245 -0.13132762104390858 0.4951137864716284 -0.35549163034146364 0.405290678980316 0.20724892132828776 -0.2521628136809426 -0.3601541312911696 0.4874613625140022 -0.017188114368324757 -0.06773728343146007 -0.07046046884161056 -0.14322857478746884 0.007389248551630111 0.48843530830943843 0.41467188788097004 0.5335232632101857 0.4809408566113983 0.039164144789711766 0.20477322685445334 -0.24244714642719523 -0.2256483355997108 0.19809501877681612 0.32056905058121526 -0.3416650649702872 0.30283662333634975 0.06479516270666581 -0.30545639376886474 -0.33194080712130475 0.006435775985212592 -0.08328015756250948 -0.10067425404591425 -0.09723559066480708 0.5821081226663654 -0.2898457738477205 0.007291918624549032 0.5064462663384184 0.3934695123130399 0.38412205100842 -0.36319267196135346 0.34739381554312376 0.21484226226252626 0.3395747951505068 -0.08608801036866821 0.45657535634577573 0.4391641426683586 0.5513651793728405 0.24764157346313992 -0.30638043074905313 -0.1432815058144841 0.11280054766147586 -0.20137991747113684 0.05689293670082058 -0.15145436539200416 0.40934569314464786 0.42338759147574173 0.2783777026954535 0.44855844194635247 0.2631517227417766 0.15124438335593685 0.07847130014460346 0.49702359062687107 0.3380073857104249 -0.3228117921073293 0.5570257767243167 0.21281562631819115 -0.4073397228982954 0.4296004711958797 0.24685916133807773 0.32668254095498084 0.10502886426852294 0.22575464977750506 -0.1994972128503735 0.5243392619722673 -0.16633404258422796 -0.2799851414852973 -0.054033400142499466 -0.04652300705558553 -0.23574896941079276 -0.18318141337085836 -0.09559732624750146 -0.2410438488218538 -0.24788874832921556 -0.2829646459404703 0.2958763898152875 -0.3705614168511894 0.38583105121638633 -0.3738671370298388 -0.052972681101746244 0.2032993014976644 0.3522483501233152 -0.2898983215150581 0.40755672627754574 0.3252153114077847 -0.3652707080166204 0.5761108574475431 -0.08560050529685155 0.45446325602360005 -0.3563475647869827 -0.30583623845500185 0.3202874207161682 0.3553045838022381 0.0028384136325119366 -0.22796838962395494 0.1659186621596468 -0.03295801023505724 0.1009297966872221 -0.10070138066906281 -0.00823058048718034 0.06107984290205694 -0.22140996221171208 -0.2543879114482077 0.05346222362876105 -0.2594290410690864 -0.22884640295707986 0.47959860482622063 0.05848826913278349 0.335746359803446 0.4382717526474478 -0.35168481395600837 0.18479036859348974 0.31942465592768077 0.012036907014264187 -0.3522107962276455 -0.36035054773091985 -0.3859026065036517 -0.2663810049165014 0.34052110601550445 -0.06846162824395918 -0.3598713945870826 0.2792420629018666 -0.35869865893521546 0.18529870104381396 0.13835464737247605 -0.13040490011051942 -0.0801019176275985 0.1009662804500327 -0.35542771560468517 0.4244960840744382 -0.22761574703793125 0.2710956365807795 0.10764870614052546 -0.008798319398515109 0.5111034496523135 -0.10215049575278251 
0.3379161711647708 -0.3894325122556091 0.1014204692632209 0.37492531906344395 -0.3078684022815794 0.5948827366262524 0.5757673753306853 0.5710176583631955 0.4550025780721758 -0.11704018310193236 -0.15718231727450008 -0.21978188122682998 -0.043585453052434 -0.20812836299668597 -0.12731040611408567 0.19062548889424763 -0.24253834937607255 -0.04428749550968153 -0.2406905399220155 0.48372099684524955 0.5935589479408483 0.10757306543472661 -0.015345258321035886 0.26397140458167223 0.22572490207410234 0.5066187390582588 -0.09922815056135559 0.5922656483564055 -0.03724445939261206 0.3703915425476525 -0.040683506103038086 -0.3322808702358806 -0.33051686008372705 0.19411736501936416 0.26778235246160814 0.40348874677503377 0.46519749804418103 -0.06356289779290672 0.027394531832809658 -0.2594049361897801 0.3658919300578362 -0.0689602127961291 0.33001395764040864 0.33139920149970375 0.2981034644243642 -0.19238957226266254 0.4602594188098832 0.24074460357627997 -0.3712789072618663 -0.18195999690248219 -0.1026555225608951 0.32071396318453477 0.26151543006639516 0.3188951802759873 0.3996910886967779 -0.0089886355600024 0.5694548564697783 -0.2751188515405444 -0.018166983729657738 0.24874844058917225 0.12215142825084005 0.135120775185836 0.546457732746555 -0.3973002305335967 0.09431600913349043 0.32138600041274856 0.32921581719856424 0.062821770652166 0.13672152942579474 0.4147765164245773 0.367101028445511 -0.17693689763721532 0.4944383019880718 -0.20586202155016448 0.5650599396068975 -0.30215852606139876 -0.3057199115220555 0.4455489411689245 0.5194502968932296 -0.017926050810288145 0.5638836008162946 0.2953866106461361 0.28120285946456774 -0.15132408396758346 0.36136737067265745 -0.21073582228096083 0.29095641758890717 0.4049068738446607 -0.32437250341703683 -0.3377411239463091 0.5580804434274964 0.38241573272481544 -0.15867955105175882 -0.11152366906347858 0.12191067694931865 -0.16937310773875908 -0.08427483174768811 0.12222864690326496 0.3308429441067926 0.368703628960644 -0.14289538562612222 0.28501564889521885 0.3822214872346634 0.15989078124398387 -0.056623080674001784 0.15631915183074668 -0.07567585945796522 0.3182906375922981 0.2686341096899075 0.29956627511263445 0.41227452806169074 0.4198928259965078 0.15468879906465927 0.5123513276592693 -0.2022733536223541 -0.06860350991263844 0.013616671939013992 -0.2816143252502298 0.057619165367554855 -0.22229286932402026 0.03243828693325437 -0.33965829149391 0.3418819362261794 0.07788261386287947 0.14616150502794253 0.03995138454499911 -0.3532540957189602 -0.41223167370426206 -0.020035073535908075 -0.35049859028619784 0.4104303606916571 -0.13298416063530683 -0.4406743416967026 0.15279740741385048 0.36746179521681355 -0.03811514926238922 -0.16009185118379832 0.499220954370853 -0.3471821108026804 0.40466966713675434 0.05322474506791275 -0.1635399616627361 -0.36420707940839 0.39230411852207286 0.23221225484526725 0.3505760471985208 0.08936891922040315 -0.32079371916614313 0.29948205970706965 -0.1301802610793738 -0.04373441845271126 -0.40241352133693314 -0.30133742704963873 -0.08115921578630922 0.37466019838916437 0.3794061929792718 0.36129414381641844 0.32930256906440825 0.052901988954230074 -0.36462090287643534 0.13296588957174324 0.11618007096825025 0.3906993888503181 -0.26825683400053774 -0.2293087976551948 0.261372867764784 0.3665692608902572 -0.3635577878817382 0.31168967136048364 0.012741470135302828 0.5137734143506376 0.13390235755382723 -0.08597803862375736 0.06703325570126639 -0.16992613342349394 -0.3195908413673966 -0.08874467600681388 0.19570524623879737 0.4150439414141796 0.07757774037034632 0.1975732543153266 -0.22965766947107824 -0.34963773022688976 0.3870272796142666 -0.3197065288739296 -0.010869831628856309 -0.5118458577960955 0.23803637333032795 -0.3659188266337476 0.18442269954638074 0.30516913592346495 0.04117538020305846 0.39976623405750183 -0.26769287612621395 -0.13820562943191622 -0.1747426564582753 0.46815497411198204 -0.14741164721239194 0.3540992639113693 0.572247857609964 -0.04813909196427838 0.4073699902988762 -0.18730675415328557 -0.008546211119892904 -0.14974642275662228 -0.383478270594035 -0.3443735339959221 -0.11765988239013812 -0.10685312700256175 0.40144722464734506 -0.03826999786807714 0.3699104776145592 0.059828098538018175 -0.11143319770009029 -0.25670038528221495 -0.019301534432551896 0.06516167164386312 0.26727271210084014 -0.04830315345107072 0.29690987826320525 0.006423174295918433 0.38286077962607745 0.06432886991257408 0.4142541184736228 0.18846528216335068 0.32477271719220785 -0.37462817085536987 -0.03621721697121001 0.03941795149714538 0.45020341444159034 -0.23236977107855356 0.38585545501149315 0.287582776357665 -0.26604512946894077 -0.06642692866369715 0.34182489721451986 0.42390261136788077 -0.4937068666870204 0.4430324864587017 0.327039077697493 0.13691441023683618 -0.1488719653931953 0.012094100690706912 -0.36762473284829744 -0.30835288907226427 -0.18204990091118675 -0.4388976467287696 -0.10738022967993587 0.11256369599454952 0.49536855855194545 -0.04351889693464072 0.27955956894583467 -0.36431203482106145 -0.1233796016057226 -0.10212201191020302 -0.08209846854923812 0.24496572457402718 0.10497574099143257 0.3948304195776499 -0.4562193903502206 -0.2580853634641222 0.21260282378636816 0.44935709961379966 -0.00042644479810961437 0.4758657721669415 0.46195226475899925 0.29743829416535467 -0.34702612070651423 -0.5163462023905948 0.3211431814227062 -0.03141470512166094 -0.25611927081575403 -0.05851663313470809 -0.3100183440743938 -0.0331305579772533 -0.5104245682934585 -0.47529572421737293 0.33054138009226575 0.3132875709716567 -0.2992836309408723 0.43507751561407915 0.4692699195488044 0.5038641531884104 0.3983863651718456 0.25324169037579397 0.07788306000815427 -0.2184926114774591 -0.16596277299989431 -0.4293824079744873 -0.4301099672899699 0.33319591994976344 0.4709504903776601 0.11139148065333082 0.28755288867803797 -0.3543951054460301 -0.4487336179617371 -0.5246317208220503 -0.42230950317543253 0.25812630062301517 -0.04421351519430093 -0.45583064416253455 0.3874874451093001 0.2228072921217828 -0.041674899040984335 0.4712458696525746 0.03836935457186262 0.10668572947051541 0.17588597450099175 -0.3909379023632594 0.5100261521583039 0.023060734929702197 -0.4050241244469263 0.13854556949913305 0.04413917696943092 0.025347275665523195 0.33091266163117383 0.08935186863814519 0.25973446668515315 -0.31395869739624277 -0.25300491953258003 0.3855735703953884 -0.4145158628698206 0.3819944450817177 0.19394771957816076 -0.28533257494082676 -0.48943220465381787 -0.07621732939598916 0.2437939087056379 -0.08959101616217424 -0.21140608771453462 0.05190279420062758 -0.11292776484459546 0.23828341904939912 0.43695017254645413 0.5425552422112291 -0.3140002325130908 0.22093742211271294 0.19490683288022131 0.24458168948576858 0.1273610968784153 0.4408151154944612 -0.3431572918092488 0.44072908182275944 -0.4360193398994478 0.16792844969391 -0.39016510963978296 0.5117421099847299 0.021868660633674243 0.4808323204192626 -0.05396461823978483 -0.4589870404432478 0.42850925733680945 -0.36925452715869805 -0.4881466497872409 0.11845140914749126 -0.14259352309737902 -0.5413072859173564 -0.4036549827120395 0.24676358415289917 -0.04210459264584129 0.1807214359575315 0.017830885724673857 0.526298883368533 0.02210384101559626 0.4245993154785541 -0.18295255410114186 0.07365638597274249 -0.2825313308723984 -0.4786749712585729 -0.30810444699626843 0.4712717872582297 0.19213440939613846 0.33709915007777036 0.0004799297366719267 0.01050664259741594 0.21747974208404697 0.3422332521523816 -0.218803674901748 -0.3994272844657049 -0.1754705210314743 0.037990467350867155 -0.15189767281576305 0.17069324944026834 -0.4816326835974663 0.2247141723471136 -0.2830710706160327 0.22044624888681316 0.19542788496618846 -0.24824112296809903 -0.30463922277936784 0.1953792136314376 0.15299633551340186 0.1941031282861022 0.5733386630204874 0.1538407111631915 0.1010698284309722 -0.029710627452789927 0.13090708441029028 -0.34040669374725746 0.2781086209135402 -0.1745259824576093 0.5609400169851908 -0.15110459329189213 -0.13574528310213319 0.48215291529181453 -0.09716536267312498 0.11292476393498349 -0.10136264626277049 0.4482107907189514 -0.0240261785052209 -0.06166056985993323 0.14646260416722454 0.28937927624888893 0.4608652571050453 -0.17345006843920782 -0.017576296184511123 0.36945726942521256 0.4458200850032715 0.3691287023732363 -0.22778529726357793 -0.24511250332155027 -0.017948616244413608 -0.39733107211739294 -0.24777120874530764 -0.09725863854893933 -0.26045862656343294 0.26589736344544296 -0.2011031278361879 -0.16055899685839922 -0.2231390074470251 0.2525700228511645 0.21122489769523323 0.3420528682080005 0.08465337437344617 0.46981533821034693 -0.1530812735878204 -0.09634285990366433 -0.049434080265722644 -0.39906705881417476 -0.06688530976623787 0.327732648677516 -0.07846798097516099 0.10977742316736566 0.43579771780947635 -0.2398943600746284 -0.10350041005111575 0.5792756740639141 -0.33250240009018295 -0.3603933291538589 0.5082922321437484 0.09830605453491069 0.06399296466253203 -0.4680544108292683 -0.39747095484929557 0.011301407527825562 -0.3955935786108497 0.16911557810472963 -0.12137182819861836 -0.10019626300705534 -0.36274601237659854 -0.15359069202770814 -0.3964824769165867 0.30293751780149303 0.24538458969401938 -0.3349108952054931 -0.16728934960141126 -0.012702142474366811 0.3281067991806908 -0.14397920950350204 0.4557463330246066 -0.23392128331961104 -0.17082367106479376 -0.3623446269580568 -0.09750146202839285 0.18384791283862928 0.5323076766275512 -0.05541600187867318 -0.2896146073141553 -0.22523963114432088 -0.06314535493003073 -0.14722932322249968 -0.38027758494379044 0.10768289250699702 0.30836186290941053 0.18046757727610455 0.0156713574742843 0.3981101052510287 -0.23777377002520314 0.07112177388124623 0.3860670046284091 0.20910986904286646 0.2936339509194094 0.2192520120031699 -0.5405000246334021 -0.08697855243407104 -0.025191864590778573 0.10172187329947316 -0.4889934151814751 0.06413058086256228 -0.024778700952287343 0.40306071414985783 -0.2063512064365381 -0.1468893975204368 0.3704544696362231 -0.21897447008690435 0.22957110216747328 -0.17167310433918828 0.27098688552096306 -0.3788801185400661 -0.30947839780537645 -0.368966714324932 0.33281994241148244 0.29331264485203773 -0.19361234670842567 0.04878116397806676 -0.01888626169347625 -0.4129171062866239 0.22751995003285808 0.2968941789199891 0.14266905422145687 -0.5015925791441802 0.19761780180259927 0.4120337896228956 -0.467120379080614 0.30273964940971804 0.15435315984173612 0.37360965234090837 -0.4254323891878392 -0.03656811656152004 -0.08377166861062488 -0.03425088314422772 0.46927328919775335 -0.11896066156379714 -0.3541876862668368 -0.21185683750735998 -0.43213408845653667 -0.08994908188200047 -0.4285543875061808 -0.3607915396957621 0.5010400768280509 -0.3374879089964346 0.2422878358640118 -0.08140929375953462 -0.4312959539227341 -0.37787961008709425 -0.10963206966279454 -0.3153600937569013 0.3119276434468565 0.006256901105971711 0.06079644679852309 -0.0874036264128927 -0.18739981668507452 -0.38629601072178055 -0.16282736320125482 0.4592635587829331 0.5155562632900371 -0.17812938647597293 -0.15501143316416707 0.5793371748902001 0.22237905752500642 0.09634422077402083 -0.11297233436329161 -0.05695518513671824 0.1679037161747411 -0.4089544056587061 0.08023626148546276 0.2670215655749917 -0.07091220357285885 -0.1643310220767904 0.2910509997937721 -0.28914839876403886 -0.07898798663941398 -0.22696496903017863 0.05340328562599832 0.021129250303688497 -0.07152003531798777 -0.20065277609806154 -0.4421440333308861 0.17565472013279884 0.40823291056446687 -0.2064671553705892 -0.22997683550878098 -0.09154260906628674 -0.37678742042512725 -0.06673951689787008 -0.3948103143370091 -0.25868018430040135 0.1901598891553502 0.12910339264324266 -0.3126989201808337 -0.32903726935188005 -0.1286889918870541 0.07809462643665882 0.06756566863157343 -0.061376269411455416 -0.379184898426603 0.2485099014963473 0.27038677290057 0.4842491327737925 0.2419009839929331 0.29901148942861844 0.4231849428314178 -0.45379332690211 -0.13503996715471756 0.10470895317956516 0.3423943284461454 0.3380466134532331 0.0676938036931322 0.07492657371809602 -0.39256613880884544 0.5223953781378564 0.34519799212435337 0.18546978094799255 0.07859465991532455 0.42719937668643104 0.15245425128240786 -0.28649369350430726 0.470554943803025 0.5438264489219068 0.40365074946138124 0.3002646979464322 -0.42348820655394276 0.03891362145101586 -0.23121811697325828 0.22558950100243808 0.15003613315184292 0.2628464983722395 0.27640733667772777 -0.023266083749535014 -0.16530329516101144 0.5385364974295453 0.3378924246583879 0.023863268490682085 0.1173313763530428 -0.1862961832329715 0.33773695797458947 -0.17098200079478973 0.18902766920637795 -0.2126519032369982 -0.008647741519152622 -0.04842704519882665 -0.33013937951296246 0.3753909799935403 -0.25220368060127046 -0.04065037382225184 0.16321105335373834 0.39598569355188995 -0.1439199333832082 0.3673056638927687 -0.19060297789487693 -0.0805844554414149 0.12950805478913763 -0.2884914418961701 -0.3699480100019059 0.45972768844054923 -0.3641723830598055 0.39583006967327483 0.4405252516520547 0.29335015438248097 -0.12832281230813192 0.2182240711715002 0.5249028277555955 -0.16870771799258089 0.18363431519380116 0.12851022287866645 -0.4464732963903639 0.39305666490746577 -0.1585672990149005 -0.21532179528227582 -0.08570399804960938 0.04586845027059759 -0.1134484162304199 0.434651712872421 0.5192550570676828 0.18251839910610534 -0.14729757667127233 -0.29085717722715315 0.229073651372588 0.3113483529118499 0.22430183367953307 0.19285361688465052 0.3211720865054173 -0.05307420139035305 0.08910274566403134 -0.21268856771298475 0.5336026872463482 -0.2310606190092779 0.2825346127628445 0.25893135209560775 -0.042564360984203915 0.07154793950098659 0.42692145203575094 0.34139231792872743 0.526680920819309 0.201606755178522 -0.053372719421469275 -0.04613926423139725 -0.06646747178338351 -0.19645524752965918 -0.20776373136610438 -0.37018634154182545 0.3511400176024862 -0.39901064443738965 0.2613317523431288 0.3254579354200699 0.13941743882003468 -0.32378500050972997 0.5259033857357607 -0.19471652513778587 0.5398920302654383 -0.12791007344549715 -0.13424313169539687 0.05491464211479711 0.47390050373978104 0.20304356225708808 0.20639379471789526 0.3813804839118263 0.5258663704319203 -0.379161061438942 -0.34347331289986727 0.35769923591531744 0.527086775125488 0.31501024252448034 0.17577849301111348 -0.12386659927336066 0.45693168956581215 -0.3161644762452465 0.3203946263131794 -0.28811578555348916 0.2149884001976885 0.10493363490487148 0.06529439631053269 0.22235016730635945 0.09251638192578254 0.029740243099818788 -0.11903180291399146 0.5743957769226372 0.2800281538501789 -0.12098811029729391 0.4514714471906032 -0.25766574327928576 -0.19116458030091113 0.5411008977893357 -0.21858410684634508 -0.34429711588118356 0.08805985978825394 0.3883192009025319 -0.2812409108559103 0.5265839651264324 -0.2593287851822785 0.23435084768137734 0.35460420857045477 -0.13567052454421213 0.32156206245085794 -0.1856772010555852 -0.20728666809035484 0.034338890913340525 -0.013150024194726828 0.5184455699116806 0.009916620195601578 0.07348550794050412 -0.29415156936791165 -0.04493944396889474 0.5484603136549049 -0.2425236279329665 -0.08457642099165372 0.10692520672651451 -0.36136951696441544 0.5567712376364184 0.427473279702825 0.15528412526874524 -0.37418954103646196 0.5698022400100409 0.18792651017594353 0.5503503022169254 0.06617799240392205 -0.31191816284137547 -0.050993827087075894 -0.04326043737480162 0.5671384736134866 0.395849710339333 0.5792349070916534 -0.2995357427341773 -0.19949267070139898 
-0.08381837599067143 0.5491530025187725 -0.08462167260817227 0.007043126444192027 -0.0558473460248312 0.44454008141517987 0.25558240859908254 0.11395809227427955 0.3320186105822283 -0.15055004366788421 -0.39421132982531926 0.4556476733937157 0.10572093115333081 0.4950618657042354 -0.14133085689869357 0.29212160135132753 0.4556847135994791 -0.1419997763113411 0.2229998992529077 0.5008550974295433 -0.2748428961886386 0.09131162517938025 -0.03049443019942757 -0.06060166655765159 0.22622056877968766 0.35127653299050543 -0.21737942377339625 0.039103681289359815 0.5321502925832244 -0.37749414816149474 -0.10675895098424563 -0.218185649540297 0.19854445274000762 0.28146547533157623 -0.02424475748451546 -0.22272493589996228 0.16111533622492066 -0.20137407960191392 0.16205512251238624 -0.014602878767975318 -0.08384152515937097 0.020241262984909695 0.2849846433956792 -0.10801029303354943 0.3237785494119867 -0.15425136890320673 -0.3184178564664894 0.06526941340806103 0.15252545625461503 0.2756269479009247 0.4514875681759792 -0.11316881830679924 -0.059056204603437114 -0.34583948579598567 -0.3091009441659645 0.25331414649670614 0.5100329755106816 0.5193206081929954 0.4819106620966636 -0.16641521210389343 0.10629977590958795 0.2660122753596368 -0.22223852777287192 0.039339813435564 -0.18558773166429576 -0.33809614335089716 0.013067009609466183 -0.18502211954102418 -0.09016197032022251 0.23368738545100498 -0.024401767037701205 -0.20277836093394458 0.20283799907304584 0.3696442079172206 0.3915233693665594 0.5382238926193176 -0.13680449879437456 0.5250721615097959 0.5921087249566652 0.21635514627083785 -0.2967276245931877 0.20414183095289512 0.16535470694876345 -0.08018910611029195 0.3680044752596834 0.04303933373986264 0.35282368165833633 -0.05917996617075192 0.06934064138100299 0.17891983911209466 -0.013346806572037436 0.21245776425548116 -0.07627008737662601 -0.31247492164035073 0.40541246157482475 -0.3623136751563478 -0.31355410403520234 0.3114955747750994 0.5551144797438375 0.11460116553755532 0.5446617889127823 -0.1149382341640194 0.6114424356355619 0.5624819303350284 0.11592459586628324 -0.05329968938157643 0.42364392875829826 -0.31209265627405713 -0.19042300668498624 -0.06241998604246772 -0.09606136760539273 -0.08417069230911123 0.16771595516423 0.4350520642230033 -0.19050657034786375 0.09053569747623776 -0.1480690569161725 0.5292253587401822 -0.14576776574711886 -0.12101164759059745 0.027681180648718537 0.24301150540613023 0.042170406435958215 -0.061506239793595346 -0.01885133172129201 -0.2859233332526379 0.16098803529137243 -0.00163693377391175 0.3270985549140116 0.3901629192721085 -0.10431957828770162 -0.2068669865606151 0.1305468473568562 -0.22807064107894273 0.16021811672671807 0.3335745958628556 -0.24386436249525795 -0.21521482309250153 -0.3688533657396517 0.08322945349830857 0.42267457767308936 0.09935067386851296 -0.03441801407911079 -0.09140938029106599 -0.3398265226038744 0.47674671571387084 0.09182402784965597 0.2793612864277839 0.1051148048611709 0.20583206127037354 -0.023187217734128743 -0.06938623008244406 0.3218700179647611 0.44751915693827393 -0.07764074294696983 -0.26678011064509527 0.021474463467600943 0.2555235099077727 0.24471605387357234 0.06421412387825141 0.31754737449355086 0.3268902693849543 -0.2361239487478222 0.18680336611792492 0.32259043548064154 -0.2988953024876071 0.38647583393732615 0.5558746332457538 0.09971721842559012 0.5595501335944272 0.11149347989243652 -0.09197508251236859 -0.3029018797382035 0.2845853582217512 0.3092579335454864 -0.03940783892757766 -0.37444757168032206 0.4741765672385868 -0.01243402323166468 0.40276242627656433 -0.3071079332996456 -0.30380467477559187 0.4222144396589413 0.3910893386853743 0.5431125680043576 0.3036224221724376 0.4770951863441284 -0.30609746820544115 0.47818440894996966 0.43876263670733034 0.22651991353975395 0.42908026140505895 0.4242640127567451 -0.16310643063863547 0.12550357244940566 0.5533192687145463 0.23932208093998641 0.4242257859803584 0.5635061565955669 -0.42128200842337543 0.39925361533634285 -0.28822692480187057 0.45300382411614104 0.4514803504209821 -0.25699646261835324 0.2086096978001137 -0.3733714152331037 0.40176409793120293 0.15103602590789947 0.5363575415774589 -0.3741187546361409 0.07546714197584206 0.5366273677144522 0.5979965934266361 -0.21789606787020233 0.20545926177092552 -0.21189850690974238 0.33437693106889926 0.2640347750279544 -0.328604477456377 0.49778195523449326 0.15951727397206011 0.5941435745823066 -0.23533590395508003 -0.23007308846445274 0.36327679684095304 0.20059924304699478 -0.3883964268251302 0.43464807378180553 -0.5373456692173821 0.07470302413106297 -0.5071830119888441 -0.1979194332849305 0.4102632761799097 -0.18643548926648054 0.3631046669828101 -0.46649866860583367 -0.027807790825580235 0.3966949827932737 0.3551080701405254 0.5893415446258975 -0.0633872633726974 -0.02187165107360249 -0.23611475466953505 0.5764712852735101 0.17220604270428383 -0.42075712776433416 0.36659189681894244 0.42327671386785964 -0.1765832585484217 0.5108600553451811 -0.3723696263771248 0.29059634252990696 0.14200884757211896 -0.18977522169913102 0.39795978831588885 0.18890709221852425 0.1087552183214255 0.32300218574315925 0.2972730186834994 0.11417126908369944 0.22855203106399438 -0.3785260344379231 0.42641595121111714 0.22855531614254926 -0.3347654990306759 -0.21761893845607602 -0.29384521230192007 0.04023643772300437 0.4442771344635571 0.2605845199416943 0.39252181657606194 0.40641526024897984 0.5175574141949311 0.11517392985371436 0.48105049053224247 0.11217809338493802 0.4535994959316655 0.5408161713126458 -0.2687192636847069 0.3478950758355739 -0.19173348441087493 0.35146161222827266 0.33627153856590986 -0.6210446389649193 0.28475290119675867 -0.05891306178882272 -0.007956073100410275 0.20402726817838387 -0.03623546216188816 0.01461038118932422 -0.32571607291510135 0.09460426396666147 -0.10656609984555918 -0.05237110433111214 0.4262364095516621 0.418263292591304 0.5517269154960321 0.35003786163120065 0.5273240186735981 -0.2936884037155556 0.4428042707682365 0.38217527971447235 -0.43373623329685457 0.4783023467574558 0.19008700073838322 -0.030445247520170075 0.48478302498664294 -0.33893837843330377 0.21985253953098793 -0.22526071567491246 0.3583587776651237 -0.11761083874182347 -0.4849718152743763 -0.040201937946832834 0.16074843955704052 -0.3416496508457112 -0.33775263833428093 0.2975807914970405 0.10529925773694512 0.12246156514359417 -0.06446728074516628 -0.1630076001412724 -0.3311511962306761 0.15012005332005518 -0.12859267469832195 -0.3103674124074581 -0.13758665536191197 0.5579851825110815 -0.2423947548695335 0.4242259210279288 -0.11936548491824142 -0.19313765960558882 0.4727510630176268 0.3975605403199756 0.0581271151682744 0.29075774954970246 0.05724065169443874 0.15847036170303738 -0.24752032884620256 -0.02937065435840303 -0.27232572483670975 -0.1535992340225644 0.08120287517915006 -0.3470037069721809 -0.1431558165426286 0.26112365087704575 -0.27563756501941505 0.15249809083386648 -0.04088639644903267 0.1927185817211244 -0.3780149007387237 -0.3913622270357882 0.3072071234032836 0.5683896300598478 0.208129598669243 0.19381143967302927 -0.15409727589780464 0.22671473828489408 0.03262747601570703 0.37414553239542325 -0.22314092952701312 -0.1823926150116322 -0.3999800137263372 -0.10123159340982368 -0.11868524697928833 0.0628547055489389 0.0720692236144244 -0.15488800287786905 -0.3691795524189456 0.2075239735660485 -0.2974042422129281 0.3694108678732176 0.07401862799053147 0.1439454420256711 0.4422347365796581 -0.17078582247865445 -0.27779248178798627 0.176760181709293 0.41251187603676537 0.0737478488267421 0.19100020603485868 -0.08514454416252394 -0.247928404019681 -0.12850191738180788 0.0436374763434277 0.2188373621181402 0.2593315794118285 0.4007268569792984 -0.3986833716195122 0.5329093095448909 0.33270048861391643 0.29379934839622623 0.55809831822912 0.47420587196767455 0.3367000455073135 -0.06525068171074952 -0.06580402593156973 0.006205488224101649 0.10873592122821943 -0.29677844407834153 -0.1335077000750489 -0.22161762500497562 -0.2466530012807552 -0.29944084925312997 0.45517631311584866 0.14251823311452072 -0.26296765999991 0.4835289386847631 0.3198182395647944 0.4895433227055468 -0.20927619747570197 0.45232069096915434 -0.346689587288735 -0.17568298253919284 0.08126182372897636 0.19493004335183425 0.4783384240906959 -0.26965911321230096 -0.26396906266948705 -0.35629257607169795 -0.2583559299628327 -0.01675541443986267 -0.07528707131243904 0.04182710754951992 0.21381095678671752 -0.034835136005557744 0.37073677423602025 0.03660313389621331 0.534351540515348 -0.44498388753669427 -0.4627797299233875 -0.43078999583986655 -0.009183332410318115 0.39925250733862294 0.17074631874209803 0.04763644130027223 0.26974572352543275 -0.2127836061465417 0.5687661754997534 -0.12259990286760078 0.3517786488577707 0.42033783735877656 -0.2996687005863978 0.16071901543157507 0.4188039501644966 0.03327155641231639 0.29400799017944745 0.2267257773600433 0.22167687176043965 0.4107758579074863 0.35255763398802625 -0.23811779141672296 -0.5342735968008457 -0.21271118826325286 0.41949288988043154 0.009759402418361759 -0.13477825517928554 0.3986930716436393 -0.16216420767501896 -0.42568318272687033 -0.13638364593972116 -0.4278177227431568 0.31007499107472397 -0.2995991073578625 0.2723367181637552 -0.10496411156932657 0.12855553277983894 -0.13206870731546508 -0.2753154963065524 0.38894195708371143 0.39396208073827454 -0.07896196780523448 0.3095476081608762 0.16230099177748103 -0.20794174609521132 0.20489108224396047 0.003709797475848921 -0.2842652783857691 0.3687711670725928 0.18348405362103562 -0.07064834833610914 -0.03646225003779569 -0.2624002178269803 0.1540124414144246 -0.4061011016576361 0.16411379519797947 0.21396842878158853 -0.0549301167122099 -0.2844841912114611 0.2752783212121624 0.3879766394646471 0.3027418309189224 0.12550105939484454 0.05407331107963639 0.4598346255163865 0.3626575563002506 0.3379496586927688 -0.35769038537949 0.1111169392247838 -0.2320097182058109 0.05053561312224142 0.3072174166086895 -0.23858992838787962 0.3216388212259178 -0.17546063647686239 -0.2756219347619943 0.073854785718554 -0.057934263701601034 -0.5320986804912862 0.17687720655864916 -0.5210223957407537 0.3575184629287098 -0.39510076733388083 -0.36119162361185186 -0.18290235914415878 -0.05967550833348427 -0.3468808168602908 0.4657500672019201 -0.400509874153087 -0.013678750582648716 0.24241344531677775 0.32614563170840144 0.36954838187485006 0.3711999071750998 0.05751003197755907 0.03617733318394355 0.5737612852246512 -0.2453028590865942 0.4618496419614661 -0.07697979684976146 -0.1631620664511228 -0.3725603923501364 -0.13081674707135524 0.25210198752681773 -0.4452554983554761 -0.37497151179182264 0.4281182372052588 -0.11582903852356906 -0.5421090805298434 -0.062054073904786254 -0.17882060134705624 -0.1380131906867221 -0.38931088340868997 -0.4015465034155685 -0.32599220192733114 -0.25959343209148666 0.23259913838063914 0.06995849031733985 -0.05454214426107899 0.43136643327904306 0.15592560752670964 0.09759880726199181 -0.19124328399727372 0.41890660765482374 0.6124625174772851 -0.01691486742920065 -0.11108094086462525 -0.23067672869492742 0.25697451318222464 -0.30907634783602944 0.3710996545650253 -0.32672877464152555 0.18341679757207846 -0.2886702479191065 -0.20249637081368094 -0.07347045674974578 0.059858910329765216 0.10531612854039311 -0.1076836954330048 -0.010826006929994752 0.04756977175895941 0.19514334939560643 -0.17266261481928022 -0.023920987814852246 0.07672000947242018 0.2339214075511893 0.3875116518791206 0.24326872140632216 -0.017321609452317106 -0.008117548997845793 -0.11683874972919839 -0.15152557862923696 0.3364273789121942 0.09184967735533267 -0.1658753730814008 0.5861918623140292 -0.32380196655702786 0.5430334035003732 -0.2247391707942357 0.3245648421640588 -0.03341037664400353 -0.28225827268414805 0.020466930638731153 -0.026357750840261276 -0.5340464952286547 0.25709196661903605 0.18750284651382054 0.3501716495479658 -0.20846308817155673 0.22514578050091388 -0.3125270184665104 -0.14353189549758189 0.1916739515374664 0.19673553750671693 0.4731896364371139 -0.35436931815975015 0.12610498508387943 0.5258709352682848 0.10274111838843328 0.25419783655748945 -0.25388963999101266 0.47352667465775794 -0.17908941908600606 -0.28195441780591035 0.5336926115400644 0.2097359444711081 0.27715364460412617 -0.01984509642463717 0.31669973922469524 0.3634571267848111 0.1972428118530487 0.2831425609172448 -0.05178044762178226 -0.3920287676776138 -0.41778915562772373 -0.3631486601066507 0.14048124550895877 0.02460578309916999 -0.04534976931556462 0.081832532226706 -0.15596213494315214 0.5353240856451086 -0.06798171471328553 0.4897702500223946 0.25419033596844826 0.15088087854331117 0.03414988941016077 0.02058613466210014 0.03906685438347375 0.5087484026780147 0.5254565903342577 -0.10499136636326054 0.3101271736781246 -0.2735858068527425 0.23397793987922383 0.36965638496238595 0.04725848597539961 0.08307543006915985 0.31714562116713607 -0.02473876598863226 0.10158361674205452 -0.098358142016779 0.3578820945999475 0.5275662976465686 0.5407454584010415 -0.3444824375583028 0.5991548634220512 0.21799998726108846 0.5073005475596954 0.36729771796679805 0.49286931358289165 0.20017948628286128 0.1783765875379116 0.11079047241047368 0.3133117044415926 0.040784215322422095 0.31859443237074614 -0.12016913364804643 -0.22027829995505036 0.06907485783066439 0.5275209043730302 0.12405120477107401 -0.2813783393009056 -0.2321608046229074 -0.19945091476290114 -0.06899731241540756 0.16157920949904847 -0.3831815733266038 -0.3932657623387662 -0.03366302519592801 -0.15325312179216963 -0.11065002543512108 0.5450229658147511 -0.17631473282400098 0.09024072239226288 0.43298312087083246 0.10942152486822404 0.5821435034158093 -0.011493485251901994 -0.22506500447357836 -0.26976948697299485 0.26171671617261943 0.06612343991410931 0.2588854543388559 -0.14157181500452168 -0.28335545947111707 -0.28253093089454395 0.07629531693942179 0.3249202926239594 0.12877376077196023 0.2698553017079247 0.16179004571515776 -0.0006832872427659242 0.25942970255382214 -0.23411380824219544 0.09229517226151082 -0.15256345846862762 -0.2883900722358669 -0.09398049488471658 0.5817045418460448 -0.17119943826514727 0.22887401634366503 -0.3309371879961634 0.45493184887208193 0.20826197780496855 -0.031714749899241036 -0.1390424707794301 -0.04055865617958109 -0.17719019307375064 0.2861487425081489 0.03856808861119519 0.5712221046501136 0.32371936294330844 -0.3829301484642412 0.5895000909941143 0.4327634166802216 0.41727597510729486 0.5090184504477226 -0.1147681777262624 -0.0028771062260592745 0.4580459476114597 0.2912507679370719 -0.023667579475194853 -0.1681229386310589 -0.3706540377025061 -0.026205141443814216 0.028295859845645102 0.3418592602329283 0.40542148519061 0.15559147522271782 0.21746585656923442 0.4797971796636012 -0.0925097979420791 0.21743590319473113 0.3010537730809931 -0.20577374109066632 0.4986806399897033 0.32477340526292187 0.11318426815190266 -0.12825282562628365 0.13134374423246886 -0.3782112604008022 -0.08736572979458118 -0.1551412748257874 0.22302927183109478 0.1710231708568255 0.5495408140333737 0.07884292625424982 0.1282264224969739 -0.06986240088492457 0.2809229177094845 -0.214284209206525 -0.22613931012239263 -0.28107713530347245 -0.3729286482709119 0.5564498156431561 0.40232474885796565 -0.16688167711092344 0.1040583022142515 0.1998062628696461 -0.058215562438652224 -0.2782282470816767 -0.2449093961450735 0.5664590430768917 0.3593690440838758 0.01809080728536821 0.11042360108683058 0.17762949795457794 -0.005060644140099213 -0.08759603479407885 0.45351834459741336 0.51782888588914 -0.10714212244688515 
-0.18978761063706928 -0.2860188084686767 -0.012128385045043433 0.5487006888577768 -0.23017167493018048 0.3539777952907725 -0.2182956246603636 0.4291595168414613 0.051386883755524075 -0.22786808124813493 0.3523828277229884 0.09145618646992776 0.2217562869022418 -0.04152037055418134 0.3415429213054644 0.10461485087177384 0.0012177774784966067 -0.27124370917937657 0.05080798823760006 0.5070660262520319 0.5211194397759672 -0.28816653349500304 0.31696306059670154 0.5242953609893175 0.13392994178554452 0.22154187386780622 -0.10460609523549952 -0.3954262669850171 -0.05689738557932433 0.49950877585187337 0.10746656971871506 -0.17818852580559255 -0.17478152026624041 0.01731040735557426 0.43707967662392233 0.24631456649374042 -0.2210651762439212 0.2566317325942062 0.2511986160503434 0.45630318828879596 0.22466250967255663 0.3752874547705898 0.36386975270754535 0.04571168111964874 0.20765800008701815 -0.34905387216516875 0.42455321535730706 -0.378805169232923 -0.31437087817278775 0.1133900563860393 0.3101405163644432 -0.2512882631748359 0.2030049707941405 -0.18724932719334725 0.2517427810491932 0.1556569803207134 0.29516589671584637 -0.2316467258608068 0.46639364874689326 0.12924816548983073 0.2517735156768513 0.48197999403702235 -0.23659091350551292 -0.31786384431755416 -0.21611279453206775 -0.05965142469591667 0.009095384916691611 0.299606788473925 0.11275408072920003 -0.16926885487956553 -0.35504554980523945 0.5065853410719693 0.5889594571221594 -0.2827851053845573 0.37106553108707646 0.16158909483507264 -0.3557183646833951 0.11126385227644707 -0.3052202491951586 -0.04890409941924999 0.23378885737989685 -0.33678937325537295 -0.1753364167302414 -0.207957715123609 0.17167567370921488 0.34795762676430636 0.5749684566514178 0.007986625956851756 -0.36389124022254404 -0.14779467686996434 -0.28582009304549033 0.56476895398751 0.07369912259140009 0.2475475159339138 0.023225925474983485 0.08571383031901202 -0.16796681435602606 -0.0856324961981572 -0.11406629007405278 -0.14120465935857035 0.5152719624663065 0.06067592632193453 0.23564913501120233 0.5407525093037109 0.5262028799656168 0.1037557313206836 0.0785552555723036 -0.3881153431963355 0.39387477489650113 0.24932282623532753 0.19006511012345412 -0.06268833484044462 0.033243523498226124 -0.17284683639983273 0.2665320392451843 -0.1342382736285174 -0.21183008540649345 0.17162132106671607 0.26640544005063166 -0.021737630649221986 -0.008848330968081396 0.5143434595614174 -0.1731761253907617 -0.13308740681872444 -0.23471213890754045 0.480599693242899 0.066179539215938 0.4651623859835333 0.0067748126819570376 0.28336754000941444 0.21963275269635749 -0.2820604298778157 0.30654470471155076 -0.29867698242807966 -0.3163784432813732 0.27883280177882663 0.02604568850018274 0.1339119083740101 0.022832405546023414 0.2638305104881191 -0.11686237028922719 -0.0553879877519082 0.4105875266204107 -0.08782337971747423 0.3756358443243546 0.29986622320950745 -0.34506089432270143 0.4387883627460895 0.17859309726632797 -0.31988891421977006 0.163347793940438 0.40961880107874105 0.3067706941884281 -0.20244799120631046 -0.3376413937126294 -0.04146535900630021 0.0262363486816885 -0.29949399951182626 -0.34486547712844273 0.2471989011273106 -0.157449105212004 -0.03264761374746377 -0.2192048276183057 0.05134313153696564 0.47398673864075835 0.11958895869061865 0.19448823465371304 0.48072564732099976 -0.3464435674372054 0.4730223011565565 0.23799518082439947 0.4082160772100877 -0.3803438583982903 0.13193463001491718 0.5048546966076731 0.25151639693498573 0.01979908812467379 0.517949191222504 0.11408460138085029 0.14266043208751472 0.11865713338750868 0.29238895378335034 0.38982640157047055 -0.29142547760619564 -0.15705680412588424 0.32511633476745055 -0.24378684923612232 -0.5284158664262719 -0.01658408762990759 0.19965215022876984 0.42607535005346936 0.1808552028900217 0.3857096724224022 0.4267607622785973 0.23270928369477675 0.3818581794829564 -0.1762883021500718 0.04331788961611707 0.024361912907986585 0.026674735007226558 0.0007608766783341641 0.33831349563754803 0.018313155635366715 0.5541373089362505 -0.3420841107580669 0.37216057175881806 0.16562265200343412 0.6425889947657898 -0.07038692019627293 -0.06424910510016983 0.19595050588072813 -0.398019067596191 -0.03699639021915578 -0.4538222260346378 0.2892478403198321 0.17117909869531503 -0.07012210306353571 -0.2888026447005068 -0.07487457666444669 0.258127972523668 0.3766598800440753 -0.14095857424553312 0.1950222466748691 0.26990084412474125 0.03200000287744076 -0.36379950046532644 0.28198703049554635 -0.33514542897701677 0.01630378140684093 0.4412007753389336 0.35449677449485945 -0.18429655278432022 -0.055262862120279935 0.29262180088061696 0.3060091122871843 0.2167170640538068 0.6230449441498962 -0.15591776720860911 0.5678496205640386 -0.011512358428685018 0.18121518941384007 0.31355097316633107 -0.2816633364945533 0.2471118258869544 0.01215770418438739 -0.41926986538369726 -0.4619183342638569 -0.525889217965711 0.3894854340295162 0.24445439927192414 0.09246388752245516 -0.3181938531291849 -0.12745135223427084 0.08997170931630313 -0.20097083926837753 0.08229611593760493 0.38743872114904093 -0.32831539304140533 0.545122396846762 0.25705850729345847 -0.2936347095063761 0.6203138161534837 0.37678373296472756 0.611147530477811 -0.12446184724275411 -0.0005701797692714197 -0.10727803893507526 0.5338083912596111 0.3859166472012635 -0.11004816221366352 0.317839987566904 -0.1767593853008577 0.15380595615857537 -0.5491141639490676 0.21874756393908842 -0.0451103868362342 0.2717484891384866 0.31394499964265393 0.2836406766326303 -0.38540305634123806 -0.15823796015388886 0.355983019816945 0.4517311609936329 -0.35130126282131363 -0.35615120163351566 0.52468003307323 0.5272942369925597 0.04822276726659136 -0.11655635044965162 -0.25524252313100165 0.3102485427496692 0.5033615334639168 0.2182679619423606 0.6160388763726466 -0.03347006265755931 0.155772604080482 -0.14533027410908433 -0.1621852803905475 -0.4127003528194758 0.4162027196848426 -0.012478466906926229 -0.09137498384934017 -0.17855194833364593 -0.42463250887354037 -0.3888227291335918 -0.24863128818275348 0.10882884638420065 -0.045473357014551685 0.3182827900802213 0.17225429458065364 -0.3730469634512234 0.43902210784999396 -0.06165412754531068 -0.46584493290620055 0.021042874288642776 -0.10456696369238185 -0.21287048399397784 0.0698585334328411 0.4357227225070148 -0.10106076932087615 -0.07581205361172179 0.4120775550042449 0.4065288733380631 -0.13578334112008209 0.4837569756351529 0.2338127054571406 0.13712251198356457 0.0388947274159256 -0.1749022430380744 -0.34675232342784545 0.3067760644865223 0.2473954430043874 -0.39678606452951626 -0.1333926495006631 0.42571541921257505 -0.18881998626237556 0.1448116910272823 0.02283890954859637 -0.2448963023640194 0.3590820254306287 -0.04374510387308094 -0.2706641742534865 0.13879135866230716 -0.09635231384576375 0.004517954507047696 0.21335449093403627 0.3972355147370188 0.20409088082749657 -0.0003386437001157129 0.04135666967795655 0.15926015854394798 -0.32767186074572313 0.25205894537963064 -0.3093583384223475 -0.08480411876944542 0.11228677127892835 -0.46166217955940475 0.12297148361754338 -0.4951280426410095 0.31654158772910745 -0.26850239934494496 -0.38623952761384134 0.4227258784217504 -0.31021404352696313 0.3502751527132635 -0.09469003587452005 -0.05792289301389965 -0.20776751006614128 -0.3177349492050783 -0.33928942185887967 0.1724723692204922 -0.0043167094249122115 0.31112264809359325 0.027377445116938657 -0.4958368044141585 0.20596494410816654 0.1768452957314684 0.07801481783449972 0.1394461406845037 0.2500493855138183 0.3065465904049784 0.16357828907300043 -0.2126309631208207 0.421301433390233 -0.26866830787395424 -0.42802039841100037 -0.033090902338305785 -0.24969973139098253 -0.03689193119675001 -0.38608305760556705 -0.2630953550604628 -0.16201178698897445 -0.039950343793307586 -0.2791879365495614 -0.060194230148607746 0.1840179466466494 -0.12955744484541687 0.20642076282088034 -0.11677956887886815 -0.5007085158870832 -0.1678650830181837 0.010598702943287693 -0.21354343737115716 0.13933523398895306 0.17133974653179276 0.21866258480376521 -0.27410964844362373 -0.25210939913954966 -0.08494472718035347 0.4861715572085917 0.2893950331882322 -0.3210228833308048 0.2102881672577868 -0.1005581932668622 -0.41304019878081644 0.09038494581393536 -0.20647395620697562 0.3503359156412688 0.36523150786114034 -0.24715711326114526 0.5056922008875715 0.5105688662939754 -0.07717218121321216 -0.059966912737069285 0.3264694174992847 0.0526588610207975 0.40693361558481667 0.06643820718378833 0.24331539458376042 -0.14087013331334447 0.09131730571292215 -0.25491391910507355 0.15306736196779744 0.2408543021530618 -0.04351859992015177 -0.14239494060514035 -0.050127053645660134 -0.304401771367008 0.24705155200926618 -0.396284534290583 -0.04043480849344518 0.1955560076260766 0.0029575683236026146 -0.13635344899831792 0.344149277969678 -0.05989836041107913 0.34745310193608997 -0.2881178871568882 0.11255028113954357 -0.09695842779936394 0.5569517573545805 0.33558415755942045 -0.4795914033046302 -0.5066232210708005 0.30713671571807316 -0.3549446422983461 0.13008143304820133 0.34119910509332396 0.3093027480370128 -0.17633791622228617 0.19543547056135777 0.26307688017294495 0.329348997349258 0.5783990815467804 -0.038121424268108106 0.3842484983042066 -0.24642224488625764 0.28112619670491085 0.398990206908089 -0.06403553366147735 -0.2707164156638559 0.3052898220098687 0.37235647781532294 -0.15560272319889723 0.1094240032608551 0.3841766504767501 0.4386726777563441 0.418066014646112 -0.037449283138439225 -0.37630940183838 0.18531063701495856 -0.11823068313030201 -0.17064812547170768 -0.18228278472083834 0.4097273998651298 -0.40472883775170165 -0.41386823106812937 0.1365819838395879 0.4915658502809502 -0.2977326238455911 0.31577065312885255 0.25406384409724975 -0.31394670469890423 -0.28110946206186127 0.14052523078869428 0.024213236498164804 -0.0241370389456043 -0.21128712132989305 -0.0939045752151427 -0.4682046141769658 0.16801596538375224 -0.32791908231485134 0.16687061379116352 -0.3243217532468631 0.4600500328532131 -0.21077198445384587 0.48675615840881037 -0.22780499920240568 0.15560006750323754 -0.031228777877042185 0.04247309194042026 0.1203732180355059 -0.11295264458041394 -0.03333852184302263 0.5285184378882504 -0.3529004628634707 -0.08007480418726515 0.25767588558495574 0.12069544507175133 0.21605237459628684 -0.36754645305261024 -0.048202385824018354 0.33373054194809343 0.408143688865939 0.11780226745664221 0.22050543432522374 0.12675752985395627 -0.05112628947563706 0.30358889728601174 -0.2748380845379861 0.5553268198430328 -0.21555617233821522 0.3477537505639653 0.37735163061825727 0.5616850007526928 0.11619793400676703 -0.25400421069996343 0.23749538304658246 -0.08677007333022306 -0.06689351073706284 0.34280910617464183 0.07062948254571959 0.02937434934219832 -0.25429311125748305 0.4677171647065373 -0.3479480243323777 0.06889642154014147 -0.24161034178071006 -0.2591119299978532 0.2893915279905335 -0.4672293002370487 -0.043189029088730464 0.12971624236925045 -0.3246609253915565 0.303016561604382 0.06531702069607452 0.43828710870077886 0.3991539634291276 0.09303671320178039 0.42319434674892364 0.05635539678226387 -0.15735995286459672 -0.14989807369451 0.48534457076701115 0.3428409228868723 0.07057526244220147 0.3687191767326147 0.16365461989051105 0.29347116232076764 -0.2045713337172849 0.0059245935536616735 0.19221753431095553 -0.27167000080027365 0.3965446502209407 -0.4274883950322041 -0.3064908380497657 0.23373486176976901 0.2235631223465936 -0.3400385134858921 0.322419525855264 0.24626525448025405 -0.3727737663552332 -0.26181641313021403 0.020093823511226114 -0.1556671454823213 -0.12893389129442911 -0.2996756005634896 0.20633329595326688 0.540846101187165 0.13679141083477583 -0.3275911188870793 0.5750612475742408 -0.3527874621048641 0.29266822925320424 0.4903426401452045 -0.024599107775213232 -0.003933503136649552 -0.39685214195539126 -0.4375036670046683 -0.46370444581588466 0.08728900042912438 0.2976844467899596 -0.026747071288740022 -0.18821161117081905 -0.48435818162360517 0.22043925703268966 0.21610190080279307 0.3907190825779231 -0.041397574868322524 -0.3910134289655673 -0.3389375628315742 -0.36662924425373294 0.07959095798675138 0.4379768166290103 0.20517321862678817 -0.24887923790359334 -0.17089890506671607 -0.07800903974470576 0.06490869628280677 0.4963213290709961 -0.19650833564858847 0.43143872187597737 0.013766034574493283 -0.35076233512864685 0.21003750514241026 -0.423451721683537 0.23508031670840954 0.06256817732823276 0.24171769671118964 -0.13625379606688734 -0.455556125412562 0.2460529210341941 -0.32737854736796057 -0.0335173804286158 0.000579714716088724 0.27832244628401676 0.0556784005281105 0.18397417337573446 0.194329596881302 0.38095315507194993 -0.32159361380073104 -0.2883315980282601 0.4892934850820731 0.39562917034161005 0.09751536422115215 0.5545444152354924 -0.2304966609741131 0.49901635626341573 -0.28814829005304926 0.024355981816034315 0.044628061913046885 -0.1104108310178257 0.38516543367217965 0.5069400962987298 -0.28688293866244724 0.4300270013120314 -0.43007207703465294 -0.1214641032777508 0.3747235356246829 0.2910825401445927 -0.20105168134549492 0.34491966970750176 -0.15916783414773664 0.34709691790219926 -0.25350143904564565 0.23876077061131698 0.525838919310965 0.43949273898415037 0.033189564413524046 -0.11431455928591884 -0.1904239846213631 0.5968333970732307 0.5030431934387676 0.07490446786666198 0.003587173747595647 0.6056581954299648 0.30540190891465696 0.375654602580295 0.5693674333487568 0.23631304044693238 -0.03640430116628325 0.40010034989994925 0.3141751246356341 0.1419208416467526 -0.00462470031380046 0.19076186745543502 0.27912063166599466 0.12285957536654521 -0.10075687658631995 -0.00394989671603599 -0.07186695748338369 -0.1716132567661248 0.47545434100461803 0.37672220210668655 0.3417761152775924 -0.28529516662426696 0.22524925625072167 0.05845584994270718 -0.2605350545865562 0.1602844860756708 -0.37256628221489907 0.41341238916719003 -0.008373590794556685 -0.13267264875433674 0.2956937900024337 0.20505453606267787 0.04807256831766742 0.2489696223555996 -0.2967244330888048 0.1786877630284947 -0.40279163040934296 0.06906591590386481 0.4929124192061923 0.332075842840362 -0.16349132193175164 -0.3343562847102932 -0.1137741457506327 0.20538906768402312 0.08114150399329711 0.08068184680113435 -0.2031960067892014 0.16113249602263974 -0.03403108144099792 0.5642477061524106 0.10198850478631286 0.4606613734184515 0.2749037685260713 -0.39069875965950585 -0.28367043732639174 -0.05625765222666065 -0.09180711716986442 0.2842841428870752 -0.17974771653407753 -0.30431493474083243 0.5684369929934013 0.4114877070921828 0.16410079806081762 -0.0444909747755727 0.06901042294192386 0.09876253514273192 -0.13903301331770232 -0.0012483996432218214 0.07067446641256075 0.5292970108391032 -0.19266625061641343 -0.14289791988618689 0.3014844084615557 0.3934913152470582 0.14864124402817724 -0.13985067122653944 -0.3970678337645932 -0.312548875418654 -0.005689974007837804 -0.34123970142366716 0.5386654515371804 0.3104761679321678 -0.036611941411174964 -0.10413498987291947 -0.36100434830495315 0.5736980823657163 0.23136021402292106 0.10758191935723649 -0.23563341622269934 -0.1598632459551975 -0.15484711071059193 -0.3294735490584072 0.5443216250246272 0.23521430043686375 -0.2999440172689437 -0.1452444729642267 0.5916941601332957 0.49284828159225624 -0.3563625171676292 0.054092374323568615 -0.11655075378627117 -0.29756628466813806 0.1525017450135168 0.2948925502706301 -0.21270797191944885 -0.01550025580938208 0.09186446621569366 0.0493767835061002 0.3766989637314804 0.19743580405162064 
0.400982356309018 0.2638359143347617 0.09761252037478563 0.45092555249553423 -0.002629704637471834 -7.732981802666925e-05 -0.19629295758901724 0.32871849758447824 0.5774385428919094 -0.30057900207792126 0.43651464545156693 -0.06184330844184466 0.2034298706523454 0.07431698388249997 0.08683297314129901 0.004385942777558931 0.5036941657922908 0.14129274694225138 0.18866835273957677 0.24954382711115555 0.536084244305873 0.480251712973494 0.12890713491343364 0.3598924189220363 0.44658901673910845 0.21218080701465625 -0.32378920939663375 0.1767369421998588 0.26701352385433386 -0.3585074646508018 0.19078552066217982 -0.02448325486197525 0.39437205404196735 0.33828860384849646 0.5513087608096943 0.43323409596188356 0.23650432767918578 0.2953833512709054 0.15172912286790266 0.15141597186065348 -0.0896278284588693 0.27439287761969877 0.0018441665446488472 0.44651195350412975 -0.09314871598538747 0.22781358403255847 -0.184009573739481 -0.3318136535157204 0.5291364899108499 -0.3907614240023186 -0.09457137940368865 0.11970508772293745 0.07726703815834052 0.14047090362252657 0.49539770832464786 -0.10351463578221459 -0.2948514242385943 0.24213743615040761 -0.04052553000768558 -0.0779002380854827 0.5258561593828391 0.46548596898557676 0.5527314340289591 0.5369394951113264 0.3700631075780463 0.14158626453774847 0.20910105702679255 -0.3739302736358782 0.45118277738663887 -0.1360603928864457 0.47439636816018077 0.34052303969521885 -0.14834227297785404 0.4103255563475626 0.5475478513128464 0.365902020586776 0.06763901283756033 -0.31939260023042876 -0.19416357415459973 0.5595378768002062 -0.07827605768312204 -0.21234285364727695 0.1251421922012713 0.4695049395090015 -0.08328139148018243 0.5090044179923274 -0.34457050294608854 0.5480484830427057 -0.00038626984691640865 0.2341795131942079 -0.06680580750964142 0.5789427525385736 0.05925095445476141 -0.3062991434279717 0.22616740125469367 -0.37303454298084016 -0.30424149222954017 0.1547504733477506 0.340041965326027 -0.2080963846372908 0.5119724942090927 -0.0043455542180169445 0.31461724904008387 0.08799601890979518 -0.024793073450819113 0.3816301834805966 -0.38627620210077673 0.0745108428169569 -0.2493558254648054 -0.08843706971813185 0.42119315112552963 0.5027440471995428 -0.2609332331682914 0.4308750584951991 0.2800162567746416 -0.30871738774378166 0.395002401247705 0.021907970027161053 0.19678434123968216 0.2500019860447309 -0.10460202817879662 0.027637143982111784 0.43524591432568194 0.05810082195707479 -0.2812588256133867 0.01812307276354533 0.27280334966865794 0.05191281748877635 -0.08575995059140215 0.42060806422919605 0.09755295601686952 -0.004802050816162898 0.43242162217267716 -0.06271506434541951 0.14458809673025294 -0.13440057865633245 0.01600843136972536 -0.36507774630910034 0.24117123132523952 0.5430987167018873 0.09215657889718198 0.3703321007746966 0.553993419025093 0.5767126365276425 0.4967600549865936 0.37759937049197034 -0.3223786897749366 -0.2202382628235398 0.4930650747981263 0.5253884403933788 -0.3181713686768816 -0.024935988969254152 -0.27654117606555373 0.3527813177494342 -0.21752248458582402 0.33756727101875605 0.2739296749494461 -0.3661461419555062 0.23246781446748369 -0.29846144070905356 -0.15497265293863155 0.4603191458671518 -0.2843382652464345 -0.3407304864801932 -0.04470564153262412 -0.3442819548415125 -0.26218485676488684 0.10545209242815268 -0.11429491324089619 0.30469687185038796 0.4216157068762943 0.495348883046182 -0.05622484709736277 0.37890830590877406 0.07118971481806836 0.039490815175725245 0.42960783560945637 -0.23636180652942912 0.22994368185332828 0.4533654941403934 0.1947329318143187 0.23226281274310362 -0.08194983215414724 -0.14663419490151658 0.08922129932624484 -0.06141705012358962 -0.06370538885743433 -0.27310762831237134 0.4060343315894194 -0.5255533006424027 -0.4640849443422846 -0.3544516214145169 0.1507075496289496 -0.20964569714825435 -0.18831480698086556 0.3918390571635679 -0.01075289066313001 0.3988021777948115 0.00921022514893293 0.11032844114906154 0.31120493504456676 -0.1884359580572063 -0.1243297152231865 -0.3513689802620089 -0.2479438297472535 0.02030186330832564 0.10817516211397676 -0.36181636701743997 -0.45502585721988087 0.025651949217580884 -0.3709569306342752 -0.08871545198295826 -0.0484551872856377 -0.15404169125259357 0.2468506317212253 -0.3438815091523576 -0.5374308846459576 -0.5218488368975865 0.371503865404627 -0.45770612898935004 -0.20248069436215937 -0.22809783948230208 -0.047808788665546796 0.42247398786622514 -0.25745075729052874 -0.17566121625035633 0.44682720248543284 0.09409699861926989 0.5045216405819015 0.04322588520963369 -0.11873593463148864 0.1192188177726401 0.0001216138642224801 0.4989239701726137 0.17711078920297813 -0.08946819430691923 -0.15245630233875537 -0.3192737814446395 0.19649377687132827 0.06827744950969045 0.48862630395035495 -0.4501208953280848 0.43131972328103024 0.11238235395765585 0.036049071530163325 0.020772741478668 -0.5779324930338523 -0.27052513622813945 0.5226769369838594 0.17141685004943139 -0.31198066413257275 0.585097820868699 0.016914846322324317 0.4916050375562762 -0.3341787789342787 -0.07457726853333757 -0.18892192083356574 -0.13166324749178968 0.2028670367940658 0.5481231947370777 -0.11814810375910369 0.1141696267770648 -0.32560546650470645 -0.10129444338380678 -0.3704114443382717 0.235521978555638 -0.4084323938632792 -0.1761782116538685 0.16914298214737078 0.29949758346341243 -0.006215753495240726 0.3413862647776562 0.021959445784881734 0.22365485256108508 0.1640665381928244 0.27044777557656513 -0.3030806140644033 -0.25190514644561035 -0.2589846817602326 -0.23043575128697819 -0.10857544084956972 0.2194070092871569 0.4067970034715626 0.39528933506922775 0.18647735178588218 -0.0755377509451363 0.3712858147744156 0.45846992309474266 -0.15572783107558044 -0.5366173532973251 0.35096486123658066 -0.34015310590494446 -0.4380732347794453 -0.49585978592407043 0.2426297020310047 -0.03560839670083296 -0.2437852586486556 0.11441481386143432 -0.3982974461853045 0.340697494320462 0.08939898093904902 0.11124813476095341 -0.41525660543837023 -0.02872125967683722 0.19303278587022502 -0.3039506543702143 0.3344075967860311 -0.3605653420944873 0.15793700772026797 -0.2515234717322795 0.0031317968123395234 0.35240844605060057 0.050154934920058056 -0.24123245739869162 -0.1788577299253385 0.3700962005870498 0.25377826714371093 0.30117489084085847 0.15935883767930786 0.07518357237806778 -0.2767806398864618 0.262034564435576 0.007271299592686372 0.09313345502528324 -0.1125411180751644 0.5884408160718999 0.5207352810122201 0.1607741835537557 -0.33289976012141337 -0.21299096585262417 -0.3901537788892391 -0.5875749343394885 0.37540503731486075 0.3221102697306232 -0.18656593337758348 0.5127532275384079 0.49254677268509506 0.5820840645417158 0.3303205555905977 0.34033513323090764 0.0015543966526516766 0.29862790247995263 -0.14207508219164441 0.34900520747714403 -0.14126670592105622 -0.11702728259247645 0.4064682538553936 0.13262825469280937 -0.41834354060214496 -0.18425998039446642 0.4658689949056598 0.1881485961660305 0.48612345478250835 -0.14143357018471897 0.005114688772650213 0.2832886291676811 -0.3619446571826945 0.008960970928243092 -0.4375214584927403 -0.20394229661392102 -0.5169875302102902 -0.2878652464754895 0.537939520953718 -0.18723645698218006 -0.04512254593696141 -0.33492074219393847 -0.2504913717210217 0.6785356617014987 0.1987444270329318 -0.030410360042979825 0.28826038318173386 -0.16379881675855315 -0.13241196157710106 0.31976831614208834 0.08603049625950455 0.2481722900691665 -0.01827522602715331 -0.2860000156917553 -0.19837282814450868 0.19909904274246726 0.5784928249918074 0.1176152607828532 0.19702988409328867 0.4998501484451025 0.11757950095799076 0.40147769439556386 -0.02776869711761892 -0.12566245355357292 -0.23808382433861927 0.02757174062264836 0.12086910960312033 -0.31687938654940545 0.4707245718306876 -0.2909504221618391 0.1469062099660907 -0.1672761923894871 -0.02214797955324085 -0.03958085039902537 0.02383978185851958 0.3714713016064956 -0.4370333256027777 0.30472559656873943 -0.1841170279633716 -0.3333803163615464 0.10831749779373313 0.5155308241889641 -0.1956465367705858 -0.25372540561989937 -0.22418314275187118 0.22247255554503317 -0.04919168170758911 0.02643420141905186 -0.4546867258099872 -0.3564635698118909 0.13656338163662338 -0.010487514168155763 -0.4717555330751224 0.2548616273874243 0.4214054237882864 -0.3456603787703734 -0.24014219146138466 -0.33283266276027923 0.5029768526710233 0.6463849736119979 0.43867262478211005 0.48826259883428846 -0.059870936221946724 -0.43010353620418074 0.2542156547069993 0.1728914464729291 0.6391575620033162 0.5905865123306895 0.4898240348050453 0.03559031979147061 0.29527080573372844 0.5765649953287467 -0.027668037030477134 0.11619786763215041 -0.16566684882832702 0.43464605544366175 0.24081842224463568 -0.2613963053847336 -0.1648425708834058 -0.16131663660881362 -0.07406373019325671 0.49555571025944295 -0.3834035296744288 0.17979161617107664 0.4747537198962408 0.45636827914760547 -0.19189143475272666 -0.08987217700913794 -0.13951202276491698 0.5473338029290448 -0.26065630036811815 0.37392220560760847 0.19883943799888482 -0.23254311789521556 0.6459069406627033 0.3762849063348251 0.26907752372985977 0.11221667016646397 -0.09288523511220703 0.5474309171602685 0.23395735072418838 0.26320715051420374 -0.3193036631367693 0.46245280933646354 -0.27860653060532314 0.388873393015509 -0.3555922729713903 0.19668631120441926 -0.14766924927133787 0.14835391460790315 -0.35041319208399085 0.21752869299670063 0.5824098611416608 0.19535366058648754 -0.02488538263882297 -0.25897481955022955 0.5914078987289304 -0.310394701112958 0.3370850640125239 -0.3924199867912637 0.14901373863500653 0.5535245016173213 -0.09651478802592882 0.6120474053581603 0.07515951968179477 0.1917970401334136 -0.00730557523476681 0.030667866548699584 -0.08551259810458192 -0.2950362217167415 -0.3328557994070411 0.13512426861533694 -0.401593437070308 -0.5307592183970632 -0.5102489488010978 0.18601368863574727 -0.0682838838010153 -0.05057495861328436 -0.27366849464717774 -0.29564575894983103 -0.3136097303113048 -0.023685852660595266 0.612318089796871 0.15038381453150126 -0.27760504134904834 0.2151479221981268 0.07666182770586644 -0.2590457787831528 0.0938146562058346 -0.03520330296276867 0.008635571542785618 -0.05043128139250697 0.18662628525352193 0.4417836166558562 -0.15973861348986657 0.3386978098655284 0.16564616509018415 0.13872941852276383 -0.37512362583508696 -0.20740392049072628 0.12664590515537325 0.35076650574315005 0.37324024944305695 -0.17411608416922628 0.45747791661956094 -0.21644192478788948 0.434802532672361 0.3712673118234978 0.5557946226655202 0.25519715152459954 0.24846476004575227 -0.33195684922980184 0.4652014493316285 0.2203348458010871 0.4623009468307641 -0.21886362552168287 -0.21719599359685748 0.3593627136449969 -0.2546367389989967 0.5510067226203559 0.038347394604117443 -0.09708790150143895 -0.03160541045412859 0.21437845844449066 0.015035414355377443 -0.40681277004037714 -0.21971736519663912 -0.22964658911860356 0.04934396386545202 0.2580457774113924 0.09894348803571737 -0.2436947289785207 -0.3229146968652416 0.4112286901473594 -0.2572956906967563 0.5044182322161848 -0.29347935019383714 -0.3655652775687015 0.42749232785331376 0.5570051170989069 -0.22890875527750035 -0.07757793191800501 -0.1103709782094755 0.5416209589268403 -0.1886182188434887 0.0994341489357606 -0.13092919745692808 0.609244137453881 0.5002502605491665 0.3297680302500385 -0.11819073077804669 -0.4186775484791894 -0.07739318767700182 0.3923172583256211 -0.21871249244072802 -0.1339287637220483 0.35113617927394225 -0.1704270007284895 -0.016126672705400066 -0.06689875087726822 0.047587277678240954 -0.34088641162000705 -0.05291399625429152 0.3491457113496651 0.3697850171973407 0.24383770779441308 -0.283213240913424 -0.13311523225260385 0.14720394637816525 -0.26830845721037433 0.03757839883792976 0.44855851059612784 0.11416431031562461 0.6015126975526746 0.21528354793846569 0.21268843904999732 0.05644374186581014 -0.33314116096386875 -0.19041406546349327 0.19241312763232366 0.21196923288260594 -0.0745639602738108 -0.33312391063976515 -0.2127342737468315 -0.11086764617640707 0.08598182548038377 -0.17620275147810727 0.11739464510142218 0.3569747486698726 -0.24052450377704532 0.4063931650072206 0.04384744089515691 0.4734262703381017 -0.15042113990005934 -0.04504362983043979 0.5837648493320202 0.13397873816247985 0.4103010745691696 -0.05618146574315675 -0.03324655895239859 0.11443579099723081 -0.28431178393576617 0.4641473495322088 -0.1809398799221764 0.3947031513145419 -0.08872124659841858 0.30061814109128815 0.14362973585469194 -0.10815648439391728 0.2123721654771931 0.026215635795431964 -0.37789655276625467 0.02298289772841735 -0.1377605925282188 0.1756479023905759 -0.3714182185636861 0.5193432666335113 -0.3236435045802336 0.5193317731594042 -0.29796825786965486 -0.054182713425540374 0.008946778212398159 -0.38435868416820335 -0.18591791567529778 0.21871062110419645 -0.35380548410468443 -0.01558536597997628 -0.42917359227241736 0.2487743282485979 -0.2845481061201409 0.10195563452351901 0.5410790252223362 -0.08679563380685924 0.3906304764043218 -0.07082812431392417 -0.09371840401362348 -0.4292270400670046 -0.2501488835627455 0.11973424982515758 0.5166659565818064 0.25925902679488655 0.22969735788711634 0.14114878712817244 0.47986882964869365 0.5264627105257215 -0.08046656576961153 0.5200385612101238 -0.06959804040933204 -0.3759470904390053 0.2331992690040452 0.4702606746694442 0.45055095623409713 0.12173062710089479 -0.23854481822719423 0.31854891851358963 -0.18894986582704226 0.11376976786025776 0.23193799178448132 0.4065926840473102 0.08011329597352548 0.03525154615710821 0.19808899491450624 0.33711634496119885 -0.428724885483818 0.2436151732995719 0.10918238378610406 0.031698108687434244 -0.0038185853342092312 0.4059148324753117 -0.07453338998591273 -0.17410985768872766 0.427331101192857 -0.05865019859853305 -0.12817606682500646 0.43849792484467437 0.4230537382906402 0.3307892759884009 0.26922486487228997 0.5332593156489785 -0.3472789870449203 -0.2038242455626142 -0.3873004559038129 -0.13895539703111748 -0.25441672326292625 0.12263513329594304 -0.03673165895974607 -0.16169944799343758 0.2884470139269563 0.34263830593452144 0.2899482035510228 0.21711729241445313 -0.24219220822239748 -0.04003750064128458 0.19151101527333844 0.30039584026794447 -0.08290664317905642 -0.36632148635321077 0.30227198854105786 -0.2994591065197855 0.12944956728354148 0.05885378589549535 0.3945378605664841 0.08735171498474226 0.2602877155007376 0.14101852834197293 0.07387871914037333 -0.06725812777135748 -0.3211353453660817 0.32165280509402133 -0.3933117580490861 -0.19296428346336023 0.372143577297628 0.34659636492636364 -0.18878038477097858 0.34818548246146513 0.4244532121612936 0.5534634595617419 -0.17148886363646276 0.027516163420852495 0.5162772156238931 0.3337448528111593 0.2961764897959696 -0.2009224164783614 -0.328707298622562 -0.3430423299508214 -0.3124121908239695 -0.04978778582987596 -0.15930982957457449 0.27529657500760846 0.3842056866348742 0.0904917820325405 0.359275381152927 -0.2536670472741486 -0.15246666563223044 0.49040125984952676 0.21481730375928831 0.5720131892573233 -0.38352525463481424 0.5099671988748665 0.5502035146752974 0.2788529876141835 0.38635571495438265 0.2613290520827818 0.35647605317178765 0.1154828398751293 0.4146052691181785 0.16132558432481703 0.5584287767127325 -0.16561339966648647 -0.1953150481745583 -0.08811391139341485 -0.26791042317869107 0.3737004579049128 0.11403549929868073 0.2974988408228436 -0.3679703123817196 -0.2876924445056054 0.3070011784170589 0.5342009032771837 0.444406023374305 
