2 
10 784 
10 10 
10 
10 
0.051294917668624374 -0.08475850292937259 0.036990908058218364 0.14292489567579403 0.04479359277541687 -0.08716886617806774 0.4256821602371322 -0.3868885465939841 0.3609112513916772 0.5540413443294432 0.08567518636582021 -0.2960213111231443 0.576821422786346 0.5012118346189294 0.09730474110851106 0.2663820054758387 0.19141875397836555 0.13490818305354135 -0.25355232865705796 0.23172847858034212 0.08704047699604467 0.5659207231738849 0.5696970237695048 0.1975645259553226 -0.31967522550468314 0.433272626586388 0.17535940614736256 0.4072913265465109 0.359314761559825 0.07824985247861294 0.4310754267570461 0.41937917088681903 -0.043122654251627784 0.0429675430392992 0.5514485548634676 0.22822429271140426 0.3606399153464796 -0.29421961624699544 0.22366111516205617 0.28468953796753943 0.17850262643978707 -0.056758642914018366 -0.1792039796481543 0.3415180054708283 -0.17347952923092552 0.02930471237486413 0.2887921679228605 0.4663792775669177 -0.02937072252733077 -0.30052737664644996 -0.035993711636886125 0.5124748210443371 0.3431073150523443 -0.054732701295084674 0.2185544615987267 0.5425825171819751 0.14155650528019081 0.2000261054378354 -0.28512099116905143 -0.38457714081464156 -0.04601460056012772 -0.3447136773853311 0.21374911363214624 0.2790965239195118 -0.12191622103962867 -0.3077415594304462 0.3995306441693828 0.2274200107036524 0.3261466858012056 0.5060829642049508 0.11938529033915492 -0.31960749718586984 0.48248211651584516 0.5653699810022554 0.4792453808640013 0.2543280345643281 0.049926566812827665 -0.22876590805052124 -0.37140708575828185 0.0894090663955513 0.4575149843012606 0.35320775218734823 0.3287855178802584 -0.19540712628600132 -0.007432616384627444 -0.27309432561574093 0.29213109482809324 0.20666118615213305 -0.31761908437084796 0.45450460514316987 0.32502928492843913 0.1591575755465174 0.36141929379041016 -0.09346313793666056 0.42303657059465233 -0.05591565109493944 -0.21445538339479153 0.09365367767607631 0.6064045070055494 0.11343395785902396 0.31627064799837884 0.09299070454996129 -0.18392131503445167 -0.06262876235875645 0.22504993624205663 0.5177248726794356 -0.15330126191547533 0.5177846184003302 -0.3390729362284707 0.05386747870338527 0.5274532300704103 0.5296428601672456 0.24491000607251157 0.4928506054699481 0.16133522871793624 0.191207047668296 0.46552600940691974 -0.2515933750533346 -0.16580660710211526 0.5297693155346013 -0.408870340643997 0.03027498816306896 0.5848745702060787 -0.11369158369459427 0.34147983479908905 -0.19126304116356263 0.2768996518225162 0.6327125354316715 0.4153084036753908 -0.11198137203480359 -0.3623259892862817 -0.21991803621597283 0.45327918422719027 0.2549840538070089 0.017512910433161583 -0.30457661136102765 0.3800635524512669 0.5506930178747662 -0.39085009115283753 0.36167825722482516 0.1814246700820773 0.5452040410385878 0.5489409521486285 0.5849021574545676 -0.11943681833100857 -0.1267654118872441 -0.03949451256288609 0.5086938147500327 0.05381496633982648 -0.00036326576409873425 0.13595600446450623 0.5679707986273738 -0.2679497743534412 0.03377620127463141 0.19486228826886987 0.47824225728462133 -0.3121687195177253 0.013069103128272183 0.42941812591305917 -0.12308791733342819 -0.2761983244692275 0.4285269961981017 0.057269874141930605 -0.058744498463335224 0.5467245659423573 0.48392338018420694 0.15875355648428974 0.5194183827752488 -0.17647337430816568 -0.3495350385741708 0.15788836018092828 0.18031036885106244 -0.33952548193822596 0.26019243821026683 0.5036735521643858 0.32177108148798705 0.049419666222615254 -0.23305934871384443 0.3758564095035412 -0.09433094617292087 -0.09490447217389299 0.2362467169248553 0.2983223046712794 0.15371467330421174 -0.08893610501400988 0.3297067809541415 0.30662774070322185 -0.4272613163029826 0.30035988687657245 0.2869095029611114 -0.4680416764476419 -0.07598605958720073 -0.2439330956362084 -0.32709197811231827 0.3230718639065164 0.4206259788739688 -0.025877575444138934 -0.2361268804195679 -0.02974169603677693 0.47736458257105885 0.11267549193522845 0.4636562925032478 -0.2184511230357713 0.1538912520927594 0.13374274962699428 -0.005056723497361661 0.5734980452789824 0.551350304389897 0.1393822091465928 0.12659114216809705 0.18230887320885483 0.23386694990565882 0.05297507830758646 -0.23525836244439877 0.44652927289450756 -0.21907529633345812 -0.1795362606911356 0.05797136281845029 -0.3111799135744207 0.3533551705519169 -0.0004890576257385805 -0.017969150431007806 -0.12401531270856872 -0.3199103895886131 -0.35350297207742915 0.15360117107836635 -0.031230435704015107 0.10382802739695707 -0.1827800729997825 0.5355926579192193 0.45687806618577803 -0.35265348260632734 0.4201365356828445 0.22756565435537424 0.2626914097062736 0.5764908947238231 0.5713474050046925 0.48466445313024753 -0.18622610376294865 0.16767328231477818 -0.05436383201236135 -0.416562523176282 0.35825992888207164 0.25859463833554486 0.45776362010444677 -0.1825870199695864 -0.20120645485825323 0.2919932746291127 -0.029652448282988703 -0.3408586772893802 0.541608325067159 -0.29615621334132614 0.048838847157443355 -0.08149507931864665 0.3594891522354188 0.549058353680892 0.11023965857053858 -0.019201544003579082 0.13104503791591515 0.0763674431075341 -0.04340030024618131 -0.2548405119241943 -0.2755975254661994 0.4855901294456981 -0.22336626852241798 0.07058213159919195 0.5241476112723629 -0.19368856005931676 -0.033578997218793274 -0.07179059732235082 -0.40886568741279594 0.17253533126433607 0.28905564402498196 0.17073033185131312 0.22376733324230613 0.28566999405500615 -0.45809376493732057 -0.25172419434472615 0.00989247821481548 0.4917937770898254 0.41620772391501926 -0.056512278819288816 0.22178403008955597 0.020993654739141974 0.4993209099800074 -0.35709177364703476 -0.37393678334036984 0.45157902571794933 -0.23352221784539187 0.2671816492631634 -0.1963759330685211 0.0035591197343299965 -0.37640736480058423 -0.3336836703445286 -0.03937918846612046 -0.052493376186876814 0.11561120292983823 0.21451565487011565 -0.12179630090784638 -0.21741207406683108 0.08167722108436881 -0.11199034759646082 -0.1874895835559631 -0.37188680437886945 -0.08566779266418635 0.21113180218973332 0.1591415724651684 0.5487183375143423 0.13078175062661124 -0.24768260817377916 -0.17557445972802316 0.40088805079095235 0.04634994393654511 0.23972478818626364 0.04591341084702033 0.39637815283440575 0.27916408116445207 0.5697694262599496 -0.15422882275236088 0.20969466365133788 -0.28889179540526444 0.16409612675633417 0.23175869279017766 -0.4677061496407642 -0.4797212495430041 -0.22499458745742135 0.39346433599017516 -0.3189810955058632 -0.169924265928896 -0.10605378987692012 -0.3525100497371811 -0.11065943156845578 0.043770331384943635 0.5640322499795213 -0.042640882087147294 0.3508080115129715 0.14344908731724204 0.24629908932361883 0.05343100562367935 0.20777959102788 0.4006602503468562 -0.018158801891699893 0.14533195958684705 0.3701240237885368 0.4796140638797958 0.22256381888936544 0.2712357589650335 0.3021910077445724 -0.459601634319739 -0.22560616859242225 -0.253355839275707 -0.4821014702561975 0.1051398154427531 0.04674576818716337 0.02572502834339474 -0.3936845752674389 0.0743509554014793 -0.05318199570897246 -0.4380721624448695 -0.3825705494032757 -0.15211504729975453 0.5304837288150565 0.20409452077646756 0.3001084078117492 0.09376969214914654 0.5004421801247284 0.38940007423968437 0.0641091757456143 -0.1756433152685449 0.03219773939179921 0.2726831610147727 0.5140366637724935 -0.2360842139557909 -0.17101036396794325 -0.31998669159843834 0.3943345479541455 0.02600293333751947 -0.5937538222050612 -0.1262748707711762 0.012006486108340578 0.10291860471286043 0.29390024944164567 0.2571017566884436 0.20080686621932078 -0.24874132619652206 -0.07910652717748007 0.4368593040600386 0.2729191573883991 -0.38867513282824706 -0.24841873053523644 0.5895904826187411 -0.10080024634289797 0.5011304097157869 -0.1774246851973428 0.4002613419060025 -0.4420837192517745 0.06242762193899715 0.30971955221132175 -0.2063602323773639 -0.42451392434697643 0.47405497035230576 -0.056764961202523175 -0.5548365774554544 0.14873280768979089 -0.37044325273532996 -0.22418938788074613 -0.4019722968706904 0.06786187350774293 0.4004950263973337 0.32092323594485406 0.029675891594923464 0.17755539639326298 0.286941176237218 -0.4178269357223822 -0.3189854432068516 0.11316587920740978 -0.2974157135005214 -0.33164586275479274 0.4440215433237985 0.2816856679178119 -0.35165103707847856 0.23948396513225237 -0.4000277054561311 -0.23689582542861584 0.05975667421076133 -0.14882130704843397 -0.1081020393541931 -0.03677813618100628 -0.1826150872586413 0.21473052033128315 0.38238148824417756 -0.5468047209894958 -0.1670798363566934 -0.14063156140394031 0.05891292871902324 0.15732463424559112 0.2575283414084252 -0.286865376300206 0.0726422647807966 -0.2330423985999083 -0.32550266880446793 0.030445283296725793 -0.2860448623896338 -0.4295963536712721 -0.45742950136006433 0.3769997466139171 0.12995365523962601 0.490268012842175 0.592914310729109 0.08378441314424934 -0.12324292131281035 -0.3394229733658469 0.05794164139789207 0.5440591557163685 0.10398472907457998 0.03002140316971187 -0.17761915867699796 -0.39033305807195123 -0.4456911294705669 -0.2353748331021182 0.40947297933626525 -0.31277462678736684 0.2603661159621412 0.23014866663488817 -0.0782130352954383 0.4299745987201228 -0.09279623958188234 -0.013849573687207127 0.4970567929525692 -0.06446228339560593 -0.14970235301512763 -0.3088813655968285 -0.1382948347010335 -0.1439735210849849 0.1372784691758329 0.23920666263050627 0.17779721286790007 0.17636010730144686 0.3627155720294879 0.5011922811645875 0.4035093686914158 -0.17654226811650844 0.6252638622961052 -0.02336758558983511 -0.28742301322673103 -0.2357165558364587 -0.08638255453246128 0.03065624166320375 0.017313096286724675 0.4054539655148185 -0.47916423705198463 -0.1182910548137195 -0.35868628469682806 0.33761663361928634 0.4625287827804969 0.08196104212637323 -0.16222098624845027 0.4217481366134307 0.20411707730093248 -0.30214245173076776 -0.21032135131224358 0.23122563283018663 -0.2513168439246674 -0.22880754798572778 -0.27538958328663143 -0.275499197644346 -0.25520071341604605 0.3121457625323079 -0.24473606872097647 0.2963946905643383 -0.20699658110906508 -0.3403726119010802 0.6091419358569262 -0.21951919065380093 -0.36228346243631376 0.08573122024194987 0.3066350574587166 0.21299432639598398 0.0345965137962821 -0.4283197459648207 -0.3122825720145203 0.11421075174007216 0.03795187241786829 0.20041645020375848 0.11370653658800829 -0.4677014117812201 0.1736909779456605 0.16320756780045245 -0.19333721155005124 0.24264083063695072 0.5818415972129302 -0.05164195851386788 0.43972117962708734 0.3833637443288016 0.0003583124574342072 0.3355660358523722 0.12778904073136704 -0.27920179172272935 -0.31252715006284365 0.26003385338476215 0.09345139378422058 -0.2862236264820354 -0.19567350730897068 -0.13286678227138815 0.23596950417209217 -0.07142856255716475 0.2184351133428383 0.1111649334212697 0.40901111657884454 0.35298405658097526 0.46236655055759845 -0.4037588688531612 -0.13135216175252154 0.4121133344247307 0.4515021921575299 -0.1059947257719566 -0.30300174993624635 0.5344204506263378 0.358697021382218 0.538458458156359 0.5562999229039776 0.24492407442218303 -0.2821422438361205 0.1617791420450033 0.006256227817427137 -0.022802049355800793 0.4777905703651103 0.013106494624193105 -0.0740604893262767 0.533402196588279 -0.22588649809796485 0.5669953707083107 -0.11802937394641319 -0.12707827002983596 0.49149393184251816 0.3980990452077911 0.22236232315326418 0.43667954559396155 0.35676725961260436 0.27503091115990974 -0.46227322598362824 -0.2177517592224865 -0.25736889492373993 0.3477031162740366 -0.04137883596916854 -0.11398759724702799 -0.21805183340090203 -0.11502795223943935 -0.30178115848804593 0.5455785793794986 0.281875385988411 0.041038170382223356 -0.005757757564806234 0.4182349032604276 0.326682951803201 0.16942020403216385 -0.06067360346171932 -0.30035776414661564 -0.20825743464646382 0.10065884085320727 0.015809969430918665 0.30187621558705446 0.39083998734038605 -0.43683562963310474 0.04060350311466788 0.04997119631929551 -0.10179660199841171 -0.4949188991871205 0.3965948050011504 -0.4593502327105802 -0.36895231266641365 0.017558925470729847 -0.4069057722822837 0.5345045888581739 0.28846084388878585 0.11261589116712623 0.4617677794777816 0.3330139771482428 0.28522518309266914 0.49649277325355745 -0.16488379462644276 -0.17869368955962656 0.0760881866271726 0.5526151725457337 -0.09901852090103233 -0.15122590791227786 -0.16521815361216474 0.0702997470057155 0.2045594844929384 0.06512119573760866 0.19885242169444187 -0.06390026764189216 -0.2539519345452023 0.4740161535696398 -0.1681867733066302 -0.2827676040577583 -0.03341212823699751 -0.17350822944409772 -0.05038537666627357 -0.34772672370216656 0.028915410654625818 0.4573446797700076 0.3301674322397583 -0.13349365503860222 0.5499677687384665 0.1618071180993907 0.321135915056161 -0.022796722956796422 0.3105334704205998 0.22836741059674998 0.1523599595294122 -0.32658086639931466 -0.31833031909019766 -0.3625660376872736 0.10035304967465838 0.33641925863348915 -0.20299287503964525 0.5656500346050711 0.32925697936205134 0.5382021155256353 -0.17187641131080125 -0.2760283582791126 0.3215605148910076 -0.3856927654271327 0.12209327763261278 0.5181359109815771 -0.3754007348196498 0.38504185747188585 -0.14362547554905233 -0.11725947434374995 0.17466360940943632 -0.050283900908283996 0.2761043044393997 -0.2811907579391774 -0.25911579899910236 0.514130016211848 -0.01580577215911401 0.40374462801733174 -0.11232221236312562 0.05755465229150878 -0.10046164876234646 -0.31968601577655087 -0.27735907208083765 0.44343006920886485 -0.24362112187546062 -0.35640227804238755 0.3728874648360152 -0.3091517225866846 0.3381846302801876 -0.14889729639304392 0.4622015529814583 -0.07610397491256524 -0.37113702952017485 0.47229622493198553 -0.3229120542140693 -0.39099687292554147 0.29978364222886206 -0.3864915145372138 0.5223910986980815 0.33899168863602114 0.2430285409880234 0.5632434678709308 0.4131385258827007 -0.2747091773285765 0.31899634745233507 0.32541946074952166 0.3269916190806376 -0.2176584556507457 0.4895261347915572 0.07536074308569851 -0.29325021893137554 -0.15590940744867446 -0.10527307253519104 0.1300539630594471 -0.22325358493424322 0.34254412934096656 -0.23180175837082392 -0.05429835330606742 -0.3287469170200835 0.07676385498735064 0.24080943283302805 0.056346844674166105 0.09985721803949166 -0.14726733949701246 -0.30254504989590186 -0.07351668170526823 0.2861559249195462 -0.27081706984512177 0.3548758304708445 -0.029530592417368065 -0.39964313059409146 -0.04770962146042223 0.4113861554638166 0.2283114544210437 -0.058533822321032616 -0.23740329044237748 0.35136511552890015 0.23637005603855796 0.4895133779831389 0.4000491998950691 0.5316465973147381 0.2990186227640935 -0.12179615680090194 -0.07133470880442729 -0.046874745878729814 0.2300421046644065 0.2117853496961238 0.3134755558468206 0.18019051720409182 0.16951608775610075 -0.13880220685156247 0.14474183602730847 0.367418166366073 -0.05917847458952305 -0.07562142942537727 -0.17129114496626446 0.2516309408705262 0.34844725791065745 -0.03756937904194457 0.4678879489862575 0.26600269791033027 -0.3809851334877382 -0.2757582128152469 0.2740768164174436 -0.03202411490859718 -0.13599898197020094 -0.018685635151886426 -0.14341026161105846 0.33607384119401007 -0.1953777775575355 -0.22389749407453052 -0.30524227805032345 0.2143252334153376 0.5257434809051071 0.4026777450387057 -0.12600924464443136 0.5839874089662708 0.3878171880429434 0.25079450473265497 0.4745242020277006 -0.15219807466953122 0.2526140016476591 0.5346523510635606 0.41199487092589426 
-0.06217073612786256 0.06901117014769231 -0.21837002761268037 -0.019352392812411523 -0.32788353847529356 0.2766181021171984 0.3362319841572071 0.23646924172780606 0.12749841628243952 0.3882353848910113 -0.3392456388640569 -0.37666943725979685 -0.09771356974187534 0.3752970367791839 0.2460659040979032 -0.2158095026315847 0.142832116204484 0.005044625625172302 0.5362255943253739 -0.24539497935146543 -0.3093284555422171 -0.35022864185121727 0.28940871809566093 -0.11573622177350851 0.3602142002496288 -0.21621019968016675 0.1365216293981233 0.18256558540733425 -0.29751438960861154 0.5920339532894989 0.1008935683369603 -0.10175772813569993 -0.14259105502902134 0.3025647081407032 0.22434513500134254 -0.054233371706731925 0.4293594865237718 -0.17648658254189756 0.41558318163812874 0.0866602595283619 0.5967431650834283 -0.009254903222763365 0.25265726779927516 -0.1498317746838159 -0.11556357691219445 0.12757271266389475 0.2232193749309957 -0.22771569967315664 -0.18470760012159715 -0.14909322778814452 0.12262948650593498 0.5057431730670967 -0.041112075563826025 0.4228409942771934 0.40598236180579156 0.44197495209291415 0.39572211907843147 0.15613065205461021 0.12965157643252345 -0.1420181120831564 0.39720792225449403 -0.12327818331338038 0.1553399132536644 0.20192876393828857 0.21126873988635134 -0.26152499724771294 -0.30137043067041847 -0.01761531155072491 -0.005259960495895867 0.5046360274713755 -0.13730930434179742 0.06762323526117492 -0.3617474636349521 0.41644511183878413 0.23190315101885878 0.5691809679949188 0.3384961371688845 0.5613081100317008 -0.21033509890126123 0.024502467249569723 0.5586262272568678 0.29061057116412486 -0.1648174297795412 0.018799937054234328 0.2592913707511475 -0.267739545873147 0.07589831930714035 -0.3881854154049443 0.12436055828658131 0.2603069500705141 -0.3843506576483766 0.08071086882817038 0.03242869122101991 -0.191341272474426 0.06578745196898632 0.377568724635231 -0.2621007898027468 0.38631569497461016 -0.22103055614746767 -0.38203371300114547 -0.08895493535604056 -0.020901872239050993 -0.17690984876370083 -0.4372907418830606 0.023863599887619928 0.25220543606282314 -0.2844531887720017 0.06646671164110918 -0.32615458245556445 0.5298023268214689 0.06987497800863687 -0.05215196350071094 -0.2110253315934339 0.11006387006147578 -0.09741266660029879 -0.1458871892079195 -0.019746917422352888 -0.10289708916537785 0.14832465164104774 -0.03330738768199583 -0.1778152937422918 0.24674812160570983 0.33019066040481915 -0.15808285834723954 0.24723477163765398 0.31045982906661745 0.0937364901839407 0.43946581415192904 -0.08254448755269976 0.10983359894217976 0.4540391840249858 -0.04265370669840229 -0.2587891971804983 -0.17918064862705774 -0.07374219268238663 -0.07768324438875306 0.5183119278948484 0.1951322312976326 0.2794405300314838 0.07384652764135846 -0.00016896241524183564 0.2929582453733104 0.2840620558785473 0.3505357347838209 -0.37653008418284506 0.36200465673997223 0.15251594067364063 0.5782721966061731 0.24062788342299754 0.5060339955763182 0.5663161589363485 0.019929061946147113 0.08083414855361258 -0.3932494907588337 0.19060077957149343 -0.047324329625021144 -0.2655271476021961 -0.015096121046866707 0.43241555737748677 0.397240450596914 0.3509093029507303 0.23669862435159872 -0.1679395199969372 -0.012373905451934538 -0.0906876260894239 0.5375783472740054 -0.030176698919944032 0.28775012114689913 0.4347844610788615 0.14000726156441898 -0.3088579827071447 0.2624591554394186 0.0869731792294588 0.5189407332006459 0.1982145622181909 0.10717344248036662 -0.16969012349012116 0.45129837846370147 -0.23007085498872248 -0.1798685105295158 -0.28810557574763146 -0.2612453587008397 0.09897107627982639 -0.30280145241761014 0.14166169536698392 -0.20100483528609564 0.07964053853809115 0.2847031822017967 0.36622640127485007 0.3871137653947647 -0.26701056155671643 -0.30199449151642305 0.46700611128551667 0.40044556414313265 -0.07783351185006254 0.29788576355436136 -0.30877963496504385 0.48360020887972033 -0.22461523149284154 0.45316222094108477 0.13988186611785097 0.28164219777305244 0.05277392893104044 0.008102003307685374 -0.26853728624734724 0.3491004409541996 0.1417060898706592 -0.013583574456781142 -0.06829837644534269 -0.2959136164980649 0.22931927054172901 -0.39811300555657614 0.07686869240703396 0.05181088795088982 -0.37529483633582156 0.10121374276644297 -0.41569945338649766 0.3157414665071892 -0.43748274171321905 -0.3264435259892078 0.19412241660463692 0.15992145420879345 0.5509959345824086 -0.22828409428356206 0.42745718500435836 -0.2377150023311818 0.27708394905746453 -0.23634167019378743 0.1364680238406057 0.19480914137601868 0.5336956673057774 0.14784209817909771 0.46245828415932294 0.5455682381972846 -0.24118084506588164 0.13721530607207955 0.13369899470187588 -0.26123909656488775 0.31442450124518595 0.1620114629502094 -0.13458546626701604 -0.2134530425845401 0.2523067270539835 0.28524163759133486 0.06577733591700001 0.09834938307997104 0.0026580875075919662 -0.10736605082909599 -0.1645157717850456 0.4270274816867418 0.16570821723423484 -0.27730560023303086 0.38788687881244877 0.5466226288752941 0.1700126022407915 0.5337841501582499 -0.29077557720043506 -0.20624201610254356 -0.24180890138386094 0.047953516786674526 -0.2842853714797204 -0.3332216927617232 -0.38504085126623433 0.32229786150942585 -0.2662793160446917 -0.1181969341253049 -0.30968446733708366 -0.3364260669831574 0.16522315660498213 0.36571436859929407 -0.2504163145302306 0.48933130225289534 0.10656577218145401 0.1323902854070871 -0.5829914634659559 0.21565964764291953 0.4346140411698966 0.37821055143000576 -0.10952750525593606 0.40243459448844965 0.5914265324454937 -0.3057566430143357 0.035792240610586966 -0.16431288799559152 0.015566687986346332 0.4879986691438538 0.535386704128746 0.34102850515621497 0.3399621404375675 0.07996197418890491 0.39302894517498205 0.4303247118877415 -0.3466985206462118 -0.38418423093306564 0.1746880015784192 -0.3481041024432501 0.16583659294361539 0.5444195233255519 0.29301466631654105 0.04547589764093052 0.4572239779727759 -0.2984095927850449 -0.3206463975423397 0.1863941245175803 0.40007598363460006 -0.004322964577796285 -0.28322850173233083 0.36048853748498 -0.03441282637452742 -0.163303280062179 -0.23772623776141869 -0.2025981284851906 -0.30357110010300675 -0.11459954381646036 0.4406589917397829 0.15866074207265815 0.36855199977470393 -0.23334588183167626 -0.49735135141162307 0.0840985501909416 0.4177859916270669 0.03838861974884038 0.11538448891422311 -0.23183846535337554 0.44982940493518525 0.054922817659086715 0.11391470615247955 -0.18741616230299601 0.4814211244605506 0.3884760960109586 -0.07195296785256143 -0.22339977750031095 -0.1128212327007007 -0.053179159620141775 0.06552974809429213 0.2756615683672674 0.42941202485563146 -0.3045856792960212 0.17011733962571673 -0.03138361839061511 6.491712429354014e-05 0.322764725888805 -0.47212282837202707 -0.06907936986831213 0.18419331777561204 0.21452463070980515 0.23411896422554862 0.26605989045304507 -0.2559875400784627 -0.2875513078455151 0.3327242819996368 0.4950292917598116 0.12378687142285198 0.5893741488254907 -0.3022509330255186 0.0577364921809824 0.12447393207672588 0.27668671152570296 -0.0813730299001538 -0.1950630342775713 0.26617890706113667 4.0912423236123195e-05 0.11924771879790584 -0.3001245156670987 -0.13193339254727798 0.00911771012119049 0.4345246098264252 -0.22642838509922214 -0.17088105351159164 0.09677492452932623 0.2104867416936128 0.10296908623130627 0.39718388574554875 0.25150376243366385 -0.3345290201748978 0.3681442741157633 -0.2858171546406445 -0.15753556228239235 0.048768876590308416 0.3804101784252717 -0.10548142870906199 -0.08490168369087646 0.034749988788117345 -0.1803653206341942 -0.13855842895996967 0.16496345061399498 -0.5420066886222381 0.18311638224857948 0.223705320345993 -0.23114955734202583 -0.07458331516823698 -0.16347139287483126 -0.1830989263418467 0.14777169963226167 -0.004519859274176829 0.019874039098151337 -0.4097683873185672 0.001182076405767585 -0.36389509150983407 -0.33376565882705894 -0.15705771613553465 -0.48140578943762796 0.3776172280526207 -0.1200528100921587 0.04088080397649238 -0.46598309531763543 0.3167535482500888 -0.3235411526039598 0.2467551770504672 0.11010755688258658 -0.30998023215179565 -0.1791345166465254 0.3474766375326939 -0.4412653900116316 0.2800847518287595 0.3010845065625053 0.22301935865142547 0.13128982051802882 0.575723594405625 -0.026139316076774055 0.36373450215385683 0.30626597652282705 0.13005232070575998 0.04051973535357614 0.03407771516481602 0.3168757392124287 0.21099835346491316 0.05801756996765812 0.3944092107211155 -0.5293706270052994 -0.014205845430753268 0.21120777027428503 -0.397015853743497 -0.05553576244006216 -0.006169571321372923 0.27138532276294935 -0.29210445430423576 0.19506044088344637 -0.07427602502246422 -0.31385468309674924 0.3171879403341214 -0.45908580492195683 0.20655447621843886 -0.01810190977459474 -0.47695501508758986 0.3748925822025629 0.07287608767744824 0.32340450556917344 -0.263513593016639 -0.06833269654083222 -0.19536522487010496 0.3433468199883992 -0.1843836767239892 -0.45100650371336193 0.11782703253786243 -0.2573675637208102 -0.44334367620995013 0.00352878474110444 -0.09093046461844265 -0.06220501747456262 -0.052551408438989804 0.32786220970817875 0.04683441176076904 -0.10606417146532304 -0.01039996767990285 0.5553453238670827 -0.0749661413962097 -0.19537833523218687 0.20362277449075272 -0.535239940335828 -0.5522897446808911 0.11825924932161415 0.25544486437516634 0.16151603763551642 0.2902832705824596 0.502612780300794 0.06969929158088162 -0.3749650232145593 0.1928292693463528 -0.28780606850736884 -0.28962032827153805 0.19154290996047577 0.053592622723817984 0.4109031099015554 -0.3467215053668493 0.08817921476727819 -0.17616681863935899 0.39452462352992607 -0.4110557760215149 0.17729288829854675 0.3138337197644221 -0.18178977705513868 0.20401031421979954 -0.3567743633413605 0.4869745252725417 0.47379798704664067 -0.3920921611434875 0.3409864821586475 0.18072179591147094 0.009322715920100911 -0.03883251186334611 0.035822095810788865 0.5181026426457869 -0.11848245380675959 0.25202161900408837 0.5689919692659481 0.1610766163434718 0.47753023996738203 -0.4522076148231249 -0.015489833261552424 0.47205632796895614 0.06992053198230332 0.36126840865507115 0.3773670677166614 -0.31580516543677867 -0.12002595971154942 0.053161677987671276 -0.44208258864839833 -0.43844675243198217 0.011654895231248578 0.32273826338142686 -0.331057781305417 0.07036297878529994 0.2420238922316542 -0.11802790486881247 -0.33144223699811404 0.17192020024777413 0.21585123444311896 0.24508057907120678 0.4353622962188035 0.2677803497699909 -0.18370971814748527 0.24289787880820812 -0.05066221480024661 0.46302122929607353 0.4552775206058748 0.17824727798767845 -0.12632965958656778 -0.1874299398456597 -0.06741780707376908 0.35397178661249534 0.18393100991310932 0.5114822682451969 0.4191147328421705 -0.10868713184021873 0.32740024982426724 -0.027785763522333893 -0.2396035864125625 -0.28053535110032163 0.010560675201498226 -0.43528289845203844 -0.2844732342792783 -0.2706782182961603 0.2474842351483892 0.06804396453701439 -0.36148494365940237 -0.28577777969536694 -0.28272795793510586 0.05739790376794279 0.29808316088444564 -0.010243748747538528 -0.14030231001929064 0.2395771021145905 -0.42472281013636765 -0.28917292965028735 0.2900938294900533 -0.16636754155334502 0.06019927401407555 0.23700493519325969 0.5062784868331074 -0.2516480067867115 -0.3950090647667168 0.10281422949330671 -0.053715984954989214 -0.4934768231723753 0.23676178100517908 -0.5232085403781997 -0.20461386223668526 -0.15208132434587973 -0.22594229960424364 -0.1903194339257722 -0.36546822984979 -0.25376903544068335 -0.29079290410300923 0.47673283680349643 0.20678117648451755 -0.06342766718068003 0.2656701010742968 -0.18451569609285323 -0.04833760848271216 0.28711893797941934 0.0293885362793759 -0.02700672076906669 0.3812347992039255 0.04639607604703712 -0.19344949167137823 0.40520820581630773 0.3105713395413381 -0.42388160232485217 -0.3642114038593662 0.06841775899322516 0.330491493015066 0.3183440566876345 0.3072030873163608 -0.44755798182334805 0.06644276282975342 -0.5036388608799566 -0.48023928539959854 0.13806844999971077 -0.4895905449294051 0.14398604574397775 0.001486900705920985 0.32887139716699165 0.4240716004102598 0.34307551927621627 0.5867529471920203 0.1193520970334424 0.47113560420396927 -0.082385942522966 -0.32373212378881533 -0.32187005340106245 -0.1366874098390551 0.3484037823619622 -0.39383856712615267 -0.04863542190922255 0.24316543701826487 -0.3217609917431767 -0.38657682512217867 0.1541203932611905 -0.07518795533753601 -0.31033832675112605 0.16424231319119678 -0.2478204496744341 0.08137489936336262 0.13172813117660503 0.38649680444050843 0.22878934002420168 -0.13851661458125447 -0.3812729112480201 0.3290146518275763 -0.26373118880912705 -0.269033157406025 0.08642761067537526 0.38497398742886446 0.37866281467741647 0.1599141051900647 0.5212307093024106 -0.22002615902261097 -0.20095847388232121 -0.31036498894642894 0.5450468933780399 0.45182652254681704 0.343317006824972 0.4050985923210273 0.15287604620218995 -0.38374559082552046 0.12272374083526168 -0.3852605023551714 0.40675560122565413 0.452640671894643 -0.05253835420809003 -0.5166209257022081 0.06611935775233967 -0.13632542817168003 -0.03069656630074323 0.3876732960664998 0.35774455623449775 0.36889244931668264 -0.26573257197665323 -0.3262470095246265 -0.05439783625690465 -0.20671322684135285 -0.1647658573912122 -0.013627527831380963 -0.19894707429509836 -0.25103566367409097 -0.27914479377909385 -0.21774663055839633 0.5248329944682376 0.3266733301782398 0.09325824542916378 -0.37704623593107955 0.21059995935270215 -0.2195854955519674 -0.07964357263621709 0.42973396383607837 0.46258079968481947 0.07195934222278134 0.27908380987713083 0.2642988606239897 0.5120894957297246 -0.04031026068144994 -0.22145238318833124 -0.23064688871068836 0.47999641021311495 0.23678623323484493 0.13325108995471782 0.22774032839788855 -0.07209458522970882 -0.010057958946969037 0.32598862370273296 -0.3404268354975332 -0.13965478768846035 -0.2907647989307842 0.5545831103337456 -0.2835117913182755 -0.40606827607874724 -0.2520035897284284 0.16945370200735993 -0.14151710312168053 0.5781750963819123 -0.27337558692617464 0.026975322552523204 0.36002477871301386 0.3311066173031737 0.43191625946169737 0.553442641921572 -0.3892368858944252 -0.045429479399117685 -0.0331805260091852 -0.014887927136818946 0.07067587840780824 0.4461751847911109 -0.056799503567028745 -0.29846250767891075 -0.28949253529167723 -0.14361171472898143 -0.07769375617875668 0.00309850675474288 0.006557230593158404 0.40214685924843985 0.32927940986387544 -0.10003335457998161 0.4743640831797242 0.3698194445982954 0.5631706392448433 0.5208117988479172 0.4916096755357602 -0.12579684856156814 -0.2838465715200768 0.3200138354069166 0.5908341780186563 0.48708910325354654 0.22738072176667642 0.2501972151415736 0.4767413520466429 0.5082141532089594 -0.013219881463459097 -0.28386707033845754 0.5287910378778713 -0.15805138012227596 0.06752950752483736 0.18267075671873187 0.10820352857522339 -0.0023995625949231737 0.3395001805202996 -0.07076159271680593 0.08687171387338155 0.54560172309568 0.35566142257088473 0.3264385098680176 -0.12227630723580046 -0.03240100471600316 -0.006776902285397405 0.24557610989500225 0.3507802814548556 -0.2232277247984077 0.5644369704508796 0.3857210471233723 -0.26784720698107944 0.23759943818412432 0.009977344868311588 0.49125811804772 -0.32782951362006935 0.57354236077339 -0.14735497095185665 0.2387274815388646 0.5956635459365891 0.07582082978922189 -0.30559904596571363 0.5482413290100812 0.2605107246554639 -0.2725414869731254 -0.22234427430365555 
0.40285087904845684 -0.05219598366381578 -0.22713764638739303 -0.3728892595903928 -0.17481484611346523 -0.28595649900937387 0.2931493086771272 -0.0832992711890856 -0.13730916874615964 0.5084943908283989 -0.13624813596950225 0.2846150850351252 -0.30739466434118184 -0.04095840655936439 0.19892514989660492 -0.22279806327938523 0.5930667760527224 0.19451313587576072 0.3275026393985022 0.4927425987845024 0.38279223028528 0.37595551066808 -0.2841898770813981 0.1962275579712055 -0.32858688116486096 0.40618756179402804 0.0757912687594835 0.45373262836600115 0.5150425865684602 0.237680425311804 -0.31542565229059477 -0.3281188815284901 0.5490271869314259 0.3862513472483695 0.24406619761435508 -0.12122906306489489 0.1853915818073501 0.27522869383498727 0.001273954101025237 0.08872336811990462 -0.28771223721735895 0.1321289882502808 0.5470953173019495 -0.38371155552167635 -0.272347542665237 0.49774867922735194 0.15153611807389014 0.03614389045413348 -0.3881956227943778 -0.3772692831470543 0.1675475674065004 -0.108044728175853 -0.042727715359785874 0.4606922135585442 -0.06837671093362646 0.5193262412969382 -0.27127712930300807 0.39809584735032544 -0.18799379182078071 0.5638764951652645 -0.07760063537612849 -0.2228277805729171 0.4716985934037616 -0.3606246248617114 -0.13780347797535542 -2.2581654243605563e-05 0.03956861012681988 -0.39150778936769187 -0.17385592734265606 0.08279865887597117 0.4695288452922602 -0.02976008031906751 -0.16228155337365444 0.23303636737635397 -0.036993930893341485 -0.0622290490729539 0.04659405668253819 -0.32030258587346705 -0.03478622907293094 0.15233288009966653 0.14731895013081517 0.09929273639928818 0.05009874374130027 0.5189929944979739 -0.3542475164477411 0.15448017957853502 0.24081394604664083 -0.3362693592207033 -0.4076192964662583 -0.3616350567617369 -0.047796486331313025 -0.08866206442642892 0.0016762338186253473 -0.16754218787052375 0.31753283188264303 0.3386170411651138 -0.19335089138700068 0.4334003413768439 0.01533006642956055 -0.01994567811170989 0.24201238263072028 -0.28329869723150874 -0.025479640556406023 -0.3659162454954645 -0.07866338298098738 -0.3349962789075084 0.28068739020988115 0.11631061270803167 0.5367171164323122 0.09772951719359022 -0.06507684471452274 0.07334776274753119 -0.1562286695906412 -0.2014143068611792 0.07123798599779314 0.1086893214798628 -0.150072764930293 0.5603301602678227 0.08195493314681197 0.5582699262564914 -0.39164668833981436 0.060063652714041106 0.10189341741577175 0.27389618132370325 -0.03183691551576763 -0.01773534058938676 -0.1330757806112659 -0.16937944195181082 -0.12786656535236474 -0.23026483693788002 -0.3216687164633441 -0.09571909667055868 0.20258414002752706 0.06096596909694077 0.29328671236599224 0.1567802884595351 -0.317258026509197 0.3045001096071669 0.26692963394060165 -0.27569261477451995 0.42526628905796093 0.4148465679490752 0.3954903360037672 -0.22806475898042694 -0.22103347057937 0.10917500550128058 -0.12528569638596243 0.20004998896092838 -0.323437978265102 0.15640917154777087 0.09115567611012634 0.2923315930038911 -0.007670317435152383 -0.057173300083102126 0.16438318729868026 -0.01915021669616313 0.5139011798665845 -0.3764530314286786 0.296151703470063 0.2922262407966443 0.20613812528138137 0.009062945912973406 -0.4327594068025335 0.41855465540047526 0.22751577529532818 -0.2176681818568887 0.3106090867764265 0.321472248214949 0.36688667707451883 0.11989185328452083 0.22472220325607206 -0.39094025955534906 0.5330166664065511 -0.16113546754039512 0.21206016122770194 0.07743645065058508 0.3363266414083001 -0.09788923936112572 0.40277493266989356 0.5366532579900858 -0.14986555424974288 -0.07986527414515464 0.6097279232365781 0.5090187241830787 -0.40766570637696 0.4255417258922708 -0.2058091856339212 0.21182802809021706 0.12216056359931249 0.14195613983510688 0.4105650397634004 -0.07335796874596316 -0.3009024229359756 0.4708690895446849 -0.17651282406647464 0.3018302534675541 -0.31702770673487035 0.595067480324854 0.08233686890676387 -0.3955420569427952 -0.36767979184877364 -0.36692007265671267 -0.4216528852702978 0.07531705359333356 -0.26972600788112533 0.6068978148529811 0.4897667739623366 -0.04909503533713781 0.5230991655777469 0.31746947097399564 -0.18229515618321893 0.01283349340734273 0.5776035675522504 0.2874100533591521 0.4448003689002645 0.08678752400481292 -0.3055331064669868 -0.5566168224017016 0.37983691685304255 -0.3743812605830122 -0.16087568635226532 -0.22755669059240233 0.5153112937259876 -0.234457432601881 0.02213281860154337 -0.26429729348154385 0.17742880487038526 0.0026179765764108645 -0.2094409380276291 -0.20459256743475676 -0.1497168120907535 0.015131995002889996 0.08372601300256609 0.5001978542377994 0.37924369054708673 0.016422310650308032 0.2135070355358394 0.3757632278393553 -0.19242975406842916 0.1627686271114943 -0.11542624807076546 -0.2109048250653103 -0.24952836706667256 0.06480322361887453 0.06271974844578346 -0.2586855782355414 -0.4092590192210388 0.06581105616594826 0.1760410424292154 0.29057941184563335 -0.3533417749237522 0.5535445756389152 0.0871818724011677 0.5138969176247699 0.2151469307483368 0.330202256249403 0.30031611233749506 -0.4490434077413594 0.4687527190481844 0.03343813780832699 0.09866382438275663 0.07597183530709746 -0.004148261456932096 0.06623772108534576 0.025104406885874436 0.3180465985995198 0.5546637622563373 0.4724801627779644 0.12359894094429663 -0.21812844791824945 -0.3858657984593958 -0.25589839155820526 -0.3439818212791736 0.20838394135547803 0.10089979511841246 -0.15203505335309292 0.09713472274998405 -0.2759820174616338 0.46164689750325555 -0.16774740639579588 0.5523798727698455 0.012504327900576283 -0.2274869453831204 -0.2622969580700923 0.22205542020773678 -0.44769109417697467 0.09449291597896846 -0.0040762052231139234 -0.33322564974140967 -0.016389882516350346 0.6051881104899303 0.053262501191715515 0.3402278251233724 0.08287136993875778 -0.07345294253611806 -0.3517311533729038 0.12350052816435375 0.6053829305302296 -0.04169332292651169 0.4576729699801015 0.06847949742133243 0.2283396849743344 -0.08624792852559555 0.016377557567509655 0.22198325662395632 -0.043905091821838944 0.27335053830389977 -0.1899330711933237 0.06726085646573421 0.20808397686611782 -0.3731327941638378 0.30100957529192907 0.4037850156613956 0.14698852825284847 0.14007146066368933 0.28209593133748134 0.3470396979947441 -0.28618072649046883 -0.2569713172237365 -0.05549445906094556 -0.21142197396557802 0.5740970676827025 0.4259538246243156 -0.21741834496094758 0.23032911527614636 0.000994598464127745 0.2248166031153352 0.49538618593037 0.3491601682432892 -0.3140863925602866 -0.3134505375442477 -0.44846962728982964 0.16998408686585068 -0.2250098395534235 0.21270159483569667 -0.19628808235053946 -0.15834981840262363 0.545824843739158 -0.11134652851240892 -0.31191353218052853 -0.38647404339177394 0.13249010055583335 0.31024393848767007 -0.15157922004820407 0.42846694125956736 0.5407529986390149 0.00927416313069354 0.14963791554661632 0.3396308672831056 0.23058064586572377 0.028723879476612372 -0.08287292222270289 0.022322212168357912 0.22230336142854723 0.14774954468579204 0.3477830652658482 0.058590439582003516 0.30169355922172164 0.3000454759669101 0.2908476478683094 0.10551582447965463 0.14051776373160482 0.04199321624909272 -0.11307120888060573 -0.3125343280276975 0.2704824238024028 0.2355407282769944 0.36673409730460305 -0.19984122511550598 0.3967031406963854 -0.4600784428036203 -0.2379325503670794 0.02046660311695242 -0.20146835122617907 -0.1513965456975828 0.1981043032718117 -0.24488518453081223 0.3106758117505384 -0.19965704754361563 0.4407171691103118 -0.14855759701227617 0.18985144755320194 -0.04049210980580731 -0.24693390270884277 0.3773014020615293 -0.17869028421773403 0.002918143133996827 -0.05232903892239586 0.4811269064841069 0.06640573724507691 -0.044379675489705644 -0.23429794988144426 0.1219532987539147 -0.20751691576754383 0.20739940130336765 0.22694220162195497 -0.15961579810467807 -0.5319816453584302 -0.07458682638614127 -0.31183069315260414 -0.14115546933047018 0.3171869040683368 0.14394991712390234 -0.2748304244450086 0.01279809605733968 -0.23009912347444988 0.3431312227645026 0.6538334124681171 0.409801722134304 -0.05837083649987969 0.4788926796333937 0.30269012621174896 0.26030017780067966 -0.49722925832913767 0.028722362926974526 -0.481688179813609 0.2973635398489959 0.4985786364728623 0.1715404246612304 -0.18399409598022382 -0.20372816594435067 -0.06937469717291478 -0.03182317077983541 -0.34018611798866444 0.12234898148268407 -0.5408988726605205 0.13993989228892745 -0.34718211531827287 -0.16789065629891578 0.3819802650067693 -0.2491015812453453 0.30267817586938095 -0.2185189300201637 -0.31774145105192925 0.007354529990764343 -0.08365557711249075 -0.28444264072006953 0.06520233360125817 0.44824843486279226 -0.3212619367818731 -0.2123307344003646 -0.15510424001046166 -0.2159853405803172 -0.356901004955518 -0.03178642481210346 -0.0485232425955744 0.023613095694821853 -0.29547692794941127 0.4665159752522502 -0.14168843369914283 -0.1354361306654268 0.13793600531022987 -0.12528598950620654 0.042341913075212255 0.02445152994826166 -0.2952531008774613 -0.4561420876086183 0.3686229726917852 -0.13780894038080238 0.12047239636347352 0.4527029106854896 0.21647513131591395 -0.18303676773198738 0.1276847549509226 -0.19897894909478211 0.06955564157165432 -0.17266404711618516 -0.20735665843628276 0.5198455099071195 -0.2693950101668376 0.432720059464191 0.2895043095986601 0.23830010394704412 -0.2925505466002514 0.1282222413888815 0.5017188222634748 0.40085583991091744 0.5853782361018138 -0.26687512180483985 0.4083892750688075 0.27347891828254295 0.04927119060890598 0.2169271295407046 -0.36190076997601156 -0.3136281984816964 0.24390435014655532 -0.017506042727383986 0.21522317065054936 0.17088688469473956 -0.2277903445622897 0.10766006380336438 0.4407892879689922 0.2207305617209714 0.40040640393111926 0.5147758524361703 0.13464781888901695 -0.4318807301630724 -0.29713917391634365 0.008323843886024232 0.407927980006679 0.06587163787486096 0.0652539985228931 0.12792195948228144 -0.17377603435770306 0.5224412679749322 0.5847037537613079 0.1282729288918385 0.5537617933788608 -0.26911435600254163 0.11059380965286884 0.49822474518008936 -0.21081295628289026 0.2217262852683837 -0.3033748149732677 0.047313358445314584 0.0009648832299619353 0.2605658781549931 0.6436805218052576 -0.044477896676198045 0.04013576432840375 0.09942634788215808 0.21663404573827366 -0.13303287514605944 -0.07296517128186336 -0.2251924126153352 -0.3584645038289366 -0.25239142167179224 0.4401114178152076 0.41541650646375605 0.1235784096753529 -0.037228988569107786 0.12545846266187044 -0.21061501655701026 -0.15027941112128232 0.3999819167540517 -0.38351734300033585 -0.3387119747669102 -0.07685180363883815 -0.089212063845398 -0.3929070287390926 -0.39243874698781445 -0.10697054164972203 -0.23951432854025848 -0.06920621486141064 -0.21938237627491763 -0.31306103108207556 0.021785382476176854 0.029505941279992322 -0.24822772883252908 -0.11470815202656436 -0.386909021041557 -0.16843638038467007 -0.33795185011620893 0.09828963891700193 0.04924921395386764 -0.019728290423690162 0.42482921961124304 0.06817467558235692 -0.03840377791972233 0.4334267096902218 -0.32677044336183614 -0.14360943746428737 0.11129595330532084 0.25637109757454984 0.06001242659212978 0.038438963630464146 0.35256664172041574 0.3746583623025618 0.020157345113665383 -0.383343383596354 -0.1409018350694038 -0.20222899168733863 0.033011737031065434 0.33371483672149754 0.38009873649844184 0.16137314658208432 0.47532434292942605 -0.38673111971637947 0.36579041989361194 -0.4441281148863729 0.32201734478075567 -0.43123445422679335 0.06265434362763199 0.1971784937425509 0.10718885826305159 0.12192792457211894 -0.10994604714000415 0.4954307032773102 0.4620255692892925 -0.3033986478701145 0.37094890300701433 -0.21354724949329137 0.4239727251071393 -0.27168807568063463 -0.10112306940076062 -0.07338828789253678 -0.3532806333648463 0.20599920745389969 0.12993121343464809 0.3697116253086744 -0.2527873217831358 -0.392562388041369 0.48181805267528494 0.09149534375259723 -0.2056016012988075 -0.4600115267375156 0.42247537973176036 0.043191236782878784 -0.3276652731269684 -0.06869626104117785 0.4570259389131253 0.18777238470144755 0.36107981450256754 0.33595286338148694 -0.28955981570495337 -0.24307215277314337 0.28503794656386305 -0.11825983066809093 0.5577968351591123 0.42159098336792294 -0.3191867707875984 0.1294608418024158 0.21254536973011245 0.05278924499038682 -0.20339314802739714 0.4430182094748873 -0.3947837399559432 0.45415453287598645 -0.24419062457209156 -0.3149830168710176 0.26810813258642757 -0.05627534197458873 -0.18700261332773915 0.30571015813635743 -0.3212391357664659 0.2983036075999532 0.2272664213046793 0.12857874179029047 0.5369136539625928 0.41404607547077377 0.3588329372904025 0.188116251072978 -0.0676416311622592 0.4418258252979609 -0.03408226864107816 0.24951960929095338 -0.13415835943415558 -0.12530465413024092 0.22456998051638105 -0.39387280503486427 0.1281382465525301 0.4529356276073824 -0.026777572024884882 0.062487511791583336 0.2526810126986854 0.370853147900414 -0.3600858180438718 0.16555374973340453 0.3541534044255342 -0.14741231773397864 -0.24689972304593766 0.48168964560833266 -0.39206387827320704 -0.3777338557164897 -0.1269171167617102 -0.09653864450028712 0.14421492622392673 -0.23839856861259062 -0.13250938297603154 -0.22704291456696 -0.2640016486882421 -0.19422399641806903 -0.385707885365577 -0.004844387638468496 -0.3764078895792817 0.4537033513358419 0.4067953224566445 0.5074037816067872 0.38102636609555807 -0.3796475171781918 -0.019015053964089278 0.4947512812490198 0.5351769225998816 -0.13053685962914977 -0.10474139551921431 0.21424702239630658 0.4416168387936117 0.4150960801880892 -0.3773584469758787 -0.029532567018979976 0.4788183031972602 -0.13406481662340655 0.3979079289573119 -0.17229806206889411 0.17085841195013898 0.3108639274031383 -0.00676229108886023 0.4812850901452376 -0.018413959106909517 0.017400747848968612 0.2110280427487239 0.5319501903636399 0.48789119075280585 -0.22473682935567782 0.09450556203507933 -0.16663163540473863 -0.3296355762604055 -0.36262778829032044 0.4436626830217586 -0.35003204801520665 -0.2926254635726944 0.2866095672398683 0.3632026931569401 0.49873436334326554 -0.21367673895804928 0.04472617344022949 0.2786241736348974 -0.01846797087079255 0.17374576731183808 0.04256433429794498 -0.317657332506046 0.49746392992172056 0.552952864732639 0.17517716895049806 -0.3897257822166148 -0.054581964729065076 0.3726173049460438 0.5794875767887895 -0.22731205139602517 -0.24557935761076116 -0.1710799251610065 -0.25193383252203755 0.425483981343373 0.4153774320856587 -0.0559100594907649 0.0757074503284414 -0.019293589970900908 0.39413233979120005 -0.33261182637022535 0.013679411663025795 0.47907845418527106 0.30233397780188104 -0.2694876020057978 -0.0031651396550075143 0.49604945899683245 -0.39459990168463366 0.017951021957731406 -0.17423082785954364 0.5225513597303335 0.5182504863756165 -0.04696688764712105 -0.01465987729125584 0.1599144196854735 -0.04338617501076216 -0.02970826183810202 0.29418323345016995 -0.11660526610439576 0.01434087190371458 0.26712727245054546 0.14407774935324125 0.5774022773852754 -0.12133082404158585 -0.2523733622983923 0.21331426400933295 -0.1881778849846882 0.33429139288098303 0.10487818702894924 -0.3633435538961228 0.06931344834722664 0.12824227101488705 -0.013174009762177696 0.5962097550447525 -0.2580785297292165 0.19336088680941788 0.26809813052961595 0.07643207131430199 -0.0008495643736366609 -0.06647781269736663 0.49845072887399056 0.47145482957359985 0.05835027340397525 0.43077208095036335 0.3045115873807914 0.2300418839967192 
0.5951619083802919 -0.1904428278377182 0.12148137276826221 -0.17141814520682253 -0.19195624114260232 -0.11121041913026439 0.08742625159596848 -0.17858862235505135 0.5369100721242751 0.24423034990616807 0.14778752834921466 0.24537689094101506 -0.09137602090629321 0.21091501446164374 0.5762963087658448 0.5852888642852089 0.0011334678803774098 0.12372549710771552 -0.2683372201726874 0.29750195007672153 0.09042928393437541 0.4399285282162349 -0.24362105991597752 -0.17505411710545027 -0.37915374515907246 0.4823240592101923 0.5838122547364502 0.45389393002989276 -0.23168512408516995 0.03841197161854648 -0.3749590404921034 0.3997438187307892 0.5771953989549625 -0.3935002848269129 0.28559421981093097 0.3042144882194935 0.3739395224780199 -0.032723104698076134 0.36164406187281894 0.27651312602246686 0.22308854884624318 0.39281924027808063 0.3251442973828588 -0.14476889241226967 -0.10754601116436067 0.40350633911358075 0.0827056426879377 0.1360014141174149 0.4384903198278248 0.5235777261741953 0.3692067170356979 0.33412232241287526 0.4019479809182877 0.15315677879806905 0.15397793371038793 0.10237276663799766 -0.2475550368167883 -0.09152000944184505 -0.28998513676536175 0.0616296130091813 -0.327571235291723 0.5626656342034444 0.37679235518215354 -0.27567104798864167 -0.11019442959324582 -0.012128367500299834 0.20194420619498205 -0.39824022656129704 -0.04674741206912413 0.41406319966404 -0.01828176631628728 0.5924404534021095 -0.014608917694055564 -0.36090972163943136 0.5653379606240239 0.4429279619845992 0.35550262895257584 -0.31442983359482546 -0.07800351148172734 0.21356416730487127 -0.13795431021794496 0.06135608277133225 0.5258925306743137 -0.3626146973763056 0.12998671752423585 -0.029958331031819926 -0.33401537949077587 0.22630023187384757 0.548337154430887 -0.14733675474216465 -0.24677794655453072 0.3436403128675186 0.5639095653647436 0.3437761216236005 -0.11718875363881344 0.2259123385976284 0.21680437336922645 -0.32446501097315367 -0.18549244576659518 0.5028139952796602 -0.23018311451065385 -0.18994731377381902 0.10991034252721406 0.21969260370218147 0.1555922380083661 -0.1944293437557744 -0.4362769131182965 -0.35821214138082186 0.14821986501988166 0.4996434015458873 0.09985679906149816 0.22868210831193325 0.1853474428750952 0.02835718781242059 -0.38646087580814226 -0.36738527741247573 0.2765959259297734 0.236598708837027 -0.2602034562057351 -0.040997005054130745 -0.1372674563344039 -0.3875992812922015 -0.2254994133578675 0.41900694925549764 0.4999352249753841 0.01825305850347789 0.24614112455394432 0.4287677186819488 -0.025224297825270824 -0.18269058959335188 0.4269081930606678 -0.13700934406353893 -0.21956075927820107 -0.44953492763131137 0.3348622365398816 0.44690380583218403 0.2556033033160356 0.11390992049131884 0.5893159076023162 -0.2989204951604276 0.16036587475673925 -0.1784036265442551 -0.2911362420673879 0.026513036376549937 0.5109566126590321 0.3580669023830202 0.5558601867519809 -0.18894436074597154 0.3459635499423492 0.25693000557923656 -0.1836573465661397 -0.17759938181816487 0.5412556466502665 -0.037173535992372296 0.3081493940544127 -0.13003770291738745 -0.06276085018827793 0.01233311690778448 0.3162223905955693 0.13314684011702793 -0.4083456005069797 -0.35293780427604093 0.37221641083639323 -0.238429304603923 0.0877050608010309 0.506577443302784 0.23050742393178664 -0.24300484933078692 0.07168556098089973 -0.08396970706984355 0.10586333842527067 -0.26755434402031003 0.11996200680550463 -0.1439835272255302 -0.008697139915414211 0.3176730082339055 -0.27036167010615664 -0.1798021048739525 0.41957736764606657 0.4936148963600463 -0.30067300824543514 -0.028875587016531895 -0.15825459621122556 -0.23615640138840063 -0.0956844368825348 -0.36796354447562074 0.2692612515252481 -0.2961240737513954 -0.00359084360868208 -0.4992090574300415 -0.3937294861461653 0.07474582827897452 0.5547146628187009 -0.24532639864980424 0.17153308902597017 0.10245759471341143 0.48203918369050736 -0.2712452106223341 0.21650291658385537 0.010654542930312245 -0.25204129265182657 0.4438212354467502 0.3264144106276462 0.33415436708743607 0.3796720298413212 0.10935475401823956 0.5123463821694522 -0.25658999002819083 0.1646558224432906 -0.3184573276433557 -0.28962930294545775 -0.09985306039438827 0.29655502895056596 0.37505711846373996 -0.3218030433887023 0.27572486615791464 0.28049071294959854 0.04720926886833893 -0.29516785874807216 -0.3707765232117045 -0.1523395894657798 0.11641116510192984 -0.19982860751634138 0.2927824650046855 0.04724926150021003 0.006749186269601135 0.11515505409788096 0.5290588075587028 -0.007541808919523564 0.4262329822691494 0.11487818713238675 0.2825966632419527 -0.2059645469659919 -0.048284192806751884 0.06583354218599959 0.39963929547305893 -0.3615646912053113 0.5037549608172117 -0.3912473925860443 0.13200874920345157 0.21200927261537683 0.4030589041036305 0.37907945633934287 -0.10346034832691016 -0.1455523525402971 0.17908891035279345 -0.049526176873239756 0.18631425526879447 -0.10867668770690087 -0.25440010677529434 0.05016435498266029 -0.3090761065809547 -0.12913776318367748 -0.2191457265963345 0.027868943692988504 0.20662305273270243 -0.4064525591747524 -0.19290268623106682 0.4116751790194296 0.41891517571977693 -0.3771005261377968 -0.41675583824441764 0.5035100881001333 -0.31327175619502445 0.2782159805987072 -0.009441715934770563 0.07399342110913558 0.06641490580436799 -0.2207358414044964 0.09829515530093401 -0.27865422214842894 0.26193727389476523 0.3415568846434093 -0.490399429065376 -0.0714432655134852 0.31796541500508924 0.2590226157313352 -0.29208583323073817 -0.20275579882302522 0.4978866334852121 -0.3607698019293264 0.23434518707149382 -0.13523094024128393 0.2774440536182783 -0.42398508586774414 -0.1053169555882652 0.12597117721040219 -0.19466116031063138 0.007554889007360496 0.008258449255142172 -0.38901705351350646 -0.32164071380467624 -0.3534476127410674 0.3690644509180207 0.006212930867500411 -0.14037224711711166 0.12913571731947807 -0.033327147414082325 -0.1282911706686853 -0.18038014317290482 -0.12828464120176328 0.1739690841037424 0.006195630862509231 -0.5478846403600223 -0.23563348754605307 -0.4161637796027011 0.03852722786056287 0.10421924585487863 -0.046225781126713106 -0.3644240470669561 0.3338408428350633 -0.3462539669242829 0.3516601213304873 0.2870631979118933 0.4682604475522471 0.28859375547594546 0.08857917128251253 -0.08505593135865384 0.04312057155225041 -0.030350031440111433 0.20154374528390595 -0.07038115574895372 -0.1935546849209697 -0.06750236433809863 -0.33197488790544466 0.15093666640007974 -0.2616932097918625 0.43853371875215774 -0.46784957562537133 -0.350124808821988 0.3971333925299665 -0.21069372329916727 -0.18656016674621315 0.21106341312380794 0.5159830364763266 -0.3311925899299831 0.09457362748642373 0.07115498066508111 0.018447671518396946 -0.06356063440323124 0.2388192137944061 0.20063661212071915 0.2296800309194799 0.3136322838046308 -0.003265314285760511 0.3028975049248998 -0.16993276312751604 -0.3042156231242217 -0.22016416649459208 0.3096976507281167 -0.25031315735209136 0.34077718696617487 0.2876656093803289 -0.18993102575711548 0.2891125880286569 -0.018420820191425744 -0.3706978311237863 0.0422380298812209 0.3394487136992406 -0.6105846805033932 0.05293483063400426 0.4220828406845519 0.018030525575179823 0.05485229510495038 0.5370503294232791 0.5333847464312949 -0.09427231786898593 -0.39498111082201115 0.050405910823333906 -0.2702433237499694 -0.3594482414940414 0.062271087610811786 -0.22903491811603155 0.4304915492158687 -0.18523365823261512 0.5089207795815406 0.4166575159082741 0.13837402254669035 -0.2599301727008465 0.007854620999225733 -0.04414533189539064 0.26521252294219594 0.36211151677613657 -0.3196981536909916 0.0953313125728516 -0.42715142449261173 -0.002406748978441173 -0.5863073867211748 -0.44671416357397564 0.1539923478776417 0.3714992583876838 0.5716632850418597 0.40524212685802163 0.5024770394965694 0.0024302272953082033 -0.14636700348933906 -0.2392235807980749 0.10326918091472274 0.23689470788143926 0.2161551196677802 0.17036167242895683 -0.1072869069967331 0.33237100844447437 -0.2817050323633966 0.2328979520437734 0.12990473854607557 0.13260513428500514 0.15558953174352078 -0.100663397664392 -0.22617692828339866 0.03344988059352994 0.27684583267443624 -0.4259290091982018 0.3537854645646331 0.010532948610861985 -0.04804629627622283 0.13780257896092762 -0.04115562779502223 0.5541107218740905 0.0791571130736044 0.2715397783733571 -0.23858449108712304 -0.2964410675011499 0.46299479731006793 -0.09579781814809316 -0.4795003869700143 -0.2908092748607274 -0.25568788007628945 -0.28555468029274117 -0.4080608410915416 0.23494085084710095 0.4303609912884162 0.370285491201959 0.5226797163067511 -0.051784298096873634 -0.11569371169690569 0.05722164284852186 -0.32453431797944565 0.06738197391982001 -0.010619210267098354 0.2808193008179169 0.41366915868204274 0.3079458189718059 -0.14676873762851225 -0.0010471472571177472 0.04854106102875154 0.36156313514177985 0.35158927372823057 0.07085036844568016 -0.39950807118759113 0.37793934071054974 -0.25130988541274857 -0.4312008913266047 -0.18431154722009085 0.4220369061863422 0.3360575883197936 0.233191982703529 0.026540094502589956 0.25650074608538925 0.10885191041409037 -0.18678778823279268 -0.20492555840622548 -0.23744453986085448 0.6321339001211863 0.0331067649046242 -0.20552266953031276 -0.142712189149339 0.23655321920468717 -0.1840635848041033 -0.30057791475264567 -0.28928027728774103 -0.23922269920752376 -0.3257032123147774 0.1700450374075478 -0.12661516865726508 0.03382604967289382 0.5004269284309053 0.16878844434874243 0.40609693333528385 0.19616363452187394 -0.4265913464024721 -0.06562550934470159 -0.15013882622579292 0.404081470209592 0.36917725107154886 0.43351638039017903 -0.3139197080298902 -0.13085336859888186 -0.2674917245204897 0.6105014909374069 -0.06579641932416491 0.14568613433504288 0.20553789763366476 -0.051703408178325506 -0.1999932912442443 -0.017190627595944866 0.4621356798502515 0.12754966503726814 -0.3538024826078531 -0.2226881161102116 -0.09129315190389134 -0.0868807455480967 -0.09666625420142261 0.18244751254484615 0.4248713882487912 0.2732798845059661 -0.1332938944290997 0.34990324999129685 -0.040488873935443155 -0.3755953743513116 0.028303646947345135 -0.11477607398734677 0.2525315970603232 0.628458800583781 0.5318774723916642 -0.2156579491178301 -0.22418621544209322 0.39915351483099826 0.28187761223008423 0.55686448010746 -0.15598367266391536 0.20504625158850634 0.12680035490294486 0.18453025396802136 0.16593000605813304 -0.0918280931846372 -0.4473343635994818 0.19536586789471916 0.54822317145704 0.12653517233631206 0.3479850246999484 0.1374196286587911 0.22559533056858194 -0.07917397211062698 -0.29102718331579486 0.07872698006310244 0.1252522413253583 0.559987676202343 -0.1191625984804733 -0.1156425906434068 0.1759776935776569 0.345680952742683 -0.26891100928178446 -0.060586104629897344 -0.06760826866978259 0.03810314954354133 0.25417428065423936 0.04737892431208718 0.3059694136636543 -0.3141511489272873 0.2289679139680931 0.3825899438842587 0.1795684194558429 0.2453659338146228 -0.2330510080389946 0.018159378245157416 0.36318328190782073 0.4681403135433916 0.3015889120417749 0.2758959655511397 -0.21975024475072963 0.10711448629025805 0.4899721982051688 0.058043790724704024 0.23732150715150938 -0.23537296274848338 0.41866343992222443 0.33183272718115553 -0.3363456305412863 0.49799713739048684 0.5483884888123061 0.21132450939580213 -0.14449306824788827 -0.027305048603163358 0.37328122281975784 0.021470128174736834 -0.19374722527825902 0.39676486385321874 0.04335141170683984 0.4487772721861239 -0.48047062993046125 -0.005710857406701605 0.2616310392194866 0.1750115745506596 -0.349887956951855 0.04761892611174542 -0.162491833189539 -0.05934277967159246 0.48289469181927 -0.07910768948529161 0.37429181331199435 -0.33000035670146444 0.5120739387421568 0.43491891023356843 0.47687318019163366 0.49491938210841285 -0.28149095186450357 0.11783473499448875 0.2912873726236116 0.5741037365272917 -0.03136397228571936 -0.18421910312806755 0.5135363612683198 -0.17081402495936118 0.426832127070664 0.4656172825958237 -0.011467319666051799 0.15623533876816365 -0.46557210556403245 0.07362945374867239 0.20666903687036944 0.17835234954131915 0.3115218630756666 -0.06691520973505087 0.5128299589717261 -0.3427744930025539 0.23166625192754609 -0.2753688214191143 0.15301211700444778 -0.2223043865524557 -0.02438894433230368 0.12072995223106027 -0.31828503905377287 0.3882139339018722 -0.3032581667241299 0.16513071495073242 -0.36634670617354353 0.0055824867691134815 0.281376130670492 -0.2556740415500813 0.008757279408214962 0.0357986220129382 0.2960602911672211 -0.2700804555242401 0.2417471265522162 0.05139089393936437 -0.3706850262611621 -0.29573143901523624 -0.002111632556572334 0.3607102495876417 0.27494843591079476 0.3479173344455045 0.11122902943427972 -0.11902626834934849 0.04681179194213814 0.135333768207367 0.48831229197581727 0.5098163710019653 -0.37159373352935365 -0.30558024912361753 0.3899037274500676 -0.4648193323938372 -0.2655006027463926 0.2603805235978884 0.06685586643935111 -0.1380765008004518 -0.05291526572047614 -0.3092462890970925 0.5369915932669814 -0.30924294312637035 -0.11885317015931086 -0.09657213304964052 -0.3126646670756856 -0.3600217478609115 0.5496125627170907 0.40520295350845154 0.4882737258871967 -0.1416243420995983 -0.1934835309414125 -0.03961490703419244 0.15769495231278757 0.13065514069362916 0.5051967074139285 -0.2682950756971063 0.012177065243569197 -0.38000912845479873 0.012161000504480088 0.2791371660116733 -0.22876641337937872 0.23913846454047938 0.41485136938466444 -0.38530578027462953 -0.17899981661931583 -0.1856639756557173 0.25455989457005496 0.0012584332445122748 -0.1416888878232711 0.15177358006823538 -0.07740943199314425 0.01918555670427913 0.4595553377379751 -0.08808315473835326 0.014047566883159272 0.4696936907888323 -0.02476128816156672 0.3593845891400322 0.20490841130510953 0.1715744462821349 0.25218955302684765 -0.24063568068850444 0.4072999448700305 -0.3630774017080317 -0.22766756550131437 0.4859388595995843 -0.30507779318488176 0.09513954597248281 -0.2569286054588759 -0.23542544657254358 -0.404070356613364 0.30167181787841435 -0.10828652215098657 -0.3897896887599926 0.19813488679457042 -0.3616461485918333 0.4754734644201262 -0.12401886890218165 0.14496052192779094 -0.10332948523179568 -0.23026395170931047 0.02517144412250272 -0.13529451828702593 0.05530936886364392 -0.08597223738877902 0.22961124283173198 -0.27391357220342055 0.52455154314441 -0.3071647501021441 -0.27576965673851966 -0.2080506478185754 0.29348583461360184 0.17742551485232133 0.5681959294606358 -0.09024937233224783 -0.18121406175177018 0.25104631573644387 0.24669995732988156 -0.3948829831497068 0.05471178736672014 0.4776279502469886 -0.26883357412460174 0.46713262598374916 -0.05893523652441136 -0.03733898966984248 0.23128452240819292 -0.06524709505486152 0.4964634312442968 -0.08381387816412343 -0.023496767077988135 -0.3557428171012424 -0.10128734472680367 0.32792674639183333 0.1395656186146286 0.08816473412132857 -0.3038919533014712 -0.1411924788549468 -0.3141234646511913 0.0045594288058682375 -0.18962665571419574 0.5170301035731215 0.06903639306502607 0.41038251539710335 -0.11224571402856648 0.11208023214645936 0.3839088706019954 0.07671015643752704 0.31497393745975144 0.35970773449666305 -0.0014299148727795474 0.06898346403652655 -0.27006864589300034 0.19558183787864925 0.19354019000339184 0.4520043029813866 0.17012229495550713 -0.00856242531110657 -0.3038844118663322 -0.1832493035662881 -0.2754516630529982 0.109474097244035 0.13615014775685252 0.4382649968661013 0.2930377083838831 0.07182177793692601 0.07602059680800632 
0.3419188303956975 -0.24636005868268968 0.022913244883948303 -0.026566040699161353 0.02883174838660347 0.014247084885261007 0.08250063521398261 -0.3427914488661161 0.004841675673942433 0.011736888000727374 0.541735679816658 0.18841085873816207 -0.1354612556720785 -0.37247565814714934 0.48895551252237246 0.30191818703192613 -0.09495008678547055 -0.39037118424593137 -0.3582466397591765 0.4359264871598467 0.5178698246911457 0.14903531220123356 0.38366498551480327 -0.023366010655914482 -0.2629504689423995 -0.3389130841967952 -0.185251562708517 -0.13669422675410725 -0.030580928228663484 0.33677403392516303 0.4632565086787037 0.09818073627983757 0.13584561084744703 -0.23436399219127887 -0.07839705075402308 -0.25951551809419726 -0.18026885725474703 -0.008073058953894645 0.05320151669430416 0.5415468162704382 0.3439880678431863 0.587680398029088 -0.055057821238161185 0.3058429396583375 0.44756153505070717 0.13387164853445904 -0.35664409446421547 -0.17414058041000322 0.2694681717876088 0.5905085410110485 0.00826499302685589 0.0022801123800491765 0.3292438957561823 0.5704016216170572 -0.25328868551748107 0.12017679113377944 0.24392314462015885 0.07596084463381697 0.17080301770054382 -0.23403513847413338 -0.23029582842562077 -0.285622819447175 -0.10155135341403361 0.18133637785606171 0.31067336083760777 0.05398566832509205 0.45326863197362954 0.2628168720477823 0.21543240249803464 -0.27566288769562947 0.2964061886989503 0.1623768021550654 0.15209530330864396 0.060741499846462765 -0.1536742098824073 0.47987092117260854 -0.2345465046500862 0.045056333388070434 0.5385644900542774 0.3885669723211315 -0.05152658332952271 -0.02345137538429415 -0.22062871832235184 -0.15732172494441182 0.22290736847021186 -0.020574422381195303 -0.2577668950056034 0.32651421272419373 0.5616449755677188 0.40703788814508324 0.29488725812590133 0.03769128640889889 0.46664821806387347 0.43887607843305204 0.3996389818380919 -0.17582264890960583 0.5365519794026662 0.242010104131799 0.47340515446371173 0.19195132806923734 0.37151195670018433 0.14334079929282148 -0.20410317533844013 0.33835204955474124 0.22325551422457035 -0.28253439318690043 0.4862217154159912 0.4803488756453539 -0.2870826724108785 0.08991741817962332 0.24917693750492848 -0.3641716971789179 0.11394723292818254 0.47955380190435376 -0.031181501035155545 0.06844185113812214 -0.19083982820555814 0.1481464104249888 0.2721540994551929 -0.08769421132904948 0.11419638387754869 0.120047882420841 -0.13028554889073382 -0.42527660838668413 0.4649493311009964 -0.09067202195102086 0.36283882648330756 -0.37836185407828365 0.16953015184348527 -0.06873626729304877 0.32325543622833713 -0.3144964110097982 0.067486021511389 -0.2553282586702233 0.251904234847219 -0.0050870649163506695 -0.18897003247752495 -0.3458975110169483 0.352884826816091 0.3351690293994476 -0.19906320099734387 0.4105708024751913 -0.3344827284885935 0.14852035684385034 -0.26160803049490905 -0.3522691542044053 -0.14166242605195176 0.10645347554376429 0.5273919440338107 0.3715938642965522 -0.4243132816623725 0.3567617510292848 0.5375342948464308 0.437803982162396 0.12834319528074215 0.5576332233218997 0.49539370544613226 -0.006663744067666635 -0.05535610698947296 -0.1440515345004373 0.036315818527719854 -0.1418060074596585 -0.23210710906896462 0.3000837277533665 0.2943658071847177 0.42837144669676075 0.39780378555840146 0.21126864742017326 0.4778416294403314 0.48391196528929403 -0.39861663896952404 -0.022269051167384476 0.010916401220149466 -0.1519390749680678 -0.45786664954065065 -0.21121879577688327 0.29002128041056224 0.4435058307876992 0.2992827603606127 -0.310795583838504 0.3027555465277976 -0.3956878817088067 0.44877094444370036 0.1122535976072256 -0.10163481770602736 -0.28406951755668214 0.430873664265847 -0.32296720258884537 0.019778949077933195 0.3465831983417319 -0.3787328438630105 -0.31844620462856377 -0.40711776002572053 -0.0016429678716477726 0.04235581017403071 0.24885091829520634 -0.16496649015399162 -0.38021114303823145 0.38800678698407914 -0.2737941103514568 0.1777889179235157 0.3445261739759328 -0.01604550091250181 -0.2928763418124141 0.2035502104851533 0.1778498657484605 0.04095490713882769 -0.11100479666204544 -0.1028342892624441 0.16204741223063493 0.1599012030461891 0.24761961808221272 0.07191290077635051 -0.15004786031939635 -0.4360771092508314 0.4651847473172956 -0.04144565629160457 0.5218424709269338 0.27030063470364296 0.4388275822123925 0.47232132068126403 0.14840232915458332 0.11354864366451428 0.4171514144546451 -0.35530463338575713 0.4698557842754353 -0.25124097341055385 0.18022226505766475 -0.21604037043113375 0.2760351645815315 0.08877972243411868 -0.23868185000225617 0.3273803286983274 0.39622279168743996 -0.3111281598921509 -0.24452787292877423 0.31574093094630973 -0.19898165885578858 -0.21966340270359086 0.10414529831217978 0.2259796740036008 -0.415651079245727 0.029188026769835965 -0.07911657731733174 -0.04034361202419594 -0.24663642189226737 0.0987730382666149 -0.03344294211619145 -0.19201729306222418 -0.2684111044503386 0.42562207147316405 0.5063453137358453 0.02143709247903025 0.45584343532914956 -0.22663330344224092 -0.07778204175519805 0.15504212381023094 0.08101658619512105 0.007585663312449109 0.055555971892102936 0.3696378505894905 0.3325996493987169 0.18776927836788024 -0.016795492942421806 0.3283595703200576 -0.27842027449552026 0.3244656325673186 -0.2860232733488519 -0.4768338262957561 -0.12691331894303753 0.20426003937503778 -0.3258237595262647 -0.2828180797131721 -0.2153776284170684 0.05025444351462516 0.23080943372295223 0.09432020710466672 0.0035671285456851257 0.3886532137092813 0.5007467089834841 -0.13581880850442385 0.5102652056425299 0.5186956360581874 -0.36329069055331603 -0.426713458429076 -0.011605375221160782 0.30341734738317944 -0.11333380485016191 0.39014080357861447 0.0677385807363126 -0.27218804421383247 0.16979573846103227 -0.014332274913183002 -0.20501101790151133 0.1627549443645514 -0.018512223620778562 -0.4821800824671287 0.26461121751161326 0.01789192652829404 -0.3281831765871481 0.1556372130830599 -0.1122811920593436 0.5252779436515643 -0.28248211675760637 -0.38502518009938336 0.3274394577767365 0.38685306392532437 -0.28411691191392013 -0.21489342973678183 -0.020260174553474494 0.19438345412226166 -0.41803578988239126 -0.18781102744308384 -0.08952847452568552 -0.33040001240068123 -0.3283485980861205 0.18237326296794198 0.1889629148831144 -0.44040549863957046 -0.2031019433245277 -0.17616692403999057 0.36368986076730647 -0.19389113335175837 -0.1386576141647515 0.18646197805496134 0.37978433419580004 0.5314597474137365 -0.3695240714494896 -0.04982807614378829 -0.06448333274068256 0.5610899701706781 0.5485882718378563 -0.42244354376445553 0.422048139400957 0.4291744406794317 0.5135630697057081 0.2995027153406238 -0.2323921510661435 -0.15784745862288746 -0.04058596081207859 -0.3800402300595425 0.1277122367677058 -0.3618702675172439 -0.31730800465522213 0.20872590683323683 0.07358851840616412 -0.13765386007147384 0.18607606577046237 -0.3220433592660964 0.0540360024793423 0.26087728115152414 0.36870989546156296 0.44378987305492756 0.04408116838230172 -0.01700788783415316 0.4291160535783009 0.48652998545981935 -0.23379256467947743 -0.3762412274070105 -0.2752208458183659 0.2204593655301787 -0.22980591081694227 0.442291094594502 -0.23283446251084605 0.13453292706760744 -0.27145164366736346 0.44441726841996737 -0.32911512739776827 0.25027801264038163 -0.33832757076796993 8.57389445949802e-05 -0.23407667430457843 0.46672224108869814 0.030003411224876403 0.3429314554190356 -0.29355234152290394 -0.1567699671383358 -0.011159995363586632 -0.18532123159056516 0.49573031856454525 0.3897488853694955 0.2856297423017075 -0.25299930813205773 -0.2072129458755887 0.1422313687085442 -0.19255494438714973 -0.3551597244002904 0.17154521398416273 0.04321731557328638 0.31209945210608797 0.25273069231777534 0.5107971195451946 -0.1973954732362354 -0.28152171945098864 0.32827615656446324 -0.23327666743071834 -0.553206485633195 0.013559411723954067 -0.09507145283582986 0.49628308744020244 0.4702699552012112 0.2566928381219706 0.26206789529627206 0.49444945919900973 0.4477340156943883 -0.02017421160020828 0.4793372847363422 0.04787295340747108 -0.45432532168566936 0.284452832187479 -0.24045262610059787 -0.15334804072697944 -0.08359947598556308 -0.010072149561943286 -0.025295295507043434 0.4722672559577357 0.46194113104069856 0.5088129541503879 0.3329647725272514 -0.17009847906748793 0.40661012757989945 0.1851946594681615 -0.24793550649202323 0.2178427433636707 0.21455904141071852 0.18009331934474693 -0.3192140277307094 0.6319061638485279 0.5503295308261184 0.42226202873349367 0.03395163242484329 0.25884277478323026 -0.3942126264855011 0.09112067008377231 -0.031124833970229634 -0.47114669670336995 0.30689259030703026 0.1819014656729688 0.07071437144679564 0.3099491949847181 -0.2579755557048461 0.5276291409608229 -0.37796670226817103 -0.11192776044898131 -0.15606864391352931 -0.28762300081810727 -0.19890509632859227 -0.2386708498193708 0.23409166596220543 0.30520995129918893 0.5322266402700881 0.33980028330047674 -0.10874711564448225 -0.3072715480444783 0.5217830690710932 -0.09482465705324129 -0.1462846329869475 0.32566622067505124 -0.14983174286804093 -0.3262598530731013 -0.14248191252011064 -0.4685707110596096 -0.5388329241768604 -0.44132870917998035 0.10722536162535896 -0.41789568517616515 -0.15902338814828085 -0.07884913997071698 -0.47733247388414685 -0.20305654120744937 -0.419603363552242 0.06807105109719913 0.3472858990087577 -0.11927419998014886 -0.1472850481052011 0.03030940433006335 -0.10249257064205419 0.23246782955592665 0.4561378115693332 -0.21044243983211228 0.3205868224444969 -0.20758896738152394 0.06182730292000823 0.017499211811659695 -0.2800579242216385 -0.30947825860998823 0.30095268590145696 0.12932704772092504 0.3057917573281605 0.11577827430863229 -0.4805084195617339 -0.44094265039532854 -0.1757236039591636 -0.19578036155474196 0.26920028071888136 0.1860938922293742 0.40379605717681144 -0.4851272040550898 0.09819708886810867 0.14281040407252557 0.17167702386884773 -0.2861064741622157 -0.3945215128593769 0.3475627059485914 -0.11255760547328852 0.28222010376915785 -0.1929861331423804 -0.45906104906164397 0.28027015866030663 0.3363194930565325 0.4608863310075448 0.008362018852314636 -0.07390141365584818 0.09638215221913199 -0.19914403656924326 -0.03179310522098036 0.06106349949794317 -0.04353330366416106 -0.5178160968112092 -0.44787497324916914 0.31147509350404234 -0.22743666624310926 0.15803405763366124 -0.10442040980872978 -0.314931332562938 -0.33724405300631316 0.14984272698457746 -0.4118880988859105 -0.19631679075865807 -0.22372887492541507 0.30187632733804404 0.3261299184824008 0.3233114054011643 0.16037766318000773 0.33535407997815325 0.3900352783974608 0.4357536649235174 0.07409532944520497 -0.45846684582192015 0.1501968995416952 0.16372121939404122 -0.3469389490712381 0.3409426781812833 -0.5228989677991543 0.16409807835433193 -0.060366991941533575 0.34319356090970127 0.15812865920464217 -0.07892752429546526 0.06074235365085702 0.32665914948868296 -0.42664107413940777 0.04716901142959796 -0.35260582120509143 0.0001142631683882476 0.4727237166987805 -0.19593873553821328 -0.1606969667204077 0.3217643916787915 0.3595434366755512 0.2626588486866057 0.02395421474060974 0.3102687242109708 0.39762882999362403 -0.2896629978657199 -0.2217993653570422 0.09578614063844422 -0.05630187718477964 0.33471068611789995 0.07152747230739812 -0.2276853549600003 0.16473672913899698 -0.37390353451940433 -0.23781370434492458 0.1378649244683205 -0.32184384477121847 -0.37436359285092663 -0.049026947427464884 -0.38267407605730214 0.3689648454770454 0.3906884692780997 0.04476164178655897 -0.294097274020435 0.515507420136614 0.302201627344642 0.37456112852950935 -0.2576590095521604 -0.19899740472834526 -0.3526473388593132 0.5876822316818221 0.27375702436523686 -0.18854917294911527 -0.3291683763199861 -0.03109017803914836 0.4728122141434732 0.02952312524214913 -0.12671498343992185 0.2947610786227386 0.3638515703974215 0.1895607530654625 -0.06856881641090058 -0.4296929185687386 0.24473233219530965 0.0778420875448235 -0.22174467403439468 0.44710540536941623 0.3068977623718479 0.21617475070770828 0.3656480123221188 -0.26909517571742936 -0.4248171909199543 0.39235246647863314 -0.15728898742872877 -0.16200424141782968 -0.19261416730228034 0.3544100010622474 0.269719660780959 -0.12302116749353416 0.18797801591699645 -0.13779392918211814 -0.19268749731158605 0.23155211874440498 0.4467756051344753 -0.31723894917437784 0.17742754771045338 0.12464275377287928 0.4979794636198535 0.4721177533582786 -0.029764907954604312 0.07412822578254948 -0.3796949075542221 0.46637909193697447 0.011348587250403372 -0.3583196346247846 0.2518970667057645 -0.4124672086742507 -0.053673203489006456 0.28490369614001776 -0.22033059466493754 0.23152411031029674 0.060410846241043446 -0.008218972603907217 0.30836558518350515 0.35419324385186735 -0.28660812671735697 0.14990255571860245 -0.3742022209110917 0.21691377333273903 0.4558810256676041 -0.2808832594422729 0.04016744309889659 0.3936620844004014 0.32947998805232787 0.17953468379373066 0.5659961428013487 0.40710383537228606 -0.3304156991906322 0.38171300202595565 0.4547352820058415 0.502648924658387 0.42799672529665617 0.4610370747088326 0.3884515980472259 0.2280798016169926 -0.3814708616424436 0.15561916573544218 -0.23014249320382008 -0.07582107734140951 -0.2169404815184345 -0.20332399927939732 0.12232253401214321 0.2745084821871464 0.0011379619754465775 0.30915996320307765 0.1531174534181823 0.03853781574047581 0.41147138165572467 -0.04182624525454699 -0.15959236050275433 0.25776521303145755 0.3559034441244244 0.24116825270747327 0.3642656147187633 0.28985126237270786 -0.1117518350921035 -0.24608601622157222 0.3892183779865882 -0.13311741409235586 0.026768823366941207 0.4448299342312915 0.2672989993189627 0.4927363750067125 -0.28912219551668633 0.2021965044391375 -0.03941003815930717 0.039247645920916285 -0.08827115759301686 0.13263981868927813 -0.2469361781633836 -0.26689906673262365 0.5942497358486074 -0.016671187637305494 0.48056830178103466 0.3944568656548225 0.04409748451139957 0.5882831382919618 0.5202808648621604 0.09998082114689336 0.49983674339912637 -0.024160621484910882 -0.08397230849575038 0.44297318043017764 0.13490556031303305 -0.0060848616800062635 -0.2565772471806074 0.42508426160270896 0.08944542654387928 0.32982399262420736 -0.11752758791796987 0.003832618309184279 -0.2799686493901301 0.4162571859552945 0.2535301998967584 0.19864533741795934 -0.24596603728035654 -0.2643518424811513 0.37031425019274017 -0.3039058903212479 0.20939735042914065 -0.11101484748928483 -0.30537562431179505 -0.09673243776357371 0.035281470723222935 0.37398919995138163 0.433941569723323 -0.20853965665956567 -0.19730725464755403 0.21877144478781227 0.2718199390738035 -0.17424083963275258 0.15462076067196706 -0.27735304348527917 0.024503408187774765 -0.35891340911902114 -0.1058815307276166 0.024613176459446003 -0.07594236896349649 0.37317176250583567 0.16047803422253792 0.28076130568158864 -0.16646888952660985 0.5142566359718611 0.3248964779144784 0.06569954862707926 -0.26203653826742007 0.20658914515145888 -0.2769583948968496 -0.0043813950658065925 -0.26540989541585674 0.09579023957872246 0.03491914822453912 -0.30287794675123425 0.1604372260630136 -0.21528377647394847 -0.28011902554833706 0.4230968068826148 -0.34308892131050084 0.5344451958073708 0.19402982372066413 0.2543416359545072 0.03268223459793007 0.42021405526071454 0.4395960833709456 -0.3371258542495843 0.36698592800481866 0.5937019537812879 0.3520953494062422 0.36332047984521554 -0.36178063904935004 0.045245320552970814 0.5976527709375361 0.5534503039852159 0.5302324270077208 -0.11478729434387452 
0.1612220261437023 0.1401274256371352 0.2713830757686946 0.5159731947065525 -0.047494006733827275 0.15072529963392434 0.4931109813996904 -0.030830395107692934 -0.04768187894142823 0.3782990586434996 -0.23031077555796567 -0.18137107343181721 0.3482545862065105 0.5534971627209586 -0.20661304534316932 0.18065545839031832 0.35627074549876764 0.14120602766263268 -0.25492357822142 0.5122618244027127 0.49170681254294657 -0.17473220960426722 0.5388901906245687 0.15968952424467653 -0.22166363193343547 0.5416652795978301 0.5913814414535907 -0.17909010113567853 -0.32766062875013674 0.30069855937829737 0.42885651507505723 -0.30591059285679656 0.4019607552313282 -0.36090395213951726 -0.04441097972175123 0.5928037135713867 0.10241946091616574 0.15805221812483364 0.22240251285252957 -0.04859697036797144 0.5769499565355468 -0.08671385840204142 0.5950114620485937 0.04257852472973455 -0.11050546909619935 -0.2675345042384006 0.2122967883684339 -0.3722115286541925 -0.24631818293929236 0.41568941611248955 0.3503409768427703 -0.19776296209984703 0.044903937427858004 -0.26864887123106773 -0.3177258668035043 0.4799956608741175 0.41369309699663825 0.3624231205690712 0.28056310232148496 0.4436020528856438 -0.03469114382860667 0.4647878506709393 0.4254772326739966 0.5706072701619102 0.09296783718092039 0.38858055464248975 0.23833205945065228 0.13164123550609463 0.4573539000416951 -0.05735520281136926 0.5464017883981672 0.4570856882987996 -0.149873336704884 0.37463239965603073 -0.16284678707245956 0.15974554986465003 -0.3320485088617213 0.24443379973021814 0.07964768623925655 -0.33703477592158176 -0.3140361058510701 0.5295599491106956 -0.0631478924299476 0.4773159066345739 0.040007527349256944 -0.005831418627635564 -0.3137220337736162 0.20722550428119252 0.07277222082683794 -0.33663808894259756 0.18454882625257876 0.3416191225329983 0.16361741295153515 0.3561841622343796 0.4384810454384048 -0.38743831886220736 0.158991581914912 -0.39568053783646345 -0.24456547300155904 -0.3240383280901364 0.19574914977734031 -0.2244944496711992 -0.2574612217732766 0.26878888691820096 0.292569788067038 0.1752915265233378 0.3463985549545254 0.4805988040144331 0.1972894072375866 0.26493940432440977 0.2781708416819652 0.4089676388008867 -0.3818517454655247 0.3388955534381463 0.5220134021413674 -0.21473233931162714 0.07187976217846352 0.06502636684161878 0.3498586046973596 -0.3428301522752193 0.38608445243717837 0.5399367684128831 -0.37277292343515556 -0.06665372903732801 -0.3103760766354817 -0.1186535089827823 -0.015249318315939503 0.3729658699950017 -0.23295181610984841 0.5034012886325872 -0.029361862926733772 0.3789556759643805 0.2845053350321068 -0.2164846340563798 -0.002326280181138047 0.47382598073641413 0.06589814880316336 -0.36909019739303883 0.10765757546797299 0.2843102114499567 0.23138841807655575 -0.3699875509549198 0.38522930018441753 -0.3873535833833246 0.03456722981111908 -0.4026229229422923 -0.11185585599050751 0.14781075468964594 -0.45284796667231825 0.31891466518190464 0.23658431144113454 -0.4622679289397838 0.3811421845681769 -0.45808606150973535 -0.26291739940671977 0.4415488338917538 0.15986699771538052 -0.0003436871873124328 0.014044373263129335 0.366811877626507 0.19210532065201902 -0.3941543573852488 0.35327905893715295 0.5361866709713438 0.22494146595396275 -0.06958734592950826 0.41468620184778654 0.2164312874101102 0.13138393809077076 -0.3831436354483334 -0.010759837680143417 0.2529409978902501 0.4460186836077651 0.25230102829336554 -0.3540797671361546 0.5159781302945332 0.3942655386734172 0.2940519096496045 0.16964474080387615 -0.32821304782876143 0.11457420769586851 -0.020321466766792418 0.3847180668111998 0.27174423526727953 0.2629000524491455 -0.26420651933695705 -0.27582514056505936 0.20767165246949001 -0.1642692327849334 -0.22439181689552706 -0.34083917292204663 0.255820873010853 -0.08408992218584974 -0.3811968052939608 0.37269983594850464 -0.21662975145195357 -0.32471734974599187 -0.3053537353539963 0.2953979219970634 0.3917588576745541 0.12832316449153047 -0.4261791458920049 -0.09080036187270828 0.37480927062940617 0.30351583133854954 0.08652536857617263 0.1162355676782435 -0.010465974138444576 -0.39726281619655485 -0.09416583921791011 -0.488420088932691 0.0286460381028699 -0.3886722828986915 -0.3181907010926398 0.24829606588570094 -0.22641976411180206 0.26277524302688676 0.2926648455375645 0.415397229893434 -0.29498583222318947 -0.36744637977831274 0.13375754704468878 -0.3611555571034672 0.5961609216560899 0.1449392131407612 0.3415605623297453 -0.025963228917255197 -0.007585423956430884 0.10210171377753265 -0.3312678117071524 -0.18209143517761825 -0.14783290406963265 -0.04152281190007333 -0.5414895781095838 0.08211933106899731 -0.4305123148399572 -0.01653284128265895 -0.5216955489679177 -0.19260526923953308 0.31795732268933985 0.43680649802407673 -0.2096591929096617 0.22196342972855515 0.4616677233087868 0.510436027363577 0.060305277717598874 -0.2618873081083393 -0.22394143400374306 0.30607284818980535 -0.2198897323383651 0.5264902010249612 0.06424568501700245 0.19286521558027647 -0.043432769729579636 -0.3218972375325981 0.055767549543454205 0.21977606810817116 -0.1642941045726388 -0.010483975529898869 0.3048861382427478 -0.5397971667075189 0.2920109481097115 -0.47625403790573423 0.04210373450342901 0.1390237113742534 0.24207721552111439 0.38110830889493813 -0.17883201208815994 -0.20501749266694697 -0.18458534918873093 -0.2504382176548903 0.16427960873481523 0.2704484892469472 -0.07810096010601493 0.5305655177907501 0.20751860993307766 -0.3761626133354342 0.46372081526915954 -0.34579389820114925 0.14522931342491852 0.5379599927866807 -0.35185410687409463 -0.2843204675846291 0.4973803749827914 -0.055316391716253535 -0.1269839164892441 -0.22193483363787814 0.14489934416972766 0.38662736414944143 0.1370071892287708 -0.19740857113312424 -0.1860734940416417 0.07345824861939254 -0.1367891776482933 -0.2784237405749672 0.37612401736292633 -0.12823383114926662 -0.29643014895970843 0.5415761318490215 0.08823633123955839 -0.05647218871908827 0.15307201214605354 -0.1866651038344677 0.4162625824585284 -0.2212197721824774 -0.027013448824812457 0.39559881834829697 0.24773114626239 -0.023420811782593642 -0.39036020605740124 -0.3141451279399864 0.21211668102028045 -0.21092623469277913 0.17637976596623545 -0.09365532069980807 0.15008566081395117 0.28514213218873063 0.023848881165658763 -0.21342687325550105 -0.010209090107513901 -0.4158251732045534 -0.5532084250502056 -0.3156250649819616 0.35638160034912586 0.28619361580261155 0.5047701956528213 0.21581561844059088 -0.15758861086159517 0.41497694503618926 0.23395617473328384 0.09643854290266157 0.10964008663899169 -0.030589544985484756 -0.14926763681986277 0.3388424425092093 0.21339614371649818 -0.2197564234101258 -0.35447548708804066 0.13606045292408553 0.09714026065345621 -0.09339963045595391 -0.4559817290720672 -0.3771833054520848 0.17851446575580074 0.38197351762036813 0.013287037307978792 0.40759811838008353 0.07482852045789595 0.28551534136606127 0.42627082536829547 -0.4930553176309366 0.11408582208128504 0.06104298988564331 0.30272382765391054 0.6894449143103419 0.32807757425859846 0.47695929195698605 -0.05867232496755952 -0.18388128199041506 -0.22892072874408056 -0.3388886978449613 0.19712052345875253 0.4249940730138472 -0.36763690552589334 0.3562123014267057 -0.22216245279195304 0.34019441957725916 -0.2214688523323612 0.09226394470741231 -0.31789260402108904 -0.3006189083321974 0.5670620185141261 -0.15239304484978217 -0.29805276938211495 0.12039441574942891 0.2005441222789394 -0.2675356369618064 0.14964127090087537 0.1059300845996443 0.4022219411801269 0.5634139604160018 0.21295567447208 0.17745047886418897 0.45338664380941385 0.40165715442482874 -0.36839965065147634 0.47020002915861636 0.5058726945543893 -0.2141063623556104 0.22196323492750242 0.25654339063568915 0.18930301111772818 0.5048051012974624 -0.14365668800233966 -0.2183321383380535 -0.23831744312995867 0.3880429653610634 -0.19921465473890532 0.32672109200901106 -0.256987522788979 -0.12282029187056219 -0.15917983247920045 -0.037063979941610835 -0.3590452921380109 0.2846524257890301 0.21688183195253186 0.3341478029262864 0.2590376623673232 -0.27459133144312375 0.593679987236449 0.598057376841661 0.01942256293165973 -0.21897025614095383 -0.10972098319726423 0.12129013784095384 0.3330235696392165 -0.3243221391540854 0.4187291217341548 0.011283936516663772 -0.048578778484388185 -0.3423934661758008 0.17506831228982253 0.47031950236167347 -0.10247456455379833 0.11555149592944199 0.10775550013004358 0.052026931140647784 -0.04029766898954971 0.26719323542683177 -0.33712793710817524 0.11226234021574713 -0.33288738940814605 -0.4923550567018797 -0.21797615928172603 -0.3786956404880503 -0.023632013577707053 0.2244847156905384 -0.23508379976706342 0.29188620677484667 0.1077955224710539 0.500241644483893 -0.22461358269488782 -0.2790426816351359 -0.39591251472704897 -0.10899342094512195 0.027920602594291077 -0.35242101425890043 -0.13783703662427638 0.3017846825113646 0.06373738032491347 0.024497175755099142 -0.312047957963084 -0.012280295358160267 0.1036044745347793 -0.15369423212800734 0.5182711645380124 -0.22763001650164327 -0.3386514462839698 -0.19678688755481163 -0.14804640119803314 0.22391437817558366 0.17095153719946823 -0.04316754726277066 0.5550598310060888 -0.3009862735988998 0.0277147217566543 0.3187117109516458 -0.3380788512385181 0.03408576932925157 0.09545826512831748 0.46903162777133556 0.10100643755339193 0.04901419098637638 0.5131927443922636 -0.2518880500941628 0.46127452191402174 0.2774948778075913 -0.287555094363171 -0.17349470881566723 0.025664234364519346 -0.4397087857135005 0.19411809912612096 -0.13064440701815422 -0.16343361825562652 0.032868574837296306 0.024779169603130414 0.26693131932644243 0.17675303769973125 -0.5192583759804065 -0.3180375257145121 0.22227242367410804 -0.2888742318044846 -0.007490302544375693 0.27287110950135757 0.2936838902720399 -0.25775103701296037 -0.1720775520195646 0.35206429384564053 0.4010974503084451 0.48391533157291705 -0.06226323081774926 -0.1930539572951741 -0.007767211211788155 -0.25017233035051467 0.5903790625639902 -0.26972117138537594 0.14728937724003197 -0.3995348063990645 -0.2198995064524183 0.3227390601882538 0.06913323564333997 0.19170719289843435 -0.16287177085317722 0.2955280961877293 -0.0407910560930455 -0.3078557621879873 -0.18006394976567783 0.13560532787960392 -0.24861606332698888 -0.21559570183475818 0.374592289460454 -0.29092415493311546 0.37722686467076627 0.34879642365735575 0.10349116760695988 0.0632194778619965 0.25561931252516257 -0.10907760990950596 0.13910566163064506 0.07747212174517654 0.353003933864045 0.09077008495521455 0.15737431187669992 0.46778463577512985 0.031436747221368896 0.06520517838842645 0.11326856010504488 -0.4710280793261504 -0.04271115479532192 -0.10880803330081197 -0.18073971341261882 0.29649856518142303 -0.3885158440223658 -0.40626317887187224 0.23465144502276455 -0.49035388280156433 -0.14203886630780344 -0.2763469923861594 -0.21869999679832686 0.40304105800611856 -0.28446214660820046 0.13493003635925443 -0.155252275739792 0.5004498780148166 -0.05944178615844673 0.24760889134652295 -0.25897060755867096 0.4099478322337707 0.4107569290987205 0.3344772922299303 -0.35924317472937517 0.4581576484964705 0.06371663936675187 0.17107902993324536 -0.44897413706746664 -0.20620645179613126 0.35488932316534566 -0.49980983206234675 -0.16836071505285302 -0.32699473367847415 -0.43967306001239104 0.1337455681012481 -0.29875086661155836 -0.09680131283097199 0.13479176259955386 -0.2316382606621314 -0.40903211535999606 -0.026978681454220742 0.18064047047820156 -0.36852927873457986 -0.054468267251502486 -0.3680194298198359 0.25523256214034196 -0.19483902709517972 0.13458160253761228 0.4773972298347864 -0.19935964476743442 -0.3346005950459837 -0.3261372152611429 -0.19260591267509528 0.3345050552000184 -0.42575238681204797 0.3397469341767024 0.08714038928866909 0.36277508074175924 -0.5133081670895708 -0.31006547054728023 0.2878645637804526 0.41755235598644086 -0.08805756040864854 -0.4807131008079642 0.33733777481106386 0.23627343084161045 0.25042423963665544 0.09729643056494296 -0.36244863630321805 0.38875455165909956 0.3045681836630473 0.27486661265628837 -0.3981647815089384 0.47062160777949197 -0.2551259830969197 0.07193056181120455 0.2533899937993148 0.5450743265956737 -0.17330022538176654 -0.23778424601284892 -0.10638925973412333 0.2338882553795008 -0.3132577768082997 0.3902382762797421 -0.18095012772528685 -0.2978181757041441 -0.03650054275532659 -0.18026327228715822 0.28346775228679555 -0.2688802450743726 0.06520943525757107 -0.06348494608459013 -0.13960043915407952 0.4289907597370584 0.2884141291039594 -0.2262106095364301 0.13404557625974345 -0.11227174063064087 -0.12473408627854732 0.18676555147991264 0.21087625540914973 -0.030676077296131036 -0.07958138336996785 0.1567511012044838 -0.3969996237249381 -0.03537915168596732 0.35823386851570227 0.3833712439143696 0.2667388760428135 -0.032212273733959164 -0.09714875057148911 -0.17652370600884976 -0.004233279576136698 -0.12781284803601098 -0.2594653803546558 0.3952333488066032 -0.007212651075295726 -0.2846371951907837 0.15724453475653372 -0.047061317096821716 -0.3425747875649506 -0.09625620551335681 0.01527407857192077 0.4883527474967696 0.041630837069644475 -0.19540218034432527 -0.023251340524331088 0.4342626785046737 -0.06516930008480588 0.33072156332786895 0.05794275342830878 0.05859906185584248 0.5952236850904483 0.4114824098446336 0.48592534284119426 -0.2580763207736251 0.5251201422646209 0.03960508782987485 0.3671300594782316 -0.3675125767483855 -0.050638943020744565 0.14001794660403394 -0.3007059675949085 -0.02565932672508065 -0.421133706218903 -0.28255500601162015 -0.17118547592830669 0.10021117703663494 -0.37809817371874255 0.20322645059129818 0.04494117492472565 -0.165883321036765 0.008634968057427438 0.27758445852100355 0.17706306602676117 0.48042498825350793 -0.35669836908921226 0.5023175557124658 0.5395774839027099 -0.16575175730342048 0.4163716873809334 -0.2597839548432175 -0.06052847140036821 -0.3983825751826945 0.5839442238781214 0.589173734325022 0.47360060384296937 -0.12770286622410143 0.1940974779251036 0.004381099033684695 0.4900816654941761 0.19317339915504378 0.492532958337306 -0.34715103132581326 0.4917288796137424 0.1702144851650632 -0.37634452893291054 0.5655048980530346 -0.15138779231335298 -0.2873771899492677 0.01628898126828674 0.27505293897610017 0.5638315027718112 -0.061573763703931986 0.20016868852386097 0.3510834367660034 0.4774764533854975 0.04775294241965738 0.4084618316323647 0.16470542416452263 -0.3012964947075266 -0.16368009041094334 0.42415171168955196 0.35996795369087886 -0.06865049359988841 -0.06288404587850231 0.5614682232333352 -0.33419807688799513 0.3671415570837187 0.21857650801284043 -0.38636432428214584 -0.24197457953049215 0.3092213149359267 0.06714641905229433 -0.2598934898391449 -0.0367619962539145 0.060388855324923524 -0.054453863766019406 0.09499283984254614 0.3473056154826383 0.04283051945529776 -0.10086292982372813 0.21217815710368398 0.08561148592115625 -0.26967428035898927 -0.09147050525605577 0.5425309285538988 -0.24836231130416292 0.4960499933482374 -0.13203242650759683 -0.2982532319691009 0.06976367397598615 0.018121891293624737 0.3782653199871191 0.1545576787267331 0.15531650168698313 -0.1939661454132388 -0.16339023977556738 -0.16495497029244632 0.15750569786849578 0.0010303209549369363 -0.36196601917035676 -0.2606404206802184 -0.033096465362123684 -0.2729075865452694 0.4585939985277381 -0.0655588682203403 -0.18995826515997222 -0.2432077819300005 -0.15655161025524192 0.45012801045940143 0.308070943047524 -0.09090900428885362 -0.3127769516799024 0.5745875026478993 0.4093948859163439 0.08909544400706915 
