2 
10 784 
10 10 
10 
10 
0.5678386001207438 -0.14728401461354002 -0.3620727850604215 0.2641776980961792 0.1335047038877399 -0.07530310069210365 -0.008043245748022208 -0.06576075301679059 -0.2922039299078261 -0.2535114812922536 -0.03567315818716193 0.5124243271319152 -0.2618886449813594 0.17408426506520935 0.36708064848304 -0.304620290916925 0.030272671750600378 0.5747547997295906 0.32127104954994035 -0.15909440658100021 0.44991570486714505 0.047230628754292604 -0.03399693417951219 0.26601384069206246 0.23235938027938163 0.3221459965737754 0.0030910036768385662 -0.0017488230156302853 0.2296563044110137 -0.2768249791106851 0.28382256469691436 0.5386629939130305 0.3407355942743305 -0.18492748072769885 -0.2474736197095531 0.5430898067958002 0.5624782654780427 -0.07404950333501475 0.07970191636549305 0.3097371427656728 0.3732410647270166 0.5923905947446975 0.10698324848417215 -0.030325811701650187 0.31316880100445416 -0.2915704576316343 0.03565297523927562 0.07971043335487785 -0.34660808812424054 0.06193393325648542 0.2207474093149082 0.3309557196933466 0.5326422609551635 0.20603610016272703 0.1208141838153371 -0.1996635091829495 0.49512362578557556 -0.377570724670175 0.5871360158840465 -0.222011242222671 0.3358233374665733 0.04923800730728068 0.4642649930439108 0.38529717472386904 0.40216839075135713 0.4129046885383463 0.15323589379225963 -0.21366564231728635 -0.3412193840918306 -0.2658814608654047 -0.024746873430353884 -0.17273936256884567 0.012004764267083658 0.26450610790792917 -0.01054682449449136 -0.3282491687639785 0.378348422981149 0.2841257600613693 -0.1436903000741922 0.3865225698436445 0.32184502555338257 -0.3231738876490462 -0.28060047109475833 -0.30105869740421504 0.528987485531903 -0.017688727232360778 0.3247059070442843 -0.12142778273685914 -0.03243791843147488 0.4145698546363415 -0.33099329338816386 0.02547701394165734 0.3850269386868871 -0.018319925844738093 0.31399992454824044 -0.39794815809849293 -0.005845729694583081 0.539012641413121 -0.050592549584637894 0.3412878181893172 0.16432093281561708 -0.16459416523910117 0.44852905123604037 0.5750112588503707 -0.06941752468231223 0.5547541056219937 -0.05104076961837034 0.5541865197465644 0.3421859197935937 0.2584225332529208 0.39078172403206873 -0.17127322377527576 0.4327238333903486 -0.32978538892040293 0.04746287389495109 0.2531800997430906 -0.39743025021579653 0.051668896489647655 0.38690086615171493 -0.01761621342493261 0.11707506487052545 -0.00993421925272637 0.5644801711513865 0.22769207878019257 0.3652550169100722 -0.19974145938010834 0.2863904800149543 0.09627596960758314 0.453158427817391 0.40859459983986235 0.4928427687932778 0.49194688892049576 0.14953130423340213 0.42172523327451367 -0.2970003262487187 0.33166779140343555 0.1377917832518227 -0.35986658737924443 0.5802652164266335 0.5688845721694877 0.05092146318324975 0.17259135897213826 -0.009998204624337209 -0.2176215125039179 0.07363319770322309 0.4484722084494306 0.45032782839351476 -0.07514258195791505 0.13598416278369693 0.3902693486279823 0.4840856169791406 0.3266243131001272 -0.1754193910805509 -0.1094803379745307 -0.04312259921508946 0.30478496472321764 0.40480923045602196 -0.2467314238982132 0.3048512983704764 -0.019513538120236408 0.10311014542536937 0.2259367744015307 -0.2430234922631759 0.036772150709787926 0.2888751296896521 0.027384013905511456 0.23952984137069333 -0.12705024139481386 -0.1476767892191702 0.10437267371852352 0.19262629538566242 0.1301647089084179 -0.16536180409612614 0.19213288841059642 -0.1662438155092905 -0.33803240307391813 0.0626272164747899 0.5101348792651136 0.3543144424340991 0.3298573618401331 -0.02019223023334703 -0.05638985670809994 0.4669542292556158 -0.213943596054553 0.1437607541762238 -0.2845254838347111 0.2313381495554098 0.3884793060164611 0.287189540906914 0.35939045786513657 0.2978878716359923 -0.11520473161123576 0.5284400302993688 -0.2253881557640249 0.31597444534985253 0.30475409493632655 0.364013722239657 -0.3657035687761143 0.08684082646721174 0.06728438756805241 -0.0011701275219166405 -0.21189576571414132 -0.08141623555368938 0.01916509985206231 -0.3865267021893095 -0.024441932723174863 0.13135652578524165 -0.34425411512162174 0.39400854818553016 -0.2887439196085518 0.2904477588442759 -0.45140441744152826 0.2578126316990909 -0.027905610665809977 0.08650411604823487 0.5139649579686603 -0.08235976785634475 0.1983102847163517 0.10826327695735465 0.23544716608817712 0.3971661646120858 -0.297538457412361 -0.14113270006880932 -0.24770886394631708 0.2489716783389706 -0.3787833035268602 0.009503643142755617 -0.0026257407608978275 -0.47253423224413554 -0.2710110961818153 -0.2565751188713389 0.251645085948257 -0.2528143464857098 0.10718810866790249 0.45223664226408095 -0.49635606398899923 0.10803076188876283 0.36112978866214984 -0.449271603999308 0.11298542549663257 0.342251980211358 0.5400805584465085 0.476985354350282 0.2649466329125799 0.5169492549593289 0.12645751287219398 0.3016023482243604 0.47204125830592203 0.49056942967337513 -0.3885802797207113 0.1310293121056372 0.1586340004428367 0.004081921650650688 0.3422223789828155 -0.2596979914576491 0.45539085938662166 -0.08268046566176912 -0.06742921033528085 0.009275930702765134 0.18701832633558763 -0.1628724073401969 0.09739800379023852 -0.18146716344840483 0.3459087607432471 0.054060657524277224 0.5019866209691216 0.37012661463969726 0.3295887118505035 0.1967553561305944 -0.3525857062350406 -0.3982673249579713 0.23233849290531197 0.4863178501631733 -0.053348852664895634 0.23884728686997245 0.42262372626053923 0.586519936172603 0.24980511062981475 -0.19319221345166293 -0.15394871678722044 -0.354205081265859 0.13650651006311082 0.2685064101071654 0.1769272793125076 -0.20129763845098136 0.06789155339195821 0.3700189906482403 -0.46667473382085173 0.021379587219287503 -0.25502303648517677 0.035802639403024784 0.4017514484969268 -0.1058670340128874 -0.1623608896665733 -0.21137427530778236 -0.3874834582429857 0.2357514610919617 0.1685677208463654 0.3005365163682023 0.5380083715020446 -0.07635743503161126 -0.04215323044688494 0.026057333690640564 0.5886506006335169 0.28589336275045807 -0.28529609555914903 -0.2971560683843803 0.5151002777767097 0.3995906612554647 0.3969519384441605 0.0969242386636837 -0.3438246949853156 0.2342460542609027 0.03063554320280066 -0.4258249534283617 0.39711756497449713 -0.16452428343920406 0.366345431786753 0.2181827941173252 0.2284692338588224 -0.09174326517580583 0.17860677312023862 -0.12644718554398027 -0.08128157065816598 0.24607881981224541 -0.5095470136540577 -0.17312061504102097 0.031090464543156875 -0.12633952481573474 0.5482583656384085 -0.03861246298265721 0.46490247654820516 -0.019930053452215178 0.19218871485662126 0.5170878802989959 -0.1131855274688306 0.15340568670269172 -0.35634893017647035 0.154719878628663 -0.2042090996531872 0.19063851796421602 -0.3178105536107622 0.3317447377358799 -0.11433017579357499 0.0903302309978007 -0.041577071320302236 -0.2540461280982966 -0.1341980352038829 0.02372620210530838 -0.17058926638226096 0.36084171101458906 -0.315026186403873 0.2567428394974894 -0.49861649103026007 -0.14489162679028872 -0.16051083190209148 0.3513035687439779 -0.1945913293314706 0.520113716753237 0.3095546605187338 0.037918806943751396 -0.22856853281148634 -0.09020540702238672 -0.1767082993065361 0.5772739662257753 0.04137659799131177 0.004954575920505632 -0.06907633584617659 -0.411046313228932 0.3202715945881195 0.20415901877494336 0.11720197311915201 -0.3760858477399865 0.3851120122053743 0.41348006519447034 0.04050261796122413 0.06709814695519437 -0.4582296379136974 0.4777429101864466 -0.508741105966949 0.20522795393638138 0.3909420022605154 -0.3927355632674068 0.4121776310197889 0.2856324938694684 0.19095206728713843 -0.21436320740070355 0.678367881104944 0.3682859463477575 0.27851132808116863 0.0353777622641202 0.44236990826706335 0.2599893823602917 -0.16643644538652674 -0.21304578594544943 -0.22331141085048295 0.20934643007123693 0.1507543067897566 0.283201887972027 0.2677832801097929 -0.16469116465495853 0.31560646532911973 0.1466745406332193 0.22146464853294284 -0.09428661451143426 -0.1206500043658741 -0.0902209706440927 -0.12126593260035917 -0.3706792344677042 0.18588465943235616 -0.32070494592868665 0.12586570976641182 0.1963581968743487 0.10667828013100507 0.62117006610673 -0.05394798490882451 0.19423646566716216 0.5092444263689703 -0.35786341103420316 -0.012092611846668988 0.5229752630107494 -0.055496668820752715 0.335396601546433 -0.17601155723337383 0.3258605228301051 0.1617712632658677 -0.16217294945765506 -0.28637748926445783 -0.271674369039872 -0.45437273109230375 -0.06200853458541335 -0.4789846641935324 -0.5469279778239371 -0.1535009793942339 0.06320541277920105 -0.4382474386111583 0.3361521388551187 -0.32999300858294817 -0.20445108516418514 0.45544272776816913 0.006026222274761019 0.4396692362979418 0.2520700871888643 0.5508412935184689 0.2670826881080443 0.5476788081707308 -0.10060410701881274 -0.32516820656106554 0.2385448444057493 0.5665434209613501 -0.1335038738343329 0.12520811064910034 0.34967288021848364 -0.4453820299681632 0.31100818509105993 0.4642283113420397 -0.41959307166532644 0.20653334322521424 -0.013954820331979569 -0.021029482000376666 -0.2305271326622495 -0.0441462000619138 -0.12156751099106723 0.38850479384590825 0.3615825400309039 0.15870449791344857 0.1053996369913163 -0.36216261796018306 -0.25462597029489953 -0.2801906143602018 0.5050032761263676 -0.05735768665330778 -0.26097434014188886 0.11786615840695427 -0.3630470879310362 -0.19587038899846904 -0.016741608241159167 -0.359130072016579 0.14166885742863525 -0.17265621884726906 -0.06724253875279206 -0.21771653189023077 -0.1920390758189966 0.40164077163092865 -0.14563931601758612 -0.29738190264762987 0.030722580129761055 0.2526284275289075 -0.3101505661640137 0.026530969791615587 -0.3813918387090245 0.24637705834167137 0.08168767903297587 0.13073742760255477 0.022981680426896932 0.5715337513638906 0.03588479942720805 -0.07494357359033152 -0.20221220984069674 -0.10256871123928393 -0.22393265599560394 -0.29958541865138294 -0.34602339914788766 -0.20894272556181337 -0.061639942678021586 0.5515713046137836 -0.019702152512295085 0.33967255158962684 0.21925275734983035 0.1620335542952196 -0.40398031340632673 0.08588842968240548 -0.07518142211124672 -0.20547787157781186 -0.28998054234619564 0.21052508797565042 0.14796790599727958 0.03482889368117828 0.11895349629142427 0.08068822126980081 -0.43600172090775335 0.38888592316893533 -0.35446588001524226 0.49912377223005533 -0.1509074810737921 -0.08853050146672516 0.6109895073333661 0.28455902219761564 0.3181179794446193 0.38301624940585083 0.5763341101495963 0.2019858286986107 0.011112637447797669 0.2026681981846778 0.5690477202841514 -0.39870606823130306 -0.31420123301766895 -0.14186978125730942 -0.3685472966284793 0.21219116992426526 -0.3401320443032815 -0.27032052931757095 0.022214751463388815 -0.36009000887205184 -0.023011239426960584 -0.12655052498263297 0.10085225240336546 0.22768152393230146 0.24824327880582586 -0.1360759096451809 0.012761150579787287 0.5759976794979189 -0.047787672714151935 0.4975685586284302 -0.3306291353793969 0.5483489519716124 0.4456279698337173 -0.27100261130681497 0.18703114531557166 0.544275226081397 0.21082772000779737 -0.34428781487589283 0.09172095379215396 -0.36477183174356637 -0.39407622611313625 0.3016023395884762 0.015435533955164242 -0.36618971971912195 0.02976851131233856 -0.05882877996766923 -0.43394361636794876 -0.465777598898969 0.011403591370492027 -0.2541613265423162 0.3938791888854977 -0.11028948841751254 0.3256032087367008 0.2921407970516483 -0.132462342213956 0.04992399082818894 0.5360651735984779 0.4544100141636395 0.09192720078114056 -0.12408055019599147 -0.2116081960258204 -0.27922646346160634 0.26067419323328883 0.4477784327095413 0.533246176690616 -0.2621929436894079 0.3155334769751362 -0.12988947791666686 0.3496030297224794 0.30535965749031274 -0.29733039366372477 -0.31026775502362147 0.1831717352206314 0.07599639467371656 -0.11074096171835855 0.025014323012692227 0.10342152129056592 -0.3984308550620081 0.16661290753430313 -7.608692132665847e-05 -0.09839080175815551 0.05820039356278497 0.1207125247939177 0.04731827957305021 -0.25919381688987564 0.024153737309792044 0.0033404889864529007 -0.3014343530890221 0.17225766794673153 -0.311648785819697 -0.2615978559034773 0.060252099126253955 -0.03790576454993361 -0.28516837125380945 -0.07977527831345563 -0.19085071893947733 0.02071909451877408 -0.01182018470153851 -0.11024770271866309 0.17386227814177185 -0.5191995624487987 0.3892268550175144 0.02959309057221494 0.192270455476354 0.026389805751419845 0.41679948487428536 0.15376732705886298 0.3401232864089082 0.45900774590315296 -0.14718166326573576 0.4221107970144395 0.4403387732434858 0.17711725753246693 0.3976634055863745 0.2462165212026311 0.40669491155456944 0.3960811325291423 -0.01873926211205431 -0.3378944651580698 -0.25844703135797176 0.3640715250142007 -0.16213533543717604 -0.13976371266404797 -0.2628020276860674 0.1466925507828695 -0.3233366329572819 -0.43886319193696505 0.5291533015859862 -0.2190676473533557 -0.22994499116609726 0.006296747747082785 -0.06357946460640658 0.31677155187117956 0.5482774180258588 0.3921446131303763 -0.3828752938919099 0.059019452552799646 0.19882373128178368 0.4799602094439284 -0.34897918999122346 -0.3862837427606048 0.20041224459671506 -0.2672865662010584 0.44660112484603326 0.5174564914025915 -0.28770374081080996 -0.32552840343547973 0.33356017503736834 0.5107550313289706 -0.310760502833801 0.31328161849175573 0.3404403430456085 -0.10963036253840508 0.503879234822012 0.3441031965530253 0.07751033230396932 0.11495162833700602 0.1618238632660778 -0.23449744938100864 0.46466439343446303 -0.14718198936721283 0.42954623299705974 0.5256013947593978 -0.2152294876982026 0.49839409903214577 -0.021310291619393327 0.19479739048382808 0.1326315602139562 0.30885950917499344 0.5576640033877174 -0.1834720887236055 0.07930568503682672 -0.2824073594111819 0.40586275464745447 -0.32569883817724293 0.15223222221586497 -0.06585190091445214 0.10428775775967787 -0.20165936210074523 0.46617409531196585 0.17784267310320898 0.45264993945223614 -0.05049104288896873 -0.0449910547164524 -0.20903551581300503 0.32629536504282197 -0.07156009059316365 -0.38774940621543863 0.3421323177320291 0.12930926225302172 -0.3399652450567028 0.08352942378576347 0.3021407542730706 -0.38240481595729714 0.5412822165289319 0.3606226673890084 -0.17330894220392407 -0.03231473677454389 -0.2476473745215467 0.1779776841255874 -0.22642961436029577 0.09276409460887988 -0.16110830060249992 0.17460966915342158 0.4815968297308665 0.5418735804600978 -0.3473195877033579 -0.02504859451405628 0.5528810645923975 0.1513474024484867 0.43717819723185664 0.025296462069881485 0.48860075880954484 0.1948633106815969 -0.05575811771349405 0.5616693537989391 0.3939112478828682 0.3399087454636862 -0.08257735572314368 -0.31901658587244247 0.34411301126014593 0.3919413978814997 -0.39573939344966397 0.3374789886781552 0.009172409517951329 0.12803964697290496 -0.09426698611144767 0.08422448916488712 -0.07934386800770635 -0.13413259200592517 0.07265306667711882 -0.2268120688477544 -0.05547706030298849 0.03026523931554581 0.02075044696480033 -0.020472064731851147 -0.32759866890883665 0.2857319069807345 0.4026514446190849 -0.2108650934524496 -0.2914656837075892 -0.20664657759087637 0.06795803080338991 0.3543883215624746 0.056591346589539904 0.0703467285043089 -0.3438277178070451 0.5469476608043495 -0.3640229102774736 0.3314094730320457 0.5203378973331982 0.034226456563940064 -0.3789288916677462 0.16189419222218493 0.36473304525573147 -0.24802138328441065 0.15774337505491298 0.36733108113229707 -0.1601662075529039 0.10917881835824106 
0.5337948314538621 -0.17248216886172585 -0.15369937981847925 0.2959773350979299 -0.391003488474693 0.1612168303530185 -0.30524894585229256 0.5176090630833426 0.38314688203636404 0.022009773217851684 0.46661439713628877 -0.279531550710488 0.38282748649011045 0.5534335468018012 -0.04369115250800881 0.514449947944706 -0.1080515398901935 -0.0523914698469783 -0.04519294271058549 0.4766860751680136 0.16356046949280859 0.4559694682366377 0.2092696909325898 0.399844269946545 0.4121766235015656 -0.23396518848252695 0.4276633695157528 0.17324096753811646 -0.3040947677352538 -0.14711702450261244 -0.03413464060282908 0.39522739306303967 0.20381323260763218 0.5659873372715231 0.17982991570576082 0.2766590137503722 0.00687032634161665 0.08916954967887922 0.22580495416721208 0.13853297257506994 0.32365960415039624 -0.1850251044167764 0.03568845108641343 0.5447730429227392 0.2858511909505592 -0.13068105628451826 -0.3218471783811672 0.21258464547774494 -0.26851240337541865 0.3660147292114383 0.08479522112082064 0.3516481122933855 0.48831288800868217 -0.3597150953722279 0.36425324909251744 0.3541386828209113 0.5972043308478225 0.31581998017463203 0.3889014593612139 0.17552515114577463 0.17154248941492414 0.39215155342487446 0.597792465265751 -0.056917830929870884 -0.028985781143512954 0.5665405713498533 -0.23208975464877646 -0.21824694774976014 0.5002289296022403 0.18058640354795097 -0.359969960430846 -0.32158197288813645 -0.09703614291700412 0.09826691260943062 0.23107114258611802 -0.41287939510037674 0.09734972588472803 -0.008425673421834014 -0.3446390522195995 0.3644791071190839 0.33752015991748735 0.0025454835391520597 -0.1911216954342321 -0.39689256172822296 0.12204363284995556 0.11000153564820074 -0.3217649670314637 0.2577616516469613 0.24841395875645209 0.3521700790509371 -0.056733699257596845 0.2003508871045428 -0.23197202122895277 -0.3143621464761062 -0.10227894117227602 -0.03293382561025025 0.5400335571667362 -0.3082126088670249 -0.1292638342222665 0.32169257602047036 0.44345833884501096 0.5054382601316241 -0.1261446901029304 0.33008134413056145 0.1250691457589378 -0.26072207768181166 -0.22928930891527285 -0.005435664618519797 0.3317561887992127 -0.3836519091955775 0.1950013998038558 0.16108447087931632 -0.09287434771125636 0.16804496775518954 0.5471056054787057 -0.28311630036013 0.08468273054793601 0.27486763030297023 0.4338965010986809 0.03238210887598651 -0.4064262790043503 0.49008691616352146 0.2987459176419 0.37536960869665725 0.22315413213235308 -0.14616224147248644 -0.19886569437467 -0.36508138160433656 0.3234721097470786 -0.176119469429258 -0.430423640671314 0.3857651459169363 0.4248836503464992 0.06981965720209873 0.000617410083706034 -0.44180639049667486 0.5458632823528908 0.09962109571876523 0.5481795918411062 0.48643466660955903 0.47580901154371136 -0.039647411992721135 0.46456651653489955 0.4446076043374549 0.09253316241122662 -0.15467669683423804 -0.31830154302235014 0.33595431468501713 -0.1989259692018446 0.46481716570058856 -0.25435625056398464 -0.2013701474402367 0.5050468930656163 0.41934505759869317 0.09512133095317352 -0.37340202367513536 0.5876709654854962 0.3304072170194712 -0.43026326350851923 -0.22681995831710716 0.30507025052394976 -0.3464132671576551 -0.10775759980131464 0.07892220224335754 0.03085626325522205 0.062209233244598816 0.5199124290704121 -0.12970793271669168 -0.3381065308965272 0.3938717544743335 0.3008217849409865 -0.1883212461306139 0.0901971331500123 -0.27277581660215433 0.2766018172572776 -0.19857769030679626 -0.08302276909184526 -0.1043675924139562 0.26973683113658997 0.2872217521804496 0.10473627438719313 -0.07677712880503096 0.12447562369810937 -0.09215654652128966 0.39373049333495796 -0.13748100560366888 -0.2766581778630729 -0.5126672929432783 -0.13841922894977557 -0.341734313773383 -0.3075593533644496 -0.015616747481760255 -0.4222971703461616 -0.2056135691328968 0.044758512557334214 0.2397671846552223 0.010803164260033693 0.438953618312795 0.11247668688370795 -0.12284388507797472 0.6014387115253587 -0.3265202905456636 0.27650335455260705 -0.31577813592445586 -0.07291616159942332 0.40096974147307246 0.1049510409837457 0.04245785781135978 0.38099795633544614 -0.20485819420258025 -0.33538249645469587 -0.22559905173583253 0.3560363717350771 0.005566649992433525 -0.22248625676189024 0.005655537969292059 -0.011100224814428815 0.2703394008328528 -0.24580295152415688 -0.2488112626935795 -0.06659623236955729 -0.3993942292026242 0.41709745547748484 -0.06170566358729712 0.40742953469119314 -0.2860211506185799 -0.04700434820458869 0.3362147983873277 -0.2552877884114825 -0.15961094633893178 -0.20625801723159853 -0.22761981445749435 -0.40947074397342964 0.322995658891953 0.46787243516199295 -0.32572047161656137 -0.34444558259895847 -0.19188081201908283 0.058651240749182 0.3094649840500864 0.1167167311018025 -0.4044774288591936 0.11648447287630088 -0.49868444217924257 -0.23483759660732312 0.47795183150922 -0.24968433760899397 0.05365097250004582 0.4128048587528468 -0.04424192053737032 0.3693142962184908 -0.20822673837732364 0.5308894678869318 -0.3444104207042859 0.14936719273879837 0.01273585500319257 0.21047565859014375 -0.04003966386786102 0.08052249234919681 -0.15357960736576287 -0.48167510197582647 -0.2092847984382829 0.4328469322065269 -0.11582736205146814 -0.197053973751471 0.12284683112663122 0.406247069141519 0.043609769236192635 -0.15665570535681334 0.16380534573943875 -0.01604381888998916 0.1750160104800913 -0.4367244819062219 0.16494725793439813 -0.21104660794366611 -0.2984346012895575 0.10592393714152153 -0.09701876474543379 0.4002646206737925 -0.07775755437717768 0.16406279763668852 0.5598164985891508 0.14034966944655583 -0.30939665941605365 0.43770133801010214 0.2720126291065999 0.22153908948804768 -0.12778312160944852 0.21175433953329792 -0.24683982400118465 -0.032255242466902694 -0.2142000577495975 0.428519771736795 -0.43614376707245994 -0.16055724688139367 -0.2497020750927848 -0.37908924186277887 0.14062629191620918 0.02637394953577741 0.2155005085231719 -0.30353328203822005 0.05008629677264769 -0.4113801691589528 0.08111545941447335 0.13914598869204678 -0.23418256072812718 0.2761631659534752 -0.19425058027091185 0.21695011352089766 -0.08888796479319044 0.3748780090018167 0.5927587649392821 -0.26682449503819833 -0.2674603777173415 0.31886391488822763 0.3096570830866612 -0.35616431387691216 -0.1648975146654035 0.24268619155253185 -0.4977559535225215 -0.11784796705439839 -0.36265672223739304 0.436243271685013 0.26662026972800107 -0.43719308920347627 -0.2848087480216987 -0.47448272746235054 -0.3909832021569532 0.27867156980669117 -0.4123753698973083 0.09025963680124181 0.40440363169457005 0.08879732616282571 -0.3417836856430351 -0.3861311052190436 0.2686319018038217 -0.2388953702008748 -0.39820753931089187 -0.31027136149892676 0.02366119051653098 0.44745062604686575 0.13563138366844565 0.46059068540536463 -0.22472033082034237 0.059948429340822285 0.15511844754984502 -0.35749289067355894 -0.0698434042770619 -0.37820542497984133 -0.14317521881200426 -0.07714682527761645 -0.06493780520132625 -0.1552509378499804 0.13906460632602952 -0.4161835753504808 0.25649044805644733 0.2584114317089303 -0.1199163391049182 0.36786365763386225 -0.09141744810590244 -0.37726215316793166 0.40411404250702154 -0.3048201912662231 0.4935857979342766 -0.37659255863006375 0.5783807981181621 0.12297468125129521 0.13885642456651892 -0.25725993326680996 0.18371427007096486 0.42556348529271537 0.33794803679128843 -0.26443466954470884 -0.17548783766170514 -0.3564553078209762 -0.043505090696257416 -0.1788595793752828 0.04579654884573651 -0.5459999046983695 0.2740604980901304 -0.2531879703925037 -0.37489422157447283 0.27447877525890746 -0.16257320555607466 0.32092210430586965 0.08957620811708508 -0.46346259071663765 -0.3488820225033743 0.2431054787841439 -0.09460454237276657 0.28670938765844506 -0.006733998313794287 -0.15563319809881743 -0.19457582663086506 -0.1210267028052857 -0.05111463340861335 0.30344245747405213 0.5591778065922193 -0.01018737651013061 -0.021488055610629702 0.34369903990101003 0.3573676761582062 -0.16361602993596083 -0.18433036915807746 -0.03211273040678305 -0.066909650835829 -0.4680876290169301 0.05540091737268646 -0.2532798916822648 -0.4015185494865672 0.18657091496819353 -0.13562088084746582 0.35854537455654545 0.20515219852632197 0.14322498636590775 0.34271193080368806 0.16918463204745535 -0.11706136894614336 -0.16507919381494 0.30568602535787126 -0.3211825165806559 -0.23610476949953016 0.2585944023578539 0.15530842490397026 0.38860149476285893 0.5582207501178169 0.5571565442990274 -0.11115353752088587 -0.14836203648642135 -0.15594461870070156 0.008575480758282102 -0.29988174898946335 -0.12795287162522603 0.42796544863214125 0.35075333145419757 -0.37554370816489835 -0.33698047869897896 0.17618701037027154 -0.024595445627590723 0.36339228464774675 0.3973593379541887 0.014244504954473236 -0.46638720794845656 0.014993733215450323 -0.43554787272531276 -0.2887333157739861 -0.11565577829153949 -0.3773910293546964 0.11588123734789435 -0.2878016730788184 0.5533773939406005 0.13613716843368223 -0.26442325677185236 -0.30114438055818316 -0.1702142559381926 0.4445814768172671 0.09010851470059629 -0.07555052998130005 0.2975360580068662 0.08484474649048698 -0.03650055135830575 -0.4067644367239365 0.17513805972439042 0.29044732941465606 0.43353598323108006 -0.19674844598747257 0.22774549832843527 -0.09798088110787549 0.19761638993391464 -0.04248968318150951 -0.1171276639291961 -0.2794510517281987 -0.037652386001428235 0.16198493140146172 0.4273193856250853 -0.13172709654276044 -0.13919064763237177 0.23139149768076767 -0.24472603042395757 -0.2560815659199507 0.4833575799661528 0.05062061573427275 0.5393511560021064 -0.17571390227178632 0.7492394010603809 -0.20030135366291146 0.48957818188769264 -0.003969161710218676 0.3330395810638564 -0.07561963237294586 -0.42781360347707137 -0.11748624968751174 0.20843289665715678 0.022743944011781553 -0.41035144896742476 0.06755076083129118 0.40043969959542564 -0.3556465427921666 0.0038827538494425992 0.3128172208913118 -0.5403925492250636 0.15984778179875614 -0.1608658982671773 -0.39813402691266375 0.16239086448912354 0.18229058100971324 0.0240506118573766 0.30216662926863885 0.18759509776977948 0.0468374329684907 -0.0968331033551142 0.09005752446260042 0.5184268159346678 -0.03549079925886519 0.21614601895062707 -0.007168227111020255 0.24287080711070314 0.34302789602365824 -0.12167435902595647 0.29457732383144064 0.3708826649564179 0.10694730208881768 0.42612708004515276 0.1211061248898061 -0.19174829669143664 0.3940161697511967 0.28886554181743634 0.36111022766134115 0.41295001257796465 0.2217210083861666 0.45285242807272624 -0.22232193249616417 0.5466861587186851 0.5448576311536086 0.27895985072209123 -0.43135308553264073 -0.11749757091086065 0.4444389529373372 -0.3587038815274746 0.5323540056150248 0.4210424177460795 -0.27373682571338276 0.15176183078921776 -0.13634436133886235 -0.05836038903139316 0.3986327751405463 -0.2861921182821572 0.5009228788554362 -0.34736236230497186 0.36208742909666364 0.022062500671382972 -0.23702678772007696 -0.11236963097580933 0.11551716849973077 -0.31363372079586876 0.0041077651772034405 0.444538179603047 0.28591648006107084 -0.3324044629181258 -0.376896398987062 0.3477741508340897 0.47144274190530283 0.1642030746098047 0.33973995083058334 0.15451045857657875 0.2684248216294796 -0.27816438185608305 -0.1264941324336642 0.045503064749617295 -0.22470098654160856 0.2236841191515957 0.4070296653827601 0.5289262837331459 0.05649915692853698 0.48751394980579915 0.5773431597236046 -0.2708272035790606 -0.17223749132273325 -0.06449979550134195 0.44552357611559057 -0.40246941372987993 0.4232606074664685 -0.13815945063308246 -0.4130583891278101 -0.262293743846093 0.06243242824658258 -0.06309423096711585 -0.3754284574713853 -0.35275289503321106 -0.1646600859942873 -0.3936482319774258 0.28012212744743137 0.3062677819129272 0.5004424936338887 -0.18251015944289742 0.10736322297799229 -0.10486142117467082 0.07820043664658888 -0.14633386099950738 0.05117568924639513 0.21293951440443706 0.18818877379472215 0.4877613090078937 -0.34543533358675776 -0.27489941465973805 0.21048333247243364 -0.0386609586456855 0.4277864851473849 0.037538861498447845 -0.5059748951878801 0.06445580856427129 -0.11885148512179079 0.010351057106718997 -0.36245897965331236 -0.0428622331217515 -0.037630302711967545 0.030717996610540643 0.0821108764391803 0.06866125458654349 -0.3280292620396623 -0.34785748535023203 0.43472536925033756 -0.3171408357695402 0.5447233970014005 0.2787798494731691 0.23029347618108797 -0.2968936471770243 0.4524376191831958 0.41645675786824654 0.6745055628887848 0.26586745374128823 -0.23702949490271416 0.49059865258774266 0.3467477679689254 0.36616800201281463 0.2795665618454891 0.07874626509659133 0.46515694078866887 0.27129216630628694 -0.2676168478227993 0.07702003731777399 0.18329821434846622 0.009342569414529624 0.22656595016972658 -0.04548020340739517 0.32504676066917026 0.41718688932435427 0.2772358316983821 -0.1387082271784474 -0.3591799764925077 0.5548580912018554 0.3276341230555574 0.32519928632144546 0.573542460456808 0.5201938207388722 0.10549881668033793 -0.006091547292238041 -0.19608770149173266 0.4659894661021143 -0.22121678809771633 0.47492209033888805 -0.3579948100351397 0.16014122000263292 0.3750345817193999 0.01507470396808546 0.36702153253465236 0.3872314696877393 0.41183703701234836 -0.16990849378882444 -0.11971742176926316 0.24684806358626707 0.40272195097543106 -0.19037678204011932 -0.2066367331723573 0.5035827615241089 0.2277645246374974 -0.21964241380737137 0.3294186496912942 0.3848447584856896 -0.097821998022586 0.15105548739386743 -0.2979745585139761 -0.007972317086664564 0.1414512667364105 0.5375651680962783 -0.23309897686297273 0.562039371410237 0.4376137524561456 -0.13176881384625258 0.10435870840496482 0.31565463480200967 -0.34183689799860706 0.39045315146798 -0.06353081652777405 -0.09366808957649013 -0.029752367608248096 -0.15391180231607027 -0.27961155528033144 0.32686783494573235 0.5609956352270313 0.07665872686153152 0.1941471442824913 -0.137396516753584 -0.15650973682521988 -0.15292514674822702 -0.08305603903790713 -0.37416826870513586 -0.29523112131597284 0.39060184529298486 -0.16278679006997682 -0.26300385578947055 0.04247322930985065 -0.3439141714245242 0.37501329853925436 -0.2789566118413888 0.30070157391857416 -0.38315616472524927 0.37674799036804235 -0.18970858308597713 0.35652010775086307 0.11550252560877916 0.566709448839021 0.5347962609627828 -0.07285655330572852 -0.21611096394075677 0.09351840243879034 0.5348750905590994 -0.06412022099571679 -0.284415964030789 0.5487072450341961 0.43943858256817 0.04675983608515612 -0.12754212024970435 0.3327445105154256 -0.2140573726003171 -0.40066936846241535 -0.28541845900285806 0.29769044383374865 -0.02063407480087328 0.13613323790709866 0.45060775181540247 -0.10683079542409776 -0.39425205006703534 0.39862729211782727 0.04129704404886548 0.09459965527939586 0.5896954349731399 0.0080604440451238 -0.054289565458098266 0.08781152833087368 0.16676578265259615 -0.06739200452918065 0.5677114567956757 0.3157730169733917 0.5787473000219009 -0.03631540272119427 0.25828845993426863 -0.14001215615934315 -0.30646305291829334 -0.03683391763941968 0.016434176572248327 -0.10247213679412626 -0.30205541740781183 0.20208668693683293 0.45069948600183124 0.46827640588495784 0.25071929288452854 -0.3160985563107409 0.08069126211995792 0.018796347887356513 0.5431283998249548 -0.10725929824273855 -0.1940518515973843 0.3395773412221905 0.5462342192931104 0.5707563678939045 -0.353073067172677 -0.16388618930102272 -0.1245352566521129 0.5079458933144525 0.3697451941788611 0.2996513700837691 0.4400528520834879 0.2879207500202533 
0.4339431893325847 0.4736494206687418 -0.043083096977582946 0.23826271344618188 -0.026679637243001195 0.326322132511512 0.26499814316653647 -0.13127175834410199 0.3954060520843004 -0.20589585407464828 -0.0034294700939306194 0.0452441134200488 0.19883325442999422 0.5812139402873888 0.5224423177130288 0.46358428052247425 0.5854902037017133 0.3147139544303228 0.5582024678480391 0.588292718067265 -0.164110761090041 0.12615384209487318 0.38093524145805513 -0.2737392181598673 -0.2962733801620867 -0.26303936162402625 -0.27623036867898937 -0.30419871102881096 -0.19156439152738913 0.28858054867477834 0.4598278092129074 0.16856823733709167 -0.2712427521168352 -0.12047819625791378 -0.04465584345737768 -0.0048706617499768125 0.40730408921100625 0.00550514174381317 0.3923689339665624 -0.38428908799623607 0.2273895942531854 0.4169712282495432 0.5293516628953884 0.4558434529854552 0.5081318495067542 0.48485624093099294 -0.2712617288664331 -0.21663215026865973 -0.22422812113590354 0.05472138112289777 -0.36684730285612965 0.22495311247129648 0.3620340016281178 0.0208406663262633 -0.3894875217423833 0.055077224813781966 -0.08196822070670073 -0.1865551305031108 0.5263485365490403 0.38088384142359544 0.3771086438352735 0.3933470312674146 0.27114909181176094 0.43405345390625727 0.1701555073012272 0.5324731920521404 0.3243487605415794 -0.22429810951031012 0.36188647074236124 0.5200202361382158 0.0024227104026778037 -0.3338074754688874 0.5024400380045487 0.3613300400062345 0.31920180302517837 0.3156141704767603 0.00787578876217973 0.12956853278543048 -0.11215195229464091 -0.3617493896084021 0.3379532472641354 0.4940659646361221 0.5673383221322348 -0.34221073839823823 0.12496744827493189 0.09820665647405892 0.5376998796624526 0.3152647329792157 0.5242542230526582 -0.02002957236616748 -0.01518679352082878 0.41072183341148916 -0.3861457317449883 -0.356731553490829 -0.239369248191989 0.35151378278042555 0.44888286184742593 0.18470132242622703 0.2387116231682835 -0.22351380119859773 -0.1365529871071176 -0.14382890015123145 0.5293957325440933 0.09664029986099396 0.37956716169497673 -0.31201033088578783 0.4297312511103825 -0.10295906756445822 -0.30911825754405964 0.5522795705390161 -0.16324221249449114 0.38829685164450967 0.2058259345457456 0.09976261363789923 0.26139203944572353 0.19587005634966537 -0.28301359791727604 0.05521046915064048 0.10727086509447586 -0.4046269081460045 0.18215723925059582 -0.08194385202539434 -0.3696616675303789 -0.25182712910500593 0.16310595467941782 0.2328425891191555 0.3972975390224523 -0.20594104316851217 0.3446191989846252 -0.12656647979261093 0.19879166812431165 -0.2414463756472224 -0.08465310500380227 0.038055059391557455 0.30707370075451146 -0.24803390840956252 0.3344572022554002 0.07209941593874279 -0.2987592565558584 0.5416233436198836 -0.2510210056113563 -0.3606599307573431 0.5208566772603134 0.12392611250939212 0.3944683995488249 0.14579808918031686 -0.011369882846988212 -0.13286073864498169 0.3401546200766914 0.31467751603825883 -0.2884164651020539 -0.24739181989571737 0.12276151538413595 -0.36230484568388155 -0.25198724152477786 0.19999686614286066 -0.061925925962102966 -0.15496120317468823 0.3007544009991117 -0.20295920798348038 -0.30576496146585347 0.14108655237544124 0.4890632861195862 -0.2959045811439868 -0.033411917300002696 0.4063483423628664 0.4147616155385192 0.4149146128234543 0.12074160864289873 -0.001362015359880676 0.3542934392115734 0.24043935641933042 0.19395101165838172 -0.3543760444635538 -0.16498081520870966 -0.33925149042739117 -0.012350565985664872 -0.11838158381368037 0.46457375564733366 -0.12288591134128421 -0.01689553653597128 0.34379357885078127 -0.1233842888331265 -0.45476817571513856 -0.19912074614587486 -0.2163280502153223 -0.2609644544597991 -0.17007085176249306 -0.3935633868289272 0.5075139406159103 -0.07581292833675857 0.09500992794942577 0.4962541762682168 0.35407151247711377 -0.293148161259624 -0.24472592041172508 0.0838951563353093 0.10047142903767348 -0.1970311193582818 -0.3050857821738735 0.1318040487226168 0.165237781308721 -0.231689905862421 0.05461850592262295 -0.47055109371951315 0.4660326456883159 0.060124041907400824 -0.30042769101081085 -0.012213621544736224 -0.05689384827106929 -0.2864237662301011 0.31349577803726886 -0.36035807988730223 0.41615553558864227 -0.18324096997352052 -0.400646093875946 -0.060218387294185605 0.4469836383595531 0.27793451430023364 -0.0257826736934249 -0.337554535222187 -0.039095801247382864 -0.21882315199483987 0.04442587794023933 0.4062583098966901 0.41132902235050117 0.11138168282072301 0.2531557044014709 -0.3130506343970984 -0.032333115875886144 -0.3567575009886378 0.4697041413719044 -0.5043106521165495 -0.2637197256137524 -0.10026321197899077 -0.026103807315211735 -0.26491470734402245 0.2346756404663649 -0.027338449235540935 -0.36135913137497794 -0.52265174205852 0.32575960892302624 -0.3823683689075993 0.2615465706092233 0.3953543500097335 0.035588101060738994 -0.4611526286333724 0.20405328158682007 0.237111108710151 -0.21605093620170523 -0.26498599070316975 -0.3944331963750523 -0.1838968565821496 0.4198295882230727 0.5743014418157865 0.5327107757499039 0.2718611644496456 -0.2491215382202028 0.37782131408281433 0.34327265881976177 -0.00930198022377733 -0.3446129402891372 -0.5006400461327705 0.14239607741245952 0.33320253060476596 0.2663307816231714 0.1212742813755471 -0.33322341385489473 -0.2914409426636244 -0.5037847120166116 0.10960347809807884 -0.49242651872867066 0.2753401617386513 0.16401122820657518 -0.04351674768499224 0.03368913222261253 0.24795512985467288 -0.3216799358671413 0.14594100916859815 0.1929646527400639 -0.27898963709195823 -0.16880716605847756 0.4939127063944016 0.21251614766536844 -0.4325864046478503 0.15470054211544432 -0.19467309502483712 0.109051655560443 -0.35401326934921284 -0.10649531246997561 -0.01973007707590229 -0.33253554575010263 -0.511717061611724 0.3470533258036749 -0.14501086826856677 0.4197696976816989 0.36442374380610704 -0.3450200856707335 -0.552773391126049 0.4541267928329147 0.1258895641260057 -0.022967050196286365 -0.49257777947093684 0.014151935471853555 -0.5171926255027948 -0.3167934199223831 0.34145001162218147 -0.2836507149886122 -0.3437811202516383 0.5500412780602871 0.025019060610414798 0.3248926956680348 -0.3121962758804565 -0.1612173169519518 -0.5119365146446222 0.26208047754115965 -0.33703539993447595 0.2519214122570625 0.31481421114408453 0.27277221393064016 0.41621787617744693 -0.33933304220123833 -0.2916914994192792 0.0011202988886853166 -0.07348407342274861 -0.32169129466699103 -0.4069711856757175 0.46940614928142504 -0.35146112911543126 0.4349861770767916 0.17542857653939917 0.328329744828181 0.35795058368971616 -0.43650141748411264 0.5052712934292763 0.4382755705030903 0.3992439289501497 0.3379070705658324 -0.1234312221717665 0.15213687541477036 -0.4249109544319356 0.46022635300863574 0.015708906623476526 0.20971248943364162 0.1321582851544531 0.20263772178647302 0.2244507498048821 0.34283510620632907 0.37128401544750467 -0.35535317973390207 0.35055648998033906 0.24694156034785222 -0.10885784948502839 -0.4551337735008205 -0.07835334270771296 -0.20522628528652717 0.10029930114786538 0.16072882533122326 0.4479515466790407 -0.030176862743101666 -0.3592528176311743 0.5246437473455431 0.5405991149181377 0.3425034390773529 0.07858104762856899 -0.30705571040844315 -0.12172557282146453 0.27184804770839516 0.2864967227583559 0.3252528060809115 0.30528393657383085 -0.1788615778944134 0.09019088736573029 0.3375829022320173 -0.27814628889707266 0.11862313826650765 0.439100128070685 -0.4614379181506002 0.43996597665690146 -0.2039542969652979 0.428084702894015 0.13028592807721698 -0.004620739076306382 0.5095857288822064 0.00026056707992903357 -0.3545329516367527 -0.4585569546069809 -0.16646357763097158 0.012190517378983167 -0.1340072223406005 0.4091507326917877 0.40928655273730874 0.45223001613554037 -0.0778507543927274 0.027574295556529273 -0.529379297418891 -0.2483052287490414 0.37084640236607475 -0.24969669186652993 -0.11928549310795748 -0.08100795605016761 0.04717337021182505 0.44756376228522654 -0.4767269271190335 0.034626657305173295 -0.4512316904616811 0.21187383176299224 0.43864996438680326 -0.32645951869185175 0.14266350219593132 -0.10719692887135474 0.35629046375389417 0.3338611858821396 0.01921932967098035 0.12261024267929486 -0.087181792194506 0.41415772929222155 0.1348579671204181 -0.027241587134403455 -0.18866061833481046 -0.13634083694255772 -0.2951690393103862 -0.07627419922788296 -0.5811246463825759 0.2788470161840793 -0.41876014684362123 -0.07460733362739114 0.2512604353284139 -0.2565604961547976 0.17686489754396983 -0.37405548817803275 0.38638271537068014 0.1230718192915023 0.48419130926165155 -0.19183600133477338 0.2510451302005829 0.029863463892141555 -0.3325402313510286 0.38383517787696264 0.41607507615051326 -0.05722167209232342 -0.25837768387437127 0.01055483282485884 -0.062300690415573665 -0.1772960600751098 0.36629512901711553 0.5281312653888994 0.3037384832843175 -0.042611010049607045 -0.082159861334693 0.3801335174788168 -0.6232934220505331 -0.10902695452147135 0.26229488823881586 -0.45208249939108935 0.3258862628538679 -0.1912532975017245 -0.5120543125639961 -0.1939470855358034 -0.33882964309518404 -0.09946774012392529 0.23687734761761078 0.3036017453841654 0.06635723714915434 0.05660984725281514 -0.21152587079065416 0.4171317004103101 0.43396716785758876 0.0626750548100713 0.2404893807341197 -0.00650582807794548 0.21654122141333854 0.5379704883332892 -0.1579714086763803 0.3353474922502905 0.2437173887417382 0.26570400858450216 0.30209428133188604 -0.3307837259658019 0.2938932921462548 0.23871695255893904 0.32966344067766096 -0.4099101432312229 -0.023077466451151978 -0.39909207081245285 0.10720723906556837 0.2629039770283737 -0.4779621653136127 -0.10196657437318697 0.15482975648207734 -0.21304472157447044 -0.01036519345482938 0.4082013383743264 -0.2475611335018557 -0.1310805550062736 0.13619711441338125 -0.025976469586295958 -0.16373799445586443 -0.07895909426476426 -0.13458245547135406 -0.025385569444121056 0.2847524883131036 0.48039066796042657 0.575064208223337 -0.34450859473765977 0.07026312672287259 0.4900332906234709 0.23915394785679342 0.3434561136946905 0.3186619430239572 0.16967765121194844 0.368369326266283 -0.02217766186978088 -0.10752215741777736 -0.43614141198422746 -0.45842983447888264 -0.3856565656055745 0.4874597441231208 -0.031015478841002437 -0.16511895319150885 0.19039891704145798 -0.38105670847503215 -0.2741638321807799 -0.14682668194424137 -0.23956636217324256 0.30273370154313184 0.25833802018946955 0.016793434706832696 0.013195034833998706 0.5120255980178652 -0.3651126738915736 0.5270491944928541 -0.1127163683033946 0.29570239223894884 0.2842756725000325 0.18869019533310946 -0.35944739451771607 0.27268317133120407 0.06842430684249905 -0.19531505298883103 0.21861666079556097 -0.5067058879095753 -0.40504116015745306 -0.16669880995992573 -0.0380991237137817 0.3545285267308549 0.5068726019336539 0.06318341182674672 -0.04499765183320913 -0.15603367034451873 0.2607680719868605 0.09164423364548628 0.1009947751447535 -0.21266392619777463 0.4560153027670314 -0.1725506672172044 0.12367751993744194 -0.009409022211491822 -0.15958802902515765 0.35235738647668635 -0.3797135975068383 -0.2024101563900721 0.47748448830685764 -0.38338863605155 -0.32643185970425953 0.09196792236592395 0.12821639970105744 -0.3117094198769119 -0.5225286487351727 0.20929460589329998 -0.24547120449518228 0.3031628361531465 -0.4997202549244712 -0.3916354481648879 0.4180917554323583 0.14053164900759138 -0.18480348489788265 -0.39832498796594523 0.1436402701244648 0.0818898689719473 -0.134813170837564 0.207866342523058 -0.2702482655450565 0.22376374470643143 -0.26676385159999766 0.3966151119608264 0.2699916152541844 0.20942873336254908 0.4212646895616785 -0.3564581892956526 0.5319131188423025 -0.28906387847635867 -0.3094649802806794 0.13464072780225972 0.46015784596537973 0.017761848408343096 -0.2037534312978112 0.24782409406678912 -0.33052070762622904 0.30732809755558593 0.20711644382324457 0.3022865881228914 0.13605702203278458 -0.04496289025931627 -0.21820372944115643 -0.25669700570680404 -0.3823890797409338 0.27485156485112333 0.3772675650332168 0.5474575223921828 0.04457930634486599 -0.2236374812387067 0.41055969377193435 0.330271741489308 0.221096221423407 -0.12227720160591327 0.03671428842295543 0.44247068774591497 -0.2692065126227492 -0.27209832134801354 0.15685831940848127 0.4486655557720021 -0.17176403644232752 0.1350519857163821 0.4476795521232355 -0.1702318203701641 0.1028081337469997 -0.1985392561823005 0.4285759817198966 -0.31733589717834004 0.13428014924630996 0.05680508118830789 0.17336394614655903 0.38204624197205234 -0.37891710234476894 -0.12603124904477175 -0.2636028958768607 0.49233458241948896 0.030544824089671702 0.004474097351127392 0.0009451180620822732 0.3531496122017606 0.18076759684017288 0.12814371917378198 0.35674415708656215 0.42283316300444107 0.5060178051919885 0.43494523968479115 -0.2343401023091424 -0.2044021549686524 0.5989103893047596 -0.03138089574481503 -0.039518191752622424 -0.24772064225197532 -0.3561433585308537 0.056548373828124616 0.03380387367914245 0.21076675150384624 0.17862960929874355 0.5259643187254828 -0.17629984190559791 0.5449830766261734 -0.3660121138198027 0.3123877903030175 -0.043094910923546045 0.33456768129045433 -0.14560357315851497 -0.15075827074897563 -0.011791699008090456 -0.11729612586600496 0.5368647917224988 -0.06434150146225537 -0.21410851254585966 -0.03340482911112932 -0.20228689270607478 0.36560829817767443 0.5275639764854316 0.6252647626736507 0.11423329769658302 -0.04315232810307787 -0.20965833677089363 -0.17818065564805494 -0.3598393212763968 -0.010459034093282514 -0.3249058393996787 -0.04746103617089557 -0.38982186460776136 0.3778081604557555 -0.33942076144344147 -0.2432496091370249 -0.23874755382617785 0.4128514026774649 0.0897889552785919 0.37180772011820123 0.5905676434056922 -0.025613785269090902 0.593887887388886 0.5236664360427907 0.3995236674190988 -0.3251438844488619 -0.2734961212291058 0.536849429675169 0.5329008764268498 -0.19986171557690058 0.40219700602813674 0.14908932492660634 0.07936162629206166 0.4182835469561261 0.2000290674267962 0.08886994016936806 0.35386784858227666 0.2896554914669079 0.575097495309024 0.5081879650646969 -0.1354312133159295 0.18551898163725988 -0.18875761782165454 0.09849864067900926 0.4260644247777466 0.48417881602250556 0.14764430828511665 0.3797629836021215 -0.02188397582740153 -0.3304478312617736 -0.07073913580934912 -0.153263629664818 0.13796443997962543 0.19244888756286316 0.12091026561856422 -0.0022015004200584836 0.5703887697383251 -0.09886122403412313 0.19180941766711898 0.5996429909824429 -0.19164575140557796 0.06239036883616488 0.05103217540010291 0.5790690858899621 -0.2776120728917842 -0.15710992284741107 0.1446910187169963 0.21669303870291962 -0.3364287669249537 -0.364325766345267 -0.18207311874906298 0.3830626205258755 -0.16825471160859568 -0.07490053399000948 0.2598523976321003 -0.2985769689037004 -0.3376873868207035 0.47121936016719906 -0.2949172051127969 -0.352924145278036 -0.3617966432961707 0.5205570677521758 -0.0028681626013173367 -0.3989765562527978 -0.2904173656071672 0.5815195251616834 0.48668421125946715 -0.06509151036989086 0.39734387096317786 0.3049248039373349 0.3792983068775134 0.0094783472568679 -0.3251384734511567 -0.24675757829566047 -0.27464531770648754 0.3780087633535054 0.3504179024719283 -0.030052662332115343 0.5987126799746616 -0.14696167377782265 0.11626785669885398 0.16100068860544495 -0.059701763652188225 -0.2666730094923927 0.07851121715987497 -0.38775542181945477 0.18642839661388355 0.32266464375453197 0.19117993098449781 0.5515502779140316 
0.24841153641815805 -0.24597567846147983 -0.35940614966923295 0.40586369053459426 0.5826685070006968 0.22910855545429568 0.3829475868648147 -0.03661725087534324 0.4831363033291346 -0.206925293718546 0.3622221929210099 0.44694903891745963 0.3223055283971151 -0.3702988703430981 -0.26189740810419554 -0.3547108298267963 -0.3752592399459771 -0.29269098080599354 0.25931316587199515 0.25885358054279356 0.10792704244510347 0.3292347748425814 -0.30353101906292845 0.03399419469114173 0.3297402337063332 -0.23215352989374904 -0.0999775792325942 0.007860430326424472 0.3930614904864722 0.2534128831905573 0.39785036267385826 0.23208028515391713 0.1398853681959171 0.08275551200307793 0.028503955645293524 -0.28012793468233976 0.2152992973687803 0.3654711438171787 -0.18881559015648017 -0.35163409453562827 -0.26674889146951625 0.37228082176724286 -0.14641067150881254 0.43742033582296247 -0.2748133271875395 0.18740209586294337 0.18621789437334896 -0.2091252182013003 -0.31507234122679656 -0.041047611837193625 0.4195464504625855 0.1924491936585162 0.5638344702981554 0.2990445128075258 -0.3241117611123052 -0.2713524859396376 -0.043073161936968696 0.5313136282999255 0.28031649934573577 0.5802555572978463 0.22687569371126756 0.4547611689833173 -0.3034072367463833 0.017762896845501377 -0.037329094421595 0.3491640849553272 0.06504362521253126 -0.17807226229872034 0.13230476357244267 0.20436400072997168 -0.3417667702072981 -0.1207498067679966 0.11167180413691447 -0.3476964829067222 0.09177786951932662 0.26463116816857857 0.13980264893221317 -0.14088752737005783 0.05669663099594585 0.10088944247590939 0.5150535039605295 0.3810213142368307 -0.3579599632426942 0.2998792514417914 0.006159676243752021 -0.01067766062713307 -0.13473607270729368 -0.01960161572924118 0.28541358715677223 0.06457268465378586 0.2062629923988159 -0.2287765313514869 -0.1989087282327437 -0.35292922212861144 0.25094051085642644 -0.28856687742227843 0.16406516485827397 0.2594484477710749 -0.4235127433933759 -0.2571184529509911 0.07571049615967052 -0.19490211183976944 -0.2986982082409024 0.5044303641371343 -0.10222157176682037 0.19886382479370257 -0.08644543365447488 0.4056511935763273 -0.3095047089433467 0.5665141508246687 0.5765325963109638 0.4447934539201889 -0.10917633809016747 -0.328226476988631 0.15364308820187544 -0.1940987612211039 0.2920317794222523 -0.3165139995690278 0.17797353693045886 0.0018186979887661857 0.07460064788200862 0.13863378601143342 0.07285388678745597 -0.5047957548703154 -0.025824734866689042 -0.16167661053419435 0.08681557117942311 0.417812609704853 0.039873266034633585 0.3003797355764459 -0.061763192234091595 -0.14291969642399613 0.4859210513018476 0.1342183913345348 -0.03460515298669183 -0.34782584380192344 -0.007303132394034135 0.1779712464184056 0.14936576878924082 0.5184952265003644 -0.3075537462582457 -0.3718099095294369 -0.05409844218184981 0.09446921907304863 -0.2506367277661288 -0.08706909576166352 0.30741276837525594 0.32874894698468654 0.2974028735103426 0.37909533781639354 -0.35365801228281823 0.30681779914088286 -0.2426551252177562 -0.3851983366921883 0.144160785807861 0.1003846425877453 0.260886661789944 0.33087540079050176 0.2041725206218592 -0.08215068897343011 0.5558343528570421 0.40876984376301956 0.1872045267579868 -0.24191064452148858 0.6042024659198715 -0.35613228095217897 0.5917732748013113 -0.39288068191458503 0.5262338074814645 -0.05512688611417419 0.2842237743707458 -0.1505811598409046 -0.24289576482399747 0.47664442468831264 0.1259804620679047 0.0016159888744096487 -0.23016023047843473 -0.08463718194551655 0.04884923804286778 -0.507965402199968 0.27255285012711356 -0.19230865172860653 0.037237182024365885 -0.1851035742344883 -0.3187486520977042 -0.04365355423337357 0.5023366893566777 -0.1505603566444832 0.5629884872642985 -0.0451558082024572 0.3143669323889748 0.009499036938580016 0.01911505445944181 0.5239568225762816 -0.08985559447144319 -0.11273789959181924 -0.21313546571722053 -0.22679196283149716 0.5986518383615894 -0.21906612965107317 0.2390808474863723 0.4898688665920429 -0.044421915811335526 -0.18208134691817077 0.12416109430909468 -0.48423097715458313 -0.49231557430629147 -0.1286726182789466 -0.5864029105053036 0.16156625965894697 0.3333612528958478 0.38849745914073797 0.1347738208976732 0.41495535873080164 -0.17834593729594114 0.31234527072989265 -0.21278553977432074 0.14436485302129495 0.24597805190123517 -0.10424054369230451 -0.11447064436503904 0.5523359641109424 0.3187768954969992 0.38603843462102305 -0.2785052698834796 -0.2776704330796349 -0.06783945909146416 -0.00924941218525622 -0.3423062097717153 -0.05070195913419926 0.23437832123675167 -0.11350142768007242 -0.534804213163128 0.18527950956389108 -0.22808085894329916 0.04327064329702434 0.2765275674686719 0.3798338391776784 -0.23765502056931895 0.440554580460917 -0.3043463407747653 -0.17677436593766285 0.5709173801458327 -0.31159966221318186 -0.19986869089263917 -0.2176157642467553 -0.03667347544101592 0.3306766754104438 0.2573662967002261 -0.3258005041187239 0.4086931130799082 0.024044368095415214 -0.08215450445497252 -0.05024898200611255 0.34861905463243537 0.22078953824453848 0.29168942692113325 -0.29264893527307784 -0.2602413442194422 -0.015613023172459864 -0.19273214294587515 -0.5463950059061614 -0.1866517512659881 -0.1658457819554706 -0.03823809323012352 -0.01964794658118929 0.25957719853193467 0.23869045094627128 -0.15446038811409077 -0.02986863547123757 0.1891671885316495 0.32631836224971855 0.4946750241320293 0.4425412621957199 0.3934553064903085 0.49302262585636636 -0.11591487356264742 0.250110060858605 -0.25465437261324747 0.45845926288258165 0.012667688582605141 0.1274943827703835 0.3627367352681153 0.15134858579921737 0.15721496823748812 -0.001227689421414796 -0.037383869378543426 -0.46635739031345314 -0.23716882451135077 -0.24549145694322339 -0.5493628144490657 -0.48056912174012767 0.28293198668768715 -0.38387383593248026 -0.21751404334674315 -0.2891526543593513 -0.024908733484391942 -0.3684972126225255 0.16506810030474262 -0.36184476715700015 -0.18562126469392426 -0.0998968979231492 0.27335838425102815 0.049487317090910074 0.37363769165225963 0.5977833734593997 0.2207665556395985 0.5080658594849239 0.23502027320438068 -0.20067214794457927 0.27644880396636784 -0.35756414155205735 0.17399107811330725 0.2321156900137669 0.1670880456402895 0.14724387113789938 -0.3884501799530872 -0.17798372224272238 0.28727437433106984 0.19122503132961574 -0.026581681982388597 0.1491321428356261 -0.15455161742788048 0.3378941612926295 0.39630875061123566 -0.04748824055798085 0.29325984359757773 0.31767875390581823 0.06985070981397092 0.13466446730641396 -0.35123832001600164 0.450964607258168 -0.0003367790203413246 -0.19050871723118676 0.5632757860891029 -0.23493606253110416 0.24105000303852364 -0.13913046173821025 0.43447632131010433 0.48880841229066696 -0.3833835678152848 0.3085828259256127 0.31899024021450134 0.3891577582438237 0.12196658771685812 0.05964538322941496 -0.5133387918018794 -0.45826055543843763 -0.09911659808385416 -0.23296459822362736 0.44640254810818114 -0.41258911243875634 -0.2392002379874263 -0.2872513410396015 0.05426273625633947 0.4138732879483579 0.12978181230803434 0.030080226077915658 0.5354148856782307 -0.1915607384056253 0.17985183901535676 0.29572403867595387 -0.20272224403905972 0.29534406584487927 -0.21307617425937597 0.15152337119171647 -0.18249390079278752 -0.35142926472657876 -0.0878093477109882 0.3698176031298915 -0.13947121668683868 -0.04561263913694769 -0.3544884509283882 -0.14297422428766265 -0.15525072196147147 0.06827134540627863 0.2520023838672312 0.2317489682730484 -0.31236938388235336 -0.009488817939064748 -0.26638768014463043 0.10778810956687705 0.23725828665417278 -0.19707179488342721 -0.24743276118351185 0.11668522348534385 0.025286758746181685 -0.1582780176509336 -0.24435291080185342 -0.29250619674470674 0.28593104228165367 0.05313669778294838 0.413075179725921 0.16435780053455376 0.12022205497683662 0.020199194562901673 0.020299439582722064 0.07662112656581328 -0.16496207899747092 0.17564493711649443 0.42452660393541036 0.4455251259356331 -0.45386579890284984 -0.054796576476007365 -0.3957804668985167 -0.134043557571488 -0.14959523482083198 0.310679936520909 -0.34561090407889716 -0.21387766358517896 -0.3127225423418158 0.24712183300217969 0.35635984244981583 0.4053770890305071 -0.1519761588163079 0.6023069839794634 0.43589043681175477 0.24594914063115383 0.3945120482427001 -0.032225679314167865 -0.3146654412283022 0.5666766883232285 0.23556692381414043 0.3902624875276829 0.19520825612703846 -0.3166475802151016 0.0060788055551949305 -0.18038504378357964 0.11092829265203631 -0.2687020284016897 0.3710982713492691 0.41731564952818706 -0.351576646929876 0.05376445903603941 -0.0575003232060848 -0.17870198118827538 0.41167819484615653 0.02928793539396813 -0.07280468034487973 -0.31774445049440486 0.37840180624746916 -0.06864908981118624 0.2830276098231266 -0.19366809597227935 0.32993995157765615 -0.09576415898298549 0.5883228750766428 0.5222479843271557 0.41262573224497745 0.4567252255413239 -0.3719095675569823 0.08507507907972268 0.3652553696111653 -0.08819461718760589 -0.2730109638606239 -0.3654191928402166 0.207444806382676 0.2085424177827831 0.36030159770930364 0.01807973264793709 -0.27091859651240063 0.12789837629945583 0.4479911641973775 -0.4073643023753474 0.3525581408112559 0.3410709997816465 0.2849187440185591 0.39426352816613786 -0.2818628930857285 0.0010814652329713581 0.04549803639470559 -0.374750525373767 0.17294112916022633 0.022215389446988098 -0.09906803686802838 0.3996395156574337 -0.3490460216537422 0.5817540074114406 -0.39894494393012137 -0.18475942233166187 -0.07348555193223166 -0.42384406170599936 -0.2883503380859188 -0.16901302935536097 -0.03619259715605375 -0.05977164175023456 0.20408605482863534 0.17012466561938377 -0.11760688029196333 0.07387190660138028 0.3540984292868096 -0.24595522456920219 0.16672399116294798 0.38418128942562374 -0.21699802798123666 0.6000987448195085 0.5340793231329674 -0.04248588944356919 0.36201243674339056 0.5557222117879654 -0.40118768550328227 0.12649073620095574 0.1362061022111288 -0.3473831519859457 -0.2957351743958624 0.050284021739886255 0.08459508374062855 0.08309321540287368 -0.057844667069323494 0.2711649016233032 0.09187735721781676 0.36804033986144075 -0.00922940265636179 -0.08054392335149786 -0.2237150537472415 -0.3100997112974513 0.29937955734092314 0.2094007573706318 0.29231169129266527 -0.006041662841246126 -0.09761587950321254 0.19252969705831274 0.31588890605383074 -0.05751340967053287 0.5607192218726559 0.3213334149419246 -0.05030998623992547 0.0805453122730416 0.32078989911167155 -0.1630414034618395 0.30353389112032 0.3220592169558334 -0.3075651999262065 0.47278815348377684 -0.23714167437864123 0.2118571183270282 -0.09592107292463459 -0.11945697954698396 0.04874275571459056 -0.4109946187610887 -0.02306354093532033 -0.07921795145389977 -0.15294908318778108 -0.10585545616429584 -0.0596418204726061 0.3175482790934476 0.37125498936241147 0.31121084919789366 0.4025608318898669 0.30814183050763966 0.4989548553205375 0.0784599894637929 0.11664784427353407 0.46103733484134246 0.08837266426601625 0.4977202357476013 0.5297525148720178 -0.3924513900249306 -0.3282662696627075 0.4893446309546411 0.03416068421126739 0.5308848232992567 -0.1086522452553123 -0.39422240708077383 -0.018146541057155276 0.3997114747703307 -0.462306715929235 0.32160528692229773 -0.36929984373243496 0.4777844771192561 0.4744488016147136 0.44345209202903685 0.06483996222600003 0.006173887316821704 0.17784007172624433 -0.3024513381319912 0.5743100527808471 -0.04027143485240949 0.5395187117332971 -0.23179384239725584 0.6100715798192874 0.27789609099694673 0.2849516630962526 0.39171362897588574 0.5116787876319708 -0.205199715847366 -0.04969380192714951 -0.03841682957094772 -0.10145075590264296 0.4931986720294218 -0.3802144034554022 0.09168768661633839 -0.33864020245124593 -0.20940313860626245 -0.0710864258079872 -0.36893895850681985 -0.18795758085547457 -0.2452042602006752 0.028139817346345065 0.323709220702553 -0.007424848970397482 0.4661194643794454 -0.2475433873660063 -0.2679262799968062 0.12363609812918201 0.558861678312766 0.04906114663374971 0.48057727552841795 0.3955409859959546 -0.16580164595318403 -0.07535169165396892 0.5852267633250808 -0.012981312189976064 0.06757383876042407 0.04912790495807702 0.5596278775492931 -0.07698625967466943 0.22028053362546643 0.2777704553766568 0.05112622215686432 -0.39920280466568897 -0.19746830173272292 -0.3032604991060967 0.11156862173369948 0.07514691328796598 -0.01185727413932972 -0.027530486853547035 0.06406487706242381 0.41681843287800663 -0.11194100322953376 0.5044844225913406 0.11036137791209458 -0.05079150165440753 0.19206663993060907 0.34174784340349823 0.38582259788172785 0.6667852991774867 -0.06300432049622233 0.6091363957044449 -0.14720775342097914 0.09914671006933616 -0.2644951664076689 0.12340471612325926 0.46467123727781845 0.3280930771763654 0.2858919133166133 -0.29699142435417675 0.3223402087468126 0.24830730940976325 0.07883497924915947 0.367319013311561 -0.03891982915508181 0.2041560334719985 0.023262068290244114 -0.30478980035317266 0.5662356329406574 0.1657059731785551 0.29643951474380437 0.09628195479125146 0.04263658818974882 0.5063261057081924 -0.29353519294637104 -0.12616527596703125 0.6239391583515149 -0.21128269870413813 0.3923383267420077 0.24452360183957314 0.5124032016993545 -0.2908993896929805 -0.154179677236815 0.5343459612726913 -0.28259902913926205 -0.09771637107520376 -0.08355240783035972 0.1432773648272694 0.07809732773222931 0.030626111451671042 -0.4797515374428905 0.0184049973665777 0.4778628863963761 0.51799488423062 0.44415843231603147 0.05589755838494757 0.3135258397718126 -0.07016029597374676 0.03255439843539822 -0.10882703739501175 -0.12388868382476742 0.36928102886736863 0.1868782633483334 0.5972399577770694 0.6040557629009483 0.5211472970295262 0.6183077800425482 0.22253844107239915 -0.23016520200250407 0.5885883788601393 0.2485152164039631 0.09379325461518018 -0.29628936009335094 0.21013529595773606 0.02813722352527793 0.4718234533532217 -0.1674350573887847 0.5469177770711374 0.3620552633574346 0.4924119132859715 -0.3327514684831672 -0.2560844236662751 0.2585328834637274 0.2783472787600851 -0.12975341663255308 0.23911281083259375 -0.3095577381273796 -0.13405132579598764 -0.3164743453941093 -0.0013495497629490572 0.30582616420284936 0.29733168467784116 0.47064180135718797 -0.28379192982398516 0.10566435561343332 0.07172784854359571 -0.2145263994296144 0.35782983563924375 -0.21274061702122893 0.2502664749092848 0.18613942811620365 0.29112685499755797 -0.3123590806959561 -0.3578818444891042 -0.25546615949152807 -0.028143072415170375 0.5356302267497719 -0.21148211124194044 -0.10666224099820514 0.2822336272950553 -0.18270657921734823 -0.2619465021844857 0.017917255152852894 0.3756635069362691 0.3131725553269795 0.4347848543117316 -0.2557564247111255 -0.3925459698146818 -0.09992585961849756 0.41989506343050004 -0.06511463636511598 -0.16894612276800877 -0.21061351481251844 0.30164855488763176 0.27942873252370254 0.5434000323278201 -0.06227365056875778 0.09594157514349762 0.39765099616973276 0.30706179816496504 0.015601248529498513 -0.3099695902045387 -0.2572274704382279 0.1556169658542611 -0.14229034112511119 -0.22589685959298336 -0.3325458949709458 0.4858297087161933 0.4594873180600655 -0.32354841387967115 0.2163495026491027 0.45208500981190025 -0.18699676431890222 -0.014547928382793507 0.512055149851717 -0.11726767975710428 0.30291885269333163 0.5969634419458987 0.028666567313060387 0.5294419033722724 0.17242226849076703 0.4712948159055733 0.1385960368413175 -0.22506517052064307 0.3307386103609421 -0.16323555388731187 0.20676953846288382 
-0.029475269000111826 0.5649098866358695 0.311123690297582 -0.2708221403959322 -0.2196195462081111 0.21577444447645813 0.5181246156146164 0.05955578532930001 0.2025517134713999 0.11386608280802639 -0.2566514495906003 0.21384939722521126 0.5660663986166692 0.3758471701546551 -0.14511497339695378 -0.0925097833815626 -0.1249853156981398 0.45906690149777724 0.08153809388518239 -0.14960791265943044 -0.022998263585534716 -0.34801196366668197 -0.29062680009585434 -0.16878848916576972 -0.2272970632590841 0.3687431320188548 -0.21718289394026608 0.3480537213635564 -0.13320887488619865 0.19286625493035792 -0.38768350901157594 -0.24446180812061338 -0.23296966067170727 -0.31374935135761095 -0.20103480394644013 -0.21402096817511487 0.5626741761847883 0.30850071596969175 0.33395419292535533 0.07089370456238511 0.43165728675686216 0.46704077584993936 -0.3467468552791306 -0.057857632624699805 -0.10381128905073496 -0.015022872008701303 -0.1741008195808448 0.46553041979545406 0.5466528340158932 0.24581171076774477 -0.20342460320122369 0.21548067814003583 -0.13009187116169604 0.3210964563901697 0.49641512955625977 0.11437293768243184 -0.3235666816597828 0.43048708241369693 -0.13799810258814912 0.25182794054524643 0.5552910342920371 0.04321645213984131 -0.25580763006170965 0.017687266578729675 0.41696425347214094 0.0865401933007428 -0.04393253326893017 -0.02727789526315024 -0.03163554331445977 -0.13940985871500927 0.13335859422684615 0.1579858431158996 -0.3148736411281949 -0.1966654548853036 -0.3906013371001038 0.1342069084348507 -0.3807634455963177 0.40958845203652106 -0.31374623109171473 0.2783917316535983 0.06543003547486305 0.2681338027348542 -0.2544434564304568 0.010340055783897073 0.5981903919853058 -0.10604786191230337 -0.2568200734747427 0.23359106067672944 -0.36590127788885385 -0.1514676114030034 0.021431469145243524 -0.1258460138516419 0.22870411546156177 0.2627792009554193 -0.3664983443265096 0.003762270113843864 -0.11454083088456775 -0.1628046995278538 -0.029148007465383558 0.0512386545538519 -0.19699606634323494 0.5206865526261402 -0.2593902152405917 0.2800852219510155 0.29617932855597384 0.4305696754587991 0.5386178705738787 -0.14655201217924593 0.4589972890462399 -0.10113793721474575 -0.184962510919517 -0.0981546476445162 0.31330791537888525 0.06288817259202581 -0.12052656998661217 0.2962849871015338 0.29276690488072254 -0.27355864221482123 -0.22409733734761333 -0.07752493297832558 0.025096956543230117 -0.24652832046805812 -0.27292707860461307 0.5258646957293285 0.232043233398794 -0.1791487183145269 0.08555621837616449 -0.3156479494886399 -0.04167236293437337 0.517382093108414 -0.07789123764377046 -0.12135067811263005 0.035160744807294676 -0.13813008167983007 0.25367421741462454 0.07582831368045022 0.2917843441325826 -0.34600463441729185 -0.37595536270374613 -0.04061419839894487 -0.0205601076127665 0.11050166893735043 -0.028046260360241604 0.07598225820831195 0.31901104740148045 -0.3537186564222642 0.1084631064103451 0.541696817576072 -0.2592604482822969 0.20655820702723107 0.46048492726735574 -0.04548282350510434 0.3013633582032262 -0.31437606122984746 -0.2845522088622656 0.2264385149285063 0.5039763735117516 -0.06135465859934025 0.3460572269051234 -0.18857780230115376 -0.50368945528812 -0.019622012857557245 -0.007697232450770373 -0.19294208575740315 0.15666053476844632 -0.13572960147664248 -0.31428435560068774 0.5184496866183945 -0.21888911760183705 0.35638527359778616 0.05162864921845135 0.014074708672529048 0.28025965696187205 -0.1676220038306352 -0.4469319057292606 -0.33855571960682534 0.3329768858394343 0.04990085396549327 -0.13462600396482158 -0.34751861479367774 -0.2238838750778158 0.14806734341245606 0.32198359051342695 -0.3363154732180083 0.16585832837645545 0.46352455540323356 -0.03602123915454814 0.21034444785255396 -0.06108791801462352 0.0026025407809221125 0.2638772383780894 0.1191065383909092 0.07064609458245698 0.5597711703052612 -0.33408536182567933 0.08781622137189093 -0.1307060026382425 -0.22705796724587907 0.5007157927686302 0.10162261806161615 -0.3639519238052231 0.02595065484193533 0.3524931869706322 0.07869774380357299 -0.20084187567218265 0.31535532150286055 -0.40841087339986853 0.13846136580695892 -0.4551286160018288 0.05535930029283371 -0.22139836613281577 0.4213012978675389 -0.3318774389877632 0.25979973013143826 -0.27957485589940534 -0.23224175386257817 0.06164202472474076 -0.07184056159980647 0.2894047391583504 -0.10749384930480105 -0.06499975430639938 -0.38053391917245194 -0.28512308955269344 -0.32037252130946803 0.5735371808330003 0.46937176545388254 -0.005217220801491788 -0.03562866482303612 -0.37288038089218994 -0.16639933884008637 0.3009265246555034 0.07391814498220342 -0.2665361345644714 -0.229419909801845 0.017175892968441128 -0.49589831568483916 0.27754944413611743 0.11449163136595858 0.3124549373511932 0.09048078450440218 0.505995235760045 0.5107398568134186 0.3555381554518109 0.4564302337122516 -0.10994616117365068 0.38856510688882123 0.30244141663096635 -0.32624484448371255 -0.13889448243195834 0.3784365998384524 0.40399433703351606 0.4465764602181348 0.2639750069745961 0.018537817882674855 0.27973883607564914 0.0860824616631581 0.03425047138753682 -0.21966672315654662 0.13471697007553798 -0.06863399778649067 -0.01363957537607729 0.18594167525165092 0.34534799328987087 0.1943764445117893 -0.18349856212350352 -0.1877879966833279 0.24851741097373325 0.24599553818657427 0.2794862272792646 0.4364881505508025 0.1389609714868404 0.5364617304094939 -0.46383848199856104 -0.43637666461991653 -0.40291815593100516 0.42848771088322957 -0.17528202345920021 -0.03599507653509264 0.1446543887799436 -0.15946110675383085 0.026526427169953903 -0.2864174895003866 -0.18450005073191322 0.4572392808833635 -0.30061463599483634 -0.06908305736641052 0.1157315479360455 -0.22058412373734407 -0.41739585367675497 -0.22875121475064855 -0.44474146429075767 0.08367049655211532 -0.2626617870775657 0.3802065152930503 0.28094119870707973 -0.20978500416139617 0.020786258668023524 0.05868882024506368 0.504913028258907 0.16089631412128613 0.5156790958322885 -0.31252251233391987 0.4343683193618771 -0.21893053509637164 -0.05112067594131471 -0.2465148304517431 0.5408662748523982 0.2069284476517188 -0.03797052439103321 0.15150632634259442 0.1883551642848683 0.0974049857796653 -0.4443054939298428 -0.6012271421043934 0.13745015113319523 -0.24183533456318262 -0.07964237983637906 -0.13235442909623416 -0.14780938057432985 0.11590773957658719 0.37846907201337665 -0.1878925207669761 0.025576695138607042 0.41824419865985696 0.5776788221624751 0.23050623982983615 0.017120517778617256 -0.10794678007659748 -0.201435264063172 0.34533883392201353 -0.4895026518845475 -0.29075167128673457 -0.042232353638347896 0.3834004992539018 -0.3366410608866562 0.16827247689649227 0.2986995270938835 0.4575232104289517 0.5384602374711751 0.13105593140015065 -0.5020021875745961 0.21534369071178208 0.08228536575259619 -0.3296203932901926 -0.22363071189969982 -0.1920155945468279 0.21905465035787225 0.34742612478230595 0.07263575435826626 0.48268318001738125 -0.293236327959437 0.5630609366689516 0.20263361217587642 0.5399563613098027 -0.1256656845760337 0.6811226929071642 0.2790615200451361 0.06626235538078723 -0.09576194781830095 0.47318310235590655 -0.11592475830267211 0.09765610996289702 -0.35109982265076883 0.1185540969472445 -0.2457837870263831 0.2569725957221194 -0.25265956570091297 -0.43894385317927037 0.08950632472687817 -0.07415264203490128 -0.28613338938662153 -0.3110334813085667 -0.3863129843159334 -0.19134611920234545 -0.4138475818924002 0.07994536231411738 0.25365887834146866 -0.19322566637128996 0.5196790053694308 0.5460999971323852 0.32795140409177287 -0.048348031267330796 0.7002818471259836 0.012297420021100144 0.07569110517744311 0.41334607971147863 0.35473935180390553 0.4662436174959805 0.08884608993726954 0.09096775499887179 0.33171109720570374 -0.08100603329927747 -0.11832309492982918 -0.011977380615539681 0.08164774189715236 -0.1561901964529091 -0.5220723628315498 -0.29371270327018995 0.11621660607019366 -0.34763105734795313 -0.40056461436375207 0.2562898516134807 0.20536731119852675 0.39827651116175705 0.23175564866319726 0.616003406122576 0.41428684006965444 0.2985370085246523 0.6500493107528853 0.26309137124113496 -0.17013596634656042 0.510662234422276 0.27180382236139006 0.38472308330275695 -0.04511921141097442 -0.08887827007433789 -0.1065762516978054 0.43598847306548333 0.5780503895653525 0.12417256682367217 -0.07040656691702091 -0.24202510448373998 0.07256801349399437 0.08012178047738623 -0.5321096618576459 0.16179053619369807 0.19935887602247424 -0.23828038515416594 -0.332390353083814 -0.1301517921638012 -0.45569112077469787 -0.13978964247562647 -0.27446267879500175 -0.09105581912376187 -0.29859553604345374 0.18555524744567484 0.35016942586224153 -0.2243842937234529 -0.06313801209417166 0.3212454594535998 0.43907927498368127 0.3662991732925287 -0.4677476160286747 0.3441226962706591 0.332583420167605 -0.2371131226409815 0.47006744212994983 0.050059784450599 0.5231022016758782 -0.1628855642378736 0.5073957850716451 0.032996289182180706 0.2708721033921908 0.027957408361040645 -0.04896463556084463 -0.04747801354869176 0.2748961395897183 -0.19736197043032405 -0.008676235950134613 0.21589190184560633 0.37344186320879164 0.45265606717248 0.1942506617430431 0.19036019074757665 0.11253987951077293 -0.09775131895333955 0.39195742202605527 -0.24311082448186466 0.14335203365275642 0.30453021718677314 -0.30692970742104325 0.054886161215433445 -0.09900197901839132 0.47376548099999893 -0.3375322292040083 0.3095901755734266 0.08120982801368204 0.0011451621100563754 0.17565163128961428 -0.2228112308124707 -0.49655563413486586 0.26516051660709744 0.18008051321203022 0.03199759576720578 0.1723800151675605 0.02260844930036727 0.21431056735579596 0.2145990368418858 0.3097800309034659 -0.2669624691400303 -0.11289731240239889 -0.21120886250466334 0.43572452634551245 0.4829923383594155 0.34123446101936 -0.29257186532754037 0.349819214552102 0.12751778281844364 -0.06944832466639933 0.03381374367498716 -0.11134816666717684 0.565043449132878 -0.21753577091173087 0.40789563797345496 0.4504169608164157 0.2174063434472629 -0.340461916836448 -0.02480949143224297 -0.24179671839825093 0.02319683162595818 0.13876857758587108 -0.19767589488029363 -0.24566984175567003 0.03379995374574872 0.40852046416714966 -0.3670371362843868 -0.2686433072519595 -0.3341935443686422 -0.19044339523835924 0.25249313925611655 -0.1995661451174556 0.09785265380752732 -0.4256698241555728 0.3841839970740817 0.3331104281421112 -0.12451849934168985 -0.2176332199674325 0.4681306021524299 0.4162785287000142 0.19244402416772877 -0.18758188503772047 -0.20791019209099426 -0.22598932449990095 0.12208947699146866 -0.31036339493208787 -0.2762107057572761 0.20283863132275987 0.3001899913243711 -0.3451979838196812 -0.2511150099616954 -0.026508474498597664 -0.25307171998614897 0.3758874788709749 0.5251482785928792 0.5068892053177606 0.2874753694164942 0.3475841545453291 -0.019516645060134397 -0.15121833424744663 -0.2251215325871301 0.4577477559615513 -0.3440176347841622 0.46551669836300186 0.10865714807149904 0.3925530414280109 0.37734819687328236 0.12985928895870855 0.46116256721871834 -0.2211357158946082 0.3029816881770149 0.49764092340029964 -0.39344625335073413 0.3040995699295542 -0.2584242788343865 -0.26813265030241085 0.4624972044234927 0.11501332358484115 -0.39340878457727424 0.26975014187382007 -0.34548674759355497 -0.33970346175289 -0.007005981093425829 0.14139471259324105 -0.3637553131269556 0.2454289022102418 0.3422138295628924 -0.48820566231638185 -0.09742618719881625 -0.45344353061878956 -0.07627274535112909 -0.19496555096150672 0.3838438459313771 0.4343620784090716 -0.11276995666820926 0.5718708568522748 0.4404189959313728 0.3512739679125736 0.15766846552216873 0.5123695776822235 0.025846263253065094 -0.0015569879523935248 0.05604735569698933 0.2968204990726115 -0.33525377385689664 -0.37973156591605617 -0.24763821788875906 -0.10154295847767254 0.2912574643391467 0.14820235630983367 -0.08192783511573222 -0.2609295502045754 -0.13083874239634996 0.42239585108029815 0.19446961667551765 0.05818548223919569 0.25156091367852085 0.5066932010733474 -0.16189259508649204 -0.1494768889031845 -0.19108089318436336 0.2086439727200018 -0.1538811709034107 0.5088503736539849 -0.0669328240093236 0.4202578454385495 0.5837435681455372 0.2178123757150333 -0.21124830530132013 -0.22026745149646312 -0.35449689484650354 0.06435922919884937 0.3386785597371985 0.3291279519697933 -0.12824121054248083 0.21886250021845502 -0.4419011994481556 -0.1546260079068994 -0.09538501597028118 0.02742467116819962 0.23187514253321131 0.4593476149550948 0.28023372543125363 0.3859354347849913 0.039491406751114864 -0.1211775567113529 0.035605651032995074 0.08128209869487998 0.5290095697093111 0.2174931065076861 -0.19968942486224825 -0.06355622130349525 -0.04948445111221522 0.4143518170875899 0.018001794198482912 -0.0899493422017783 -0.23721419862751095 0.08998426063994375 0.5616165767413214 -0.2480968352755055 0.2364789037889602 -0.22773873621242804 0.35771475400341995 0.4682935412838386 0.25429954083541595 0.358585072206255 -0.2277044677444518 -0.05058732010044959 -0.3861870204801742 -0.2308658210013614 0.43091298817237367 0.25089316521254135 -0.30018776752952486 -0.005498804083557071 0.22213262584966142 0.33754978698356203 0.5187199569910025 0.3272749670696736 -0.3396453611206574 -0.28900854774979823 -0.11374937504545633 -0.09654336286997874 0.20018201540707725 -0.06064768903173806 -0.28455024417479385 -0.27820079501155615 -0.12805853072567558 -0.16277608701314847 -0.31430981272675834 -0.2512873087427114 0.4699454155793051 0.057149182921026935 -0.17435295653100435 0.20826382433072665 0.506101640949469 -0.003458866634674733 0.09637018118475538 0.528524570909768 0.42067011560607714 -0.0389248583276099 0.4486522948790095 -0.28886510570559804 0.08740948851401256 -0.1926945282035566 -0.18746375513907113 0.32185222883894044 0.2308534518228214 -0.0968356530721412 0.5563533645524481 0.2259009796179135 -0.046521180422806396 0.048781458643808895 -0.3076067640463221 -0.025660429206793765 -0.28819017279765524 0.2810007541424096 0.04561176801274479 0.13263916698614353 -0.009364085327639746 0.3831535825645589 -0.07212262760548639 0.07437862421098118 0.07594692185731194 0.2966420713031706 -0.059127520698419284 -0.36418097906325514 0.13247748949993216 0.11633201639447992 0.4132663883029249 0.423840502005461 0.2839261975818775 0.33997243685808437 0.25782434017414596 0.08050608010244836 -0.17822824758804323 -0.2756745265404263 -0.16119916274128707 -0.1148870931793751 -0.15097865333833543 0.2971011045716182 0.20601363137025158 -0.3351644266989179 -0.3918202130349973 -0.3936593013691796 -0.3019711814257421 0.3997847504995406 -0.3892480822680902 0.4167660171816415 0.4818818199063087 0.3867127168882214 -0.1220239576676054 0.2607739457260452 0.5800254558886273 0.413519983773831 -0.313812968482161 -0.3881768262188677 -0.1926199677074397 0.15427573003214817 0.1660509567446642 -0.0710371975532047 0.1220656702405224 0.5227094975456519 0.21174577931750663 0.15803418874311162 -0.12202221387744569 -0.21856921243151484 0.31753088552560327 -0.30191797431015766 0.25336276975051886 0.5366785567578094 -0.21003612775858876 0.017503898416812547 0.06242494689675904 0.043194914666804106 0.3200951095416293 -0.30735836493700613 -0.03063583174420231 0.16811874706833185 -0.2729675035287952 0.07569791332882103 -0.31029735513296564 0.4737182049537305 0.16624332301415634 0.419729619937517 0.4892035496881185 0.11017294696212532 -0.06817052255678305 0.06903331540070198 -0.39865375268449627 -0.23857590307138243 0.24687746884000772 0.13815922408512038 -0.34865173545355954 0.20314485604968702 0.2456338235995721 
-0.30591157913482747 0.487407755084465 0.2563325122150817 0.34606862486971246 -0.0087679398347015 -0.35185069071308805 0.4214855188264031 -0.25788806619565957 -0.31817681152083904 -0.30685889640583514 0.2681439056766198 -0.10699899375830071 -0.16006827197418005 0.09040344171126413 -0.2975592050859138 0.2706120451774634 0.5892795281581398 0.4724600214447391 -0.27602872766242253 0.445529853911546 -0.19520295484644543 0.5317555453436196 0.5167526270609762 0.025461221736101214 0.31988574892246113 0.4783936402063935 -0.0770641763224219 -0.3036565286141826 0.461111992041206 -0.32738910647365804 0.32085513875743293 0.5973252869620098 0.17807287274791758 -0.24000178343617742 0.05711672627886097 -0.22601661281279137 -0.011969992897219936 0.46403451980932225 0.49610558643844693 0.18005077632493474 0.355712085780791 0.5290296328504941 -0.387471215161672 -0.12549966551992361 -0.3093952198002329 -0.29345259489869274 -0.04410253945438801 -0.22418044865475026 -0.2722893115825718 0.5224023651806385 0.4698571362877311 0.5025851325101965 0.5627577080062671 0.24987577024933613 0.107237276464202 0.5514227207112674 0.3224134444031105 0.05371256678976689 -0.3603301741880213 0.5532384615725584 -0.28275760472127437 0.5425425339345972 0.14349283562449827 0.12372526899333555 0.5806051157517913 0.4060828937109891 -0.3038061324532283 0.4743963462275537 -0.3609416724062942 -0.14021010165386702 0.3179892668381343 0.18141235781354975 0.36426653034401024 0.15869203136376228 -0.13613805348280522 0.23941058592854456 -0.2739735467440443 0.5637744616437922 -0.032680525675328476 -0.31457769468498 -0.30610379835252044 0.10526704356729714 0.29806525760939206 0.10435830628481468 -0.08255209448649314 0.5640107085100154 -0.3743672805577914 0.2835615143645908 0.44992716554667694 -0.041604296230208025 -0.2775014785870446 0.13582359358607582 -0.045626363230174244 0.4214653902671522 0.036247740775322994 -0.38636298575260064 0.3972191027450993 -0.157155769471031 0.20645903023472623 0.03797928273858638 0.20037678578335794 0.06893028514169969 -0.07209885128416521 0.11701861598349945 0.07873373647658363 0.18379983296247357 0.43018475929582134 0.41328940999955927 0.03153746920169336 0.3967298620874713 0.16378903320213611 0.09533085140594089 0.13045698891621738 -0.09856774115307487 0.20361617281934952 -0.1440480184219271 -0.3810576399109638 -0.1542124672039728 0.3933049835456966 0.05847563900812779 -0.34630832655070476 -0.33633991564695803 -0.3854308282374511 -0.2282492129363012 0.19527218570835814 0.4751600371048436 0.4882636027914033 -0.06267596335020242 0.11935905116878456 0.2948430753280609 0.3745576441985243 0.292488509177235 0.2705931990380408 -0.3965748163645371 -0.422178866286389 0.06939167222675253 -0.07467512533527101 -0.28443373520337056 -0.2349026517895501 -0.01935839870524153 -0.2838294992268399 0.4073046680886464 0.11698879055626034 -0.13618250817366462 -0.37944218336837326 -0.18877339865253498 0.5535616518312626 0.2668570447773188 -0.22597139870090602 0.07580297919945923 -0.1704806283030368 0.330880888103517 -0.40800101388530935 -0.010271680606333615 0.14411993269073342 0.23768835107635952 -0.31564765675275896 -0.1010331313080748 -0.3548144927743777 -0.0661474555067049 -0.04970259684877564 -0.1183028927928353 0.1398434646285164 0.42716343720454797 -0.07165628162415355 0.26590611476577924 0.4263376249532927 0.3773842705812337 -0.06132630696678393 0.1768213782305383 0.2038732590364426 -0.1554084974496905 -0.3467124560420612 0.49130080222313255 0.007838118305391602 0.08070045777915534 0.4998793447414623 0.473008337370872 0.4568397828568453 0.37894936783628164 -0.3774555379609894 -0.10260867062877979 -0.4079858398784009 0.22726894742246048 -0.15432157657083265 0.48798902328123384 0.1929231280868237 0.3581499627640228 -0.02373425325092665 0.39756864939702935 0.37310765058840145 0.03421614234251886 0.2701784632405985 0.13409382205751313 0.14096737445675053 0.36331337663435725 0.07697654963142164 0.3175596240897994 -0.15743584651995307 -0.24072912100037255 0.17407093314045147 -0.15273866168294006 0.411237793593577 0.04289890715977763 0.39444575608988736 -0.29323893616566626 0.19828330195895924 -0.23178339470564432 -0.1548358676300635 -0.3320930132082602 0.3936076065603302 0.5037617016659538 -0.07343600322980685 0.09762128794544224 0.0892863121937928 0.08930820404294142 -0.27398487319911896 0.2739338395215328 -0.32265959668197 0.15596993939193138 -0.39968741182635564 0.10096981791485146 0.18467564281626095 0.42286879562062174 0.4814567716387288 0.44748504150267776 0.10165743431911971 -0.2325587547270455 -0.25198410078232936 -0.24191380361802545 0.042323478689238664 0.19172355186467452 -0.3134346060042681 -0.10465936806622084 0.09559280677703455 0.4076789916943326 -0.1300868903288531 -0.00862755993388561 0.2780841525318312 0.2589631666263724 -0.1913095717839229 0.4073072863835266 0.2314485397176686 0.28272709844529437 -0.3686494946989305 0.26332967651212963 -0.42444353605000595 -0.28908836175489133 0.01718467963097373 0.4897632456236505 0.04059597791633688 0.07424796284750967 0.12536978103224783 -0.13424141836907616 -0.21374647472746136 -0.3641189585107205 -0.06917893278975981 -0.23174800017228422 -0.061983320646376114 -0.060108384393125325 0.47245355628811353 -0.08763986232968844 0.04919663633401925 -0.468317290899961 -0.15883846300636928 0.3516272457904388 0.05832347364533225 0.3887544063641694 0.3307981015116696 0.1669369110306039 -0.04773766452155289 -0.29926610771430484 -0.3190478555593816 0.3832068240032721 -0.0745970836847056 0.033139608586668465 -0.383243651223447 0.03886168921706665 0.2398143189053308 -0.06357204743300837 0.0651820754469743 -0.22111096234611913 -0.11118677402176916 0.3648760910768353 0.3238406554128244 0.37316907078639655 -0.1850656803852154 -0.007242429101509471 0.14708032287361836 -0.12478392644177247 -0.4037094885175611 0.4086673508002729 0.5279738097407265 -0.1156226263575873 0.22497194366357115 -0.3543571362447461 -0.15223210764730563 0.035565757873519226 0.07645669655475071 -0.11693964197126577 -0.24571541063327998 0.017977674182213774 0.46599270503125406 -0.29578952107822204 -0.2460516189906518 -0.18825102951653058 0.10372653844449366 0.003051099745193686 -0.17852367410615333 0.5737369836765085 -0.29577004464222806 -0.3191399568072614 -0.10190097768851629 -0.42113276782056475 0.4964051970500167 -0.08119246531646253 -0.10318492044879964 -0.10954068926252802 0.2011664102807517 0.3287798355254336 -0.19906602993805855 -0.32394190101218 -0.1391568363133358 0.42525213085156127 0.48624383558883794 -0.09492696605917442 0.07558789726285418 0.14140702054523838 -0.15650006380072187 -0.3745296571719807 0.1474358212900923 -0.34493163372989954 0.17718756403289923 0.09145247897910411 0.11176009906647609 0.27020616138827447 -0.14625865337314164 0.3047798608337878 0.33828455485997 -0.31251546656718665 0.5699298936841464 0.45845092798103376 -0.21083006762891796 0.35391058055808555 0.22939566073561474 -0.17489540109979512 0.3315641398011093 -0.18366372608991788 0.25981622679132427 0.35445457894747323 -0.35954298841112436 -0.4989986473798188 0.2539091206535513 0.11039814332596104 0.1498580344449193 -0.04392975058124747 0.09423794761833552 0.11456015866381848 0.018796861062141398 -0.28579996462016755 -0.08378850863402092 0.18275304294535816 0.5603370781773404 0.532054895567019 -0.30001802350211854 -0.09164906485767524 0.4534811832945919 0.4660424572065257 -0.0639693801306639 -0.3010871252914224 -0.2871531300876204 -0.26295034550811475 0.2914276817737703 -0.17412627669403832 0.042207170844633275 0.06760414872901689 0.33502689413597514 -0.40144288131455497 0.127996080739853 0.2232291659183699 -0.2939860206474355 -0.2317882849922505 -0.5615123871696083 0.20654837225619224 0.09526771325080884 -0.4764724277910296 -0.3034621355362523 -0.1756724030567381 -0.38341280149944545 -0.12336910053333751 -0.2806106652700373 -0.051151871180061925 -0.23847721376427877 -0.1379984560722052 0.06348865301480873 -0.0529520459337941 0.026810777040094467 0.18856758911158394 0.3747258642045231 -0.09733294432229422 0.1937850762836473 -0.01800227458674617 0.23348352438866368 -0.07516624162363794 0.05814946373499665 -0.12924502613584174 0.4119086983272232 0.2251684792010136 0.106845085886657 0.028238428888835133 0.20221467615633912 -0.3379555428774277 0.05974744845664344 0.3773719834304203 0.17591026666818996 -0.2753159525911933 -0.14441663012424572 0.017500413221753466 0.0736927564049936 0.07068691016763773 0.06751886773050608 0.10260081810806493 0.3139251500384476 0.3581880443528101 -0.10305170956146194 0.3085828470250596 -0.05850677748060123 0.06367562002491371 -0.03215484143578153 0.4259187307119732 0.4173459643021573 -0.07138713607396768 -0.23099035207106658 0.10961416327288002 -0.496330001157465 0.04586521136817498 0.19321577716812632 -0.2850925610046769 0.2072232538063056 0.0902628167600748 0.08657385866872935 -0.000685692737382597 -0.08433915005486517 0.11011475692232293 -0.09664544632835033 0.172369926637625 -0.11446244920771169 0.514741413307499 0.5009625102720301 0.3722242037150697 -0.12162374126958474 0.37187822832962675 -0.2189530442496559 -0.1572225624146162 -0.3460410830039715 0.46685836553817905 -0.33395081318001824 0.022837003187837653 -0.3010436903189141 -0.4093627906361286 -0.40711573472733736 0.239395095223549 -0.4202726833582708 0.04281584496358948 0.11205975377561611 -0.1314596530269941 -0.2527084174550776 -0.12560650878654517 -0.42769077311803694 -0.042109726529003626 -0.43011876026278695 -0.11593186607126353 0.2154691262486102 -0.4423058302605196 0.5828874266941696 0.3006186142909547 0.45876376167368027 -0.29359927319115553 0.1109148356011431 0.3732818342954629 0.3225472941718198 0.1906941152620268 0.4587945999657824 0.1998280331553325 -0.26878454690607007 0.1748326625126522 -0.09852175334058638 0.43640723612390503 0.03279483398863615 0.3064946569795931 0.06097856856776459 -0.29223006707436255 -0.32097259251148247 -0.3857397899105868 -0.014702933430490733 0.38922671430341355 0.16411725665499025 -0.048450779312403734 -0.2367062613619808 0.2857112073597165 0.12059957497703103 -0.1631945440412401 0.04734719821287674 0.10059537841992994 0.2945168571998418 0.3610829276374794 -0.3164838638246153 0.3833435440855885 0.18141866947137614 0.25686543795954087 0.2515525150528913 0.1565110124753836 0.3008670718754972 0.24061724863809572 0.24642618588170864 -0.13988617327150046 0.4767696243928178 -0.12265940778321024 0.23759735605641377 -0.1007220149573635 0.3380490999808236 0.055983769158590324 0.0635373573902585 0.3525197254004316 -0.4005794683115703 -0.12817527262674663 -0.4890469558685936 0.45387001016231077 -0.20994796476130548 0.24478404959026712 0.06297933011559055 -0.38663806304331017 0.5853985385470399 0.48345700146710635 -0.18687288457412593 0.4249530358766078 -0.24905876996792178 0.4183687476133052 -0.17722545658563474 -0.42068420502448006 0.47492463536124113 0.5897477449128916 0.05714243445769047 0.16427026931650435 0.5008107918838168 -0.3964194115566435 -0.21510381217723784 0.4880053376247029 0.3309215789381647 -0.3451810564560087 -0.1393189384256606 0.0003996134665327195 -0.2495953294961525 -0.2796089785380019 -0.44782126888249674 -0.1549635890689939 0.10509611015668785 -0.06071882304297991 0.57891026930973 0.45887844642873366 0.5790478722901735 -0.1463864327106958 0.050149538085475634 -0.16886220409119196 0.22513786096897556 -0.0740170008204822 0.45746086965203747 0.4762205276096267 0.1876165608668804 0.6210970897121663 0.4150297726391184 0.5578287004215345 0.05364428859531046 0.4081501417449616 0.12317354863902603 -0.17462354825368537 0.24016549560315434 -0.3542215372343826 0.46174425044747813 0.14735971313290533 0.14094237259260003 0.18513788021725008 0.2459659207632246 -0.12387358659069572 0.231707279503492 0.5546002852983236 0.5029108507778474 0.5480777309402911 -0.15780196373655297 0.07092406094737613 0.05864671728992533 -0.4875525772095602 0.33937290483280075 -0.4050407503113744 0.1352999969581412 0.3109793481957841 0.15819867809912794 -0.024774831771399067 0.48959892260436905 0.27881573115547487 0.5402150809707442 -0.33651838937888084 -0.1607284217823271 -0.18982871643389554 0.3439081541012645 0.3055535912431544 0.0898287592860579 0.20479151588903657 0.1355170474076215 0.1807215058692552 -0.39843061381532763 -0.28242189476110596 0.03046169066599236 0.32012427680778366 0.5223858136660144 0.009715401430528292 0.0871525794704866 0.5052890241262042 -0.0687063804603715 -0.1471134434649812 0.4014448430042041 0.14262501889194437 0.4011867464851872 -0.40288274088997555 0.27089444859496303 -0.020852914433583208 0.7042897150158074 -0.25448808715081983 -0.0062817630868762945 0.0041359385250850965 0.3321434606807587 0.2218853718654578 -0.419609250331288 0.3793893468511551 -0.09752760357341364 0.1180992768592406 -0.22123674067557267 -0.3241908825032547 0.22960450605330654 -0.0497408975306538 0.43376410083391637 -0.2220339164134781 0.45741632958383543 0.4500554814028245 -0.14613323461114847 0.45609237941508923 -0.14549485488163408 0.48465962838481663 -0.10424120423229088 0.2724023341262881 0.5232489408988285 0.5361352597303496 -0.317703151608597 0.23018146256200525 0.6384587767225705 0.07668947146490274 -0.23484593844029905 0.26734567229837036 0.18112704762945103 0.5954508605791542 0.12430424979293682 -0.3888060133103541 0.4727009583699889 0.045236633880809514 -0.3844104417510722 0.4038051992149284 0.3430625749295747 0.5350234719558536 -0.3406245029014459 -0.31553488220850245 -0.0020644518144623306 -0.0857813066747165 0.0932975175163514 -0.31747205915134924 -0.01891821043795598 -0.28102462740579076 0.45934899123652206 -0.3730679767371485 0.2802466267707058 0.144696152212281 -0.019663052263772046 0.4265239800961311 0.06929164080796991 -0.08793722929643445 -0.32948317473583333 -0.16211540513072445 -0.23880228773380813 -0.3272036625721279 -0.2288234978730559 0.5663668296976759 0.13867014947407968 0.021652446449540955 0.2944036103511862 0.3978801381154203 0.12111670967489603 0.10875194031311584 -0.03067755557878213 -0.3978929556030197 -0.33222467481778795 0.24735367093668115 -0.24788405577408218 -0.26743529231146995 0.2344919899086096 -0.07380472027013646 -0.30258032223546183 0.2624632610776503 -0.18238588918594684 -0.41485338909676783 0.4350533065377737 0.19954287379295887 0.3202970429270764 0.4663949181463079 0.32768677802841595 -0.03867689485644378 0.10295200872618397 0.36590860897623917 0.10648962413551954 -0.1781967198224568 0.1185191959976565 0.08423621035706391 0.33873061518131115 0.142458272219621 -0.2720035401679953 -0.31975686376235873 0.41952489354008043 -0.3028638375695083 0.23919498172339607 0.5720446536941248 0.2574545433749331 0.2041288132561216 0.29108184727272934 -0.28952149464043203 0.4098491441567993 0.329475306270844 -0.18416737470305955 -0.10371565276790652 0.3814998973250863 -0.32061658193492837 0.46712895192408294 0.5989952569809257 0.2581074970513992 -0.35695040713896664 -0.12250598520912077 -0.3628705126209777 -0.3721532037432613 0.46272308018905195 0.445298245333782 -0.3040789556542412 0.24214806070644823 0.5043608838520024 -0.325785695071125 -0.3811404792659847 0.1087029154947841 0.12948158330784484 -0.18698605664678894 0.04560446596211609 0.14093822858724447 0.035461785139007995 0.5694212082461083 -0.2611723603724415 -0.3697894357723201 0.2205639536150027 0.38424804080363095 0.01481050007989676 0.5446750977049413 0.18196247420849318 0.587930063218155 -0.3629240470708154 -0.05648392487521381 0.09573404480130221 0.4585507659726751 0.3507832783916276 -0.36457528985330445 0.5298456712338611 0.43507406797230797 -0.17030401814425508 0.355197876654456 -0.2722587467382052 0.021164133684509423 0.15094709116379623 0.4890590870018965 0.15749993512447902 -0.0621400114470288 -0.35703848700580715 
