2 
10 784 
10 10 
10 
10 
-0.07282016025560101 0.4947353384031784 -0.13270830470992223 -0.3069347350528874 0.13753375686371966 0.025945528845025472 0.378912218957034 0.5924348652492684 -0.13877707097750056 0.4211597914743452 -0.1255528412228068 -0.32973707398395335 0.20611647915457088 -0.18628020350719376 -0.05786432727125712 -0.3083164426900079 0.3391322932797876 -0.23774858219118367 -0.22265715237800018 0.37829495348419717 -0.14612860188305113 0.0946603732051805 -0.02372510289137112 0.3186003309854769 -0.3225902372007425 0.1101448924704862 0.28312992539164605 -0.21855290859444293 -0.10476861614465571 -0.1008901611489435 0.504879445714614 -0.25945684430554694 -0.2658049755782006 0.08620582884512516 -0.2817505200343917 0.5605414642474488 0.4333973867906366 -0.2014366802331028 -0.3480142486465127 -0.3569298927617949 -0.37021901749534064 0.20057733567715247 0.1816593874524711 0.42314557822942966 0.013114080673304803 -0.3168922182774289 0.18960557796370045 0.5581202452710962 0.46500974731382877 -0.3520218847133843 -0.26321592142419764 0.5773102628690239 0.2979567148788862 0.2872521457102486 0.28568725415375085 0.44078750223386154 -0.2424427571180655 0.25282049693783715 0.3097594867100584 -0.09343480258423045 0.17228597003845747 0.11827834630478526 0.5028003027437317 0.5905292999930561 0.5555715669363187 0.2204152337767597 0.43253515266815906 0.015144521281404491 -0.2443967073475609 0.5185490046209559 -0.07426504723494688 -0.23009405105124675 0.5219573823795818 0.536495667666552 -0.38890693451750374 0.15970477384366916 -0.14167093158196692 -0.32283576580880796 -0.003260286512143259 0.39225247724936585 0.463491753770192 0.5144073872825415 -0.06942638459813301 -0.01619140990952639 -0.2247999025143571 0.06704650709981647 -0.23834675958766977 0.15292131765521882 0.13371209688962468 -0.1737298252738457 -0.24791801723661056 0.056187757955702085 0.18422910706796364 0.5686230688178713 -0.2611438370758262 -0.41238440004957294 0.18685022098934173 0.10761232323759008 0.4738857570203795 0.32901449920006304 -0.3654173249606807 -0.07170886172244963 -0.3356599471209639 -0.08457003014905244 0.2105353994995361 0.3938662364009441 -0.3379209506241843 0.3852002062544252 0.37784111813671867 0.3045144891189704 -0.21816785357439505 -0.20583960464135959 -0.2015708240500967 0.1504298209309197 0.42828222946932853 0.09613135167643708 0.277107247777692 -0.2625562562992901 0.4206133128801222 0.12338854413319075 -0.018660636540506412 -0.3238894712479206 -0.3687512220906109 -0.3899232000943074 -0.2940339818562982 0.36659585349241813 -0.03942087407478353 0.3544032898840958 0.24744149502078505 -0.1509614352054283 0.29142162112044234 -0.47293655364918624 -0.28947634259659366 -0.040061118330600554 -0.20203213436426395 -0.2087320824515128 0.4371257512870872 0.1933002762582383 -0.1781173773772508 0.5267244793170207 0.4768898600165381 0.1267669319163512 0.21829980538703211 0.43109104539945486 0.04156952621634157 0.5005061616834561 0.47802862730596324 0.324383488804624 0.17148664288394466 0.5348277865548908 -0.3569875390434497 -0.18296365692720223 0.3192057691132762 -0.22354601534946453 -0.340907904920967 -0.24084451990459657 0.4229540883070278 0.08488318720568361 -0.26528110489727924 0.189236289730079 0.46660331953567946 -0.0818921493331929 -0.050683114799521777 -0.2048195136234046 0.07303646714049025 0.04038397310774396 -0.3280476594531577 -0.19643488578403218 0.4705470172295495 0.4271623837483953 -0.3211319569577064 -0.11637593228756672 0.3796210340839127 -0.3178385646993585 0.22422952803146864 0.2808753927328935 -0.2022406134816973 -0.142659979052263 -0.17038468573616902 0.37985817045469744 -0.16037308845205758 0.37004265103315825 0.3966354931576738 -0.1927589332112642 -0.04567745649750256 -0.18236212129935253 -0.11150958561357006 -0.4065964485561747 0.23931705071739168 -0.2456928519969696 0.15258311089136306 0.19533139867339877 -0.39025692182751803 0.5475597039523711 -0.15101054376353687 0.41763419560394355 -0.3550312761024587 -0.2147414915863308 0.5197590769005082 -0.3691398099407869 -0.444483367999612 -0.48953051934111547 -0.2567357512183308 0.37534264167930287 0.3908356568838861 0.27374173709522476 0.35690733944443304 -0.4373569142844094 -0.5577188797194315 -0.2766211776289778 -0.2749840271237904 0.07579835779344096 -0.04023902228046039 -0.32170277494706323 0.35175082065055935 -0.33763290776478494 -0.20906240877065332 -0.027696788882415828 0.005022025461113747 0.011788484131772303 0.37542726862187886 0.3212381000404557 -0.1731500794484038 0.3074567477681859 -0.3496694764177821 -0.36498021495275984 -0.07484024378210564 0.053680229516034704 0.19108165342687686 0.28431172013047795 0.3494282987397704 0.11167370575830686 0.0034340119358060176 0.43858731600765627 -0.06876768904594824 -0.08421623591265107 0.41069069435010336 -0.009575759307682554 -0.014879500152979116 -0.14007719763822685 0.12369985016418919 -0.35934414614301646 -0.06496155780085883 0.009277594768914009 0.2690626905557903 -0.45099914596192625 -0.5478441819085768 -0.5583020325173765 0.4147082059614334 0.48379915824298125 0.237120975167709 0.42165280124567706 -0.0043139516378846166 0.2471450212246265 0.03156770150658931 0.2940466145237211 0.03028323972042342 0.24558503306840396 -0.48760919686667775 -0.17126973096728612 -0.1316034038663286 -0.39150799315921736 0.16820357087847027 -0.29052732676589826 0.40548271261816626 -0.379029011985438 -0.38392832078604094 -0.30407481254728935 0.36495716797351807 0.0051820759588472225 -0.19119351754882824 0.1664829782593812 0.16474492691195688 -0.0973963440548339 0.003510407112118695 0.25856607345974736 0.32758368246583836 -0.312092644343968 -0.3009748473140067 -0.10594541704603355 0.4778132320872439 0.12524907710151456 0.09345615220466767 -0.2912068441396989 -0.15303348417346796 0.39106011021114834 0.2029985000352873 -0.15661288074722532 -0.3486909134178804 0.29497942166421565 0.4515509358718296 -0.22021319578304746 0.1199408418310201 0.2349050523949861 -0.49100761375849694 0.10897895041844513 -0.28564844478241064 -0.3604183315259923 0.5468638361530791 -0.27151064445322926 0.3493450134636891 -0.03571092075549989 0.34235734555342495 0.17497285423428327 -0.30048652073527576 -0.3744434444330667 -0.17257080497835361 0.28392268171868573 0.4735109018398195 0.08529624939663184 0.2878773820824263 0.4870695704793109 -0.1473404781608459 0.11409890415057848 -0.2259032982281268 0.13718433474733618 -0.40486799674881463 -0.03708328718028995 0.4700336814486655 0.014890039217690469 -0.2764543605041628 -0.171579689211716 -0.4697068010411284 0.3915279820846074 0.14961615279045432 -0.0145334651356654 0.5490114469715778 -0.3200933893853104 0.19343515245826873 -0.13649796060587763 -0.15905804753867425 -0.4153375343794653 0.046261045069059564 0.4302768620808671 -0.030809263192529527 0.056478801128555856 0.3846261725696609 0.26244108348169065 -0.355191195138339 -0.13467792262268072 -0.3105373118115514 0.300562992355178 0.26713795594938067 0.4084149542868384 0.03232199480501949 0.4036772144413758 -0.33453184480507925 0.43862369798699474 0.09382834415012857 -0.3829196956418171 -0.34159242759165487 0.36347631334968905 -0.11932582660655601 0.4350157295820125 -0.34590394546037334 0.36190499659106934 0.3797780013981933 -0.38634092610986276 -0.21166253957456407 0.15710972110618776 0.13067484014722416 0.19409284890062778 -0.3944839212235035 0.09286857483630295 0.4822493033887515 0.5693461785613215 0.340749168964054 0.4289922993013104 -0.4528113023915114 0.03465328526367621 -0.21624237868517596 0.43031266376447164 0.3261595474647396 -0.035193388047520056 -0.23661032710584975 0.22421380375459812 -0.029339321897722762 0.27696197137713124 0.21498707928571384 0.3331183039161779 -0.014545318830713479 -0.06611321471632352 0.3213382562371777 0.38041343151315793 0.4991673980554076 0.190812141115783 -0.06511333915390351 -0.020906402027219807 -0.25087767323348203 0.5080220705102633 -0.14832420428339946 0.1561621613326507 0.4479347614883711 -0.08972482189235578 -0.23664337330143134 -0.12060962981483861 0.1718625595562457 -0.2023733638660258 -0.26897170138003834 -0.014685249280487613 0.3504113304890219 -0.10966854151538906 0.5041323993608738 -0.34044568742455406 0.5642799781286006 0.1635453439546816 -0.2777804037853307 0.530124033023629 0.27649299075501366 -0.3098025295626552 -0.1563085290933648 -0.3673744057295854 0.2964923809719135 0.04378649514145305 -0.028127636126174197 -0.03937211038696866 -0.37776737675057687 0.02922213828979351 0.5707971527914871 -0.0004913107109255077 0.5417757619849772 0.4065685537076545 0.35338589450564867 0.365154892835043 -0.16692081099032233 -0.22648979076344938 -0.018826393911576755 -0.4724655849390417 -0.20175267776784686 -0.09771921142103517 0.1211068217201235 0.35581827263662696 -0.21612939638882506 -0.16935398948199842 -0.12084229535276755 0.22811841977267217 0.29273392362270084 -0.18511883121662 -0.3741498795229217 0.3537616833883258 -0.0034078759542707205 0.24026375674654787 -0.02753005818315309 -0.5042779814020927 0.41733325661975457 -0.1062120742661452 -0.2017197758232906 -0.20688291085919897 -0.1708280291435439 -0.3748423177163674 0.2783385353733074 -0.2837391334699928 0.17745486141711553 -0.3058535936202583 -0.01178582796789339 -0.1167307369474944 -0.2619631056779681 -0.022429940530017834 -0.12736293178500838 0.5046205998754879 0.09661548096175267 0.46820438753493987 -0.26481444084765304 -0.17903789521802993 -0.0805285440417983 -0.13040519737800157 -0.32638531731860104 0.13005928275094786 -0.14048828664611246 0.1990804158631561 -0.34019778216714003 -0.16139872572395741 -0.3635387492047685 0.25230938426702326 -0.007510684540161398 0.3029691944554337 0.33350778785050017 0.1645552770770581 -0.1782141915897253 -0.02268570903119899 -0.3703116926594081 -0.41634057516062745 0.34021758232288896 -0.04875105089754053 0.2876818072225274 -0.05169893826861077 0.4349994941281754 0.07170788885514164 -0.4367081410258324 -0.481657413669409 -0.34675026707858697 -0.21504894749992343 -0.0600435943305061 0.22760323529184748 0.2915170425730351 -0.19572717545266777 0.1765794714461226 0.38610296780270487 -0.1002014153938132 0.08730608483485347 0.47497983785339815 -0.1875608618829693 0.24804822430284867 -0.3095263365206075 -0.1804071897816108 0.3631329720317727 0.11782737584701596 -0.3444513582918688 -0.060572575666010924 0.20961429186779665 0.051528270141110395 0.357315617913818 0.049533839708685724 0.12249902179376294 0.06851992479685465 0.3439492751762645 -0.24321461509401388 0.23561201635898305 -0.3355224691181072 -0.3365343102050633 -0.5247717114360866 -0.02375444442777473 0.03930040176346218 0.11397486284145777 0.005304150723472396 0.3617346579969444 -0.18848265765310712 0.3104522465675167 -0.34886646594957493 0.40563372547490706 0.040784172392540625 0.06773864174720345 -0.0672874900425593 -0.022045080969955493 -0.06018400213039813 -0.2853379985083477 -0.3590065922747326 0.38064928169000045 -0.1778567414883103 -0.19098695634337218 0.1764752210179352 0.14546420441476593 -0.33260273000485513 -0.4712625509548436 -0.490713099852751 -0.4330659743036397 0.17568556177287714 -0.014710350302907 -0.013495572987325073 0.1139473284019354 0.2571253783034143 -0.45652518539901354 0.39439369558375165 -0.04286818550698774 -0.3575794784487408 0.1517233590173159 0.4266330060055789 0.012326151588057542 0.28655166787545155 -0.17915975811737395 -0.316590889311213 -0.2663583527102972 0.38684949471097835 -0.230823514454708 -0.0165319354519817 -0.5054504350792915 0.3213236183979871 0.1456050720674617 -0.022456844215238712 -0.1265741525037811 0.3585805806683074 0.08756283298908099 0.29678502324012196 -0.16098814851998436 -0.4674025164430265 0.013166413946041771 0.17220327570968602 -0.31578545992511875 0.1506187430256629 -0.3949561801274304 0.25621456714250346 0.3892551975753568 -0.38258967898529006 0.48562206524563795 0.4414881351507366 0.14220115961435148 0.3984859560708576 -0.23748767322128372 0.1104643235261642 0.5773070997414481 -0.030380221709673902 -0.3076317385213168 -0.014801001211034281 0.3598955662088309 -0.15579307881617693 0.23865085183572185 0.008682641329447394 0.06642963914450722 0.3525661760328395 -0.1237967661139676 0.22846796462528948 -0.3411364098193074 0.3936424285497348 0.21694010110449632 -0.3542072823547264 0.25072377350304664 -0.1587204377370936 -0.12164165891119946 0.06346846180459229 -0.07261744032038889 -0.021749659101845686 -0.2969524136467898 0.13481435471095896 0.0020615935222003897 0.07754209494070284 0.48566441325101517 0.27388324182225277 0.24344583020163843 0.2595746614062783 -0.20249612750152246 -0.3124094784430807 0.08380034211120184 0.1501730762897563 -0.5126425943128385 0.026207996382100016 -0.3804601879232794 0.5165984801464081 0.22946082385507333 -0.15284136194713285 -0.2967504419532002 -0.33027000033593557 -2.687909126761764e-05 -0.015521046392164034 0.41428546646088377 -0.09362858699376148 0.202934789491836 0.14123735895439166 -0.10502165027647277 0.16437440504719647 0.14001780743739406 0.3832952366703345 -0.19361461850743358 0.4029536393880914 -0.08562659507218573 -0.060846760546308665 -0.293081249457164 0.20094257325012746 0.48413265591432836 -0.2152322498689532 -0.060422279485026785 0.43701282935745533 -0.12454970696879317 0.37833806658960256 0.2608871002276889 0.33222896925879386 0.5357353446790687 0.0559138521096965 0.15642451840330596 -0.3139900140822051 0.01880345387705611 0.42254148680220005 -0.4576035435979306 0.09058840416600776 -0.010798956233310262 0.08800194171753306 0.05534148283650604 -0.11605244318928785 0.34859888782693615 0.2020874518285537 -0.023983897767761924 -0.2700396628274134 0.4398767995161583 -0.34152512213015546 0.11415894984694734 0.2701221666874373 0.43728898239198066 0.37424006019950395 -0.2568484629331538 0.3010162222917469 0.33222973675401085 0.006362381083335186 0.4578292909768468 -0.17312205369152048 0.3213493614908283 -0.04676801894696423 -0.43379801200663004 0.06978010749076431 0.3028821208441668 0.4867976094523061 0.06448822870788212 -0.07841613619680404 0.3608141850662873 0.06726199307445531 0.42018535456255646 -0.0641205063860921 0.14175080000444457 0.026982983969481508 0.3658280870102341 -0.1267446468635925 0.456522314964222 0.3379109596294032 -0.2378263743867711 0.22744127309111403 -0.336864897847804 -0.31806999714515 -0.24694674901607763 0.40694790503195544 0.5687146857632656 -0.19194077796175746 0.03853079070674753 -0.27184472237489143 0.29659768642418466 -0.36349904741974115 -0.009450635987464708 -0.30639761053920905 -0.11216431251127126 0.26380755607857165 0.18369190062175889 -0.09473085765750354 0.25361384095913503 0.523204294306257 0.043774751147097904 0.0011810227246958202 -0.362780040043032 0.4022924790561774 -0.12709634416968432 0.20751923707010966 0.2837794376353415 0.22832111714306236 0.48673346390747235 0.26007141045504234 0.026981519300312135 0.56164673118646 0.09482237202189558 0.3499511143214811 -0.13705104132937668 0.4928722932006611 0.4465349961283466 -0.07144226072433317 0.2545428782778522 0.004569587619270416 -0.2785634266989713 -0.3730487502361246 -0.3434923459849174 0.39065168949011664 0.2679152300350681 -0.16379281651217462 -0.20976917439275314 -0.17085771146916992 0.2796883639941766 -0.15110355926172592 -0.26343341789756736 0.26019241634456125 -0.2544170972867019 0.2680128689852212 0.236499029943267 0.3607388440649857 0.44629795278512874 0.014340985997020494 0.31197681270927835 -0.1468548707841717 0.19109578897217805 0.018861408502103306 0.4358657496760817 0.47366215094731723 -0.012786537103869277 0.12533987512614952 0.24425783758764297 0.18216648418355974 0.5438289402922118 -0.2348198297631165 0.39494256073511413 0.435605252630206 0.0022197436731723474 0.211986957701355 -0.0171942999242057 0.543531567211297 0.504876790393346 -0.3461492930323308 0.013737921896180838 0.05374659571728535 -0.28442542281780386 -0.2972846484063568 0.27742555386880685 
0.11691202648631127 0.17131870039989683 -0.06631546673836047 0.0403011476264018 0.11261185332998226 0.5809882462995449 0.03102346562834915 0.029617929353822608 0.566978944433047 0.1341534526356672 0.033944887841430266 -0.26536073860839454 -0.35623108687463767 0.47377723159558616 -0.24990945574323165 0.5195901934441964 -0.062375661331140385 0.239729894656469 -0.22719974711061466 0.3315860241657543 0.2969136267020655 -0.21371499127870444 0.3784633674123879 0.16888047933763173 -0.35018921144126364 -0.003135900881386544 0.16871405654651128 0.17001681707113114 -0.3848767298414841 0.5524801499832106 -0.24871295394041196 -0.14293061049748143 0.2206670083018148 0.15769463778913365 -0.00424069669735571 -0.15711122602271127 -0.1201315002257145 0.23701299057148897 0.05844319085134504 0.15657406713219177 -0.13445897681797558 0.39207373749310565 0.09542881247769779 0.5978652355919623 0.1040444638339791 -0.2558302571141861 0.034073847057303513 -0.3961778642425879 0.38627173506417334 0.38522958657296014 0.09791923632715833 0.5177587453356226 -0.03349958535800418 -0.23827843924453768 -0.2029973097516103 0.14075179206342125 0.5466502099367927 -0.17375097519435717 0.4036876697538828 0.5982814640985001 0.4241211673028852 -0.160771749180718 0.2634158545940695 0.4247835733470472 -0.3540926047460754 -0.3231159844462085 0.31701581349589725 -0.047961633332978273 -0.37146987362851785 -0.13850678511505357 -0.33110408823015686 0.5187957648691316 0.41485786058211677 0.4689867186030628 -0.30973545706420236 0.29473780886405926 -0.26099572219898315 -0.11560083737526387 -0.38590423327802925 -0.04553740091929994 0.5449164202160005 0.33487813511052433 0.275281032452612 -0.028559779615110525 -0.27878667817104147 -0.07562306827071831 0.1629581999959612 -0.3360391578294488 0.2579086316905341 0.5626500695766771 0.45355633942920515 0.39520669063454883 0.11144518708009547 0.33961347782849927 0.2274754153319128 0.42391275496411024 -0.1578030544603136 0.2566610649590405 0.23532634442528344 -0.042681295890485554 -0.04845520791749497 0.15308673150003857 -0.028956459076235296 -0.10493454513978014 -0.08191711031051646 0.22990440572875429 0.0325313067872751 -0.21458544842204091 -0.026178663971033318 -0.37898364045642857 0.4634763854282654 0.051567355142362215 0.45030160891671844 -0.11532025301453842 -0.23746247333399412 0.2025975660846073 0.2550445373535996 0.5525187597982616 -0.37911290371665773 -0.16128395164624398 -0.23143793905766893 0.24158865594962883 0.3638828815062557 -0.3289183131110887 -0.11840102568660398 0.13469610548606692 -0.18387498055882248 0.6104420550332672 -0.061783876096341596 0.5082153963558151 0.02774209823568663 0.20268742028558584 0.2955919545553325 -0.39179304657411784 -0.09050527978847386 0.4991868306360189 -0.0799248978641772 0.27878571293726523 -0.2535062200186602 0.3779301888329172 0.2952630145905444 0.1006037699260392 0.36586765316465125 0.16893661075436417 -0.2634379610917659 0.10428587944119617 0.03343655230677388 -0.1530441123687768 0.3907159104216422 -0.49913750505932286 0.27015215085143984 -0.19097139146528638 0.05107652249791229 0.38850044472714196 -0.1991356301437056 0.1983412878052179 -0.23117593092273478 0.24808067452817983 0.0345446622988274 0.2657339039029828 0.08075459190067515 -0.03123085512214842 0.47828791211710464 -0.22869135975773786 0.05388207668380764 0.34620847856490594 0.2056619004783663 -0.08556065813717428 -0.27334244041285266 0.0027667218807962083 -0.047819426878553714 0.250571161569894 0.1560799360648391 -0.30268452000925505 -0.40521968978552436 -0.10816263357388452 0.317596463233127 0.2231956751580462 -0.010191239541019293 -0.24321294076922373 0.30899167263882926 0.6149912694615399 -0.11221965476527382 -0.02612304089083805 0.022050496472584186 0.22799581658201737 -0.0012812024193990447 -0.46623574486881064 -0.060570601918005965 -0.44675450602879335 -0.12037707799468064 -0.1750430148024743 -0.08429020041396408 0.5441672376340142 0.5552849430442086 -0.0988954645920998 0.009162445714597456 -0.05827555381411936 0.27344830571850737 -0.3414873374854558 0.5243149463926849 0.15612146412609218 -0.39956061545345806 0.30610486368515355 -0.23547983481275267 -0.4900904152269145 -0.15704372697761212 0.21294083437701894 -0.3111613874120968 -0.002477958215224687 0.0335383240110116 0.5135174498282299 0.05346847495148894 0.5593657720667989 -0.22756903520593844 0.22456419456692384 0.4097721995210844 0.04911563890486735 0.30574107587182786 -0.24843195529403408 0.5003825170844833 -0.36616858386756435 0.4339662789081466 0.35348260454477143 -0.13537340423797384 0.04061624440594928 0.1568588319349143 0.39056826774484577 -0.16474545600109614 -0.43584946251037615 -0.24202998164414508 0.14248276563869958 0.24112569628789843 -0.3255053251372963 0.05938156437473267 -0.038304047670922166 0.16420501567729004 -0.1263370213338091 0.42403453841143646 0.2524304581113717 -0.05227627674971016 0.09961155456809595 -0.10247477330936487 0.27031981808252814 -0.20951936646628957 -0.2063777671351238 0.2869220370676117 0.015123443559063853 -0.236102872792412 0.04786147211037486 0.5405831377314807 -0.12606174684891308 0.1868558442315108 -0.03305368639420356 -0.005563718382223265 -0.3600617911780724 0.015618729084174367 -0.07896991092995123 0.4318886811176153 -0.006690360786284827 -0.22955709366550073 -0.05786282717147343 -0.44571544159184456 -0.31810079993873003 0.015338558449107897 0.44444811479631235 -0.42572288374895023 -0.1262236849417324 -0.19859118484707283 -0.40668687761490613 0.03022522290707936 0.3112511802879845 0.15637424285179197 -0.18243977415789345 -0.22369169058786745 0.502063988356059 0.09783131957866774 0.24633370157931359 0.3136117064351315 0.5359586789315209 0.3408056279535161 0.5459216525092392 0.4000937745601543 0.11937073683186959 -0.31196953234486385 0.34086655441554903 -0.29941239134937664 -0.49119991253045053 -0.058110876247561 -0.36562719905296603 -0.24883300137521716 0.480534198088028 0.07306593974621928 0.39530374014738223 0.2817555034920095 0.4388822353898176 0.3202010979599637 0.27527267051482496 -0.06388404582152012 0.26795734458701925 0.2713360535135821 0.09230315934854345 -0.28417515620990014 -0.19852154429952998 -0.024401915808555982 -0.31542871607638095 0.4195492574147583 0.2909979102344794 0.23600700910994554 0.5337615495653442 0.5445429544593648 -0.43740798669221237 -0.3359866909415709 0.0636410395317621 0.2825083056481912 -0.19288759826122656 -0.09709806653760916 0.21736716669211736 -0.000828094470078868 -0.35772595209185826 0.3666381777696773 -0.08369167886225222 -0.169885123611325 -0.1711742712853628 0.4514465891109227 -0.4828408698349755 0.22094985826206906 -0.5269349267583322 0.2653902590839683 0.1330688969318676 0.10120920006280076 -0.336358451480369 0.03819755795351057 0.25291936976515816 -0.33395513877626437 0.4961724139328171 0.3039219909421662 0.518218620021976 -0.029969133705440135 0.18656276620518505 -0.3251336153808037 0.1098674305069866 0.01964036667851183 0.07993693947712664 -0.1426080851054734 -0.4326613920392028 -0.2733887321699292 0.39233386815091054 -0.32590706372809225 0.29850942469451436 0.2600677781033499 0.23987195294683422 -0.020598942293008807 0.05971762370414575 -0.2562262303514505 0.1808341322209529 0.3507937521251866 -0.3340277241732881 0.16321049978333227 -0.1706456440298809 0.49622658162928485 -0.2908780839979086 0.1645606373327819 0.49190908097574515 0.5114476658438867 -0.32146758300981776 0.13352209172437252 0.4551580886516716 -0.41920041958299253 0.10975870771010747 -0.0385007573195062 -0.4551569221228462 0.1998520607178883 -0.2540890454041626 -0.3925859502603204 -0.06480090186387072 0.0729014887136869 0.1272876724183383 0.1423458172986573 -0.06491030378514695 0.27240498237261607 -0.036787487041331106 0.1225904719656046 0.45213377811094485 0.10331623214816027 -0.14319340531664385 -0.04891645684165938 0.4192393570239605 -0.1707592727213645 -0.3626788657660339 0.2775901948957858 -0.1362812696040031 -0.3362180986036182 0.22808083077928287 0.49057398848879785 -0.45293564806839887 -0.17283914942829584 -0.4596712937055884 -0.19400067253688041 0.2750377356768846 0.2787536276280358 0.427678398833594 0.048604495762064576 -0.3998249379029837 0.22010046379140985 -0.29056999844285825 -0.47118319780502727 -0.03566083354981426 0.47897326973223864 0.059771558101007316 0.12043043569163119 0.12107960010753226 -0.2423154712782373 0.22328619148638135 -0.3746413926067812 0.28557482436803777 0.46816071201710624 0.20698962360492235 -0.3155820629574456 -0.292042111865182 -0.20881257816408327 0.06293511051403668 -0.11497511053948366 -0.30303045750296487 0.32562514459797165 -0.5433411396657173 -0.5034778212252563 0.3550829512346064 -0.4402358966693773 -0.10187005322273196 0.5185027216966691 -0.2883953399713611 0.43506195417390164 0.4283793500808497 0.46617960964631955 0.193436786392062 -0.1571278424108238 0.5177216574934468 -0.24157284428160178 0.17185088873388635 -0.10259179909157591 0.0823964015498944 0.1377438908396068 0.251834478371786 0.030911263371254154 -0.09189538168999246 0.1576974399391019 0.5080694008440505 -0.33820736311060096 -0.295831605194591 -0.12342667221232692 -0.3410426486939308 -0.029158180934955025 -0.43081967204477123 0.2788381859452114 0.0023454001655562546 0.19287223026300448 0.43055041083302065 0.01348856660126595 -0.3419481623848299 -0.00874667050468528 0.38026458027297483 0.3447627583103731 0.12436387794639069 -0.01191141296626919 0.27549036948079614 -0.12102458593977125 0.17907163782460328 0.20553834365262005 -0.002809889335589634 0.3911278800353105 0.22339637685189012 0.2125651809203987 -0.08909173877507591 0.11257733083223738 0.49455896901236396 0.2355562836401205 -0.3142900107325141 -0.0008074937337019102 -0.25907786182777637 -0.4342014523866365 0.26554823520381016 0.1578050934618937 -0.19029775049610007 -0.40331761595108634 0.25624424999706086 -0.1146696159730735 -0.216484957903184 0.4599111860227525 -0.29161974489518455 0.5183720247650903 -0.26420398354398306 0.2579666022184083 0.304291425604293 0.053235503885306325 0.2488066968481444 0.25188120567153793 -0.35666720764662463 -0.39157851550475253 -0.3564916387482447 -0.3231074584275016 0.050466849302659544 0.5342565730022443 0.5012461287410057 0.11847321446625814 0.2772543875819971 -0.0420641203871395 -0.184730066757073 -0.25469437686583674 -0.3257199087924288 -0.4497355223526585 0.0400283128671804 0.3290110155997729 0.3128612523064563 0.36965561173963485 0.41683908420288424 0.4797909327291481 0.43849445761677075 0.26613439123840194 0.6270280001430494 -0.05790414958007117 0.32358565161650943 0.31673337359069104 0.2724106344613842 0.3954438702921774 0.33945288785722405 0.240887839172067 0.343563405408138 -0.3158682438142418 -0.12754660558225878 0.30726801161015527 0.3548438449918503 0.256913218963122 0.4120072637866204 -0.06959198836787972 0.32569533798174366 0.2648901917869303 -0.17354075515885622 -0.4356841867229772 -0.001813364151194566 -0.02290144376096152 -0.20282939405371297 -0.42755010160596435 -0.13260574485109436 0.06815715429382277 0.45511715351799265 0.4621971046095396 -0.18785509854370455 0.5830245925153102 0.4789101654720361 0.4952741334646935 -0.37924305790060475 -0.23103829436213033 0.4253983834561731 0.5013936415658633 0.08225900321060103 -0.23017031644247016 0.36665883933493354 -0.2977238405855856 0.4895779105371243 -0.19086904560588813 0.5697180376577305 -0.19372290327927713 0.4901845489502629 -0.15096878696252408 -0.3175266188665489 0.012951124474622313 0.3602437554208333 -0.19057426879602823 0.0062693005121271985 0.10831101136612818 -0.166476687169459 0.323531508087599 0.019379778364618846 0.4049585298634956 0.6295276059000537 -0.3235519538166064 -0.06897903187622477 0.4848135064557472 0.15246739432219866 0.553374106423175 0.09648037843443383 0.16569977342731199 -0.16960084083408933 -0.1785413679155271 -0.1589597386867776 0.30980701442859365 0.2966727251428989 0.3376557914852645 -0.24994293980728502 0.5008188084543225 0.18085187803534328 0.028915149117308293 0.3681943008442158 -0.04568630031862059 -0.07554483711912718 -0.13311100562678496 -0.16343409398164674 0.37471995655023593 0.4213845788891177 0.05328705158686636 0.42801019755392766 0.41065154141699506 -0.23394531846963554 -0.03191828221023107 -0.1645309216715073 0.5926542781289085 -0.21163608460251204 -0.0617524376135839 0.3080768680282722 -0.10072779657565958 0.0820870614813971 0.5038413751279156 0.009426495852080509 0.050608183717397275 -0.04780132988005209 -0.02564549538566363 0.5756613794400025 0.11062899807795991 -0.39962535535693944 -0.3483997996852027 0.07316238035633915 -0.346111781005694 -0.05018726692784706 0.4334011290390673 0.10523871615418678 0.24475849243050193 0.11245743735505283 -0.1911681814296215 0.40989276538517583 0.10904899708836306 0.5665640239958928 0.3451012518112992 0.2906520538781581 0.60425267327372 0.4391930867242057 -0.010967725440077226 -0.25471690245582035 0.4054648351655196 0.09068251563757132 0.5480337128217726 0.03188284597668931 0.2322180496862681 0.5985424008177438 0.42301729979919345 0.15963784860015745 0.606229232415753 -0.08816905677498199 -0.35568764053059293 -0.03313034717175192 0.1117308394464833 -0.46861089851034066 -0.4616278853965339 -0.15196538936300494 -0.030985881072675674 -0.017307998387408777 -0.16639454261769146 0.35615112596418547 0.4146753731604408 0.05665888898894688 -0.1776112419242072 -0.20176695128517544 0.0634312865810616 0.42118765035598943 0.07994456750402427 0.004457227915318584 0.2308117748371177 -0.25562176681695914 0.20534934596201926 -0.058458559661964574 0.36922811994154703 0.38918235192734285 0.47333755469249095 -0.3471064817193854 0.1701922063628061 0.3720424637055851 0.3296139748736959 0.43842603203589847 -0.06450005961576973 0.47437687628318964 -0.10741662637464257 0.17099356778859462 0.5278967363918309 -0.13087854935404677 -0.1445516226652593 0.48948706056529223 -0.32182996781449363 0.34451596610829854 0.38353922153524744 0.5713421390389626 0.27401606754250635 0.4608416749983853 0.5393798281396206 0.4756939566332918 -0.2620842190596107 0.03916065097865313 -0.20496322048033327 -0.06898307043331589 -0.19899994313915184 0.5574312835280524 0.39345473715086376 0.3435640930363447 0.2456206932751634 0.1398637750962142 0.39816390100060245 -0.3136878263353386 -0.21484876142007586 -0.05897744301184848 0.03671245566339014 -0.1968701022033396 0.4285090317848717 0.06281267875631942 -0.044102648360255514 -0.36596942166911206 0.253170409119039 0.341892063379675 0.5742982721471094 0.35951184338995995 -0.16969750099797626 0.21268280374218512 -0.07316997457145334 0.26490568178860224 0.1813142916649919 -0.28525064295457725 -0.1963482181090604 -0.01721783126001222 0.14995415221712252 -0.19840146202204112 0.48524811440842475 -0.24294669967508034 -0.39948633247027376 0.46151619548770345 -0.048460623412869885 -0.10852791184530067 0.11595050498560015 -0.198126877924527 -0.08250834661275855 0.275478872305757 0.2986440497324589 0.0858309214795898 0.3422103768954368 0.541812861199199 0.251849233605204 0.09892587851654146 0.08836327733363716 0.5488701876145962 0.4672767650732351 0.3555376198721142 0.1259400278624304 0.4722600477685479 -0.2463228579763104 -0.02589274442389927 0.3768260598039646 -0.18481509955519468 0.5123891137571892 0.5272264449048953 -0.39590673887797645 -0.09059492519457413 0.23933743458838785 0.5044307707377094 0.14452386970516018 0.33935332361018367 0.32875249736848133 0.25717184919079744 0.023906965063900804 -0.2420076383371905 0.5908618063003375 0.1225985168623469 -0.2820472452678855 -0.22714701388282654 -0.10449650128434501 0.37082077014201587 0.20893555072646441 -0.3750774476986901 0.05627371784288138 -0.3656279738975106 -0.11073487844346477 -0.06426591723435598 0.3630958233398103 0.00847727025685674 0.08296613513894946 0.2258376715039736 0.24753869757515767 0.11583650186117489 
0.3222542514438974 -0.25682759921172293 0.47996868894557065 0.1173973603896693 -0.3950381454996254 0.38421473912850523 -0.1731232755290685 -0.01083784922742937 -0.018642533786997737 0.337099350599164 0.0662317456400848 0.0021911369565681222 0.05259462670295478 -0.3197904137628368 0.227818067337765 -0.2481082572673354 0.07974525833494044 0.14625084877069852 0.3467559825776201 0.41350737683965866 0.24532682307280665 -0.11466243367986911 -0.20626827068081657 0.29408807276123683 0.12287479004287438 -0.2382480975904832 -0.3523479006038723 -0.041142098827343265 -0.2871881794575903 -0.2839155406034688 -0.35152551545465266 0.04945315593894493 -0.17823954262744307 0.18638068727760126 -0.30710407700911807 0.09280731907420754 0.383010539033852 -0.03632047089728577 0.3885628046571455 0.20682868270732713 -0.22541034758437983 0.40040442725618464 0.33501325091011647 -0.13669993822612528 0.5605051698103226 0.30610577572542985 0.36339753562915833 0.16842934458726833 0.3010559036017627 0.2549014845349757 -0.011656041543236316 0.41420798442360257 0.3350549119745219 -0.33687329017186163 0.2202628842191614 -0.2166553521162463 0.10271623789679762 0.3496881625740029 0.29104243121188067 0.5236827456373618 0.3265942410010071 0.03763116793733949 -0.17918244496741892 0.26868601585152474 0.0857580869183142 0.3456302450655948 -0.06270494400306138 0.3926546127246647 0.2601243575766138 0.5180617003166456 0.09648538541893069 0.228405445423827 0.19852602733065552 -0.1588922199083264 0.05473451330505954 -0.307973191076174 0.3051961806664737 0.09727994413155469 0.2921686505138812 -0.2690616611184371 -0.29734115096797764 0.4197489843677947 0.1439104514064137 0.40882309068046774 0.03762888363318884 0.45720005501284017 -0.3481488450495881 0.4640153270666007 0.24560295701411786 -0.39694653099355687 0.10381299511926713 0.0045828186771636895 -0.4096316444089994 0.12861096612473427 -0.02549340620428397 0.4399115594679693 0.3258572331676622 0.28359068333506265 0.31032532737116647 -0.2543515581958446 -0.07326878571774624 -0.006509767739385735 0.120661382712561 0.08684433298225377 -0.5949324702635704 -0.5076256805899364 0.23235563197408451 -0.3801186118474613 0.5335989219087169 -0.15150827039973636 0.270159079355444 0.3508359744550571 -0.097431856067559 0.24394259457494671 0.5464622194632635 -0.017126975671020127 0.49795244918825515 -0.32657704777585667 0.17575726708260828 0.04143868839563987 0.33408804722791613 0.2661620313727311 -0.10012774365837122 -0.39808669810137737 -0.3205636488880548 -0.3668691698803443 0.40831510565400314 0.28954971771627175 0.13769346365276477 -0.3362204439779247 -0.3590187252215888 0.14199297559758528 0.14917083854900237 -0.5588435218405785 0.29037988437138973 0.21230772824750188 0.45734125568357126 0.45391198346662814 0.3362956277463326 0.19116556381284666 -0.08724558421412815 -0.36917605481461513 0.026852051353219778 0.5976874486589904 0.34327408906273715 0.00792148133412806 0.3633833207587891 -0.17376121285827514 -0.04963255949399308 0.21616637990709728 0.0792380612763605 -0.1998522074855288 -0.16978920248943627 0.45294737045770445 0.42243146445586577 0.13472714149763354 0.3266523089582976 -0.10177302499767667 -0.22191733661620514 0.005033002962974516 -0.25563197792079945 -0.4699435540739875 -0.4177373994199055 0.07815945405813292 0.4416202158992826 0.09129884840440056 0.17669238883673885 -0.013085155006349325 0.4928193338707322 0.29493241030843304 -0.08041666432424956 -0.3057482003920751 -0.30889063478078777 0.5175328018861179 -0.12140342780277728 -0.33350429760273204 0.2342582096090872 -0.15604295717288097 -0.2078903853099159 0.21461757332699238 -0.07668297358455116 -0.2064454184245726 -0.13715389354192228 -0.37021802378072594 0.29528457958313326 0.37817457320089737 -0.40013160454850966 0.0352292399286552 -0.3815242264187518 0.16712290490393839 -0.10787929761443535 -0.17456751031015308 0.26955099374745967 -0.18653671603501815 0.4424870715337936 0.5115652694877375 0.17166273055321613 -0.1735247102959723 -0.16140359466661183 -0.10090533503093649 0.21676466864461846 -0.1059242099280194 0.047482236353228215 -0.3991922905708658 -0.026064433266924883 0.22480673116081704 0.2860256616644795 -0.1481657223516337 -0.2953848262384969 -0.22616602800360183 -0.03973949227354512 -0.04004656183174846 0.5590327708806729 0.40820690286677097 0.21283429245346122 0.31412890885274 -0.31710600389850635 0.1731598848093687 0.07703922672373653 -0.15831924778816842 -0.21127447485545797 -0.4007459340290713 -0.2389210921118713 -0.00803599790528231 -0.03446102647489885 -0.2291330163486446 0.3789578095506064 0.027773408325274824 -0.13989099241780317 -0.33145744961985935 -0.28020137021024155 0.35956945520511957 -0.18537981204848633 -0.44826075564920553 -0.4409349501286287 0.438266451186423 0.00958070649512471 -0.2819183439524403 0.10537070323876996 -0.11283566739853017 -0.1317628323209121 -0.37286186884930955 0.24854370951000507 -0.4049241170550196 0.37388855062181325 -0.2110770281066842 -0.033749720284992006 -0.38645309952963025 -0.32251919109464955 0.3863747498887923 0.001501411920826937 0.3151092118713418 0.25784413084247704 -0.3373255662633685 0.5350648353045597 -0.21546256829667335 -0.030515441880771085 0.40980030751770513 0.4387039225637426 0.03474633063401834 0.40676479732665227 0.2861356853865564 0.23091323148271145 0.17524273193332757 -0.20029825349093971 -0.07693456320261706 0.36824826456406357 -0.14924543176046706 0.4755309813077411 0.40952850539608654 -0.019835180006219838 0.4534190786733368 -0.38754851493516007 0.09725363458622913 0.41410198054580527 0.041393411386339014 0.34210252570459765 0.13985899192606902 0.26527060920439227 -0.10079234514642932 -0.3987438703637216 0.3635793434125269 0.2972158131293142 0.6767184309876031 0.035336862477246565 -0.41853524031337097 -0.05967111946653651 -0.42453070100872675 0.028373960323835913 -0.16199777369270318 -0.12314162511458658 -0.18282273443617908 -0.06705218772978415 -0.3431894594066278 -0.15574449404679272 0.3375830071300677 0.28382112962324524 0.1576491592534241 0.152940672479246 -0.3017951284837373 -0.4109525566994805 0.22783829452226337 -0.29235150517386055 0.042146361148175104 -0.12383359457412897 -0.2117034195607226 0.43276390374602053 0.5851106713758918 0.5384082112589703 -0.26406348219383635 -0.2092789433331443 0.0583392454539066 -0.051202308380951515 0.17688909772986497 0.15097454333837654 -0.1872900825618458 -0.1412921926292121 -0.1546551437787258 -0.5073816293126749 -0.18257797983172436 0.3651347209670322 -0.2148011644346399 0.1680282240103875 0.16113029346308375 0.15387418710326076 -0.22587092399500028 -0.4599498990851653 -0.04532649054354901 -0.5380358425503365 -0.19663590728094923 -0.298666281063418 -0.31938761074077815 0.3740231156710381 -0.16436290838977813 0.28667031532129505 0.37975469146215024 0.17791678604533567 -0.2517845934473888 -0.1784331100151193 -0.15924526963920407 0.19272929360944369 0.4626619688052161 -0.11919713968870574 0.4070097989003058 0.2957285463206547 -0.13628287141702494 -0.3792313467013985 -0.41214633837367115 0.055588339212283476 -0.11710711835548201 -0.2188560992648849 -0.412481851002922 -0.22185957264095865 -0.2770929099933119 0.14220490996927748 0.054729447253698105 0.2571789752160823 -0.21100180631358698 0.2680529212190246 -0.1250808032988261 0.4373593639415825 -0.35143865927383144 0.39008845198906095 0.41907817665251257 -0.2808537014921737 -0.32564682725772554 -0.03320256627779332 0.2974905034113925 0.44174861041610536 0.105128685857214 -0.039252742024455986 0.34060823505548116 -0.1814247310657183 0.2179202618802717 0.23475946953823087 0.042586029812300245 0.42706292320978545 0.419731881585512 0.06165247060950209 0.46569122813218167 -0.08664311922095265 0.38034887784720783 -0.06291889657965703 -0.2201371660590134 0.3621616224171682 0.25541313388620446 -0.0539714200129202 -0.03325823003012573 0.25152035030195724 0.5235163231807245 0.46103979780245385 0.3379289447934479 0.01780389932958415 0.0761033218871704 -0.27245804480401586 0.4446551365023465 -0.18363133222319292 -0.07476185890472313 -0.4092023909961444 -0.11342437198090001 -0.4829832751566559 0.056689854202689655 0.2657282087011043 0.036768351100476056 -0.08372183889689226 -0.22451417047093192 0.437249197350105 0.2812649478984666 -0.07886272008765396 0.15177875243491862 0.003400443997112521 -0.15796383658347807 -0.2043681621183945 -0.26748891824446464 0.21907158044368724 0.13556859759147363 -0.38903317715667496 0.3750798594676825 -0.25599696540635886 -0.17977206236937904 0.028673975771771998 -0.062392630999722545 0.16671483254223285 0.03377848398794525 0.09173064075304466 0.1487464443084841 -0.07251737551433293 -0.10558393950646282 -0.24907461096613012 0.1575269359386078 -0.08686284858716632 0.5647596619987366 0.14594583015087878 -0.021205554291539187 0.07459453021994658 -0.2020448250249395 -0.2979052843695416 -0.26338516014378477 0.41611339800932606 0.10266352680020929 -0.11610046110552895 -0.12348534922885337 -0.3392052706888985 -0.06493938514883126 0.43563987823529804 -0.226207458761695 -0.031746628846368995 -0.19825322147855828 0.28397886901141833 0.12480675300386632 -0.36656470643225025 -0.2629927104476492 0.22471805119807053 0.5638026401343662 0.030639288847279088 -0.31002713556488615 0.6147774197632864 -0.21678460096474392 -0.19094842327675998 0.3991092050726459 0.34887896859775974 -0.10949443672372025 0.37737829951062885 0.37177251340208567 0.3847292477694574 0.002168671837255688 -0.5260777044628637 -0.16151571679412716 0.29509014327827654 0.12319243896245637 0.2242475495185201 -0.10287846146609149 0.12050215152593909 0.5173572852029442 0.36687243546008325 -0.06695279947774846 0.08305477976477216 0.48649767282371453 0.2915723369139386 0.21643100944246413 -0.12180385083507982 -0.2724651368890315 -0.05764896690979981 0.36011061734466054 -0.20010697730140584 0.11738717997626409 0.04154968213896159 0.5284664622712195 -0.012865986521636685 0.1614553153509986 -0.09494952594175825 -0.08765029898321156 -0.4422452443610613 -0.01766104963861961 0.32454243568148883 -0.032439678059528486 -0.5151555063782387 0.3199149910714497 -0.14900018961291744 -0.3574155910846498 0.3648979971612671 -0.39535210816306615 0.16870721552794563 0.31948987930410877 -0.19131075419354582 0.41035585243137757 0.11693493127829518 -0.33613708087919103 -0.03581575783281017 -0.1801054721481195 0.5161057868770578 0.6017576549406689 0.7077562445413984 -0.07904368246570022 0.17125606856432082 0.649956655255777 -0.2815795001243206 0.007397330469572987 -0.004792001642807885 0.20595204282895926 -0.24074663924730674 0.1994466032152253 -0.24881529052262605 -0.3747938885768326 0.02151024415305122 0.16712935887421362 0.3179103863923299 -0.3671461348015928 -0.271696024252111 -0.2574298085018716 0.4429994100593176 0.045962483980964364 0.02479284485737865 -0.3068777099274653 0.2545003101451943 -0.31052498155577324 0.4341959097827615 0.2863413050634567 0.4476562433871054 0.1129429692780833 0.3307649792102429 0.5705509977605941 0.40284814976656924 0.5943031355987853 -0.29316228535961286 -0.039977705642539677 0.009257271338681225 0.42273464281112577 -0.3444227936958854 0.3460191467351634 0.0050568694881088444 0.12738746069255677 -0.16115053111439728 0.046988571925135274 0.043325557952206266 0.27520579115584665 -0.01006674532756358 0.061583579179400265 -0.06336819216251234 -0.10695717969800916 0.24757595665324716 -0.03516921253138222 0.2603790682301087 0.03825522530073968 -0.1074386950554172 -0.08003451367528086 0.2556401621762847 -0.26633982661076583 0.25548091792639094 0.5692370996892682 -0.24887394942811666 0.01619242326547059 0.28571146450098744 -0.014141647121764899 0.08018632290459653 -0.14663257981024858 -0.030239412869742317 0.40904060988151497 -0.36949399217639173 -0.41006911768212145 -0.439695126938261 -0.13322251513763742 -0.17582131813651034 -0.12249040083799519 0.1927237396392878 0.4845940247782344 -0.30599046594183316 0.32624581891853066 0.25466834226239476 0.12657756675664344 0.3088450447776633 0.028104967835836266 -0.27855748958680904 0.1666100970785703 0.2238296606707667 0.00502931086031268 0.5524422427666593 0.5086116422973636 0.22888848323236333 0.6805215210944009 0.6205925191460693 -0.059500589173562164 -0.01298868646160205 0.2722948488462883 0.16201852306309075 -0.06172293296391807 -0.2030227979124925 0.5266753355638237 -0.2969378014142226 -0.3436477435394403 0.2915833113433272 -0.16005899574291693 0.08806629974241896 -0.40516518168954013 0.5117766852125425 0.1459401200506285 0.08902882403230217 -0.21981721826146036 0.05741312151287154 0.3627908093654584 -0.4063476423892126 0.4336190887493234 0.1482646864567779 -0.2360184963493744 0.07478425419254071 0.2866169202298456 0.06299520830356767 0.4537905883832804 0.4791188708209829 0.06255979694006666 0.19411900074172175 0.013451676945503298 0.5310575293489291 -0.2274880138338088 -0.3778324815532465 0.3644746678568314 -0.21948084904170806 -0.1726066807125972 -0.26165884665353384 0.4840390296760841 -0.11805633502191795 0.09858712567911172 0.23714856272026144 -0.2573073151677491 0.53007493042262 -0.20729109898657175 -0.32624317092388544 0.062413570008335306 0.3154129477900422 0.014828670394158026 0.14445497808603402 0.4617968411187504 0.30934283832452714 0.4544582782068051 0.4729535847806389 0.4158516197134717 0.17895821753405308 -0.11719942949094864 0.15539564011780654 0.05484665186377893 0.498481757125884 0.004692487609044235 0.22100478424167916 0.18393193318509846 -0.4385493467819994 0.25231736606754934 0.0913760602499492 0.5230519399113539 0.18290066455753975 -0.24574453743027466 0.21921626924359075 -0.14557629036084385 0.3607188465675627 -0.10826731233110871 0.29382733964702196 0.09021981588969456 -0.4271851741215723 0.015515020497642279 -0.3522369187860972 0.343873200434032 0.35419465482974444 0.2619278525090467 0.4952091288348368 0.17762788967199322 0.10608817296164991 -0.10075107474591867 0.3752718748403738 0.31884891546410726 0.03995059601634284 0.14492215530392547 0.3872020999757845 0.36879602190981664 0.4201420573334212 0.24793961240476478 -0.17021537065649803 0.3479403787311623 0.4251048398310826 -0.3553945068203343 -0.31801360627827807 0.46377260345347904 -0.30457376312035667 -0.368806680023057 -0.3432864624584743 0.2795824293821322 0.5278986281212165 0.49446242149305875 0.3065785085155569 -0.29569347273226754 0.05519235067152576 -0.23702810124276927 0.18917614150961642 0.30638719486098703 0.2370189431950622 -0.04106562179997333 -0.1879932396130513 0.3072555372626221 -0.09739656825991361 -0.21421317218082242 0.27398648614082105 0.38332833569745045 -0.2468485078582276 0.43438705485458007 0.01907824986956347 -0.3913412303810189 -0.2862078654996818 0.06634685369366769 -0.3100679954153845 -0.04881346505386308 0.1561277877121786 0.5635519088992915 0.4021531216658394 0.44737528429200024 0.33688912188506753 0.5496942683377086 0.17273718787605935 0.3308165720656565 0.07030365009843552 0.5279271289480992 -0.31878059013827664 0.12236345425324571 -0.3665867221091924 0.09542134641366112 -0.29626168067646497 0.2957627531155866 0.281296280119945 0.35266576198590194 0.16750829415474944 0.17319155840632847 -0.2099036777467927 -0.23367148872695784 0.42272730029155914 0.5099383792927296 -0.021014968419816697 -0.23915342203596834 -0.3202766072964265 0.0840330214095355 0.2756282298574826 0.5208344849790205 -0.11573654079105655 0.24763716519726486 0.15674995706159933 0.19116370902323987 0.2053059852217417 0.39441103665387406 -0.3485801054148746 0.2899190405570407 0.27002892000003154 0.07176188204301459 -0.08968321657700756 0.4696990377691922 0.4997619745102089 -0.37525618946332706 0.21417786679007766 0.061976582947503855 0.4201607018307977 0.025372037493486873 -0.08007971669941023 -0.17006889980880163 -0.3368026975825707 0.09137451311726053 0.19307735833096495 0.02191283988527415 -0.206574628633234 -0.3295321841414059 
0.4283000081182211 -0.15212061964110857 0.32575269073126756 0.16995142488182435 -0.039146712131708006 -0.04429878816017715 0.12957760151774564 0.11543683602190835 0.08028370001925121 0.29549623740327674 0.03353024596357341 -0.2085844155135579 0.29682341091833453 -0.2851967387985993 0.014632927366170279 0.004804007003355304 -0.10450934070242303 -0.2077676656490466 -0.2614658989526644 0.18332227776957094 0.050899626524724344 -0.15524609113586413 -0.3793673340275164 0.35920422553878184 -0.22099689092047498 -0.26662569899787114 0.048944052372708935 0.376467154667699 -0.1515081562000437 0.441146700140847 0.48832738449404395 -0.05440649385732565 -0.3491471990791713 -0.30510705169316016 -0.03863313722448287 0.4157442421316657 -0.08192177950938334 -0.23194905371269353 0.07673547006875076 -0.2998625623770537 -0.16258505951207244 -0.33156934175150465 -0.1234438872628261 0.10960078803741309 0.11397138606735605 0.16616025481542263 0.5802432595741932 -0.07352521443825433 0.3086538359482333 -0.35707043915587955 -0.21809263364409623 0.39825454653373105 -0.33133592150800434 -0.14442503977082752 -0.3597498261790462 -0.28541205264496966 -0.1541644525131164 0.09559980038717433 -0.2653158821784701 -0.14090835196517257 -0.16715517893415802 0.5079332193404961 -0.3823601567151033 0.14723865448129592 0.20110843647385765 0.41503914356967725 -0.2442785964368521 -0.121725527780572 -0.04721304159649411 -0.03049008496585062 -0.372134738577645 0.2650569680433741 -0.22535874115478216 -0.08271919414883293 0.5274361821074696 0.12337508122878216 -0.07990797050502574 0.34677627176941256 0.38968833851740076 0.5805889628840477 0.4537429621845417 0.1342807152951862 -0.060587771710492115 -0.3126115305047841 -0.08716028477316423 0.5558846774034899 0.03492001242911742 -0.020481115265955238 0.288162855051363 0.5025421228659266 -0.08638247232681659 0.3150984695081925 -0.06630859218364721 -0.32641644286900345 -0.32094520411104766 0.43510229763154223 0.017142025666237074 0.1720352740635823 0.17194217417300545 -0.34072687791447853 0.14955070645210602 -0.10493571911189273 0.5732303356916082 0.06469387078656823 0.5962845449744463 -0.16169768485003258 0.5103606816002436 0.49766253190439746 0.2730579066040313 0.013526175321223926 -0.0060412567732589005 0.5400194880943616 -0.04612403933690956 -0.21137247121394728 0.5156484062206559 -0.1543129525827167 0.3073846358732039 0.008155006256252626 -0.1149375037730074 -0.07724371247575128 0.5429639304091961 0.523310820026973 0.5511028261468416 0.01417621708328116 0.028366380629127063 0.1328317198477441 0.3972271883425125 0.14976982706041464 0.18234665935739278 0.3950428850433452 0.1088731422709041 0.0028523136462708957 -0.11310658442942906 0.3584927991877271 -0.37103665922682877 0.27605395561978274 -0.026459568048800095 0.017845219409907347 0.543539683460842 -0.017441152522433168 0.47135351237602896 0.3089977066337201 -0.18888689257285937 0.15865911514549966 -0.4530595982203187 -0.3575334027136482 0.3257870389345259 0.2372067247050584 0.35116398779643737 0.2708531947189246 0.43853913988445453 -0.308518130457926 0.5011696604139534 0.15688724458114495 0.004878394224112163 -0.06724643327196698 0.03808543326469899 0.1554883622250652 -0.2613590810709684 -0.006310622738489351 0.10409490707041172 0.2271222410931713 0.06814074855171018 -0.08586682620416575 0.47014934212527787 0.37434520606819677 0.13209650416900118 0.371193491338048 0.32763235140963043 0.19880051838028157 -0.3922778806576174 -0.24325028338846316 0.035533494730220855 -0.18149408380783488 0.25004810885376166 0.15287530305002692 -0.35758617450904645 0.47405478097812487 0.5758699838543914 -0.020047250290869904 -0.2811052168282647 -0.08022885151154836 0.19823422827253767 -0.13002866655266399 0.23781856594668638 0.3387061346284774 0.2041774682269758 0.6301246440405321 0.17253504693345798 0.42532683081783645 -0.17051084400180436 -0.046950477931690895 -0.15402777971294773 0.42411626893004695 0.36162278194335395 0.5201044558051273 0.55351186885831 -0.20075287460398555 -0.09885201488063214 -0.34474745677031976 0.02800472677055335 -0.3078578147042242 -0.21457843455242157 -0.29181139982369836 0.5016657010434115 -0.03468507196099333 -0.2031199973098075 0.303149673180077 0.5420957065056252 0.25471103040143905 0.40125049344464925 0.20227921542542493 0.5889703909999967 0.1257535886725862 0.06957670441058678 0.30335419727196683 0.2573891790497938 0.44761821360968046 0.06897888436831838 -0.045516397395602225 0.018888555187125226 -0.3696812205686711 -0.10900520617042718 0.43453848846062715 -0.2219438784417359 0.40833445841123966 0.38122177589021855 -0.13816685062466152 -0.3779174036156158 -0.4511415920951831 0.016288066796101234 -0.09418654593608396 0.27797078539639464 0.2982100361002279 -0.07098598681453155 0.2722638396978003 -0.05710241137535729 0.17934369864250244 0.28910018463464365 -0.21639523936743504 0.6002956514963339 0.2784650793280707 0.7260175807310407 -0.09686144751115969 -0.0072600196237408545 0.2601790843839127 -0.03643875782289005 0.1200144410505994 0.3506842643999156 0.3714969469993079 -0.3029796720394007 0.15201393012036568 0.47621984690817976 0.47736200383940564 0.34332389054156154 0.27488118916761456 -0.3757495004057573 0.27188290772437146 0.11294566811905819 -0.25996595548053014 0.11075162430282098 -0.24716602604068522 0.41367393202763036 -0.1824187593590644 0.13371759426766233 -0.29404243462219887 0.33045091604415255 -0.07360716052011419 0.6168888340900517 0.5627835333922604 0.5862667101559154 -0.05691335306937481 0.6500536353283175 -0.20127067500086976 0.4676493629176291 0.041417176926590735 0.042983352441059164 0.2617893563140709 -0.1260815810278491 0.005656165261467949 0.5828648219159478 -0.023106238624387807 0.05553926351638714 0.23760871274926987 -0.5010025847473439 -0.1642094703376687 -0.24511997365472254 0.045403519583224104 0.180969372182208 0.4809606189635751 0.47176077163851843 0.007801696236124713 0.5744418399582959 -0.36628857562393086 0.31899868612607774 -0.22933481532853406 0.0212534608059214 0.3666182788300151 0.25860850709405586 0.10712960301853161 0.1795064423055632 -0.3028710724353481 0.4948471478666043 0.3121269108984964 0.5187278426481449 0.29628548635742125 -0.3039609262982789 0.14040909239416688 -0.0030536413195164647 -0.05831266568421601 0.5234339978482186 0.25776239040075566 -0.060144878807111266 0.22379194876987601 -0.3703910077928945 -0.45483302181280216 0.06851300296205048 0.5505977962301142 -0.07861686047405887 -0.05246761671218617 -0.10443581169988757 0.11975166760172704 0.1610610759792718 0.20293050662358278 0.015222302452718299 -0.2173311201638662 -0.09148060409674662 0.0825306086747113 0.09665789765101428 -0.23219471607008735 0.5155384810595635 0.033364930696957444 0.41139406537496287 -0.23694301543924384 0.4768552403271305 0.37875362715462324 0.01967653563370253 0.3913202543100742 0.4079974818585297 -0.4168259984805012 -0.33830659787613515 0.1327113929444868 0.17260046227132517 -0.2689351606457012 -0.2544620253218154 0.4476047541398296 0.05857978207613577 -0.19664800503830218 -0.3659550135799474 0.04931075701679625 -0.013924021159825406 0.3816764910637537 -0.14652661116781338 -0.32313678913978583 -0.1465357478507526 0.2704862466503287 0.005785976967799908 0.2219702205974568 0.45422720798518906 -0.20330641216080658 -0.27880596807189956 0.26659245027545075 -0.16725694580966977 0.13215243736575388 0.511218596755596 -0.005699406865988531 0.38797545045349946 -0.18374191193657077 -0.17918769490333655 -0.15238615438332037 0.3783669746274116 -0.39251682871249344 0.2555985311843851 -0.02230448732968694 0.32452802520950913 0.4630655685454887 -0.26227889532301535 -0.25247337624384736 0.07758319067207958 -0.4507951610878883 0.39227229249096646 -0.2703328190363068 -0.03465813647847027 0.5260068126514177 -0.22436231054470424 0.3378634685517038 -0.1527922079486564 0.634377130355412 0.37868934408325233 0.293646295547542 -0.06335433807705003 -0.09582813746957575 -0.3538110246348757 0.020139209717498725 0.46384414381970135 -0.2979454763795379 0.2546673844237239 -0.27938715630723404 0.05354585783042612 -0.2486263349753315 -0.2057353170137943 0.012376547861582108 -0.3639899492916312 0.47278754308848314 0.1694294914328177 -0.276131347584409 0.3714188911229011 0.268773460308056 -0.009213755004178422 -0.07256647914732024 0.4742865955061268 0.5835007187209814 -0.0808867409150079 -0.2501251192335521 0.3041673169897073 0.030529694332356708 0.015815281704940603 -0.0729188324008519 -0.034834864333133674 0.4735526076832517 0.06731493328368998 0.22799499530445508 -0.09870832402514049 -0.005331884954937942 0.4954209351448002 0.06838253823555042 -0.04324343604593049 -0.33740691765499786 0.17398758410931078 -0.18012004223774822 -0.25019665688881937 -0.18032922640589386 -0.273433744273631 -0.19634258491209355 -0.18815442055548723 0.3662898925472998 -0.37458852580761953 -0.0583068725383128 -0.22779134571787718 0.43257723139423576 -0.16532389672294717 0.13493357563017375 0.1781647721300994 -0.15974089899900207 0.12815490104205546 0.13537339266031986 0.3246725050018719 0.09052676172632856 0.38291734258734134 -0.2611239194327485 -0.07740349428114005 0.501951649020836 -0.0951777460238266 0.11421074930881162 -0.00753629099523933 0.047361212688277275 -0.1679668740395917 0.2528446408985229 -0.3692296931186848 0.3981465776821344 -0.29287408083897337 0.3158145039134864 -0.33616736191970026 0.07514530033147652 0.4072848338011031 -0.2767930707682023 -0.06976349657640056 0.13312101012129665 0.04123872730529222 0.11878555217295952 0.2296514482705151 0.4592470580211477 0.6736427009548457 -0.32098003599140107 0.42241136049951444 0.3225492493794633 -0.1245084516788833 0.06774453051730886 0.1941282078497114 -0.2397459902260083 0.23501079835862584 -0.13951495907258443 -0.4118894693211547 0.40196828928204825 0.0658229897366072 -0.18058783948942358 -0.23375220610027178 -0.019421078889010873 -0.4551351721972303 0.24617943305630455 -0.03823028605990986 -0.1184213681203597 -0.24193877935232555 0.050783706248931124 -0.0031346998906245714 0.37310040867964245 -0.2839206684420679 0.20558495913071181 0.053127479595021974 -0.2755958055810907 0.19082380563411647 0.08033637517020013 0.12664806433718767 -0.1957566127091921 0.5549232499766368 -0.3144819856389776 -0.3654454003799896 -0.0923554838077063 -0.11394221372552985 0.020391892558367708 -0.1528722985606821 0.3869110791216966 0.27279245848965333 0.07807257455669314 -0.2193954984344101 -0.3097661267752086 -0.39321735696380783 -0.04816827143782803 -0.007469189598713079 -0.038708524562113364 -0.20750347860227436 -0.16015254900088746 0.3246348909787467 -0.16646355011800437 0.08965573958218584 0.01638138687542567 -0.12435125154373015 0.3638459454968995 0.004466988627490981 0.49019681552474603 -0.034014820919798704 0.534284428187987 0.14294227008523885 0.07666344672093416 -0.08400149894022323 0.47586041913351 -0.3936350681386706 -0.19534523040854085 0.044036588919755745 0.3502007991784397 -0.12288541763656291 -0.1605133636712714 0.10280656133177135 0.322897439505226 0.11326748942053583 0.21335817180137975 -0.35621298098878923 0.3734780006971312 0.06204753279150153 0.2958085675209423 0.017193145272555083 -0.35122842097772083 0.47382126966152 -0.06946363090541512 -0.26528393252976046 -0.31229292368292255 -0.07341431500795954 -0.2666022599735322 -0.390526195790096 -0.3284224763978437 0.5619632094781881 0.4620357699481319 0.3799238278311836 0.048103013375870626 -0.25737671616218183 0.11214432572784166 -0.12019255570890011 -0.1866895949482795 0.4026117508559819 -0.33771828664440817 0.36793011667558234 0.12490928179977218 -0.25727419535338064 0.031450795715838746 0.13591665269236886 0.06336690562960645 0.21006802614339165 -0.029899727857040006 0.0930973441451998 -0.43314440281840116 0.02622157931059247 0.17087241226614244 -0.1862328206355375 0.21467478300730428 -0.10920733470061918 -0.15719297979673236 0.25981534821520286 -0.11611087559412475 0.4651638702940595 0.14268389145331586 -0.011589342840558287 -0.1950412037285851 -0.017563905333103466 -0.2333592786505684 0.33237205054509217 -0.06370662268322065 0.34103167860642963 0.1523148301696111 -0.3332579580928274 -0.01660874099613405 0.44541534222681556 0.48568971116547444 -0.29963156895156534 0.07182125844631096 0.2644785997263225 0.3994707687648536 0.43681777782945563 0.14111554333696574 0.388979747701647 -0.3098277968425443 0.10652862635954158 0.049990568364246084 0.5475873145377395 0.10505208973769335 -0.22157505278069298 -0.06552094497828315 0.45573799467432197 -0.369353628437274 0.3312771772149224 -0.0860516885937118 0.20238854305197 -0.42125579772986654 0.26043687251122466 -0.35306770145970723 0.17425604506114917 0.34621401151061687 0.5013927621633267 0.5787915430240539 0.12865765170626395 0.3207707986156487 0.3945753746244729 0.28602418173490485 -0.20097512350189273 0.16002551545911714 0.39668367294594786 -0.14242987743758267 0.06456572134513255 -0.13284323826815495 -0.04750886192086118 0.3062018658000595 0.42795948114606736 0.12742008476851963 -0.20921611674116572 0.5474112352897849 0.23780314798190128 -0.17616446643751116 0.19026413425647806 -0.3531301175731543 0.25977851024923854 0.12697674470873724 0.15147098001367854 0.14486177958234084 -0.2248804566370872 0.050149872030478555 -0.3684938430535582 -0.0390251372484177 -0.07571939282130034 -0.17008287914976683 -0.23478646053491178 0.02679214044268903 0.5521620944351349 0.016001692577060207 -0.29072136645135604 0.5075012221884416 0.5339291910322654 0.38824751591042755 -0.26794753990365305 -0.057555784225086684 -0.3714258721195349 0.20025435808972086 -0.21866102091411035 -0.12402182828741509 0.008609769987129035 0.16770609406966913 0.025457449628383078 -0.11214291575351548 0.418721721257199 0.3148453944844871 0.4239974858198976 -0.23560993519458753 -0.387717005220709 0.5522026794105401 -0.16264368958254333 0.20241249569298628 -0.038809997696123054 0.19952729712234551 0.21030854498711524 0.5104026588618187 0.43132040398190336 -0.30027504769952895 -0.2892107843379965 0.4307085219611555 -0.1840353131920827 0.10271039912692542 0.1984964065062209 0.5519268507541274 -0.11028038924124309 0.39818065067509395 0.04761795680616425 0.08503627599611074 -0.030789754335436126 -0.3521858154911363 0.2774629528336307 -0.23290051513106907 0.004237513127296109 0.26915821066061907 0.18644623664555343 -0.08926126030822493 0.480148597337829 0.22632458008614714 0.5030300815077375 0.5373388058575759 0.5986822718970773 0.474833966285231 0.5921799702671391 0.03162692168208681 0.255901694307554 0.5812974801091174 -0.32227103825192405 -0.26971804681776096 0.4851106494017667 -0.3702996247335754 0.45734169398270724 0.469817456229483 -0.01545636029865088 0.5278925602666815 0.1472228809938227 -0.2976630072450014 -0.13918090672567524 0.2324067104181584 0.4904029837859265 0.18530215349978127 0.14190213275263772 0.05955120822483804 0.5454220975925635 0.05818916549226559 0.32802170328325403 0.16403065967787395 -0.04341649005794485 -0.16313883515403507 0.3669607287695465 0.09274952407326226 -0.23915164636364675 0.3093937001959941 0.23188814123114004 0.5012460170039865 0.07064223488481294 -0.24474893142998339 0.40455473883345 0.4701833851847226 -0.2546590278405998 0.12606566209478687 -0.3000891857510946 -0.18167471188314763 0.2894459105076857 0.5720117446224007 0.11752946496649441 0.3215638082967033 -0.18820567081280892 0.12386810636787426 -0.11501348114007326 0.48900938788105075 0.12720804260471416 0.0928061818996909 0.5830676308045306 0.3740530786451312 0.1280553131889305 -0.14558698240788948 -0.3987786746869998 0.10373836804283942 0.43835551142760265 -0.08611884218691113 0.5297934849179058 -0.395775018511519 -0.06021714111831927 -0.11096510206687979 -0.27126117976002784 0.44332054461401005 -0.17836540072390322 0.41865097087448144 0.25342394670410207 -0.07133521011660982 0.38668228243665026 0.0763117014441188 
-0.04194998367618119 -0.2773372866996843 0.1345431559993152 -0.20764262766664593 -0.07237884978340892 0.29898049347122135 0.29963686130441713 -0.28912769592813664 0.2850422691626561 0.017568309285336068 0.17717973883180868 0.30942068317761934 -0.15839131424555342 -0.18916077408266418 -0.2427004679664515 0.5641649617759031 -0.253111692357056 0.5361891691025977 0.34686012279082995 0.4184641924114301 0.29856405557835114 -0.37652983545704355 -0.2930363591283393 0.10335176935935031 0.006685591186365025 0.49440928005954965 0.27175943593059937 0.2300248702435329 -0.240155205336887 0.5476569897106889 0.1945468078659601 -0.04190037568762707 -0.24796386256276418 -0.0029752000852844842 -0.3206569004623486 0.10197779594486922 -0.2056997818341171 0.5012998116779274 0.5690765417428487 -0.16194764292862346 0.3583136349167551 0.07685843080032746 0.5814763412042465 0.07905755375607722 0.5203617858712547 0.09798434871670066 0.3693670189398119 0.2995784353298595 0.4996855016427009 0.5608545264241191 -0.03233088820620632 0.011736577268804982 0.4323363017972568 -0.1792070373968044 0.2864871448240911 0.23775126252919065 0.3804219733064842 0.4682180046862258 0.01316229871543993 -0.05189937660860023 0.062070763241746596 -0.36515736271263577 0.07120860574684873 -0.1029992921906077 0.4849899875532288 0.41433260427465496 0.3968988355606734 0.21507281455388078 0.20177440721308612 0.34160661930443365 -0.03577309333108267 0.05760959479926915 0.28563618585458084 0.29308886173130344 0.3768878536758438 0.044795851590411155 0.17150447044100212 -0.01950724902197443 -0.08152033091969972 0.20424078361581238 -0.188134047543639 0.5378165086926553 0.2738400682128823 0.05598600321149494 0.5440632383602944 0.5030925530659242 0.4434800633762116 0.1874237164868193 0.4842389309508543 0.06295340630039463 0.3519892368289739 -0.1781191160241897 0.47001362277815467 0.5496485690440763 -0.26260875792383814 0.5442479994920763 0.057313194428004706 -0.060289710522006656 -0.23792039399558793 0.5831642621752392 0.29807222413293405 -0.08809239064889517 -0.23035340600942986 0.1769398985272105 0.42076126053359414 0.3227234809902663 -0.13134071331871344 -0.3071062731669679 0.5062629600095758 0.05526291168387591 -0.0276678620616242 -0.2523489611662496 0.3336820591462214 -0.3704366357006943 0.5077913229702418 0.2169851723973352 0.1504879041163898 0.16493424268935497 0.4279992033627709 -0.23551481366373078 0.1289313342317241 -0.39491840310845633 0.5953756773837796 0.39411791456783263 -0.2979052389215955 0.6228596747366569 -0.09787728795472429 -0.14391866598272463 0.5003880373321647 0.32348983519835306 -0.34846337741032674 0.20062982997367146 -0.15242198708231314 0.10161328219607182 0.4402636591926535 0.1502215235927576 -0.19585227532786328 -0.2731290899015786 0.5960466842030508 0.11915897832279332 -0.29874086383361353 0.46792081482814324 0.1407377138991913 0.010610696332678181 -0.16871004735075823 0.3827817403240937 -0.37861042557979857 0.5564082836819866 0.39823626817620067 0.3146687906981703 0.6002501713941951 0.5843220004149243 0.1444847098405901 0.09723972854903978 0.31965852778684656 -0.3006789643526512 0.24013934334709536 0.17834045294199113 0.3713082335249613 0.1760762448689459 -0.35376814143542384 -0.08142330839869971 -0.43639313709397437 0.08590965041087896 0.1033230702123456 0.12200349466365694 0.2602526010062539 -0.17678415058329283 0.38618961919582073 0.1296148504917287 -0.3280893508472945 0.49515555822591034 0.19180788560321818 -0.14152017722161356 -0.34328591979367123 -0.04116949635122176 0.41496342096236033 0.43774938178022593 0.15276983113741766 0.47329152860001955 0.28351727616324635 0.5293711431078016 0.2228609229340603 0.34993058031347324 -0.24693824529880723 -0.37349993763130857 -0.39610542940815546 -0.47215980418129005 0.3866484267868742 0.22164539514513948 -0.29833730650692575 0.11382825074807465 -0.2749673490594375 0.40102946247127813 -0.08945677761838004 0.4938809720489751 0.35767468588750384 0.48742360494724246 -0.3701174251913564 0.4100049177920155 0.07581063903745223 -0.06473885056282018 -0.05180623652296209 0.4081084062566098 0.11049616939515453 -0.053836471627113636 -0.01878467128883137 0.4071203221095756 0.041946831001547544 0.48122773592288176 -0.023213237558932686 0.002630731028068785 -0.1820638443282578 0.3809876014647395 -0.013687772143254258 -0.19892086880494483 -0.2666100432886542 0.3707329169808285 0.10590943760067996 -0.1276606611918106 -0.4568971249583966 0.4452096141414621 0.1632040287505674 0.04639544554285657 -0.269307755325262 0.04681744261806537 0.2973189147261496 -0.3108449431031329 0.49125917288510057 0.5999837622150448 -0.08861423491769106 0.46257433244458923 0.4030700669139446 -0.24992605011689484 0.5936768768436346 0.0788808577955106 0.375596861775996 0.15303282991335038 0.06415648331394125 0.43211702417088366 -0.1368428833140305 -0.2890924834850201 -0.3359145687587707 -0.12336964434897144 -0.46312521065120493 -0.13292061841830682 -0.26081987136037843 -0.14424932751082423 -0.013496613541069305 0.4703590408202263 0.3531203968660104 0.17473071393970008 -0.36922473752065466 0.00743267881738288 0.4479509645742906 0.2768128725852337 -0.25062038380267443 -0.2687733715498084 -0.11788851574200535 0.4574116269412607 0.4188209366840367 0.5758797581992408 0.36665906717281316 0.1957169354594038 0.06609502848125211 -0.04898183970993179 -0.15711879380994798 0.4925413614363636 0.3242725126131131 -0.17400704009197213 -0.14052572230524066 -0.4201203366559243 0.17113204589403935 -0.3402561901876858 -0.48693479770644554 -0.1226821815813573 -0.5293133289027249 0.07769600528914022 -0.34752786502790556 -0.13476539632462792 0.5014569165122176 0.0456186103511079 0.25614401988987806 0.050004723900764096 0.4494693903618525 0.06713649605134649 0.04795422987117084 -0.2110221122732752 0.038419063704153086 0.31667829383318086 0.5176013169895223 -0.16758824721562576 0.47999015843139153 0.3271054836424489 0.27075927267675964 -0.0579701805625189 -0.42355740337296827 0.22485486774000613 0.19972076899117439 0.1613295873839242 0.300227409499338 -0.3892342813499823 0.20511100521702713 0.20008112606270292 -0.46704923824002803 0.258520243241307 0.14487210245373433 0.36763950657496003 -0.057236571547482185 0.42865856736955477 0.5635252640803603 -0.014039212975742075 -0.16441787614129155 0.2669270470481641 -0.15083186781713176 0.16932952615925523 -0.19038146521901644 0.19461043508948528 0.5876552665960987 -0.020272819103262098 -0.1493044764798039 0.566983873540093 -0.15762215636056667 0.2867224799286129 0.23274391895516347 -0.26122693089133653 -0.18186305149782278 -0.4668210706925312 -0.06545894965765392 -0.035194517893325956 -0.4199468998405384 -0.2929646699658371 0.4565863934758337 0.13749387558472845 0.2999261594230546 0.1769325575228322 0.557871215484564 0.42795700977165435 0.006356435131185446 0.36294492503392756 0.337118143115167 -0.11271068478932426 -0.08824803885300524 0.02196986370940982 -0.06369234058540138 0.3346250181903621 0.1633414330606815 0.2789090474211254 -0.16784774872451572 0.14875722394288365 -0.02274639588164393 -0.2785351665030501 0.41341085878740846 -0.2178472553040048 0.27346118737560204 -0.35400738308505153 -0.3480473974653156 -0.20240771224711243 -0.32025187959339524 -0.11220415800237511 0.3168940990601249 0.08429084591414253 0.2265864822294822 0.12952020631151862 -0.15384692427342822 0.3294710078883971 0.42710070343750445 -0.38396071789895886 -0.010583750254991798 0.15389697471041916 0.4069971021155309 -0.369060915971292 0.044525396927301786 0.08881441132801592 -0.2681547893770054 0.2616537182980251 0.3483661218027329 -0.3162926463192431 0.03951127959557185 -0.1338284505817564 0.09089795937215497 0.0965808899749466 0.2132890841047713 -0.27532973269097033 0.4641311122578175 0.1547478700412782 -0.28850136249955427 -0.371698578550854 -0.44047096377911954 0.4882911313216795 -0.28343617319160175 0.1905849498157478 -0.09288032586216044 -0.1485376874489796 -0.127713093041272 0.46761201456129536 0.28101592450219637 0.43396278701023233 0.4723118004138623 -0.008265171511717809 0.3400240980895274 0.3918617037719048 0.2498635882946787 0.026677156455343177 0.18005886141623115 -0.06309427746888231 0.40108327291643503 0.33320403943090815 -0.18094891670112148 -0.17933374568905758 0.41626293397971575 -0.33742414552455896 0.5101957863782265 -0.09387384811695844 -0.27445807837802827 0.24054734682343015 0.12149647080322495 -0.0938312257364235 0.320058167558809 0.00996101326247234 0.21067005293496543 -0.3007596488666237 -0.27065131840045903 0.2700952845796256 0.1971468378122093 0.01791089053932189 -0.280414421091148 -0.20534875057517046 -0.2189614811563836 0.31185871391207737 -0.3246240977124648 9.730560378063534e-05 0.5227011768548343 0.1808690069027737 -0.07576267189522676 0.2227676571696055 -0.1524030851156553 0.23346661445815445 -0.3173826349774643 0.19558854386513863 -0.47851098669227293 0.3961630095547219 -0.23793130610180205 -0.24084843723286994 -0.2836151885098995 0.272584292616892 0.26886431981657366 0.18165984065055696 0.4578742971036919 -0.3340765663732426 -0.09273836423475482 0.008478440997274425 -0.14822531739907735 0.2822779634817885 -0.11346388614600476 0.4713787946742811 -0.3792980567174344 0.14598003132198112 0.30331330980392934 -0.3663330351414175 0.1595667346783716 0.37928953794742304 0.39472877527338224 0.4308378840995604 -0.19056033614759452 -0.09205619780767661 -0.08089629246554225 0.2919913748852065 -0.358320745315574 -0.42418852807333457 0.07387411882486646 0.32399063655885296 -0.46595290666730377 0.10363375139756799 0.09475004798173475 -0.3101061234025204 -0.395817171828794 0.43896024067743405 0.5833836534902906 -0.06779308526406363 -0.19404297207305798 0.028528524568659213 -0.08787252540837136 -0.014541865461206931 0.5118685463945192 -0.31434743603128507 0.3273104744954839 -0.022247484678155325 0.31423015692701745 -0.18065848397438183 0.5902817677909852 -0.01514586622305057 -0.22736312874822065 -0.1895475030754487 0.10999462144928852 0.2794741870989179 -0.32866093534448015 -0.32771867647882 -0.5053675914774288 0.1250842947839266 0.037558386727560025 -0.05980583703593548 -0.11025058628606428 0.4744794495928565 -0.305028786881818 -0.28311460182129056 -0.36501878713042984 0.4514082197939272 0.23401566462717913 0.31607677708983206 0.015781914625811577 -0.0789545082659018 -0.06545002008139074 -0.19717601829545944 -0.02277846840652674 0.5968549126022933 -0.09952917191574061 -0.08722661799772025 -0.029761786780230427 -0.19265185534370116 -0.23494112288526905 0.29936548724902035 0.13487557935999075 -0.11760753673777073 -0.214670540537087 0.34389545642397173 0.0007419729330758078 -0.052255230976735935 0.5119230478885571 0.3067863463841902 0.2853743464422418 -0.05120454646781686 0.42637668504777226 0.25385077674582074 0.5337478146822559 0.19031018249352155 0.2733518686346777 0.23811159543293783 0.4425057475475945 0.30308844061939466 0.5022628156569721 -0.015747250338824185 0.4272459723665497 0.022785899266839993 -0.1181371941663079 0.23528157956613507 0.11378419640280264 0.08490788345321626 0.4168608378678973 0.34106686176758955 -0.5016113330784602 -0.17835155161135857 -0.15288714183340085 -0.2676902751920998 0.3740280552794722 -0.31267164845265816 -0.2622863567969887 0.4861873068041002 0.20245121058640791 0.37405085700848884 -0.34020087044107755 -0.2872689505963063 -0.19839171837605904 0.05519040048824673 0.581814252778285 0.11136339925470828 -0.1956092737698805 0.3555690310218733 -0.4102127867339819 -0.28139291329113625 0.038252128446664584 0.3427523916338038 -0.06275429842634565 -0.234113334128002 -0.28455805586748883 -0.19461691105135054 -0.39597338999580695 0.4106804146557525 0.4306293139909632 -0.343963194756725 -0.3048370132272533 -0.28800634409090603 0.22122439359149887 -0.17916728481565988 0.0809895505840493 -0.26054488328007985 0.01766816002606444 0.22788995673002999 0.18815220672159216 -0.1022577129598291 0.1361118296614732 0.15201195466224054 0.2790545207731524 -0.152587621549225 0.26303624638038364 0.5193030798078282 0.459884621549987 0.20171341497155465 -0.1671858741027143 0.5066503917047975 -0.2862851541127706 0.5243727701263033 -0.010041306676325518 -0.3729115925448859 -0.04171271289403798 0.2894365093832533 -0.19976149177440544 -0.18811745409545438 -0.15519655025248721 -0.32128654085358943 -0.3959496325484979 -0.1003844420719797 -0.11772947067407948 0.16319522954594526 0.44526824380699964 0.5347515926860804 -0.06287502746890172 0.14649626473901317 -0.12449661918767697 0.31457446106673054 -0.03357823873098754 -0.26322496356439495 0.2751613432922654 0.5614925737938614 -0.3313049912025562 0.03258970601374818 0.38849803926928284 0.016910438919075288 0.16919328547284973 0.0564256215106718 0.13177692266735921 -0.026270923352593328 0.24516394630409996 -0.3888591201787802 -0.08736421271112527 0.00744575295815378 -0.14907734144392157 0.3352054439553708 0.010792357147424252 0.35168625382695606 -0.05908682852264557 -0.1294716391932286 0.1493551858122064 0.22207658232147132 0.4227394715813977 0.2751253721660098 0.06906257317209244 0.46680314035664533 0.4036035358744803 0.42598221808165604 0.2496914258141828 0.15797951782879066 0.63387337919812 0.2500330407550957 -0.20976024853327221 0.1057567809853241 -0.36545460983359546 0.08034561533058703 -0.14054375078634748 0.22072972637555102 -0.16805575130941813 -0.19482966944821856 0.1457987648612545 -0.23480614865236737 -0.07629794142561251 0.4982728025922402 0.24296719437579262 -0.33279732033619897 -0.15434786128753847 -0.2822425470097317 -0.36546600400363777 -0.19806627461322251 -0.24587357781585 0.011192462511461058 -0.18327884474935593 0.21193520776342442 0.348839178245364 -0.19630639844461054 0.32886085777649826 -0.1858844974322589 -0.31410634225986045 0.17430232607876656 0.24015619533511753 -0.3461124088464508 -0.164077892922109 -0.06515734731071894 0.1882055107926171 0.268335326153198 0.5400342537112506 -0.16190756003423679 0.41048341611041217 -0.08624168616442879 0.07780155582252175 -0.12120769118628189 0.3804829800174952 0.23067096564821235 -0.23226761379469402 0.3278470232314321 0.15415545618108015 0.2472794161603793 0.3754750516713319 0.04514776385566047 -0.03811939519159278 -0.13453782449029292 -0.27004204443259927 0.5242974822285044 0.05272989396441739 0.636296030255394 0.26325191517339513 0.04955942030849722 -0.32380223618995546 0.25013340243180143 0.39642688241234053 -0.25260113804658885 -0.4070087270053091 0.07491294058005522 0.2814537971463836 0.11340616002867972 0.3689138839618983 -0.02561544822083218 -0.29187535394756103 0.45403804955904054 -0.21494027568073368 0.18692535171606617 -0.09932844361397607 0.2701552044281579 0.18648986830078693 -0.07323315359601718 -0.3638728968753018 0.25366524646772454 -0.302002638163898 -0.26277621226530834 -0.12884653074097224 -0.25686529213050513 0.41779614332331194 0.15341158200104524 0.36268711930178865 0.39710251901446686 0.14921579189129 0.13378192225429383 0.13778908230986153 -0.022198106822215836 -0.3013619750917342 0.3455284002983508 0.4868189611206096 0.05663236193443225 0.5905233075610987 -0.2788449574250365 -0.09294127690947605 0.437768548595626 -0.39690386912542036 0.2759408181178166 -0.13934934170105573 0.00816750346495819 -0.1870517125641693 0.584345535646658 0.21378511920749443 -0.29123726871614575 0.28392694655861783 -0.33607454761950106 -0.3617345605656743 0.18269019445528767 0.18001866774340036 -0.3225006026503891 -0.3999514731376643 0.17219038499851697 0.5418069832121621 0.3106256929842166 -0.19797108853216178 -0.38542354311730515 0.40723608004725576 -0.3424461978738125 0.13642947900729552 0.09822357371992085 -0.15156743734774158 0.2503177483245805 -0.0465289239216994 0.07063363229614006 0.30448007600641236 0.14549351221951135 0.3088074225256481 0.5451766479495639 0.018342367728095832 -0.39035623243170736 
0.14144809450700224 -0.17062714785392552 0.17171358807380455 0.25172008080303176 -0.2064263891563088 -0.08779869954613341 -0.1460842805868103 -0.23173371594199194 0.03682250464196581 0.5705856303170534 -0.11399271027011977 0.06681162217692593 0.5522200806114281 0.2874540953704682 -0.2984241723797203 0.13851166500184375 0.4834742548298344 -0.051105383853247636 -0.08174659985942188 0.3556460624774217 0.1031079742667587 0.07768927617745244 0.20198925921682873 0.5392398098045414 0.14391638627139924 -0.3219577739822591 0.3016056018424541 0.20901648480594504 -0.34754374548096645 0.03445254810199705 -0.31502111455902093 0.5502685512862018 -0.15924312927725454 -0.11469174677127308 -0.09660623025176007 0.21235145629436258 0.2338560296204568 0.3945852949763689 -0.39220634464482873 0.04835382664803497 -0.29154378450333174 -0.17015208800248818 0.06718362966739481 0.2254458902022842 -0.33340551884463937 0.09593270421330725 -0.14057150476003993 0.011767947660316563 0.33306967570790463 -0.08763448791878252 0.030491133842835742 -0.30130683015228 0.3275016886360002 0.2907221649958407 0.22446212313230904 0.24462003322632309 -0.04741851815807491 0.5146118107181483 0.11772433001080983 -0.28133419348795846 0.48240515964040925 -0.19034914960604926 0.3811849532200403 0.3719285637417677 0.4021622799454587 -0.36971543102362103 0.16989143537707282 -0.07081066945351305 0.40052994293990746 0.13083206538306702 0.103150560065579 -0.2793301977944609 0.39631976537364205 -0.32335579235483786 -0.028415078526098696 0.3158711515496549 0.02824718964270741 -0.03021256567732008 0.25369460056867027 -0.06266465043546779 -0.36741221909916555 -0.009739489316260064 0.5500293202200055 0.17408478184405496 -0.22025647461462705 0.5766177932163271 -0.13620388544179204 0.4132866064943952 0.4887802924928344 -0.08181382156029271 0.30507897888157853 0.1514280656621259 0.5405618415282877 -0.2702369706952561 0.45789848740570077 -0.09240580886009524 0.470778244452749 -0.3713735934114633 -0.10075084788136762 0.09230792353178652 -0.14516191573093656 0.22518632492932153 -0.10003817770341897 0.2952449812251248 0.19970523851099334 0.2327108264468792 0.22412266736313988 0.22648632987174577 0.31631493375374276 0.24338750707125686 -0.3983881644558201 0.5713189711062774 -0.09888007443751706 0.40538761603245554 0.4735155815896452 0.2690822956573546 0.15512189865525314 0.2334378481482955 -0.21767439348351203 0.18602944570525695 0.44115092585590754 -0.16004364487693515 -0.40483340556550046 -0.2764122131248289 -0.24090545434099758 -0.1499694353836582 -0.15248083014893066 -0.3384015355121414 0.3032824003187193 0.06019234840909622 0.3835674456664583 -0.16396706404980743 0.2113674189153997 0.11326797595228298 0.04520156164062137 0.13834569235062905 -0.22144121823637547 0.30300561385930197 -0.27164480357389226 -0.1101404976319828 -0.015023226575852089 0.3560818041438438 -0.3293815007828319 0.15397187875128052 0.5175003997815771 0.4509789135052973 0.08661923863982804 -0.00434653389020976 0.11660584787748825 0.3322713202818783 -0.019723056146660756 0.38825252420122014 -0.20995182898391596 0.46719380844292097 -0.45077156769958954 -0.41557490858275636 -0.2996540505060696 -0.006835453806355346 0.22217927155957956 -0.0006340171735085037 0.13031301765872988 0.3153302797548673 -0.04146553736725359 0.06884840835423953 -0.4012516378495803 0.53635058965679 0.5945519046547161 0.27890002998825525 -0.3710455636514361 -0.08129025523843893 0.5538151646881988 0.3959341279133362 -0.4237935620437408 0.14366615672134436 0.09234413730917719 0.1103771325155934 0.46541020691000917 -0.14966726277040868 0.36931393736652773 -0.28735558167263797 -0.4222751467176039 -0.27684936906649504 -0.1092949485998819 -0.24922731403321996 0.18698732695246273 -0.25632114978863774 0.12815904836167924 -0.2989294875522475 -0.1569730839410645 0.13276173026891003 -0.24325147493874266 -0.03422583625592503 0.26922141297689745 0.3248080706045253 -0.20865637833493195 -0.1678195416366252 -0.21451296233239148 -0.2657788044910225 0.4222255336913024 -0.1795548707415944 -0.18092841817589728 0.04542602122122864 -0.4098423797942423 0.2995992304505966 0.20814324179103555 -0.2234327795714425 0.25727064672258393 -0.21828600657626338 -0.3611467134142852 0.4843010770081561 0.004231772183027682 0.38398007755743785 0.00404414992695555 -0.20851119176136723 -0.41449990591552055 0.215977284460007 -0.08526127652336266 -0.03088960857177141 0.21081451929604603 -0.19557513476765812 -0.44262192936476036 0.3765274126223125 -0.013146500585939407 0.04241337884629004 0.4998177541675173 0.2068704989343132 0.4209999308819037 -0.09935334206875508 -0.018020508499159094 0.16688182941573063 0.21963959769748928 0.09000325329788016 -0.07161469838934256 -0.4509311785214107 0.17302553476417767 -0.40600660934763183 0.11500715116718888 -0.01735160363265975 0.37937861569269776 0.04754453381018422 0.19422747803412968 -0.13024097821814393 -0.16640193612838017 0.32826479960778304 -0.49687970680855625 0.01871015463120643 -0.4786121912348583 0.31723642497875415 0.3995661938224484 -0.3743531685460184 0.5622635851746257 -0.1372474420441293 0.2847412794488411 0.057147117491941936 0.5278438831044535 0.1327640658940544 0.2641834593761661 -0.15989649331098196 -0.46627854464300933 0.39699273922956474 0.03839025629085937 -0.3935678318340474 -0.577056695458997 0.01140119438756838 0.34722513473862054 -0.05325015315124386 -0.4814815330008803 0.01018403342487372 0.3077789279166562 -0.3299760887581479 -0.17791302730664255 -0.4282106883885151 0.07898315486883987 -0.4429664781847873 -0.03231396777353938 0.287429817637457 -0.2137878146234902 0.45634979251549374 0.1696941188240908 -0.22158514662141277 -0.2873744564714503 -0.2831580550847535 0.13872343696031886 -0.12697789932246753 -0.3674233774767286 0.19157264793590026 0.09960402824043205 0.43957331468237437 -0.11212369141053607 -0.35913488994209003 -0.07953454835675366 0.25042154339318 0.09105451366189142 -0.08721060153519587 -0.41517155879697787 -0.17739633995025744 0.16679690994258375 -0.14655217686321242 -0.29272333045729176 0.41097654949675766 0.19733514108778508 -0.1776877608821651 -0.28097485966610014 0.17399672274523156 -0.3655009377673059 -0.2450826825829448 0.39421965099175577 0.4859439617028054 0.28356926969653085 -0.28956958449403664 0.03932728745638502 -0.03904108485822024 0.52148311264877 -0.22451037754786224 0.008252827990180059 -0.39347624400522524 0.18987685250917946 0.25665351996862457 -0.16201789214557458 -0.47744306804995496 -0.15385373823564522 -0.12844972631982013 0.17657745748478942 -0.21308019067230585 -0.13624545053713585 -0.2557455495127964 -0.2572023531255039 -0.1179981612252572 0.08981685232411704 -0.19739870503492243 -0.3995041660339005 -0.018759624592984893 0.18278937011060506 -0.1128262457087291 0.2983205707543623 0.5250378851152289 0.455870752255251 -0.261649385682453 0.24354628343209253 -0.237353764071064 0.03728150158567994 0.0618397410836712 0.07009621171616125 -0.08767483424225078 -0.048371764215021866 -0.4091272456149423 0.07724664235305861 -0.26116175590324997 0.011351893335249968 -0.28469686627214424 0.16773291795881629 0.38040912973290536 -0.05492026760689643 0.06236407226448265 -0.009206492560089938 -0.15009926641434485 0.40717112533048583 -0.385787367617539 -0.2799558539750873 0.19330055815118383 -0.3286885723471308 -0.12855986139193365 -0.21300065987686864 0.5206564587115659 -0.21786821564331343 0.5255091093906985 0.5112452384820766 0.45018043760080567 -0.25136663013720884 0.055768739692706265 -0.049218032274994224 0.3914928510012586 0.2368890907157761 0.29874884684906294 0.27329300418781244 -0.010738357235542471 -0.26115258494472743 0.41470558404076874 0.5091371930927585 -0.319357884816438 0.2134407012039862 0.4752710902787605 -0.23251733779805647 -0.09484473871817108 0.2595598464501537 0.32389194652578335 -0.15517337978068654 0.0030270021407381793 -0.4940650187988287 -0.12484725271490009 0.3339198024571086 0.22321024329990058 0.2570360520441304 -0.19453477188485 0.1927249779448052 0.44262437898514717 0.3051188448508806 0.37469771562395465 0.6270921799727665 0.47298835598088984 0.2991108128000593 0.563758216342456 0.2225194698500533 0.5847989479117213 -0.1762526931086965 0.22497650757218596 -0.09468693860172073 -0.23702702484480692 -0.009202848648121032 -0.0711291332868001 0.19322871031559935 0.29394561118514384 0.25574940755065395 0.33484318978368527 -0.025399497065308228 -0.24833595874182943 0.02477895524814791 0.14413307611157736 0.23419346607882893 0.5933882827071604 -0.22571211764771582 -0.2689127826883567 0.49062404363911594 0.39142889751551313 0.5058351162828327 -0.26342901275135416 0.009298653274498638 -0.19145299098956406 0.6132683789641428 0.4077726572477202 -0.09375159032542493 0.5464612312376814 0.3698113826357601 0.15469206659823123 -0.14960108888107837 -0.11984717589547335 -0.46327626588768445 0.15015662613840183 -0.29483344611304746 0.1474976573126214 -0.45500603637191284 -0.5256790379033276 0.19422637725894304 -0.29002299294797435 0.385088299590361 -0.28877882292072793 0.3736075677124259 0.06695315528104961 0.21109166527251189 0.032658472949035046 -0.33965326214146585 0.3851215648093711 0.36307848798001613 0.37820067125653123 0.28474931518069346 0.11884240867523936 0.4231594621571071 0.20071274005371445 -0.2008171872122062 -0.16622863787329298 -0.049651260578876096 -0.28991809691916975 0.30143261926049697 -0.21683761956041517 -0.3425091881072245 0.1385980206489664 -0.2696220562029298 -0.319566550359519 0.14931016849539405 0.4413465452693211 0.23925222372739197 0.13587231480508613 -0.2430486871769624 0.06668350462991508 -0.21409945174087636 -0.31731521275254476 -0.20656751326390915 0.08068149289177724 0.5593277242739977 0.12998734516013075 0.23358567386910234 -0.06534918161494609 0.3845369096613707 0.23925849220083234 0.1631586116337452 0.5141203101090736 -0.23495596667669152 0.5658218065746381 0.05415686284653055 0.3901049894743073 0.46946257734422625 -0.13850182069554653 0.1604443497960277 0.40734000812931015 0.08548450866267952 -0.5013558868942343 -0.21178369927434754 -0.22100579733061843 -0.2131325207228472 0.15489217064819785 0.4086327931496029 -0.43733906252510407 0.3655719956330029 0.13909775514728473 0.007763226265745216 -0.2003537000325413 -0.3841856146988983 -0.15716369075361372 0.06240699803559136 -0.0002378992494997272 -0.4084073350882992 -0.22425677268877484 -0.21239966631207916 0.07290141373609935 -0.00229779192072298 0.13056674091262857 0.03761098718717517 0.3625821118729186 -0.25189061149135 0.19743092980792337 -0.07954796235081699 0.034526246544290075 0.4910998843344076 0.0688739183725048 -0.020716066709867132 -0.46325898088702816 -0.45985430360982926 -0.36292896177094847 -0.10163705219665348 0.17092712254387615 0.25844936494801213 0.3076781111089979 0.42505011921999625 0.5706797549939551 0.3227508955080862 0.4719064857034137 0.12486419743360357 0.13573400143190928 0.13182260788625252 0.4268175483224536 -0.29830356564969546 -0.09645551908656731 0.5010209226465777 -0.26251679020030994 0.09156313595659217 0.402783273282458 0.1328013199276449 -0.009059565942781352 0.2779847762964016 0.06737667014355089 0.1747454008113745 -0.24003569850000459 -0.14247834269011753 -0.07424816745026705 0.3899926676941447 -0.40050272753250943 0.3252087181114204 -0.0912900763061942 -0.11505907059444959 0.4762415535425273 -0.327113698966764 -0.22678401098798687 0.23002559677097312 0.060791990334988937 0.4703145715042719 -0.20759112516048633 -0.40492565350484283 0.5282419122433543 0.5894633840389274 0.061611345447700167 -0.15013208624459423 0.12041139419118038 0.37574057359629276 -0.05763468143322172 -0.40515150319473664 0.4353286487860965 0.13681613737613002 0.030500865650469527 0.5114616480410532 -0.2715071072708333 0.18621024260463523 -0.40337303430303756 -0.4246488582716113 -0.09502114764339081 -0.16788042032939193 0.23654149193948537 -0.02249371395879202 0.48926026475824513 -0.28531357368967725 -0.28619754381802615 0.31728049308231027 -0.319769485142224 0.23427109126631718 0.3790111906102814 0.17427068147014618 0.273620643618524 0.3769083990296638 -0.13244530700973628 0.3750410407437923 -0.11290266023131448 0.5863161231050682 0.37265572710426975 0.1527350497364536 0.21716626140884235 -0.40098807683670534 -0.4138225098234871 0.5660668616503836 -0.22948937551983145 -0.057640415811229445 0.2770470209262776 -0.08186074103406259 -0.21032522861931013 -0.059541098844059274 0.11459930505299831 -0.36877952560264576 0.2531263595051335 0.3353386872522359 0.487643956334127 -0.2870429635344053 -0.13688891060365646 -0.3880891734871686 -0.10435894997498048 -0.15074872044257748 -0.4024630032256137 0.2078479058755659 0.12717076441257782 -0.09859431812181292 0.005960614734239813 0.025091556354917333 -0.16787582777477086 0.022387449293437302 0.004505079219805852 0.056936239631793 0.4616997856314305 0.2282739954604263 0.21725649489957932 -0.426259206102217 0.5074000166186756 0.12326595024385985 -0.29381798709665724 0.5241071083905012 -0.09720537841799648 0.5904455982991286 -0.13254470297518894 -0.06993894793826333 -0.11724326707619476 0.5125458667930618 0.05222191106183975 0.4575108957767184 0.14974066930208707 -0.15609845153541113 0.19631172725311044 0.3961819880074718 -0.3536023781252448 0.4915741361681729 0.5709003331712271 0.07377077797504943 0.022684588889337772 0.01644808522092099 0.44989990286375375 -0.4251618522573684 -0.36322198830657043 0.17621064680563053 -0.24914257076377222 -0.048092577780387315 0.3783880500128241 -0.2874798735762941 0.509596536403227 0.3255109027303996 -0.20509602856521522 -0.14057374318756266 0.5144780759694985 0.5850761539671798 0.22381317037424092 -0.32296305045521856 -0.13014895486742142 -0.4759746680414073 0.17880295714599084 -0.2593241417916012 -0.23540988077712222 0.40339918918127854 -0.06747426155435579 0.35652771814561285 0.44026297430124384 -0.3881959046488568 -0.10814337680393084 0.5576030082668378 -0.1549366537263963 0.5252750528115665 -0.03670025351224562 -0.073445240531778 0.3833037588691433 0.22932583532397557 -0.10115995150201089 0.5162135402671841 0.11208820051986611 0.2911887852757008 0.4789338629971946 -0.3739467946364503 -0.31105886046720405 -0.09242663942546558 0.4250157733042603 -0.1433480549693455 -0.049575146648867745 0.29132633472875447 -0.3830720176963714 0.1920719536320577 0.10053305565605812 0.2335687503162504 0.5196906629053806 0.3513584647105518 -0.22033334179780417 0.5477760767646288 0.5456599143015292 -0.3394479856240751 -0.2829558664690726 0.43775678474979546 -0.06108519731620865 -0.34212876737782627 0.1852970999142302 0.48660730726942797 0.2503176079058311 0.31003882280858175 0.5881126858821943 -0.3377824737777132 0.12810719303195361 0.3929610174216961 -0.11201748693756775 0.2133019788064947 -0.30463758496859056 0.0772899801484722 0.425797914754653 0.23540396118584372 0.4707404212556276 0.17999944737609316 0.4982271763553674 0.44581149438978607 -0.09877582334674513 -0.18840018140047504 -0.11462385775630025 0.5401576235528878 0.3960688927140933 -0.11896238789195507 0.44855811089205483 0.2517748894800857 0.13969829487271004 0.18640728309270616 0.5833164059981106 0.29790504121513545 0.18629238766179057 0.43474053499073745 0.5295463976008375 -0.013258781868349211 0.35304242334536784 0.400524918969299 0.15938815944604223 0.4294276413031699 -0.30120732391423943 -0.032392352518123 0.0581467210948875 0.3889762110994146 -0.010563973829582962 -0.12468474816139731 0.4545337607197291 0.5150486655656987 0.3892692691058182 -0.05585733301555795 0.5728372856435073 -0.13459408665199846 -0.10320904979407802 0.49482748088632855 -0.2304519403456432 -0.10154951256708394 0.4674561378638563 0.15584768754053602 0.1751426844360412 0.5554872523886104 0.11818072243242406 -0.039784460684337664 -0.17374721061128395 -0.153222022027175 -0.278285471603212 0.4252726227416961 -0.36266237120845846 
